1548147491.920614656 -0.00058 0.00110 0.00323 0.00000 0.00000 0.00000 0.00000 0.00000 0.00000 
1548147492.164794880 -0.00543 0.00152 0.00060 -0.00001 0.00004 0.00000 0.00001 0.00000 -0.00000 
1548147492.423915008 0.00728 0.00619 0.00524 -0.00039 0.00091 0.00023 0.00529 0.00123 0.00088 
1548147492.678054912 -0.04798 0.02230 0.00421 -0.00043 0.00108 0.00016 0.00901 0.00001 0.00106 
1548147492.967064832 0.01251 -0.00530 0.00607 -0.00045 0.00104 0.00008 0.01032 0.00026 0.00132 
1548147493.221214720 -0.00253 -0.00801 -0.00188 -0.00046 0.00107 0.00006 0.02030 0.00008 0.00248 
1548147493.475364608 -0.00206 0.00092 0.00071 -0.00046 0.00109 0.00012 0.01675 0.00003 0.00108 
1548147493.764374784 0.00364 -0.00193 -0.00133 -0.00044 0.00111 0.00009 0.01926 0.00001 0.00196 
1548147494.18524928 0.00166 -0.00061 0.00081 -0.00045 0.00112 0.00014 0.01743 0.00000 0.00196 
1548147494.277654528 -0.00350 0.00148 -0.00526 -0.00046 0.00113 0.00009 0.02227 -0.00000 0.00266 
1548147494.566684672 -0.00963 0.00158 0.00335 -0.00048 0.00113 0.00011 0.01728 -0.00000 0.00209 
1548147494.820824832 0.00317 -0.00063 0.00379 -0.00046 0.00112 0.00011 0.01741 -0.00000 0.00214 
1548147495.74954752 -0.00164 -0.00125 0.00103 -0.00048 0.00113 0.00009 0.01917 -0.00000 0.00236 
1548147495.363964672 0.00951 -0.00374 0.00079 -0.00049 0.00113 0.00011 0.01906 -0.00000 0.00235 
1548147495.618084608 0.00420 -0.00423 -0.00254 -0.00049 0.00112 0.00013 0.02060 -0.00001 0.00254 
1548147495.872214784 -0.00596 0.00105 0.00297 -0.00049 0.00113 0.00008 0.01712 -0.00006 0.00209 
1548147496.161224704 0.00091 0.00022 0.00466 -0.00049 0.00112 0.00009 0.01656 -0.00002 0.00204 
1548147496.420344576 -0.00158 -0.00001 0.00076 -0.00048 0.00113 0.00008 0.01824 -0.00002 0.00225 
1548147496.694414592 -0.00271 0.00119 0.00223 -0.00049 0.00113 0.00008 0.01790 -0.00001 0.00221 
1548147496.963504896 -0.00436 0.00133 0.00001 -0.00048 0.00114 0.00008 0.01886 -0.00000 0.00232 
1548147497.217634560 0.01252 -0.00470 -0.00231 -0.00047 0.00113 0.00009 0.01968 -0.00001 0.00243 
1548147497.471764480 -0.00194 -0.00166 0.00199 -0.00048 0.00114 0.00007 0.01809 -0.00001 0.00223 
1548147497.760774656 0.00242 -0.00015 0.00318 -0.00048 0.00115 0.00007 0.01769 -0.00001 0.00218 
1548147498.14894848 -0.01927 -0.00426 -0.00606 -0.00048 0.00114 0.00009 0.02062 -0.00001 0.00254 
1548147498.274004736 0.00160 0.00081 0.00428 -0.00048 0.00114 0.00010 0.01766 -0.00000 0.00218 
1548147498.563014656 -0.00877 -0.00557 0.00015 -0.00048 0.00113 0.00010 0.01881 -0.00001 0.00232 
1548147498.817144576 0.00280 -0.00194 0.00473 -0.00048 0.00114 0.00009 0.01737 -0.00001 0.00214 
1548147499.71284480 0.00085 -0.00620 0.00379 -0.00048 0.00114 0.00009 0.01827 -0.00000 0.00225 
1548147499.360294656 -0.04849 0.00529 -0.01299 -0.00052 0.00105 0.00011 0.02117 0.00000 0.00259 
1548147499.614424832 -0.02255 0.03355 -0.00584 -0.00060 0.00097 0.00005 0.01979 -0.00001 0.00246 
1548147499.868554496 0.05399 -0.00506 0.00689 -0.00051 0.00104 0.00013 0.01745 -0.00001 0.00218 
1548147500.162554624 -0.00071 -0.00460 0.00223 -0.00052 0.00110 0.00011 0.01861 -0.00000 0.00230 
1548147500.416694528 -0.00494 0.00136 -0.00049 -0.00055 0.00109 0.00012 0.01911 0.00000 0.00235 
1548147500.670844672 -0.00004 0.00067 -0.00102 -0.00051 0.00108 0.00015 0.01910 0.00000 0.00235 
1548147500.959854592 -0.00044 0.00206 0.00033 -0.00050 0.00108 0.00014 0.01877 0.00000 0.00230 
1548147501.214004480 0.05372 0.00501 0.00138 -0.00047 0.00112 0.00009 0.01936 -0.00000 0.00237 
1548147501.488074496 -0.11620 -0.02044 -0.00017 -0.00050 0.00113 0.00016 0.02045 0.00000 0.00249 
1548147501.757174528 0.01200 0.03364 -0.00315 -0.00013 0.00126 0.00011 0.02088 0.00008 0.00267 
1548147502.16304384 0.19447 0.03927 -0.01310 -0.00016 0.00126 0.00010 0.02038 0.00007 0.00254 
1548147502.270454528 0.20893 0.01002 -0.00634 -0.00037 0.00124 0.00011 0.01652 -0.00037 0.00188 
1548147502.559484416 -0.08366 -0.05376 -0.01525 -0.00033 0.00119 0.00010 0.01984 -0.00027 -0.00219 
1548147502.763784704 0.05251 -0.01540 -0.00349 -0.00034 0.00117 0.00007 0.01889 -0.00018 -0.00002 
1548147503.7974656 -0.02137 -0.00670 -0.00239 -0.00035 0.00117 0.00007 0.01883 -0.00011 0.00014 
1548147503.262124544 -0.00969 -0.00817 -0.00103 -0.00033 0.00115 0.00007 0.01851 0.00001 0.00076 
1548147503.526234624 -0.00348 -0.00195 0.00053 -0.00029 0.00111 0.00007 0.01821 0.00034 0.00137 
1548147503.805284608 -0.00154 -0.00103 0.00034 -0.00029 0.00109 0.00008 0.01823 0.00048 0.00175 
1548147504.64414464 -0.00084 -0.00125 0.00049 -0.00029 0.00109 0.00009 0.01821 0.00055 0.00182 
1548147504.318554368 -0.00109 -0.00051 0.00091 -0.00028 0.00108 0.00010 0.01814 0.00077 0.00208 
1548147504.612534528 -0.00004 -0.00016 0.00054 -0.00028 0.00108 0.00010 0.01815 0.00079 0.00211 
1548147504.866664448 0.00223 0.00043 0.00096 -0.00028 0.00108 0.00010 0.01815 0.00080 0.00211 
1548147505.155674368 0.00308 0.00090 0.00144 -0.00028 0.00108 0.00010 0.01815 0.00080 0.00212 
1548147505.409824256 0.00310 0.00051 0.00099 -0.00029 0.00108 0.00011 0.01819 0.00080 0.00216 
1548147505.663954432 0.00297 -0.00022 0.00072 -0.00029 0.00109 0.00011 0.01820 0.00081 0.00219 
1548147505.957954304 0.00260 -0.00083 0.00051 -0.00030 0.00109 0.00011 0.01821 0.00081 0.00221 
1548147506.212094464 0.00094 0.00003 0.00094 -0.00031 0.00111 0.00012 0.01823 0.00084 0.00229 
1548147506.471214592 0.00100 -0.00117 0.00050 -0.00031 0.00111 0.00012 0.01824 0.00084 0.00230 
1548147506.755254528 0.00081 -0.00210 0.00084 -0.00032 0.00111 0.00012 0.01825 0.00084 0.00233 
1548147507.9394432 0.00164 -0.00110 0.00086 -0.00032 0.00112 0.00012 0.01827 0.00085 0.00239 
1548147507.263524608 0.00210 -0.00103 0.00045 -0.00032 0.00112 0.00012 0.01827 0.00085 0.00240 
1548147507.552534272 0.00217 -0.00095 0.00105 -0.00032 0.00112 0.00012 0.01827 0.00085 0.00241 
1548147507.811644416 0.00170 -0.00164 0.00079 -0.00032 0.00112 0.00012 0.01827 0.00085 0.00242 
1548147508.80744448 0.00123 -0.00095 0.00084 -0.00033 0.00113 0.00012 0.01828 0.00085 0.00244 
1548147508.354804480 0.00116 -0.00184 0.00086 -0.00033 0.00113 0.00012 0.01829 0.00084 0.00246 
1548147508.608934400 0.00084 -0.00200 0.00093 -0.00033 0.00113 0.00012 0.01830 0.00084 0.00247 
1548147508.863074304 0.00033 -0.00189 0.00096 -0.00034 0.00113 0.00013 0.01831 0.00083 0.00248 
1548147509.152114432 0.00029 -0.00215 0.00059 -0.00034 0.00113 0.00013 0.01833 0.00083 0.00250 
1548147509.406254336 0.00010 -0.00269 0.00134 -0.00034 0.00113 0.00012 0.01834 0.00082 0.00251 
1548147509.665374208 -0.00010 -0.00286 0.00140 -0.00034 0.00114 0.00012 0.01836 0.00082 0.00252 
1548147509.954394368 0.00033 -0.00383 0.00051 -0.00034 0.00114 0.00012 0.01839 0.00081 0.00254 
1548147510.208534528 0.00024 -0.00372 0.00056 -0.00035 0.00114 0.00012 0.01840 0.00080 0.00256 
1548147510.462674432 -0.00030 -0.00444 0.00097 -0.00035 0.00114 0.00012 0.01840 0.00080 0.00256 
1548147510.751684352 -0.00025 -0.00359 0.00199 -0.00035 0.00114 0.00012 0.01843 0.00079 0.00258 
1548147511.5814272 -0.00311 -0.00267 0.00060 -0.00035 0.00114 0.00012 0.01851 0.00075 0.00265 
1548147511.259964160 -0.00081 -0.00080 0.00125 -0.00034 0.00114 0.00012 0.01849 0.00074 0.00267 
1548147511.553964288 0.00032 -0.00173 0.00091 -0.00035 0.00114 0.00012 0.01852 0.00074 0.00269 
1548147511.808094208 0.00008 -0.00185 0.00074 -0.00035 0.00114 0.00012 0.01853 0.00073 0.00270 
1548147512.62234368 -0.00101 -0.00215 0.00104 -0.00035 0.00114 0.00012 0.01854 0.00073 0.00270 
1548147512.351234304 -0.00059 -0.00183 0.00077 -0.00035 0.00115 0.00012 0.01856 0.00073 0.00270 
1548147512.605374464 -0.00192 -0.00182 0.00120 -0.00036 0.00115 0.00012 0.01855 0.00073 0.00270 
1548147512.884414208 -0.00234 -0.00260 0.00111 -0.00036 0.00115 0.00012 0.01855 0.00073 0.00271 
1548147513.148494336 -0.00257 -0.00179 0.00045 -0.00036 0.00114 0.00012 0.01858 0.00073 0.00272 
1548147513.402634496 -0.00305 -0.00199 0.00129 -0.00036 0.00115 0.00012 0.01858 0.00073 0.00272 
1548147513.661764352 -0.00242 -0.00254 0.00157 -0.00036 0.00115 0.00012 0.01858 0.00073 0.00272 
1548147513.950774272 -0.00135 -0.00228 0.00131 -0.00036 0.00114 0.00012 0.01859 0.00074 0.00271 
1548147514.204914432 -0.00251 -0.00309 0.00104 -0.00037 0.00114 0.00012 0.01859 0.00074 0.00272 
1548147514.459064320 -0.00311 -0.00239 0.00071 -0.00037 0.00114 0.00012 0.01860 0.00074 0.00272 
1548147514.748084224 -0.00336 -0.00241 0.00070 -0.00037 0.00114 0.00012 0.01860 0.00074 0.00272 
1548147515.2224128 -0.00374 -0.00275 0.00127 -0.00037 0.00114 0.00012 0.01860 0.00075 0.00272 
1548147515.256374016 -0.00420 -0.00288 0.00180 -0.00037 0.00114 0.00012 0.01861 0.00075 0.00271 
1548147515.550384384 -0.00473 -0.00385 0.00161 -0.00037 0.00114 0.00012 0.01861 0.00075 0.00271 
1548147515.804534272 -0.00389 -0.00306 0.00191 -0.00037 0.00114 0.00012 0.01863 0.00075 0.00271 
1548147516.58674176 -0.00412 -0.00419 0.00189 -0.00037 0.00114 0.00012 0.01864 0.00074 0.00270 
1548147516.347714304 -0.00575 -0.00526 0.00210 -0.00037 0.00114 0.00012 0.01866 0.00075 0.00270 
1548147516.601864192 -0.16819 -0.02092 0.01461 -0.00037 0.00115 0.00012 0.01869 0.00075 0.00269 
1548147516.856014336 -0.35381 -0.02507 0.04102 -0.00038 0.00116 0.00011 0.01849 0.00086 0.00251 
1548147517.145033984 -0.24958 0.03609 0.05443 -0.00042 0.00106 0.00009 0.01829 0.00143 0.00246 
1548147517.404164096 -0.24837 0.01431 0.02245 -0.00039 0.00106 0.00011 0.01908 0.00113 0.00261 
1548147517.658314240 -0.23676 -0.01890 0.05231 -0.00041 0.00099 0.00013 0.01825 0.00139 0.00234 
1548147517.947334144 -0.30625 0.00578 0.05673 -0.00027 0.00100 0.00013 0.01763 -0.00281 0.00514 
1548147518.201484288 -0.28202 -0.02382 0.03218 -0.00024 0.00091 0.00010 0.01547 0.00120 0.02221 
1548147518.455624192 -0.16616 -0.00105 0.05902 -0.00021 0.00087 0.00009 0.01444 0.00376 0.03055 
1548147518.744664320 -0.14493 0.01703 0.06089 -0.00027 0.00093 0.00009 0.01391 0.00396 0.03437 
1548147518.998803968 -0.33838 -0.00000 0.05676 -0.00035 0.00103 0.00010 0.01085 0.00348 0.05765 
1548147519.257934080 -0.25501 -0.01718 0.05512 -0.00035 0.00105 0.00008 0.00900 0.00135 0.07195 
1548147519.546964224 -0.07125 0.02205 0.02556 -0.00032 0.00105 0.00011 0.02541 0.00794 -0.05136 
1548147519.756254208 -0.12344 0.00948 0.01582 -0.00032 0.00111 0.00010 0.02954 0.00848 -0.08397 
1548147520.424192 -0.21536 -0.01290 0.01680 -0.00032 0.00115 0.00009 0.03260 0.00843 -0.10783 
1548147520.110064128 -0.22364 -0.00028 0.02070 -0.00033 0.00116 0.00009 0.03550 0.00810 -0.13126 
1548147520.264534016 -0.20785 -0.00134 0.01794 -0.00033 0.00114 0.00008 0.03712 0.00782 -0.14513 
1548147520.399064064 -0.17344 0.00391 0.01092 -0.00030 0.00111 0.00007 0.03978 0.00719 -0.16705 
1548147520.543574016 -0.15627 0.01425 0.00513 -0.00031 0.00110 0.00008 0.03998 0.00440 -0.16819 
1548147520.747874048 -0.13142 0.00207 0.02387 -0.00034 0.00108 0.00008 0.03989 0.00180 -0.16626 
1548147521.2004224 -0.33099 -0.02239 0.01303 -0.00033 0.00108 0.00006 0.04171 0.00198 -0.18959 
1548147521.151504128 -0.25044 -0.00059 0.00800 -0.00034 0.00105 0.00005 0.03557 0.01434 -0.13459 
1548147521.360784128 -0.06730 0.01404 0.02404 -0.00030 0.00091 0.00005 0.02758 -0.00140 -0.06694 
1548147521.525233920 0.01560 0.00430 0.02030 -0.00034 0.00091 0.00005 0.02665 -0.00626 -0.05808 
1548147521.679694080 0.60206 0.05706 0.01428 -0.00033 0.00093 0.00004 0.02671 -0.00638 -0.05798 
1548147521.799293952 0.41291 0.05429 0.05584 -0.00035 0.00099 0.00003 0.02931 -0.00288 -0.07922 
1548147522.8583936 0.08302 0.03097 0.03692 -0.00034 0.00115 0.00001 0.04083 0.00888 -0.17911 
1548147522.168044032 -0.00204 0.01726 0.02317 -0.00034 0.00117 0.00002 0.04508 0.01317 -0.21603 
1548147522.317543936 -0.00781 0.01829 0.01974 -0.00033 0.00118 0.00002 0.04652 0.01466 -0.22847 
1548147522.467024128 0.06062 0.01756 0.01633 -0.00029 0.00121 0.00004 0.04838 0.01881 -0.24436 
1548147522.691273984 0.02719 0.01641 0.01212 -0.00029 0.00123 0.00005 0.04918 0.01972 -0.25100 
1548147522.945414144 0.03157 0.02126 0.00881 -0.00029 0.00122 0.00004 0.04978 0.02093 -0.25599 
1548147523.94893824 0.01679 0.02021 0.00714 -0.00030 0.00123 0.00003 0.05004 0.02130 -0.25796 
1548147523.264334080 0.02788 0.02280 0.00973 -0.00030 0.00124 0.00004 0.04967 0.02140 -0.25469 
1548147523.398874112 0.14642 0.03823 0.01530 -0.00030 0.00124 0.00004 0.04967 0.02140 -0.25470 
1548147523.478604032 0.24157 0.03853 0.01685 -0.00030 0.00124 0.00004 0.04967 0.02140 -0.25470 
1548147523.643064064 0.31375 0.02556 0.01519 -0.00031 0.00127 0.00004 0.05060 0.02178 -0.26217 
1548147523.897203968 0.44271 0.04149 0.00333 -0.00031 0.00127 0.00004 0.05452 0.02350 -0.29622 
1548147524.206144000 0.38122 0.01761 -0.03646 -0.00027 0.00126 0.00005 0.06046 0.02639 -0.34731 
1548147524.305804032 0.33517 0.02062 -0.07118 -0.00027 0.00126 0.00005 0.06251 0.02737 -0.36563 
1548147524.500154112 0.32934 0.01994 -0.04629 -0.00028 0.00130 0.00006 0.06051 0.02661 -0.34820 
1548147524.739334144 0.31972 0.01643 -0.06244 -0.00031 0.00132 0.00007 0.05764 0.02620 -0.32043 
1548147524.983514112 0.26410 0.02342 -0.01892 -0.00027 0.00132 0.00006 0.05035 0.01873 -0.25874 
1548147525.123044096 0.20862 0.00258 -0.02497 -0.00030 0.00134 0.00007 0.05210 0.01869 -0.27288 
1548147525.257584128 0.18858 0.00472 -0.02826 -0.00033 0.00131 0.00007 0.05224 0.01596 -0.27413 
1548147525.382163968 0.18051 -0.00217 -0.02626 -0.00033 0.00129 0.00008 0.05159 0.01467 -0.26862 
1548147525.541614080 0.17528 -0.00339 -0.02069 -0.00033 0.00127 0.00008 0.05032 0.01273 -0.25815 
1548147525.641273856 0.15332 0.00360 -0.01078 -0.00033 0.00127 0.00009 0.04869 0.00750 -0.24380 
1548147525.795744000 0.22496 -0.00134 -0.00174 -0.00034 0.00119 0.00009 0.04798 0.00151 -0.23836 
1548147525.940243968 0.22083 0.00275 -0.00642 -0.00034 0.00119 0.00008 0.04853 0.00164 -0.24273 
1548147526.149543936 0.24669 0.07250 -0.01997 -0.00037 0.00120 0.00008 0.05010 0.00249 -0.25567 
1548147526.313984000 0.26587 -0.03054 -0.07231 -0.00043 0.00127 0.00010 0.05319 0.00768 -0.28089 
1548147526.478414080 0.40041 -0.01957 -0.07466 -0.00038 0.00118 0.00008 0.05241 0.01118 -0.27707 
1548147526.647853824 0.29796 0.02155 -0.06245 -0.00035 0.00123 0.00007 0.05226 0.01012 -0.27410 
1548147526.807313920 0.22334 0.00025 -0.05549 -0.00035 0.00121 0.00007 0.05286 0.01169 -0.27833 
1548147527.41513984 0.19150 -0.02406 -0.07279 -0.00036 0.00115 0.00008 0.05314 0.01109 -0.28102 
1548147527.290673920 0.30163 -0.00705 -0.07401 -0.00036 0.00118 0.00006 0.05303 0.00937 -0.28194 
1548147527.395313920 0.29291 -0.00718 -0.07619 -0.00038 0.00121 0.00006 0.05365 0.00977 -0.28836 
1548147527.649473792 0.27255 0.00531 -0.07430 -0.00037 0.00120 0.00008 0.05313 0.00818 -0.28288 
1548147527.943493888 0.30098 -0.01372 -0.09243 -0.00041 0.00117 0.00008 0.05473 0.00785 -0.29861 
1548147528.92984064 0.35542 -0.00762 -0.05649 -0.00037 0.00112 0.00009 0.05247 0.00580 -0.28481 
1548147528.292323840 0.15741 -0.03022 0.03867 -0.00052 0.00108 0.00007 0.05191 0.00314 -0.28339 
1548147528.546464000 -0.09355 -0.00291 -0.02000 -0.00053 0.00105 0.00007 0.05275 0.00406 -0.28476 
1548147528.705923840 0.04099 -0.00021 -0.01338 -0.00053 0.00104 0.00006 0.05274 0.00328 -0.28455 
1548147528.895293952 -0.03008 -0.00830 0.00156 -0.00053 0.00104 0.00006 0.05257 0.00280 -0.28437 
1548147529.14893824 -0.08055 -0.02459 0.00430 -0.00056 0.00103 0.00006 0.05241 0.00126 -0.28424 
1548147529.144463872 -0.00197 -0.01533 -0.00353 -0.00059 0.00103 0.00005 0.05236 0.00105 -0.28372 
1548147529.269043968 -0.05216 -0.01543 -0.00107 -0.00061 0.00104 0.00005 0.05230 0.00101 -0.28308 
1548147529.403593728 -0.01172 -0.00620 0.00404 -0.00058 0.00104 0.00004 0.05227 0.00033 -0.28381 
1548147529.543123968 -0.02785 -0.00831 0.00588 -0.00058 0.00103 0.00004 0.05229 0.00034 -0.28388 
1548147529.757403904 -0.01678 -0.00626 0.00756 -0.00059 0.00103 0.00004 0.05230 0.00043 -0.28389 
1548147529.941783808 -0.01102 -0.00608 0.00852 -0.00059 0.00103 0.00004 0.05231 0.00056 -0.28399 
1548147530.185973760 -0.00824 -0.00442 0.01002 -0.00058 0.00103 0.00004 0.05232 0.00053 -0.28404 
1548147530.390273792 -0.00235 -0.00255 0.01040 -0.00058 0.00102 0.00003 0.05239 0.00077 -0.28435 
1548147530.619513856 0.00238 -0.00271 0.01106 -0.00057 0.00103 0.00004 0.05241 0.00045 -0.28426 
1548147530.754063872 0.00453 -0.00178 0.01183 -0.00057 0.00103 0.00004 0.05241 0.00031 -0.28420 
1548147530.903553792 0.00577 -0.00088 0.01230 -0.00057 0.00104 0.00004 0.05244 0.00045 -0.28423 
1548147531.142753792 0.00714 -0.00024 0.01312 -0.00057 0.00104 0.00003 0.05248 0.00048 -0.28421 
1548147531.337103872 0.01024 0.00040 0.01332 -0.00058 0.00104 0.00003 0.05250 0.00052 -0.28406 
1548147531.456713984 0.01195 0.00103 0.01361 -0.00058 0.00104 0.00003 0.05252 0.00057 -0.28423 
1548147531.536443648 0.01252 0.00120 0.01357 -0.00058 0.00105 0.00003 0.05253 0.00055 -0.28423 
1548147531.795573760 0.01143 0.00139 0.01402 -0.00057 0.00105 0.00004 0.05258 0.00076 -0.28449 
1548147531.989913600 0.01276 0.00170 0.01564 -0.00057 0.00106 0.00004 0.05259 0.00072 -0.28449 
1548147532.184253696 0.01344 0.00180 0.01606 -0.00057 0.00106 0.00004 0.05261 0.00056 -0.28442 
1548147532.348693760 0.01396 0.00304 0.01537 -0.00057 0.00106 0.00004 0.05265 0.00057 -0.28428 
1548147532.597853952 0.01283 0.00246 0.01529 -0.00059 0.00107 0.00004 0.05273 0.00096 -0.28457 
1548147532.787213824 0.01385 0.00617 0.01451 -0.00059 0.00107 0.00003 0.05277 0.00077 -0.28443 
1548147532.896853760 0.01226 0.00457 0.01546 -0.00058 0.00107 0.00004 0.05278 0.00079 -0.28458 
1548147533.56313856 0.01001 0.00482 0.01359 -0.00058 0.00107 0.00004 0.05284 0.00067 -0.28439 
1548147533.205803776 0.01246 0.00421 0.01432 -0.00058 0.00107 0.00004 0.05281 0.00082 -0.28411 
1548147533.305463808 0.01174 0.00428 0.01482 -0.00059 0.00108 0.00004 0.05283 0.00067 -0.28429 
1548147533.459943680 0.01401 0.00347 0.01503 -0.00059 0.00108 0.00004 0.05285 0.00072 -0.28435 
1548147533.783843840 0.01048 0.00384 0.01707 -0.00059 0.00108 0.00004 0.05288 0.00146 -0.28455 
1548147534.67883776 0.00844 -0.00059 0.01451 -0.00059 0.00109 0.00005 0.05298 0.00162 -0.28434 
1548147534.182483712 0.00942 0.00268 0.01678 -0.00058 0.00109 0.00005 0.05297 0.00163 -0.28462 
1548147534.341933824 0.00704 0.00211 0.01585 -0.00058 0.00109 0.00005 0.05300 0.00126 -0.28447 
1548147534.491423744 0.00667 0.00192 0.01584 -0.00058 0.00109 0.00005 0.05301 0.00123 -0.28441 
1548147534.635943680 0.01945 0.00542 0.01606 -0.00056 0.00108 0.00005 0.05303 0.00124 -0.28440 
1548147534.845213696 0.01088 0.00350 0.01717 -0.00059 0.00109 0.00004 0.05304 0.00134 -0.28443 
1548147535.34573824 0.01486 0.00341 0.01949 -0.00058 0.00109 0.00005 0.05304 0.00164 -0.28468 
1548147535.189033728 0.01525 0.00565 0.01666 -0.00057 0.00109 0.00005 0.05313 0.00080 -0.28470 
1548147535.288693760 0.00730 0.00049 0.01588 -0.00058 0.00110 0.00005 0.05316 0.00119 -0.28453 
1548147535.428223488 0.01494 0.00331 0.01647 -0.00058 0.00109 0.00005 0.05313 0.00109 -0.28433 
1548147535.567733760 0.01303 0.00459 0.01440 -0.00058 0.00109 0.00005 0.05317 0.00127 -0.28402 
1548147535.836833792 0.00506 0.00122 0.01004 -0.00055 0.00109 0.00005 0.05385 0.00097 -0.28899 
1548147536.85993728 0.00107 0.00014 0.00960 -0.00054 0.00109 0.00005 0.05396 0.00091 -0.28951 
1548147536.305243648 -0.00161 -0.00012 0.00785 -0.00054 0.00109 0.00005 0.05405 0.00093 -0.28961 
1548147536.439783936 -0.00368 0.00013 0.00301 -0.00053 0.00109 0.00005 0.05419 0.00094 -0.28965 
1548147536.644083712 -0.00437 0.00005 0.00381 -0.00053 0.00109 0.00005 0.05419 0.00095 -0.28961 
1548147536.723823872 -0.00440 0.00063 0.00440 -0.00053 0.00109 0.00005 0.05419 0.00094 -0.28961 
1548147536.883283712 -0.00563 0.00010 0.00493 -0.00053 0.00109 0.00005 0.05419 0.00093 -0.28958 
1548147537.47723776 -0.00613 0.00010 0.00513 -0.00052 0.00109 0.00005 0.05420 0.00085 -0.28940 
1548147537.207183616 -0.00686 0.00016 0.00558 -0.00052 0.00109 0.00005 0.05420 0.00085 -0.28929 
1548147537.356683776 -0.00716 -0.00002 0.00569 -0.00052 0.00109 0.00005 0.05421 0.00089 -0.28925 
1548147537.536063744 -0.00715 -0.00067 0.00514 -0.00052 0.00109 0.00005 0.05423 0.00095 -0.28915 
1548147537.700513536 -0.00407 -0.00303 0.00322 -0.00051 0.00109 0.00005 0.05429 0.00102 -0.28900 
1548147537.884873728 -0.00885 -0.00352 0.00276 -0.00051 0.00109 0.00005 0.05431 0.00106 -0.28902 
1548147538.44333824 -0.10048 -0.01199 0.00948 -0.00051 0.00109 0.00005 0.05432 0.00110 -0.28887 
1548147538.278533632 -0.34405 0.00795 0.03866 -0.00048 0.00109 0.00005 0.05434 0.00068 -0.28881 
1548147538.477853440 -0.39441 0.00912 0.06138 -0.00049 0.00110 0.00005 0.05435 0.00090 -0.28873 
1548147538.637303552 -0.36282 0.01691 0.06169 -0.00049 0.00108 0.00005 0.05433 0.00061 -0.29092 
1548147538.936303616 -0.37996 -0.01704 0.04776 -0.00047 0.00105 0.00006 0.05445 -0.00010 -0.29097 
1548147539.140603648 -0.30990 -0.03008 0.06371 -0.00050 0.00108 0.00006 0.05446 -0.00081 -0.28844 
1548147539.250243584 -0.33995 0.00413 0.04637 -0.00051 0.00109 0.00006 0.05448 -0.00108 -0.28891 
1548147539.444583680 -0.43085 0.00501 0.05823 -0.00046 0.00107 0.00006 0.05442 -0.00034 -0.28773 
1548147539.544243456 -0.45158 -0.02945 0.05395 -0.00044 0.00106 0.00007 0.05424 0.00031 -0.28800 
1548147539.748563456 -0.48474 -0.03845 0.05059 -0.00046 0.00103 0.00005 0.05406 0.00058 -0.28919 
1548147539.898043648 -0.43717 -0.02951 0.06860 -0.00048 0.00103 0.00006 0.05414 -0.00179 -0.29147 
1548147540.87393536 -0.33456 -0.00332 0.07638 -0.00051 0.00101 0.00006 0.05417 -0.00167 -0.29204 
1548147540.276753664 -0.35025 0.02023 0.07809 -0.00048 0.00101 0.00006 0.05401 -0.00263 -0.29098 
1548147540.446193664 -0.36527 0.00266 0.03078 -0.00051 0.00102 0.00005 0.05400 -0.00182 -0.28906 
1548147540.635543552 -0.34944 0.00894 0.03335 -0.00049 0.00101 0.00006 0.05392 -0.00207 -0.29048 
1548147540.874723584 -0.31368 0.01225 0.05507 -0.00048 0.00098 0.00005 0.05357 -0.00266 -0.28967 
1548147541.44153600 -0.27021 0.00778 0.05162 -0.00048 0.00102 0.00005 0.05430 0.00029 -0.29648 
1548147541.288313600 -0.29653 -0.01254 0.02973 -0.00050 0.00105 0.00005 0.05442 -0.00044 -0.29584 
1548147541.422863360 -0.34772 -0.01058 0.02478 -0.00053 0.00106 0.00006 0.05455 0.00046 -0.29557 
1548147541.577333504 -0.37515 -0.01016 0.01986 -0.00053 0.00108 0.00006 0.05469 -0.00036 -0.29545 
1548147541.741783552 -0.36447 0.00057 0.02153 -0.00053 0.00108 0.00005 0.05456 -0.00079 -0.29501 
1548147541.896263680 -0.33139 0.00866 0.02223 -0.00056 0.00107 0.00005 0.05436 -0.00010 -0.29461 
1548147542.45753600 -0.34270 0.00221 0.01672 -0.00054 0.00107 0.00004 0.05431 -0.00021 -0.29461 
1548147542.200223488 -0.51009 0.02188 -0.03540 -0.00056 0.00107 0.00004 0.05445 0.00004 -0.29491 
1548147542.354703616 -0.48800 -0.00683 -0.03005 -0.00055 0.00108 0.00004 0.05442 0.00058 -0.29460 
1548147542.459353344 -0.43974 0.02537 0.01241 -0.00056 0.00107 0.00003 0.05416 0.00049 -0.29370 
1548147542.628783360 -0.39425 0.01896 -0.00117 -0.00056 0.00107 0.00003 0.05406 0.00072 -0.29373 
1548147542.877943552 -0.26862 0.02417 0.01978 -0.00060 0.00104 0.00002 0.05361 0.00028 -0.29302 
1548147543.77263616 -0.21372 0.00728 0.02495 -0.00057 0.00104 0.00002 0.05358 0.00223 -0.29325 
1548147543.276573440 0.28990 0.04850 0.00382 -0.00058 0.00105 -0.00000 0.05377 0.00234 -0.29431 
1548147543.530723584 0.06387 0.06491 0.02887 -0.00056 0.00110 -0.00001 0.05385 0.00269 -0.29491 
1548147543.735043584 -0.05814 0.01767 0.01159 -0.00056 0.00114 0.00003 0.05403 0.00518 -0.29313 
1548147543.934363648 -0.02831 0.01812 0.00977 -0.00061 0.00116 0.00003 0.05400 0.00537 -0.29280 
1548147544.73893632 0.01560 0.01581 0.00433 -0.00060 0.00115 0.00004 0.05413 0.00496 -0.29351 
1548147544.173563392 -0.01411 0.01310 0.00110 -0.00060 0.00116 0.00003 0.05428 0.00563 -0.29441 
1548147544.328043520 -0.01968 0.01081 -0.00317 -0.00061 0.00115 0.00003 0.05439 0.00598 -0.29507 
1548147544.457593344 -0.00559 0.01123 -0.00588 -0.00060 0.00115 0.00004 0.05442 0.00585 -0.29525 
1548147544.636963584 -0.01746 0.00845 -0.00858 -0.00060 0.00115 0.00004 0.05451 0.00653 -0.29601 
1548147544.846253312 -0.00891 0.00434 -0.01208 -0.00059 0.00114 0.00004 0.05463 0.00587 -0.29682 
1548147545.40583424 0.12861 0.02400 -0.00657 -0.00057 0.00113 0.00004 0.05464 0.00607 -0.29699 
1548147545.175133440 0.26978 0.02987 -0.00417 -0.00057 0.00113 0.00004 0.05467 0.00623 -0.29726 
1548147545.374453504 0.34299 0.03496 -0.00718 -0.00054 0.00114 0.00005 0.05499 0.00581 -0.29923 
1548147545.479083520 0.39039 0.02363 -0.00492 -0.00052 0.00116 0.00005 0.05509 0.00554 -0.29997 
1548147545.648503552 0.42869 0.03058 -0.01672 -0.00051 0.00116 0.00005 0.05516 0.00594 -0.30005 
1548147545.832873472 0.44174 0.00846 -0.03305 -0.00053 0.00119 0.00006 0.05576 0.00668 -0.30357 
1548147545.927543296 0.39544 0.00778 -0.03502 -0.00057 0.00120 0.00006 0.05579 0.00671 -0.30387 
1548147546.82023424 0.36505 -0.01071 -0.00142 -0.00060 0.00123 0.00006 0.05598 0.00565 -0.30478 
1548147546.251453440 0.37077 0.00983 -0.05427 -0.00052 0.00121 0.00006 0.05565 0.00451 -0.30266 
1548147546.450773504 0.37346 0.00718 -0.06798 -0.00053 0.00122 0.00007 0.05583 0.00582 -0.30330 
1548147546.635153408 0.38462 0.00710 -0.04684 -0.00054 0.00119 0.00007 0.05503 0.00378 -0.29928 
1548147546.924173312 0.29171 -0.00444 -0.05240 -0.00052 0.00120 0.00007 0.05553 0.00443 -0.30184 
1548147547.93593344 0.31355 0.00196 -0.05068 -0.00053 0.00118 0.00006 0.05541 0.00365 -0.30115 
1548147547.372663552 0.36269 0.00183 -0.04317 -0.00051 0.00115 0.00007 0.05500 0.00267 -0.29886 
1548147547.581953536 0.42303 0.00017 -0.04942 -0.00051 0.00110 0.00006 0.05491 0.00344 -0.29802 
1548147547.870973440 0.45121 -0.02955 -0.07500 -0.00054 0.00111 0.00007 0.05513 0.00319 -0.29919 
1548147548.25453312 0.50755 -0.02803 -0.11430 -0.00051 0.00112 0.00008 0.05561 0.00265 -0.30136 
1548147548.219793408 0.50988 -0.00685 -0.09166 -0.00053 0.00112 0.00007 0.05520 0.00168 -0.29984 
1548147548.429083392 0.38411 0.00879 -0.08917 -0.00051 0.00117 0.00007 0.05593 0.00177 -0.30425 
1548147548.588533504 0.29354 -0.02205 -0.08994 -0.00053 0.00118 0.00007 0.05600 0.00135 -0.30445 
1548147548.668263424 0.29371 -0.02398 -0.09144 -0.00051 0.00119 0.00008 0.05590 0.00103 -0.30400 
1548147548.772893440 0.37425 -0.02195 -0.10690 -0.00055 0.00118 0.00006 0.05696 0.00136 -0.31406 
1548147548.922393344 0.45327 -0.01021 -0.11024 -0.00058 0.00118 0.00005 0.05692 0.00077 -0.31366 
1548147549.71903488 0.43399 0.00399 -0.13073 -0.00055 0.00118 0.00005 0.05710 0.00112 -0.31399 
1548147549.276203520 0.35235 -0.00171 -0.12821 -0.00056 0.00118 0.00005 0.05717 0.00128 -0.31351 
1548147549.430683392 0.39073 -0.02765 -0.10961 -0.00043 0.00117 0.00007 0.05807 0.00380 -0.32468 
1548147549.575193344 0.45029 -0.02227 -0.12509 -0.00040 0.00115 0.00007 0.05792 0.00372 -0.32533 
1548147549.739633408 0.44484 -0.01156 -0.09096 -0.00033 0.00113 0.00008 0.05912 0.00601 -0.34202 
1548147549.869193216 0.46323 -0.00359 -0.09078 -0.00036 0.00112 0.00008 0.05910 0.00648 -0.34223 
1548147550.73503232 -0.23533 0.01672 -0.07538 -0.00032 0.00112 0.00008 0.05917 0.00615 -0.34222 
1548147550.282793216 0.01692 -0.05837 -0.08450 -0.00033 0.00111 0.00008 0.05934 0.00673 -0.34196 
1548147550.526973184 -0.04172 -0.03145 -0.04928 -0.00031 0.00108 0.00007 0.05994 0.00815 -0.35547 
1548147550.830953472 0.00018 -0.02342 -0.03315 -0.00036 0.00107 0.00006 0.05964 0.00828 -0.35371 
1548147551.30283264 0.03114 -0.00718 -0.01801 -0.00038 0.00107 0.00006 0.05949 0.00773 -0.35415 
1548147551.324283392 0.02653 -0.00600 -0.01252 -0.00039 0.00107 0.00005 0.05952 0.00766 -0.35494 
1548147551.573443328 0.03717 -0.00271 -0.00773 -0.00038 0.00107 0.00005 0.05953 0.00764 -0.35548 
1548147551.927243264 0.04325 0.00185 -0.00017 -0.00037 0.00107 0.00005 0.05954 0.00772 -0.35631 
1548147552.126583296 0.04780 0.00370 0.00284 -0.00037 0.00107 0.00005 0.05954 0.00772 -0.35649 
1548147552.281053184 0.04726 0.00577 0.00610 -0.00037 0.00107 0.00005 0.05957 0.00770 -0.35707 
1548147552.490343424 0.04634 0.00824 0.01001 -0.00039 0.00107 0.00005 0.05959 0.00766 -0.35772 
1548147552.629873152 0.03059 0.01418 0.01872 -0.00046 0.00108 0.00004 0.05973 0.00740 -0.36038 
1548147552.814243328 0.03296 0.01503 0.02065 -0.00046 0.00109 0.00004 0.05975 0.00745 -0.36060 
1548147553.23543296 0.02840 0.01470 0.02310 -0.00044 0.00110 0.00004 0.05985 0.00810 -0.36159 
1548147553.277683200 0.02943 0.01694 0.02477 -0.00045 0.00110 0.00004 0.05985 0.00797 -0.36133 
1548147553.541783296 0.02810 0.01416 0.02558 -0.00044 0.00110 0.00005 0.05994 0.00782 -0.36191 
1548147553.815873024 0.02729 0.01560 0.02830 -0.00049 0.00111 0.00004 0.05984 0.00825 -0.36088 
1548147554.74993152 0.02704 0.01278 0.02986 -0.00041 0.00111 0.00005 0.05994 0.00835 -0.36159 
1548147554.264353280 0.02417 0.01204 0.03055 -0.00040 0.00111 0.00005 0.05998 0.00806 -0.36173 
1548147554.473663232 0.02251 0.01163 0.03053 -0.00036 0.00112 0.00006 0.06001 0.00829 -0.36155 
1548147554.672983296 0.02494 0.01506 0.03229 -0.00041 0.00112 0.00005 0.06002 0.00821 -0.36152 
1548147554.842423296 0.02259 0.01544 0.03265 -0.00040 0.00112 0.00005 0.06000 0.00837 -0.36102 
1548147555.76633088 0.01089 0.01331 0.03426 -0.00039 0.00113 0.00006 0.05993 0.00849 -0.36027 
1548147555.216153088 0.01249 0.00724 0.03335 -0.00041 0.00113 0.00005 0.06002 0.00856 -0.36090 
1548147555.520133376 -0.24586 -0.00142 0.06316 -0.00051 0.00113 0.00004 0.05995 0.00827 -0.35931 
1548147555.664653312 -0.42703 0.01425 0.07781 -0.00050 0.00114 0.00005 0.05991 0.00807 -0.35869 
1548147555.868953344 -0.39357 0.01759 0.09231 -0.00039 0.00112 0.00006 0.06014 0.00843 -0.36175 
1548147555.978593024 -0.40585 -0.00106 0.09644 -0.00042 0.00111 0.00006 0.06021 0.00829 -0.36304 
1548147556.272603392 -0.48801 -0.01011 0.08612 -0.00036 0.00115 0.00006 0.06010 0.00816 -0.35928 
1548147556.531723264 -0.53671 -0.00386 0.09852 -0.00044 0.00114 0.00005 0.06000 0.00814 -0.36171 
1548147556.671243264 -0.59270 -0.00092 0.07931 -0.00044 0.00115 0.00005 0.05993 0.00786 -0.35799 
1548147556.865593088 -0.59071 -0.03207 0.10483 -0.00041 0.00110 0.00006 0.06014 0.00763 -0.36470 
1548147557.74863104 -0.43423 0.01245 0.12257 -0.00045 0.00107 0.00006 0.06024 0.00740 -0.36604 
1548147557.314063104 -0.43941 0.01060 0.10823 -0.00044 0.00107 0.00006 0.06032 0.00733 -0.36620 
1548147557.513383168 -0.52321 -0.08091 0.14145 -0.00031 0.00106 0.00007 0.05963 0.00700 -0.35928 
1548147557.662883072 -0.46158 0.00305 0.09023 -0.00032 0.00107 0.00006 0.05970 0.00746 -0.36014 
1548147557.817363200 -0.38566 0.01572 0.08589 -0.00029 0.00107 0.00006 0.05976 0.00736 -0.36110 
1548147558.16673024 -0.32384 0.01080 0.06175 -0.00027 0.00107 0.00007 0.05978 0.00721 -0.36113 
1548147558.215993088 -0.40568 -0.01017 0.05510 -0.00033 0.00110 0.00007 0.05979 0.00817 -0.35926 
1548147558.415323136 -0.48429 0.00260 0.07225 -0.00031 0.00111 0.00007 0.05975 0.00775 -0.35792 
1548147558.619623168 -0.46320 0.00248 0.05541 -0.00032 0.00110 0.00007 0.05968 0.00842 -0.35743 
1548147558.749173248 -0.42357 -0.00699 0.03395 -0.00025 0.00109 0.00007 0.05816 0.00532 -0.34322 
1548147558.878733056 -0.45411 0.02783 0.02938 -0.00025 0.00110 0.00007 0.05835 0.00524 -0.34399 
1548147559.48173312 -0.48453 0.01730 0.03646 -0.00025 0.00111 0.00007 0.05848 0.00581 -0.34401 
1548147559.212613120 -0.41779 0.02250 0.04225 -0.00030 0.00111 0.00007 0.05820 0.00563 -0.34375 
1548147559.337192960 -0.39339 -0.01390 0.03733 -0.00032 0.00110 0.00006 0.05803 0.00623 -0.34335 
1548147559.486693120 -0.33747 0.01505 0.03778 -0.00035 0.00109 0.00005 0.05776 0.00630 -0.34204 
1548147559.720903168 -0.15617 0.00815 0.08615 -0.00042 0.00109 0.00005 0.05785 0.00656 -0.34262 
1548147559.920232960 0.16327 0.04943 0.05544 -0.00047 0.00110 0.00004 0.05811 0.00698 -0.34488 
1548147560.59773184 0.05215 0.03864 0.02900 -0.00044 0.00111 0.00005 0.05823 0.00774 -0.34512 
1548147560.318893312 -0.04142 0.01995 0.01354 -0.00038 0.00111 0.00005 0.05825 0.00785 -0.34523 
1548147560.473363200 -0.02604 0.02925 0.01338 -0.00033 0.00111 0.00005 0.05830 0.00827 -0.34548 
1548147560.672712960 0.05115 0.02299 0.00995 -0.00031 0.00111 0.00005 0.05825 0.00807 -0.34509 
1548147560.961733120 0.02621 0.02094 0.00347 -0.00034 0.00112 0.00005 0.05831 0.00850 -0.34540 
1548147561.210893056 0.01204 0.02269 0.00055 -0.00031 0.00112 0.00005 0.05828 0.00898 -0.34521 
1548147561.420193024 0.01484 0.02275 -0.00336 -0.00032 0.00112 0.00005 0.05827 0.00916 -0.34518 
1548147561.579653120 0.01226 0.02181 -0.00603 -0.00033 0.00112 0.00005 0.05827 0.00937 -0.34515 
1548147561.734142976 0.01526 0.02226 -0.00758 -0.00032 0.00112 0.00004 0.05826 0.00948 -0.34512 
1548147561.973333248 0.22935 0.03586 -0.00396 -0.00033 0.00112 0.00004 0.05820 0.00932 -0.34473 
1548147562.157712896 0.32671 0.01008 -0.01577 -0.00022 0.00112 0.00005 0.05853 0.00964 -0.34670 
1548147562.317182976 0.39466 0.03670 -0.00881 -0.00025 0.00111 0.00005 0.05843 0.00938 -0.34623 
1548147562.571323136 0.62392 0.05503 -0.02189 -0.00028 0.00112 0.00005 0.05845 0.00955 -0.34619 
1548147562.820503040 0.61783 0.02677 -0.04052 -0.00023 0.00113 0.00006 0.05925 0.00931 -0.35040 
1548147563.74652928 0.44143 0.01184 -0.06358 -0.00024 0.00113 0.00007 0.05895 0.00830 -0.34822 
1548147563.318843136 0.55984 0.03329 -0.04093 -0.00023 0.00112 0.00008 0.05821 0.00703 -0.34459 
1548147563.513193216 0.48037 0.01302 -0.03151 -0.00026 0.00113 0.00008 0.05860 0.00706 -0.34629 
1548147563.687612928 0.39946 0.00523 -0.04711 -0.00019 0.00114 0.00009 0.05891 0.00829 -0.34768 
1548147563.881963008 0.45466 -0.00533 -0.04252 -0.00030 0.00112 0.00008 0.05854 0.00799 -0.34628 
1548147564.71332864 0.50791 0.00534 -0.02894 -0.00037 0.00109 0.00007 0.05835 0.00747 -0.34582 
1548147564.360363008 0.50687 -0.02059 -0.02493 -0.00036 0.00109 0.00007 0.05869 0.00689 -0.34713 
1548147564.614502912 0.61563 -0.02766 -0.11010 -0.00040 0.00113 0.00007 0.05916 0.00646 -0.34858 
1548147564.858682880 0.55653 0.02508 -0.08996 -0.00037 0.00112 0.00007 0.05921 0.00719 -0.34868 
1548147564.938402816 0.48318 0.00373 -0.09672 -0.00038 0.00114 0.00007 0.05946 0.00701 -0.34946 
1548147565.157662976 0.46415 -0.02020 -0.09828 -0.00045 0.00117 0.00006 0.05910 0.00753 -0.34812 
1548147565.287222784 0.46351 -0.00866 -0.08706 -0.00047 0.00118 0.00006 0.05906 0.00718 -0.34807 
1548147565.461652992 0.48657 0.03012 -0.03533 -0.00040 0.00117 0.00006 0.05918 0.00750 -0.34856 
1548147565.616132864 0.34099 -0.02461 -0.08492 -0.00040 0.00118 0.00006 0.05914 0.00711 -0.34769 
1548147565.830412800 0.46077 -0.02601 -0.10462 -0.00044 0.00116 0.00006 0.05874 0.00774 -0.34576 
1548147565.979902976 0.50966 0.00884 -0.06204 -0.00039 0.00112 0.00007 0.05911 0.00519 -0.35339 
1548147566.209143040 -0.30298 0.01842 -0.03161 -0.00040 0.00112 0.00007 0.05928 0.00549 -0.35436 
1548147566.468282880 0.00785 -0.04132 -0.04124 -0.00037 0.00113 0.00008 0.06008 0.00536 -0.35942 
1548147566.662622976 0.12285 -0.00773 -0.02267 -0.00039 0.00113 0.00006 0.05956 0.00420 -0.35800 
1548147566.812132864 0.09394 -0.01516 0.01098 -0.00039 0.00113 0.00006 0.05955 0.00369 -0.35810 
1548147566.971602944 -0.00912 -0.01278 -0.00548 -0.00043 0.00114 0.00006 0.05964 0.00353 -0.35890 
1548147567.141022976 0.02492 -0.00290 -0.00195 -0.00042 0.00114 0.00005 0.05961 0.00375 -0.35857 
1548147567.285532928 0.00952 -0.00665 0.00114 -0.00042 0.00113 0.00006 0.05959 0.00334 -0.35908 
1548147567.459932928 -0.00512 -0.00599 0.00214 -0.00042 0.00114 0.00005 0.05957 0.00338 -0.35891 
1548147567.659262976 0.00121 -0.00275 0.00448 -0.00042 0.00114 0.00005 0.05957 0.00341 -0.35883 
1548147567.813722880 0.00455 -0.00165 0.00610 -0.00042 0.00114 0.00005 0.05957 0.00344 -0.35877 
1548147567.968202752 0.00042 0.00002 0.00840 -0.00042 0.00114 0.00005 0.05956 0.00346 -0.35868 
1548147568.172513024 -0.00231 0.00209 0.00967 -0.00042 0.00114 0.00005 0.05955 0.00347 -0.35852 
1548147568.361872896 -0.00560 0.00256 0.01090 -0.00042 0.00114 0.00005 0.05956 0.00360 -0.35844 
1548147568.591092736 -0.01098 0.00537 0.01206 -0.00042 0.00114 0.00005 0.05956 0.00373 -0.35834 
1548147568.725633024 -0.01269 0.00196 0.01256 -0.00042 0.00114 0.00005 0.05957 0.00375 -0.35831 
1548147568.870152960 -0.01449 0.00585 0.01201 -0.00042 0.00114 0.00005 0.05957 0.00377 -0.35827 
1548147569.104353024 -0.29119 -0.00721 0.04165 -0.00042 0.00114 0.00005 0.05960 0.00383 -0.35785 
1548147569.278772736 -0.31799 -0.03122 0.05340 -0.00043 0.00115 0.00005 0.05964 0.00357 -0.35867 
1548147569.463152896 -0.45967 -0.01870 0.08641 -0.00041 0.00114 0.00006 0.05961 0.00335 -0.35934 
1548147569.632572928 -0.54969 -0.01196 0.08273 -0.00046 0.00114 0.00005 0.05964 0.00358 -0.35826 
1548147569.762142976 -0.50505 -0.01827 0.06492 -0.00042 0.00113 0.00005 0.05962 0.00321 -0.35827 
1548147569.906662912 -0.50505 -0.02023 0.07656 -0.00040 0.00113 0.00006 0.05965 0.00301 -0.35883 
1548147570.66122752 -0.48480 -0.01225 0.06604 -0.00039 0.00114 0.00005 0.05967 0.00280 -0.35774 
1548147570.275402752 -0.61229 -0.00797 0.06698 -0.00040 0.00115 0.00005 0.05972 0.00289 -0.35847 
1548147570.474753024 -0.56539 -0.03988 0.08433 -0.00040 0.00110 0.00006 0.05940 0.00323 -0.35885 
1548147570.659122944 -0.48345 -0.01506 0.08937 -0.00042 0.00108 0.00006 0.05942 0.00315 -0.35941 
1548147570.813602816 -0.45884 0.01301 0.08311 -0.00041 0.00109 0.00005 0.05945 0.00341 -0.35959 
1548147571.57793024 -0.42535 0.02312 0.03648 -0.00032 0.00106 0.00006 0.05967 0.00068 -0.36359 
1548147571.301992960 -0.47811 -0.00062 0.08494 -0.00034 0.00105 0.00006 0.05967 0.00131 -0.36439 
1548147571.511292672 -0.37523 0.03036 0.07234 -0.00031 0.00105 0.00006 0.05952 0.00062 -0.36433 
1548147571.780392960 -0.34339 -0.01886 0.04365 -0.00035 0.00107 0.00006 0.05977 0.00155 -0.36533 
1548147571.979722752 -0.45723 -0.00761 0.03726 -0.00034 0.00108 0.00007 0.05990 0.00149 -0.36524 
1548147572.154152960 -0.45931 0.00218 0.04117 -0.00034 0.00109 0.00006 0.05989 0.00227 -0.36522 
1548147572.288702720 -0.45154 0.01191 0.04248 -0.00034 0.00109 0.00006 0.05972 0.00211 -0.36501 
1548147572.453152768 -0.51315 -0.00265 -0.01002 -0.00032 0.00108 0.00006 0.05971 0.00251 -0.36504 
1548147572.562802688 -0.34231 0.00843 0.04950 -0.00033 0.00109 0.00006 0.05980 0.00257 -0.36539 
1548147572.662472704 -0.40268 0.01003 -0.00156 -0.00036 0.00110 0.00006 0.06004 0.00128 -0.36751 
1548147572.811982848 -0.34729 -0.00498 0.03200 -0.00036 0.00109 0.00006 0.05953 0.00121 -0.36492 
1548147573.6332928 -0.27958 0.00082 0.02706 -0.00037 0.00109 0.00007 0.05949 0.00109 -0.36591 
1548147573.165802752 -0.24007 -0.00155 0.03472 -0.00040 0.00108 0.00006 0.05932 0.00070 -0.36545 
1548147573.315302912 -0.21942 0.00550 0.03726 -0.00041 0.00108 0.00006 0.05925 0.00087 -0.36520 
1548147573.514652672 -0.18224 -0.00107 0.03940 -0.00040 0.00108 0.00007 0.05923 0.00068 -0.36488 
1548147573.758842624 0.12185 0.00965 0.00982 -0.00040 0.00109 0.00007 0.05919 0.00046 -0.36451 
1548147573.888402688 0.11572 0.01688 0.03221 -0.00037 0.00110 0.00007 0.05917 0.00110 -0.36392 
1548147574.107672576 -0.01558 0.00590 0.02445 -0.00039 0.00110 0.00006 0.05921 -0.00013 -0.36342 
1548147574.356832768 0.05831 0.01181 0.01469 -0.00040 0.00111 0.00006 0.05922 0.00134 -0.36349 
1548147574.605992704 0.00666 0.00024 0.01117 -0.00037 0.00112 0.00007 0.05929 0.00107 -0.36365 
1548147574.820262656 0.01621 0.00000 0.00599 -0.00037 0.00112 0.00007 0.05928 0.00119 -0.36358 
1548147575.54492672 0.01851 0.00012 0.00161 -0.00037 0.00112 0.00007 0.05928 0.00120 -0.36353 
1548147575.179072512 0.01264 -0.00119 -0.00015 -0.00037 0.00112 0.00007 0.05927 0.00117 -0.36349 
1548147575.303642624 0.01993 -0.00087 -0.00258 -0.00037 0.00112 0.00007 0.05927 0.00116 -0.36346 
1548147575.502982656 0.19550 0.00735 -0.00097 -0.00037 0.00112 0.00007 0.05926 0.00113 -0.36338 
1548147575.757132800 0.33258 0.02335 -0.00680 -0.00042 0.00112 0.00005 0.05939 0.00186 -0.36417 
1548147576.11292672 0.49892 0.02312 -0.01348 -0.00043 0.00112 0.00006 0.05942 0.00197 -0.36425 
1548147576.310292736 0.58167 -0.01719 -0.03419 -0.00042 0.00114 0.00007 0.05981 0.00160 -0.36596 
1548147576.514612736 0.43134 -0.02020 -0.07642 -0.00036 0.00114 0.00007 0.05977 0.00250 -0.36532 
1548147576.708972800 0.48238 -0.00026 -0.02919 -0.00039 0.00113 0.00006 0.05914 0.00286 -0.36227 
1548147576.858482688 0.52864 0.02594 -0.05606 -0.00036 0.00112 0.00007 0.05933 0.00189 -0.36322 
1548147577.202342656 0.41268 0.00370 -0.06070 -0.00039 0.00114 0.00007 0.05960 0.00175 -0.36474 
1548147577.371762688 0.41700 -0.00511 -0.06352 -0.00039 0.00113 0.00007 0.05942 0.00146 -0.36378 
1548147577.551162624 0.48048 0.01388 -0.04896 -0.00037 0.00112 0.00007 0.05912 0.00157 -0.36228 
1548147577.720592640 0.52264 0.00552 -0.04296 -0.00036 0.00110 0.00007 0.05897 0.00226 -0.36167 
1548147577.904972544 0.47209 -0.02483 -0.01768 -0.00038 0.00111 0.00007 0.05924 0.00212 -0.36340 
1548147578.99312640 0.64020 -0.01931 -0.13704 -0.00040 0.00113 0.00007 0.05970 0.00187 -0.36556 
1548147578.273742592 0.62417 0.04076 -0.09904 -0.00036 0.00113 0.00006 0.05949 0.00183 -0.36405 
1548147578.458122752 0.52748 0.02372 -0.10350 -0.00033 0.00113 0.00006 0.05992 0.00184 -0.36582 
1548147578.697322496 0.49158 -0.03374 -0.12109 -0.00037 0.00115 0.00006 0.05975 0.00169 -0.36486 
1548147579.1312768 0.45281 0.01406 -0.05626 -0.00042 0.00118 0.00006 0.05976 0.00100 -0.36554 
1548147579.305292544 0.44431 -0.02948 -0.11378 -0.00041 0.00114 0.00006 0.05996 -0.00028 -0.36944 
1548147579.474742528 0.50940 0.00057 -0.07724 -0.00041 0.00112 0.00006 0.05978 -0.00080 -0.36990 
1548147579.669102592 0.40627 -0.04310 0.00591 -0.00040 0.00111 0.00006 0.05976 -0.00082 -0.36996 
1548147579.853502464 -0.23597 -0.04980 0.01439 -0.00040 0.00112 0.00007 0.06011 -0.00207 -0.37238 
1548147580.67772672 0.01899 -0.03598 -0.02027 -0.00044 0.00112 0.00006 0.06025 -0.00173 -0.37358 
1548147580.302002688 0.14433 -0.00488 -0.01764 -0.00044 0.00111 0.00005 0.06011 -0.00243 -0.37351 
1548147580.516282624 -0.03889 -0.01792 -0.00256 -0.00044 0.00111 0.00005 0.06011 -0.00311 -0.37311 
1548147580.650822656 0.05155 -0.00703 -0.01145 -0.00045 0.00112 0.00005 0.06019 -0.00300 -0.37341 
1548147580.850142464 0.00102 -0.01460 0.00023 -0.00045 0.00112 0.00005 0.06014 -0.00342 -0.37349 
1548147581.54462720 -0.00357 -0.00798 0.00265 -0.00045 0.00112 0.00005 0.06014 -0.00341 -0.37346 
1548147581.303622400 0.00570 -0.00832 0.00615 -0.00045 0.00112 0.00005 0.06013 -0.00342 -0.37335 
1548147581.497972480 0.00811 -0.00575 0.00819 -0.00045 0.00112 0.00005 0.06011 -0.00336 -0.37316 
1548147581.677352704 0.00847 -0.00473 0.00974 -0.00045 0.00112 0.00005 0.06011 -0.00334 -0.37309 
1548147581.856762624 0.00815 -0.00411 0.01167 -0.00046 0.00112 0.00005 0.06011 -0.00328 -0.37306 
1548147582.46122496 0.00724 -0.00343 0.01381 -0.00046 0.00112 0.00005 0.06011 -0.00327 -0.37303 
1548147582.300262400 0.00599 -0.00185 0.01537 -0.00046 0.00112 0.00005 0.06012 -0.00330 -0.37292 
1548147582.404902400 0.00598 -0.00073 0.01576 -0.00047 0.00112 0.00005 0.06012 -0.00330 -0.37282 
1548147582.559382528 0.00443 0.00002 0.01632 -0.00047 0.00112 0.00005 0.06013 -0.00324 -0.37280 
1548147582.693932544 0.00377 0.00030 0.01765 -0.00047 0.00112 0.00005 0.06013 -0.00323 -0.37277 
1548147582.843422464 0.00279 0.00062 0.01903 -0.00047 0.00112 0.00005 0.06013 -0.00322 -0.37270 
1548147583.67662592 0.00176 0.00101 0.01962 -0.00048 0.00113 0.00005 0.06013 -0.00317 -0.37239 
1548147583.311842560 0.00001 0.00139 0.02084 -0.00048 0.00113 0.00005 0.06013 -0.00316 -0.37217 
1548147583.496222464 -0.00208 0.00239 0.02176 -0.00049 0.00113 0.00005 0.06016 -0.00317 -0.37216 
1548147583.750362368 -0.00450 0.00102 0.02188 -0.00049 0.00113 0.00005 0.06018 -0.00306 -0.37205 
1548147584.94192384 0.00314 0.00130 0.02025 -0.00049 0.00113 0.00005 0.06022 -0.00293 -0.37177 
1548147584.298492416 0.00117 0.00295 0.02012 -0.00049 0.00113 0.00005 0.06026 -0.00284 -0.37189 
1548147584.492832512 0.00415 0.00301 0.02093 -0.00048 0.00113 0.00005 0.06028 -0.00289 -0.37185 
1548147584.662262528 0.00275 0.00524 0.02038 -0.00049 0.00113 0.00005 0.06032 -0.00281 -0.37190 
1548147584.946302464 0.00591 0.00036 0.02089 -0.00049 0.00113 0.00005 0.06031 -0.00266 -0.37149 
1548147585.195452416 0.00291 -0.00046 0.02266 -0.00048 0.00113 0.00005 0.06034 -0.00269 -0.37168 
1548147585.394772480 0.00152 0.00057 0.02367 -0.00048 0.00113 0.00005 0.06037 -0.00277 -0.37178 
1548147585.653902592 0.00614 0.00052 0.02306 -0.00049 0.00113 0.00005 0.06034 -0.00270 -0.37105 
1548147585.942932480 0.00183 0.00094 0.02314 -0.00049 0.00113 0.00005 0.06037 -0.00276 -0.37095 
1548147586.117342464 -0.00241 0.00180 0.02212 -0.00049 0.00113 0.00005 0.06043 -0.00269 -0.37123 
1548147586.361522432 -0.00384 -0.00064 0.02242 -0.00049 0.00113 0.00005 0.06043 -0.00281 -0.37092 
1548147586.600712448 0.00484 0.00265 0.02506 -0.00049 0.00113 0.00005 0.06043 -0.00265 -0.37091 
1548147586.939592448 0.00108 -0.00095 0.02382 -0.00049 0.00113 0.00005 0.06044 -0.00257 -0.37050 
1548147587.198722304 -0.00138 0.00021 0.02443 -0.00049 0.00114 0.00005 0.06046 -0.00265 -0.37034 
1548147587.442902272 -0.00158 0.00309 0.02532 -0.00049 0.00113 0.00005 0.06047 -0.00258 -0.37008 
1548147587.652212480 -0.00287 -0.00023 0.02481 -0.00050 0.00114 0.00005 0.06047 -0.00253 -0.36995 
1548147587.811682560 -0.10090 -0.00074 0.03959 -0.00048 0.00113 0.00005 0.06052 -0.00251 -0.37062 
1548147587.961172224 -0.25050 -0.05049 0.05514 -0.00048 0.00114 0.00005 0.06056 -0.00249 -0.37064 
1548147588.195392256 -0.43075 0.01927 0.08769 -0.00048 0.00114 0.00005 0.06054 -0.00275 -0.37054 
1548147588.489412352 -0.38151 -0.00676 0.07514 -0.00046 0.00113 0.00005 0.06040 -0.00271 -0.37048 
1548147588.738582272 -0.55914 -0.02827 0.08457 -0.00047 0.00113 0.00005 0.06049 -0.00258 -0.37006 
1548147588.838242304 -0.57579 0.01335 0.04798 -0.00049 0.00114 0.00005 0.06055 -0.00267 -0.36954 
1548147589.2692352 -0.57450 -0.01694 0.08352 -0.00049 0.00113 0.00005 0.06048 -0.00253 -0.37069 
1548147589.162152192 -0.61663 -0.01353 0.06823 -0.00047 0.00114 0.00004 0.06062 -0.00265 -0.37113 
1548147589.346532352 -0.58982 -0.02401 0.10733 -0.00050 0.00112 0.00004 0.06011 -0.00319 -0.37106 
1548147589.505992448 -0.50382 0.02102 0.10611 -0.00046 0.00110 0.00005 0.06022 -0.00273 -0.37102 
1548147589.710322432 -0.43160 0.01874 0.11651 -0.00045 0.00109 0.00005 0.06024 -0.00299 -0.37138 
1548147589.994362368 -0.55506 -0.02297 0.09930 -0.00046 0.00110 0.00004 0.06040 -0.00270 -0.37175 
1548147590.188712448 -0.52327 -0.02143 0.04268 -0.00046 0.00111 0.00004 0.06047 -0.00318 -0.37115 
1548147590.442852352 -0.37378 -0.01153 0.05274 -0.00048 0.00110 0.00004 0.06039 -0.00276 -0.37191 
1548147590.741832192 -0.51599 -0.00611 0.00442 -0.00047 0.00112 0.00004 0.06064 -0.00270 -0.36948 
1548147590.941182464 -0.52072 -0.02781 0.03948 -0.00046 0.00111 0.00004 0.06055 -0.00257 -0.37099 
1548147591.145482240 -0.46637 -0.01749 0.05613 -0.00047 0.00111 0.00004 0.06033 -0.00243 -0.37198 
1548147591.290012416 -0.62864 0.03919 -0.01084 -0.00046 0.00111 0.00004 0.06039 -0.00218 -0.37153 
1548147591.504292352 -0.51336 -0.01569 0.02859 -0.00046 0.00111 0.00005 0.06051 -0.00279 -0.37042 
1548147591.748462080 -0.44564 -0.01401 0.01704 -0.00049 0.00111 0.00004 0.06031 -0.00279 -0.37207 
1548147591.897962240 -0.37883 0.00370 0.05576 -0.00051 0.00110 0.00004 0.05988 -0.00289 -0.37125 
1548147592.152112128 -0.10601 -0.01835 0.08052 -0.00054 0.00111 0.00003 0.06027 -0.00284 -0.37127 
1548147592.306602240 0.27008 0.02273 0.04806 -0.00052 0.00111 0.00003 0.05981 -0.00399 -0.36668 
1548147592.490982400 0.05450 0.01860 -0.00779 -0.00052 0.00112 0.00003 0.06005 -0.00363 -0.36748 
1548147592.735162368 -0.05550 0.00975 -0.00720 -0.00054 0.00112 0.00003 0.05998 -0.00299 -0.36679 
1548147592.999282432 -0.03381 0.01494 -0.00920 -0.00054 0.00112 0.00004 0.06000 -0.00332 -0.36686 
1548147593.208572160 0.03213 0.01071 -0.01304 -0.00054 0.00111 0.00003 0.05995 -0.00349 -0.36678 
1548147593.437812224 0.00160 0.00836 -0.01393 -0.00056 0.00111 0.00003 0.05994 -0.00325 -0.36684 
1548147593.552412160 0.01636 0.00929 -0.01606 -0.00055 0.00111 0.00003 0.05993 -0.00341 -0.36681 
1548147593.736802304 0.00397 0.00931 -0.01586 -0.00056 0.00111 0.00003 0.05989 -0.00303 -0.36676 
1548147593.990942208 0.00793 0.00809 -0.01765 -0.00057 0.00111 0.00003 0.05984 -0.00309 -0.36662 
1548147594.200242176 0.00940 0.00785 -0.01908 -0.00056 0.00111 0.00003 0.05980 -0.00296 -0.36646 
1548147594.399562240 0.00801 0.00788 -0.01935 -0.00057 0.00111 0.00003 0.05976 -0.00293 -0.36633 
1548147594.539102208 0.01130 0.00885 -0.02034 -0.00058 0.00111 0.00003 0.05974 -0.00290 -0.36628 
1548147594.698562048 0.01077 0.00710 -0.02128 -0.00057 0.00111 0.00003 0.05972 -0.00298 -0.36628 
1548147594.887922176 0.01187 0.00887 -0.02398 -0.00057 0.00111 0.00003 0.05969 -0.00288 -0.36609 
1548147594.967642368 0.01151 0.00624 -0.02383 -0.00057 0.00111 0.00003 0.05966 -0.00280 -0.36605 
1548147595.107182336 0.01042 0.00616 -0.02405 -0.00056 0.00111 0.00003 0.05962 -0.00288 -0.36588 
1548147595.286572288 0.00706 0.00823 -0.02371 -0.00057 0.00112 0.00003 0.05957 -0.00272 -0.36566 
1548147595.391222272 0.00912 0.00761 -0.02394 -0.00058 0.00111 0.00003 0.05955 -0.00268 -0.36563 
1548147595.540702208 0.01031 0.00441 -0.02580 -0.00056 0.00111 0.00003 0.05953 -0.00294 -0.36562 
1548147595.650352128 0.01361 0.00692 -0.02662 -0.00054 0.00111 0.00003 0.05952 -0.00318 -0.36564 
1548147595.844692224 0.00866 0.00466 -0.02558 -0.00057 0.00111 0.00003 0.05943 -0.00298 -0.36531 
1548147596.58982144 0.00762 0.00568 -0.02674 -0.00056 0.00112 0.00003 0.05939 -0.00305 -0.36514 
1548147596.283232256 0.01031 0.00510 -0.02871 -0.00056 0.00111 0.00003 0.05936 -0.00323 -0.36510 
1548147596.447662080 0.00907 0.00424 -0.02919 -0.00056 0.00111 0.00003 0.05931 -0.00309 -0.36487 
1548147596.686862336 0.01346 0.00710 -0.02947 -0.00057 0.00111 0.00003 0.05923 -0.00277 -0.36450 
1548147596.891162112 0.00658 0.00784 -0.03194 -0.00057 0.00112 0.00003 0.05922 -0.00297 -0.36453 
1548147597.40662016 0.03079 -0.00080 -0.02982 -0.00056 0.00111 0.00003 0.05916 -0.00288 -0.36433 
1548147597.239982080 0.30833 0.01384 -0.02258 -0.00053 0.00111 0.00004 0.05913 -0.00357 -0.36434 
1548147597.444292096 0.38120 0.01985 -0.03593 -0.00051 0.00112 0.00004 0.05936 -0.00335 -0.36561 
1548147597.553912064 0.42678 0.01141 -0.03169 -0.00052 0.00113 0.00004 0.05935 -0.00340 -0.36546 
1548147597.743272192 0.60971 0.02017 -0.05149 -0.00051 0.00113 0.00005 0.05956 -0.00351 -0.36655 
1548147597.942602240 0.50302 -0.00434 -0.09287 -0.00050 0.00117 0.00005 0.05999 -0.00292 -0.36826 
1548147598.102052096 0.38163 0.02483 -0.09292 -0.00050 0.00116 0.00005 0.05980 -0.00311 -0.36735 
1548147598.281452288 0.45941 -0.01499 -0.07101 -0.00049 0.00115 0.00005 0.05942 -0.00326 -0.36566 
1548147598.430941952 0.51084 -0.00284 -0.06296 -0.00046 0.00114 0.00006 0.05906 -0.00299 -0.36388 
1548147598.610331904 0.51565 0.01456 -0.04949 -0.00044 0.00114 0.00006 0.05915 -0.00292 -0.36424 
1548147598.774772224 0.42959 0.01843 -0.06046 -0.00044 0.00114 0.00006 0.05942 -0.00325 -0.36527 
1548147598.954152192 0.41369 -0.02034 -0.06475 -0.00046 0.00114 0.00006 0.05932 -0.00329 -0.36486 
1548147599.183382016 0.49939 0.00554 -0.04303 -0.00044 0.00112 0.00005 0.05908 -0.00341 -0.36408 
1548147599.337851904 0.54658 0.00661 -0.04312 -0.00046 0.00111 0.00006 0.05895 -0.00305 -0.36358 
1548147599.487332096 0.56522 0.01518 -0.01061 -0.00048 0.00111 0.00005 0.05917 -0.00278 -0.36486 
1548147599.756432128 0.65152 -0.01961 -0.12267 -0.00051 0.00114 0.00005 0.05976 -0.00179 -0.36682 
1548147599.950771968 0.60696 0.03566 -0.09730 -0.00047 0.00113 0.00005 0.05958 -0.00164 -0.36631 
1548147600.145112064 0.52373 -0.00654 -0.12878 -0.00046 0.00114 0.00005 0.05984 -0.00114 -0.36720 
1548147600.379322112 0.51571 -0.03135 -0.12107 -0.00047 0.00114 0.00005 0.05966 -0.00136 -0.36619 
1548147600.538782208 0.42643 0.02242 -0.13236 -0.00047 0.00114 0.00005 0.05948 -0.00148 -0.36529 
1548147600.743081984 0.54237 -0.02588 -0.08284 -0.00049 0.00113 0.00005 0.05940 -0.00384 -0.36495 
1548147600.947401984 0.60962 -0.00074 -0.13827 -0.00050 0.00112 0.00005 0.05929 -0.00483 -0.36468 
1548147601.101871872 0.59467 -0.01965 -0.07876 -0.00049 0.00112 0.00005 0.05903 -0.00359 -0.36367 
1548147601.316142080 0.06143 -0.02532 -0.08616 -0.00048 0.00112 0.00005 0.05933 -0.00441 -0.36447 
1548147601.540382208 -0.04277 -0.05696 -0.10840 -0.00050 0.00114 0.00005 0.05944 -0.00363 -0.36460 
1548147601.844371968 0.11439 0.01925 -0.04349 -0.00050 0.00113 0.00004 0.05770 -0.00775 -0.35414 
1548147602.128411904 -0.05672 0.00031 -0.00541 -0.00050 0.00113 0.00004 0.05754 -0.00779 -0.35425 
1548147602.332711936 -0.00904 -0.00028 -0.00580 -0.00050 0.00113 0.00004 0.05754 -0.00747 -0.35468 
1548147602.482212096 0.01468 0.00022 0.00074 -0.00050 0.00113 0.00004 0.05751 -0.00749 -0.35477 
1548147602.691502080 -0.00045 0.00198 0.00387 -0.00050 0.00113 0.00004 0.05752 -0.00777 -0.35492 
1548147602.860922112 0.00091 0.00001 0.00550 -0.00050 0.00113 0.00004 0.05752 -0.00774 -0.35493 
1548147603.35342080 0.00255 -0.00159 0.00869 -0.00050 0.00113 0.00004 0.05752 -0.00769 -0.35502 
1548147603.179842048 0.00143 -0.00296 0.01111 -0.00050 0.00113 0.00004 0.05753 -0.00757 -0.35519 
1548147603.334321920 -0.00356 -0.00319 0.01348 -0.00050 0.00113 0.00004 0.05753 -0.00786 -0.35517 
1548147603.578491904 -0.00377 -0.00420 0.01587 -0.00050 0.00113 0.00005 0.05756 -0.00739 -0.35541 
1548147603.832632064 -0.00203 -0.00535 0.01828 -0.00050 0.00113 0.00005 0.05757 -0.00745 -0.35539 
1548147604.51881984 -0.00172 -0.00720 0.01949 -0.00050 0.00114 0.00004 0.05757 -0.00768 -0.35537 
1548147604.226301952 0.00314 0.00293 0.03547 -0.00049 0.00113 0.00004 0.05760 -0.00796 -0.35556 
1548147604.385762048 -0.02649 0.00093 0.03734 -0.00049 0.00113 0.00004 0.05762 -0.00812 -0.35591 
1548147604.590071808 0.00389 -0.02747 0.04455 -0.00049 0.00112 0.00005 0.05764 -0.00771 -0.35636 
1548147604.729592064 0.01855 -0.01130 0.05454 -0.00049 0.00112 0.00005 0.05762 -0.00721 -0.35624 
1548147604.894062080 -0.22242 -0.02289 0.04325 -0.00049 0.00113 0.00005 0.05759 -0.00732 -0.35597 
1548147605.83411968 0.00192 0.00039 0.00520 -0.00052 0.00113 0.00004 0.05780 -0.00628 -0.35569 
1548147605.252841984 0.12473 0.00720 -0.00919 -0.00050 0.00114 0.00005 0.05772 -0.00703 -0.35635 
1548147605.387382016 0.00402 0.01343 0.02359 -0.00051 0.00114 0.00004 0.05767 -0.00654 -0.35644 
1548147605.556802048 -0.00270 -0.00899 0.01035 -0.00051 0.00114 0.00004 0.05766 -0.00730 -0.35586 
1548147605.736192000 -0.03573 -0.01390 0.00787 -0.00052 0.00114 0.00004 0.05766 -0.00699 -0.35550 
1548147605.845831936 -0.01994 -0.02167 0.01533 -0.00051 0.00114 0.00004 0.05766 -0.00702 -0.35554 
1548147606.80041984 -0.14940 -0.02319 0.03429 -0.00050 0.00114 0.00005 0.05767 -0.00708 -0.35555 
1548147606.229552128 -0.25700 -0.00783 0.05079 -0.00048 0.00114 0.00004 0.05769 -0.00680 -0.35635 
1548147606.438841856 -0.44393 -0.01339 0.07937 -0.00051 0.00115 0.00004 0.05769 -0.00706 -0.35625 
1548147606.593321984 -0.44769 -0.01136 0.09930 -0.00048 0.00114 0.00004 0.05768 -0.00667 -0.35707 
1548147606.717912064 -0.43666 -0.00179 0.09051 -0.00047 0.00113 0.00004 0.05771 -0.00762 -0.35754 
1548147606.897321984 -0.53352 -0.03802 0.05286 -0.00050 0.00114 0.00004 0.05770 -0.00612 -0.35553 
1548147607.81701888 -0.71134 0.03755 0.05501 -0.00048 0.00114 0.00003 0.05770 -0.00733 -0.35589 
1548147607.221221888 -0.74049 -0.00552 0.10067 -0.00049 0.00113 0.00003 0.05766 -0.00694 -0.35695 
1548147607.425541888 -0.73803 -0.04343 0.09999 -0.00049 0.00113 0.00004 0.05816 -0.01025 -0.36234 
1548147607.580021760 -0.62322 0.00352 0.14003 -0.00046 0.00110 0.00004 0.05803 -0.00971 -0.36320 
1548147607.879001856 -0.50813 -0.00113 0.11194 -0.00046 0.00108 0.00004 0.05777 -0.01138 -0.36329 
1548147608.232801792 -0.51296 -0.01177 0.09535 -0.00047 0.00109 0.00004 0.05846 -0.01305 -0.37025 
1548147608.486951936 -0.46883 0.00270 0.08456 -0.00045 0.00110 0.00004 0.05859 -0.01289 -0.37054 
1548147608.676302080 -0.50470 -0.01388 0.09140 -0.00046 0.00111 0.00004 0.05885 -0.01251 -0.37152 
1548147608.805861888 -0.55030 0.00066 0.07614 -0.00046 0.00112 0.00004 0.05892 -0.01256 -0.37166 
1548147608.935421952 -0.53165 -0.00739 0.06193 -0.00046 0.00112 0.00004 0.05897 -0.01199 -0.37208 
1548147609.50031872 -0.62006 -0.02686 0.01761 -0.00045 0.00112 0.00003 0.05894 -0.01203 -0.37215 
1548147609.179601920 -0.59201 0.03088 0.07807 -0.00044 0.00113 0.00004 0.05904 -0.01215 -0.37230 
1548147609.334081792 -0.71001 0.00658 0.03451 -0.00044 0.00113 0.00004 0.05905 -0.01169 -0.37229 
1548147609.538391808 -0.50217 -0.00405 0.01908 -0.00045 0.00113 0.00003 0.05891 -0.01173 -0.37294 
1548147609.872251648 0.05742 0.01428 -0.04467 -0.00046 0.00113 0.00003 0.05884 -0.01134 -0.37220 
1548147610.126401792 0.08377 0.01054 0.05719 -0.00046 0.00116 0.00004 0.06055 -0.01195 -0.38766 
1548147610.380551936 -0.07131 0.00941 0.03690 -0.00047 0.00116 0.00004 0.06081 -0.00998 -0.38919 
1548147610.579891968 -0.08035 0.00051 0.01979 -0.00047 0.00117 0.00004 0.06107 -0.00960 -0.39053 
1548147610.829041664 -0.05156 -0.00609 0.00671 -0.00048 0.00117 0.00004 0.06138 -0.00938 -0.39255 
1548147611.123062016 -0.04797 -0.00298 -0.00679 -0.00047 0.00117 0.00004 0.06153 -0.00988 -0.39358 
1548147611.342321920 -0.02512 -0.00625 -0.01573 -0.00046 0.00117 0.00004 0.06161 -0.00950 -0.39407 
1548147611.481851904 -0.04003 -0.00952 -0.01989 -0.00046 0.00117 0.00004 0.06167 -0.00888 -0.39453 
1548147611.681181952 -0.03138 -0.00641 -0.02233 -0.00046 0.00117 0.00003 0.06164 -0.00927 -0.39429 
1548147611.825691648 -0.03835 -0.00773 -0.02586 -0.00047 0.00117 0.00003 0.06166 -0.00906 -0.39455 
1548147612.74851840 -0.03474 -0.00738 -0.03013 -0.00046 0.00116 0.00003 0.06165 -0.00904 -0.39455 
1548147612.373861888 -0.04220 -0.00936 -0.03239 -0.00046 0.00117 0.00003 0.06156 -0.00913 -0.39390 
1548147612.493451776 -0.04175 -0.00952 -0.03442 -0.00046 0.00116 0.00003 0.06156 -0.00917 -0.39403 
1548147612.628011776 -0.03906 -0.01237 -0.03634 -0.00046 0.00116 0.00003 0.06153 -0.00913 -0.39385 
1548147612.782491648 -0.04003 -0.01039 -0.03689 -0.00045 0.00116 0.00003 0.06150 -0.00925 -0.39367 
1548147612.986811904 -0.02112 -0.01535 -0.03762 -0.00045 0.00116 0.00003 0.06144 -0.00917 -0.39333 
1548147613.221021696 0.16439 -0.00541 -0.03865 -0.00045 0.00116 0.00003 0.06142 -0.00982 -0.39316 
1548147613.380491776 0.29513 -0.01811 -0.03652 -0.00046 0.00115 0.00003 0.06142 -0.00943 -0.39334 
1548147613.534971648 0.35034 0.00595 -0.04550 -0.00044 0.00116 0.00003 0.06164 -0.01055 -0.39482 
1548147613.828991744 0.56830 0.01424 -0.06622 -0.00044 0.00118 0.00003 0.06191 -0.01042 -0.39639 
1548147613.973491712 0.55267 -0.01940 -0.08261 -0.00044 0.00119 0.00004 0.06210 -0.01088 -0.39730 
1548147614.123001856 0.46028 0.00711 -0.04913 -0.00044 0.00120 0.00004 0.06199 -0.01095 -0.39647 
1548147614.277481728 0.49844 -0.00273 -0.08823 -0.00044 0.00119 0.00004 0.06167 -0.01105 -0.39449 
1548147614.471831808 0.55803 -0.00230 -0.07999 -0.00044 0.00117 0.00003 0.06142 -0.01233 -0.39278 
1548147614.721011712 0.43157 -0.01613 -0.07831 -0.00044 0.00117 0.00003 0.06159 -0.01265 -0.39394 
1548147614.920351744 0.48497 -0.02518 -0.08435 -0.00045 0.00117 0.00003 0.06159 -0.01304 -0.39398 
1548147615.129651712 0.60326 -0.00068 -0.06316 -0.00046 0.00114 0.00003 0.06121 -0.01355 -0.39230 
1548147615.284141824 0.56187 0.00013 -0.03506 -0.00047 0.00114 0.00003 0.06145 -0.01306 -0.39338 
1548147615.403721728 0.65643 -0.00209 -0.12714 -0.00046 0.00114 0.00003 0.06156 -0.01347 -0.39395 
1548147615.568191744 0.69747 -0.00051 -0.11391 -0.00047 0.00116 0.00003 0.06193 -0.01305 -0.39564 
1548147615.767521536 0.66460 0.01341 -0.15202 -0.00043 0.00114 0.00003 0.06200 -0.01389 -0.39581 
1548147615.981811712 0.57658 -0.00637 -0.15418 -0.00045 0.00117 0.00003 0.06197 -0.01445 -0.39628 
1548147616.171171584 0.68914 -0.00769 -0.09996 -0.00043 0.00117 0.00003 0.06193 -0.01460 -0.39611 
1548147616.370501632 0.46460 -0.00429 -0.17280 -0.00043 0.00116 0.00002 0.06356 -0.01734 -0.41260 
1548147616.589761792 0.60539 0.02229 -0.11414 -0.00046 0.00113 0.00002 0.06378 -0.02075 -0.41841 
1548147616.729281536 0.54032 -0.00848 -0.04290 -0.00047 0.00113 0.00002 0.06373 -0.02054 -0.41768 
1548147616.923641600 -0.21417 -0.09922 -0.04716 -0.00047 0.00114 0.00003 0.06357 -0.02229 -0.41503 
1548147617.122971648 -0.02793 -0.05516 -0.04250 -0.00047 0.00113 0.00001 0.06334 -0.02340 -0.41620 
1548147617.322301696 0.11928 -0.01792 -0.04004 -0.00047 0.00113 0.00001 0.06327 -0.02492 -0.41626 
1548147617.506681600 0.17841 -0.01510 -0.03879 -0.00047 0.00114 0.00001 0.06323 -0.02615 -0.41675 
1548147617.621301760 -0.02386 -0.01019 -0.02078 -0.00047 0.00114 0.00000 0.06322 -0.02585 -0.41680 
1548147617.725951744 -0.05991 -0.01997 -0.00590 -0.00047 0.00114 0.00001 0.06318 -0.02615 -0.41647 
1548147617.965141504 -0.00258 -0.00833 -0.00851 -0.00047 0.00114 0.00000 0.06316 -0.02700 -0.41642 
1548147618.174431488 0.03223 -0.00531 -0.00041 -0.00048 0.00114 0.00000 0.06315 -0.02704 -0.41643 
1548147618.373761536 0.01987 -0.00434 0.00325 -0.00048 0.00114 0.00000 0.06314 -0.02707 -0.41642 
1548147618.538211584 0.01135 -0.00294 0.00602 -0.00048 0.00114 0.00000 0.06313 -0.02709 -0.41640 
1548147618.667771648 0.01650 -0.00057 0.00860 -0.00048 0.00114 0.00000 0.06313 -0.02713 -0.41636 
1548147618.787361536 0.01560 0.00070 0.01163 -0.00048 0.00114 0.00000 0.06312 -0.02716 -0.41632 
1548147618.996661760 0.01322 0.00267 0.01687 -0.00049 0.00114 0.00000 0.06309 -0.02723 -0.41620 
1548147619.270751744 0.00805 0.00673 0.02317 -0.00049 0.00115 0.00000 0.06307 -0.02740 -0.41611 
1548147619.564771584 -0.00141 0.01188 0.02960 -0.00051 0.00115 -0.00000 0.06305 -0.02827 -0.41593 
1548147619.813931776 0.00248 0.01176 0.03195 -0.00051 0.00115 -0.00000 0.06307 -0.02763 -0.41599 
1548147620.117901568 -0.12534 0.00548 0.04702 -0.00052 0.00115 -0.00000 0.06306 -0.02761 -0.41556 
1548147620.362071552 -0.39669 0.00850 0.08258 -0.00050 0.00115 -0.00000 0.06309 -0.02797 -0.41557 
1548147620.720881408 -0.39945 -0.01844 0.11177 -0.00050 0.00114 -0.00000 0.06307 -0.02752 -0.41590 
1548147620.980001536 -0.74676 -0.03260 0.07958 -0.00049 0.00115 -0.00000 0.06310 -0.02794 -0.41526 
1548147621.184311552 -0.61960 -0.01144 0.13934 -0.00048 0.00116 -0.00000 0.06319 -0.02772 -0.41547 
1548147621.463361536 -0.71983 -0.04461 0.09502 -0.00050 0.00117 -0.00000 0.06319 -0.02717 -0.41656 
1548147621.617841408 -0.65479 -0.00298 0.14129 -0.00046 0.00114 0.00000 0.06281 -0.02866 -0.41498 
1548147621.802221568 -0.52911 0.00476 0.13679 -0.00047 0.00112 0.00000 0.06284 -0.02897 -0.41470 
1548147621.991581440 -0.64835 -0.00027 0.10551 -0.00045 0.00112 0.00000 0.06282 -0.02883 -0.41483 
1548147622.141071616 -0.61326 0.04033 0.04858 -0.00044 0.00112 0.00001 0.06297 -0.02813 -0.41552 
1548147622.365311744 -0.48873 0.02229 0.08842 -0.00045 0.00111 0.00000 0.06290 -0.02777 -0.41582 
1548147622.574601472 -0.49030 -0.00866 0.05700 -0.00044 0.00112 0.00001 0.06319 -0.02663 -0.41638 
1548147622.729071616 -0.52984 0.00335 0.06475 -0.00044 0.00113 0.00001 0.06325 -0.02647 -0.41631 
1548147622.918431488 -0.56330 0.01894 0.06660 -0.00044 0.00113 0.00001 0.06311 -0.02703 -0.41643 
1548147623.137691392 -0.73755 0.03155 -0.00535 -0.00042 0.00112 0.00001 0.06304 -0.02682 -0.41693 
1548147623.317091584 -0.64255 -0.03348 0.04365 -0.00043 0.00114 0.00001 0.06324 -0.02561 -0.41742 
1548147623.566241536 -0.54776 -0.01121 0.04831 -0.00044 0.00112 0.00001 0.06386 -0.03183 -0.42737 
1548147623.765561600 -0.33374 0.01124 0.15866 -0.00044 0.00112 0.00000 0.06383 -0.03152 -0.42815 
1548147623.974851328 0.37063 0.10464 0.10072 -0.00043 0.00112 0.00000 0.06395 -0.03196 -0.42848 
1548147624.169181696 -0.07733 0.05127 0.05751 -0.00045 0.00114 0.00000 0.06370 -0.03123 -0.42335 
1548147624.373491456 -0.09414 -0.00198 0.02920 -0.00044 0.00114 0.00001 0.06422 -0.03008 -0.42784 
1548147624.527961600 -0.08276 0.01403 0.02696 -0.00043 0.00113 0.00001 0.06425 -0.03078 -0.42815 
1548147624.772131328 -0.07195 0.01479 0.01589 -0.00044 0.00113 0.00001 0.06435 -0.03046 -0.42858 
1548147624.966471424 0.02757 0.01754 0.00496 -0.00044 0.00113 0.00000 0.06432 -0.03082 -0.42831 
1548147625.110991360 -0.01082 0.01288 0.00801 -0.00045 0.00113 0.00000 0.06433 -0.03075 -0.42840 
1548147625.310311680 0.00528 0.01102 -0.00115 -0.00045 0.00113 0.00000 0.06435 -0.03018 -0.42843 
1548147625.484731392 -0.00283 0.00992 -0.00426 -0.00045 0.00113 0.00000 0.06435 -0.03032 -0.42838 
1548147625.684051456 0.00018 0.01087 -0.00852 -0.00045 0.00113 0.00000 0.06433 -0.03044 -0.42824 
1548147625.888351488 0.00391 0.00846 -0.01328 -0.00045 0.00113 0.00000 0.06432 -0.03049 -0.42818 
1548147626.72721408 0.03717 0.01275 -0.01231 -0.00045 0.00113 0.00000 0.06428 -0.03058 -0.42785 
1548147626.361741568 0.28857 0.03667 -0.01163 -0.00043 0.00113 -0.00000 0.06423 -0.03134 -0.42757 
1548147626.615881472 0.41804 0.03566 -0.01573 -0.00043 0.00113 0.00000 0.06434 -0.03067 -0.42837 
1548147626.790291200 0.54038 0.01297 -0.02838 -0.00042 0.00114 0.00001 0.06445 -0.03058 -0.42900 
1548147627.9551616 0.58996 -0.00756 -0.04364 -0.00043 0.00114 0.00001 0.06457 -0.02952 -0.42950 
1548147627.258701312 0.57236 0.00929 -0.09352 -0.00045 0.00115 0.00001 0.06468 -0.02965 -0.42984 
1548147627.517821184 0.63709 0.03630 -0.06332 -0.00045 0.00114 0.00001 0.06417 -0.03078 -0.42656 
1548147627.747041536 0.53172 0.01533 -0.06648 -0.00045 0.00115 0.00001 0.06465 -0.03028 -0.42960 
1548147627.966301440 0.50219 -0.01672 -0.06125 -0.00047 0.00114 0.00001 0.06440 -0.03056 -0.42847 
1548147628.165641216 0.65850 0.02454 -0.04712 -0.00046 0.00112 0.00001 0.06412 -0.03118 -0.42706 
1548147628.315131392 0.75811 0.14303 -0.10901 -0.00045 0.00113 0.00001 0.06422 -0.03147 -0.42760 
1548147628.489551360 0.77607 0.00033 -0.17092 -0.00047 0.00114 0.00001 0.06453 -0.03111 -0.42914 
1548147628.629071360 0.71703 -0.02223 -0.15588 -0.00048 0.00116 0.00001 0.06497 -0.03062 -0.43195 
1548147628.868271360 0.59384 0.01593 -0.13117 -0.00046 0.00117 0.00001 0.06503 -0.03034 -0.43227 
1548147629.62611456 0.62591 -0.02761 -0.15222 -0.00047 0.00117 0.00001 0.06510 -0.02931 -0.43256 
1548147629.217081344 0.45932 0.02652 -0.16167 -0.00047 0.00118 0.00000 0.06547 -0.03204 -0.43633 
1548147629.426381312 0.45723 -0.01067 -0.11445 -0.00049 0.00119 0.00000 0.06530 -0.03468 -0.43311 
1548147629.615731200 0.49459 -0.00847 -0.15919 -0.00047 0.00117 0.00000 0.06533 -0.03588 -0.43471 
1548147629.825021184 0.51638 0.12051 -0.06485 -0.00046 0.00115 0.00000 0.06529 -0.03597 -0.43540 
1548147630.39311360 -0.25038 -0.01559 0.01399 -0.00046 0.00115 0.00001 0.06552 -0.03835 -0.43821 
1548147630.213711360 -0.04029 -0.08079 -0.04998 -0.00048 0.00116 0.00001 0.06552 -0.03683 -0.43749 
1548147630.368201216 0.08444 -0.03584 -0.03278 -0.00048 0.00114 0.00000 0.06551 -0.03940 -0.43952 
1548147630.532661504 0.13707 -0.00916 -0.01835 -0.00047 0.00115 -0.00001 0.06551 -0.04074 -0.44109 
1548147630.712051456 0.09359 -0.00854 0.02480 -0.00048 0.00116 -0.00001 0.06549 -0.04156 -0.44181 
1548147630.931321344 0.00085 0.00637 0.01013 -0.00048 0.00116 -0.00002 0.06561 -0.04184 -0.44296 
1548147631.120681216 -0.03748 0.01165 0.01488 -0.00048 0.00115 -0.00002 0.06560 -0.04207 -0.44317 
1548147631.310051328 0.00966 0.01937 0.01986 -0.00049 0.00115 -0.00002 0.06562 -0.04230 -0.44323 
1548147631.564201472 -0.00289 0.02230 0.02587 -0.00049 0.00115 -0.00002 0.06561 -0.04219 -0.44314 
1548147631.808391424 -0.00820 0.01978 0.02944 -0.00048 0.00115 -0.00002 0.06561 -0.04227 -0.44315 
1548147632.107371264 -0.00749 0.02230 0.02878 -0.00049 0.00116 -0.00001 0.06569 -0.04266 -0.44334 
1548147632.406381312 -0.00836 0.02073 0.03146 -0.00050 0.00116 -0.00001 0.06570 -0.04218 -0.44321 
1548147632.560861440 -0.00941 0.01815 0.03231 -0.00050 0.00116 -0.00001 0.06570 -0.04222 -0.44304 
1548147632.645561344 -0.00952 0.02016 0.03129 -0.00050 0.00116 -0.00001 0.06571 -0.04214 -0.44290 
1548147632.775131136 -0.00336 0.02075 0.03139 -0.00050 0.00115 -0.00001 0.06576 -0.04230 -0.44323 
1548147633.9351168 -0.00236 0.01990 0.03152 -0.00050 0.00115 -0.00001 0.06576 -0.04184 -0.44287 
1548147633.253531136 -0.00670 0.01894 0.03295 -0.00050 0.00116 -0.00001 0.06576 -0.04169 -0.44255 
1548147633.403021312 -0.00547 0.01996 0.03350 -0.00050 0.00116 -0.00001 0.06575 -0.04152 -0.44231 
1548147633.562491136 -0.00510 0.01875 0.03351 -0.00050 0.00116 -0.00001 0.06576 -0.04151 -0.44216 
1548147633.687071232 -0.00865 0.01816 0.03572 -0.00050 0.00116 -0.00001 0.06574 -0.04139 -0.44192 
1548147633.861491200 -0.00770 0.01917 0.03494 -0.00050 0.00116 -0.00001 0.06577 -0.04135 -0.44183 
1548147634.110661376 -0.00328 0.01857 0.03566 -0.00050 0.00115 -0.00001 0.06580 -0.04150 -0.44182 
1548147634.354831104 -0.00945 0.01515 0.03662 -0.00050 0.00116 -0.00001 0.06579 -0.04126 -0.44141 
1548147634.474421248 -0.00715 0.01590 0.03581 -0.00050 0.00116 -0.00001 0.06581 -0.04109 -0.44133 
1548147634.708651264 -0.00648 0.01251 0.03656 -0.00050 0.00116 -0.00001 0.06580 -0.04075 -0.44093 
1548147634.883061248 -0.00765 0.01532 0.03784 -0.00049 0.00116 -0.00001 0.06580 -0.04098 -0.44085 
1548147635.57481216 -0.00933 0.01395 0.03767 -0.00050 0.00116 -0.00001 0.06581 -0.04055 -0.44067 
1548147635.261791232 -0.01002 0.01258 0.03927 -0.00050 0.00116 -0.00001 0.06581 -0.04056 -0.44047 
1548147635.456141312 -0.00402 0.01327 0.03909 -0.00050 0.00116 -0.00001 0.06582 -0.04019 -0.44023 
1548147635.655481088 -0.00908 0.01238 0.03919 -0.00049 0.00116 -0.00001 0.06582 -0.04019 -0.43986 
1548147635.909621248 -0.01308 0.00788 0.03858 -0.00050 0.00116 -0.00000 0.06582 -0.04028 -0.43944 
1548147636.113911040 -0.00825 0.01224 0.04040 -0.00049 0.00116 -0.00001 0.06583 -0.03993 -0.43942 
1548147636.353111296 -0.01225 0.01098 0.04004 -0.00050 0.00116 -0.00001 0.06583 -0.03979 -0.43900 
1548147636.502601216 -0.00806 0.01105 0.04298 -0.00049 0.00116 -0.00001 0.06580 -0.03943 -0.43870 
1548147636.701921280 -0.01043 0.00963 0.04102 -0.00050 0.00116 -0.00000 0.06583 -0.03988 -0.43854 
1548147636.861381120 -0.01220 0.00544 0.04008 -0.00049 0.00116 -0.00000 0.06586 -0.04009 -0.43852 
1548147637.65681152 -0.00896 0.00670 0.04010 -0.00050 0.00116 -0.00000 0.06584 -0.04001 -0.43804 
1548147637.170341376 -0.01322 0.00579 0.04002 -0.00050 0.00116 -0.00001 0.06584 -0.03990 -0.43794 
1548147637.379621120 -0.01020 0.01100 0.03890 -0.00050 0.00116 -0.00001 0.06585 -0.03989 -0.43755 
1548147637.544071168 -0.00975 0.00670 0.04029 -0.00050 0.00116 -0.00001 0.06585 -0.03969 -0.43742 
1548147637.673631232 -0.01473 0.00692 0.04159 -0.00049 0.00116 -0.00001 0.06584 -0.03957 -0.43729 
1548147637.828111104 -0.01216 0.00549 0.04260 -0.00049 0.00116 -0.00000 0.06584 -0.03969 -0.43706 
1548147638.2531072 -0.01484 0.00374 0.04444 -0.00050 0.00116 -0.00000 0.06585 -0.03962 -0.43706 
1548147638.127111168 -0.01327 0.00473 0.04381 -0.00050 0.00116 -0.00001 0.06585 -0.03971 -0.43686 
1548147638.261660928 -0.01530 0.00035 0.04493 -0.00050 0.00116 -0.00000 0.06584 -0.03967 -0.43663 
1548147638.401191168 -0.00964 0.00359 0.04450 -0.00050 0.00116 -0.00001 0.06586 -0.03974 -0.43658 
1548147638.600531200 -0.01906 0.00316 0.04353 -0.00051 0.00116 -0.00001 0.06587 -0.03962 -0.43625 
1548147638.769951232 -0.00908 0.00694 0.04650 -0.00049 0.00116 -0.00001 0.06588 -0.03948 -0.43631 
1548147638.934391040 -0.01638 0.00373 0.04359 -0.00050 0.00116 -0.00001 0.06586 -0.03919 -0.43560 
1548147639.103831040 -0.00988 0.00497 0.04595 -0.00049 0.00116 -0.00001 0.06587 -0.03940 -0.43563 
1548147639.308141056 -0.01673 0.00316 0.04490 -0.00049 0.00116 -0.00001 0.06587 -0.03929 -0.43530 
1548147639.472591104 -0.01862 -0.00023 0.04511 -0.00049 0.00116 -0.00000 0.06586 -0.03921 -0.43502 
1548147639.671931136 -0.01314 0.00095 0.04540 -0.00050 0.00116 -0.00001 0.06589 -0.03922 -0.43501 
1548147639.871271168 -0.01539 0.00105 0.04570 -0.00050 0.00116 -0.00000 0.06591 -0.03944 -0.43496 
1548147640.75601152 -0.01475 -0.00048 0.04239 -0.00050 0.00116 -0.00001 0.06589 -0.03904 -0.43425 
1548147640.319771136 -0.01514 0.00163 0.04591 -0.00049 0.00116 -0.00001 0.06589 -0.03915 -0.43426 
1548147640.474260992 -0.01846 0.00152 0.04415 -0.00049 0.00116 -0.00001 0.06589 -0.03941 -0.43394 
1548147640.703501056 -0.02101 0.00170 0.04805 -0.00049 0.00116 -0.00001 0.06588 -0.03897 -0.43377 
1548147640.917771008 -0.01247 -0.00074 0.04768 -0.00049 0.00116 -0.00000 0.06590 -0.03900 -0.43370 
1548147641.67270912 -0.02001 -0.00255 0.04538 -0.00050 0.00116 -0.00001 0.06588 -0.03900 -0.43304 
1548147641.216781056 -0.01239 0.00198 0.04553 -0.00049 0.00116 -0.00001 0.06591 -0.03912 -0.43310 
1548147641.451000832 -0.01665 -0.00271 0.04856 -0.00049 0.00116 -0.00001 0.06590 -0.03911 -0.43295 
1548147641.675260928 -0.00272 -0.00096 0.04555 -0.00050 0.00116 -0.00001 0.06593 -0.03912 -0.43276 
1548147641.914461184 -0.01443 -0.00107 0.04525 -0.00049 0.00116 -0.00001 0.06593 -0.03895 -0.43242 
1548147642.49000960 -0.01601 -0.00412 0.04891 -0.00049 0.00116 -0.00001 0.06592 -0.03887 -0.43253 
1548147642.203480832 -0.02058 -0.00004 0.04742 -0.00050 0.00116 -0.00001 0.06591 -0.03893 -0.43206 
1548147642.402801152 -0.02031 -0.00104 0.05056 -0.00050 0.00116 -0.00001 0.06591 -0.03872 -0.43206 
1548147642.552301056 -0.01610 -0.00255 0.04892 -0.00050 0.00116 -0.00001 0.06594 -0.03876 -0.43197 
1548147642.751621120 -0.01433 -0.00213 0.04920 -0.00050 0.00116 -0.00001 0.06593 -0.03886 -0.43161 
1548147642.945980928 -0.01658 -0.00352 0.04745 -0.00049 0.00116 -0.00001 0.06594 -0.03894 -0.43144 
1548147643.155271168 -0.01513 -0.00036 0.04639 -0.00049 0.00116 -0.00001 0.06594 -0.03863 -0.43108 
1548147643.299791104 -0.01561 0.00107 0.04647 -0.00049 0.00116 -0.00001 0.06593 -0.03877 -0.43085 
1548147643.464241152 -0.01830 -0.00281 0.04812 -0.00050 0.00116 -0.00001 0.06594 -0.03887 -0.43100 
1548147643.703430912 -0.01130 -0.00580 0.04506 -0.00050 0.00116 -0.00001 0.06597 -0.03909 -0.43078 
1548147643.967540992 -0.01239 -0.00256 0.04536 -0.00050 0.00116 -0.00001 0.06597 -0.03881 -0.43046 
1548147644.201741056 -0.01169 -0.00089 0.04728 -0.00049 0.00116 -0.00001 0.06598 -0.03857 -0.43030 
1548147644.450900992 -0.01471 -0.00259 0.04290 -0.00050 0.00116 -0.00001 0.06596 -0.03884 -0.42951 
1548147644.759870976 -0.01388 -0.00105 0.04840 -0.00049 0.00116 -0.00001 0.06598 -0.03838 -0.42969 
1548147644.994081024 -0.00893 -0.00395 0.04701 -0.00049 0.00116 -0.00001 0.06599 -0.03870 -0.42940 
1548147645.253221120 -0.01116 -0.00513 0.04686 -0.00049 0.00116 -0.00001 0.06600 -0.03863 -0.42920 
1548147645.552210944 -0.01019 -0.00074 0.04699 -0.00049 0.00116 -0.00001 0.06599 -0.03870 -0.42879 
1548147645.761520896 -0.01345 -0.00376 0.04768 -0.00049 0.00116 -0.00001 0.06599 -0.03847 -0.42857 
1548147646.700928 -0.01223 -0.00339 0.04725 -0.00049 0.00116 -0.00001 0.06601 -0.03860 -0.42845 
1548147646.294700800 -0.01852 -0.00460 0.04627 -0.00050 0.00116 -0.00001 0.06600 -0.03857 -0.42788 
1548147646.494041088 -0.02025 -0.00654 0.04629 -0.00049 0.00116 -0.00001 0.06601 -0.03852 -0.42776 
1548147646.653490944 -0.01266 0.00040 0.04787 -0.00048 0.00116 -0.00001 0.06600 -0.03852 -0.42763 
1548147646.842850816 -0.01583 -0.00114 0.05191 -0.00049 0.00116 -0.00001 0.06601 -0.03843 -0.42776 
1548147646.997330944 -0.01623 -0.00240 0.05281 -0.00049 0.00116 -0.00001 0.06602 -0.03819 -0.42774 
1548147647.161780736 -0.01992 -0.00558 0.04913 -0.00049 0.00116 -0.00001 0.06601 -0.03840 -0.42721 
1548147647.371080960 -0.01545 -0.00567 0.04799 -0.00050 0.00116 -0.00001 0.06603 -0.03825 -0.42706 
1548147647.530541056 -0.01103 -0.00123 0.04842 -0.00050 0.00116 -0.00001 0.06602 -0.03831 -0.42683 
1548147647.704950784 -0.01941 -0.00308 0.05329 -0.00049 0.00116 -0.00001 0.06601 -0.03831 -0.42691 
1548147647.959100928 -0.01882 -0.00323 0.04684 -0.00049 0.00116 -0.00001 0.06606 -0.03837 -0.42661 
