1403715273.477143040 0.01051 0.00356 -0.01588 -0.00031 0.00181 0.00704 -0.00012 -0.00005 0.00002 
1403715273.767142912 -0.00772 0.01450 -0.00914 -0.00343 0.01917 0.07587 -0.00844 0.00003 0.00353 
1403715274.22142976 -0.00041 -0.02696 0.00274 -0.00245 0.01997 0.07768 -0.03741 -0.00063 0.01539 
1403715274.282142976 -0.00618 0.00721 -0.00458 -0.00211 0.02028 0.07798 -0.02642 -0.00055 0.01086 
1403715274.567142912 -0.00044 0.00004 -0.00152 -0.00211 0.02047 0.07797 -0.02796 -0.00050 0.01142 
1403715274.822142976 0.00422 -0.01002 -0.00068 -0.00178 0.02027 0.07784 -0.02722 -0.00050 0.01111 
1403715275.87142912 0.00203 0.00330 -0.00022 -0.00192 0.02031 0.07784 -0.02825 -0.00044 0.01151 
1403715275.367142912 0.00193 -0.00282 -0.00339 -0.00186 0.02036 0.07805 -0.02542 -0.00041 0.01035 
1403715275.622142976 0.00190 -0.00360 -0.00351 -0.00196 0.02046 0.07801 -0.02596 -0.00039 0.01056 
1403715275.882142976 -0.00175 -0.00064 0.00156 -0.00194 0.02042 0.07807 -0.02795 -0.00043 0.01136 
1403715276.167142912 -0.00486 0.00346 -0.00952 -0.00199 0.02043 0.07799 -0.02473 -0.00033 0.01005 
1403715276.422142976 0.00187 -0.00067 0.00298 -0.00232 0.02048 0.07824 -0.02963 -0.00041 0.01204 
1403715276.677143040 -0.01159 -0.00195 -0.00338 -0.00222 0.02031 0.07792 -0.02666 -0.00041 0.01083 
1403715276.967142912 0.00155 -0.01080 0.00436 -0.00199 0.02027 0.07794 -0.03070 -0.00044 0.01246 
1403715277.222142976 0.02202 0.00404 0.00131 -0.00219 0.02031 0.07816 -0.03228 -0.00046 0.01309 
1403715277.477143040 -0.02307 0.00127 0.00066 -0.00213 0.02019 0.07815 -0.03384 -0.00045 0.01372 
1403715277.767142912 0.00738 0.00268 -0.00349 -0.00226 0.02016 0.07805 -0.03279 -0.00039 0.01328 
1403715278.22142976 0.00174 -0.00615 -0.00996 -0.00221 0.02007 0.07800 -0.03049 -0.00033 0.01235 
1403715278.277143040 0.00499 0.00402 0.00486 -0.00208 0.02002 0.07793 -0.03010 -0.00026 0.01217 
1403715278.567142912 -0.08774 -0.02552 0.07868 -0.00211 0.01992 0.07797 -0.02704 -0.00018 0.01092 
1403715278.822142976 -0.17891 -0.05797 0.34155 -0.00260 0.02051 0.07779 -0.02236 -0.00006 0.00908 
1403715279.77143040 -0.12940 -0.03291 0.10103 -0.00238 0.02042 0.07776 -0.02687 0.00007 0.01013 
1403715279.367142912 -0.09247 -0.02284 -0.06920 -0.00240 0.02096 0.07749 -0.02643 -0.00005 0.01045 
1403715279.622142976 -0.02895 -0.00963 0.05613 -0.00222 0.02043 0.07782 -0.02905 -0.00006 0.01137 
1403715279.877143040 -0.00570 0.00918 0.13151 -0.00246 0.02043 0.07757 -0.03027 0.00001 0.01150 
1403715280.167142912 -0.03689 0.01650 0.14006 -0.00249 0.02057 0.07765 -0.03105 0.00014 0.01148 
1403715280.422142976 -0.15179 -0.04175 0.16389 -0.00240 0.02079 0.07768 -0.03450 -0.00074 0.01401 
1403715280.677143040 -0.18891 -0.06069 0.13808 -0.00258 0.02057 0.07751 -0.03542 -0.00196 0.01486 
1403715280.967142912 -0.18301 -0.07312 0.09199 -0.00227 0.02051 0.07794 -0.03570 0.00181 0.01758 
1403715281.222142976 -0.19879 -0.07214 0.08709 -0.00274 0.02084 0.07755 -0.03764 0.01677 0.01400 
1403715281.487142912 -0.20194 -0.04166 0.03308 -0.00257 0.02086 0.07760 -0.03480 0.02528 0.02046 
1403715281.767142912 -0.21283 -0.01784 -0.02471 -0.00266 0.02093 0.07755 -0.03401 0.02922 0.02150 
1403715282.22142976 -0.23830 -0.01421 -0.08818 -0.00253 0.02098 0.07752 -0.03274 0.03397 0.02372 
1403715282.277143040 -0.28188 0.00205 -0.11174 -0.00257 0.02108 0.07740 -0.02697 0.04642 0.03898 
1403715282.567142912 -0.34244 0.00178 -0.12560 -0.00266 0.02102 0.07745 -0.01738 0.05528 0.06479 
1403715282.782142976 -0.36246 -0.00081 -0.15512 -0.00267 0.02094 0.07738 -0.01309 0.06265 0.07634 
1403715283.12143104 -0.35449 -0.00396 -0.14402 -0.00269 0.02087 0.07746 -0.01598 0.06982 0.06996 
1403715283.132143104 -0.34824 -0.01446 -0.14233 -0.00269 0.02085 0.07746 -0.01515 0.07515 0.07199 
1403715283.272143104 -0.32111 -0.02872 -0.13986 -0.00269 0.02077 0.07741 -0.01349 0.08304 0.07630 
1403715283.482142976 -0.26073 -0.03371 -0.13056 -0.00260 0.02067 0.07728 -0.01411 0.10137 0.07493 
1403715283.672143104 -0.22725 -0.02995 -0.10367 -0.00269 0.02070 0.07731 -0.01468 0.10230 0.07515 
1403715283.872143104 -0.23363 -0.00328 -0.08868 -0.00263 0.02076 0.07730 -0.01479 0.10368 0.07512 
1403715284.137143040 -0.23436 0.02603 -0.09422 -0.00249 0.02088 0.07725 -0.01534 0.10456 0.07463 
1403715284.377143040 -0.15316 0.09474 -0.05739 -0.00270 0.02088 0.07730 -0.01536 0.10392 0.07369 
1403715284.567142912 -0.10656 0.16082 -0.04405 -0.00268 0.02093 0.07730 -0.01473 0.10476 0.07377 
1403715284.722142976 -0.10410 0.17729 -0.04400 -0.00264 0.02091 0.07729 -0.01481 0.10532 0.07327 
1403715284.967142912 -0.08156 0.14266 -0.01444 -0.00274 0.02088 0.07731 -0.01488 0.10450 0.07316 
1403715285.142142976 -0.05746 0.09293 0.02332 -0.00246 0.02059 0.07722 -0.01460 0.12429 0.07316 
1403715285.422142976 -0.02701 0.02627 0.27693 -0.00254 0.02052 0.07721 -0.01424 0.12431 0.07350 
1403715285.677143040 0.06932 0.06639 0.37981 -0.00234 0.02050 0.07712 -0.01408 0.12424 0.07332 
1403715285.877143040 0.17340 0.11604 0.34512 -0.00241 0.02059 0.07707 -0.01424 0.12367 0.07361 
1403715286.67142912 0.20160 0.15308 0.28088 -0.00239 0.02055 0.07702 -0.01417 0.12344 0.07400 
1403715286.277143040 0.21692 0.20510 0.23375 -0.00269 0.02055 0.07704 -0.01395 0.12313 0.07517 
1403715286.472143104 0.22248 0.25753 0.18763 -0.00258 0.02054 0.07699 -0.01382 0.12327 0.07526 
1403715286.767142912 0.20847 0.27520 0.13463 -0.00263 0.02049 0.07707 -0.01398 0.12396 0.07591 
1403715286.982142976 0.15949 0.26670 0.10880 -0.00297 0.02024 0.07702 -0.00935 0.13510 0.08826 
1403715287.167142912 0.11467 0.29836 0.13277 -0.00293 0.02025 0.07704 -0.00952 0.13524 0.08822 
1403715287.382142976 0.04199 0.32591 0.12051 -0.00274 0.02035 0.07708 -0.00857 0.13787 0.09102 
1403715287.527142912 0.02714 0.28980 0.12744 -0.00270 0.02036 0.07711 -0.00858 0.13788 0.09078 
1403715287.727142912 0.08365 0.22742 0.15739 -0.00265 0.02038 0.07713 -0.00890 0.13792 0.09049 
1403715287.937143040 0.17320 0.16159 0.17492 -0.00274 0.02041 0.07717 -0.00907 0.13792 0.09069 
1403715288.72143104 0.17772 0.13189 0.15382 -0.00270 0.02043 0.07712 -0.00932 0.13808 0.09053 
1403715288.272143104 0.16577 0.09334 -0.07558 -0.00265 0.02053 0.07710 -0.00965 0.13809 0.09019 
1403715288.517143040 0.15157 0.05725 -0.12544 -0.00245 0.02066 0.07719 -0.01360 0.13292 0.08145 
1403715288.627142912 0.16614 0.05554 0.05607 -0.00231 0.02060 0.07729 -0.01788 0.13707 0.07499 
1403715288.772143104 0.18282 0.03398 0.14178 -0.00237 0.02062 0.07727 -0.01930 0.13715 0.07557 
1403715288.972143104 0.19430 -0.00522 -0.11988 -0.00233 0.02052 0.07725 -0.01991 0.13727 0.07552 
1403715289.172143104 0.17171 0.00019 -0.29859 -0.00233 0.02047 0.07726 -0.02020 0.13740 0.07603 
1403715289.372143104 0.13309 0.00348 -0.32315 -0.00233 0.02046 0.07725 -0.02054 0.13728 0.07607 
1403715289.617143040 0.11516 0.06932 -0.40725 -0.00228 0.02055 0.07725 -0.02151 0.13623 0.07577 
1403715289.872143104 0.10560 0.16348 -0.24602 -0.00228 0.02054 0.07720 -0.02181 0.13575 0.07592 
1403715290.117143040 0.10252 0.23637 0.02494 -0.00227 0.02050 0.07721 -0.02222 0.13632 0.07598 
1403715290.317143040 0.14980 0.31723 0.13944 -0.00209 0.02045 0.07718 -0.02590 0.14213 0.07034 
1403715290.592143104 0.19423 0.40033 0.08589 -0.00214 0.02044 0.07720 -0.02553 0.14084 0.07171 
1403715290.757143040 0.21957 0.41690 0.04899 -0.00213 0.02042 0.07719 -0.02542 0.14053 0.07220 
1403715290.872143104 0.20850 0.42814 0.01258 -0.00210 0.02040 0.07719 -0.02536 0.14094 0.07226 
1403715291.182142976 0.22452 0.37031 -0.01553 -0.00211 0.02039 0.07720 -0.02564 0.14079 0.07308 
1403715291.347142912 0.26941 0.28075 -0.07278 -0.00213 0.02039 0.07720 -0.02566 0.14059 0.07339 
1403715291.477143040 0.29101 0.20671 -0.11486 -0.00213 0.02070 0.07707 -0.02376 0.12291 0.07892 
1403715291.642142976 0.33394 0.14038 -0.12938 -0.00214 0.02071 0.07708 -0.02420 0.12329 0.07891 
1403715291.742142976 0.38152 0.10805 -0.12433 -0.00218 0.02071 0.07708 -0.02441 0.12342 0.07890 
1403715291.837143040 0.41969 0.08211 -0.13336 -0.00218 0.02069 0.07706 -0.02463 0.12357 0.07898 
1403715291.982142976 0.45515 0.09797 -0.15836 -0.00219 0.02076 0.07708 -0.02509 0.12343 0.07905 
1403715292.97143040 0.46119 0.13409 -0.15515 -0.00219 0.02076 0.07706 -0.02503 0.12337 0.07929 
1403715292.272143104 0.45763 0.18851 -0.15632 -0.00219 0.02077 0.07704 -0.02521 0.12376 0.07964 
1403715292.442142976 0.47281 0.26107 -0.14388 -0.00216 0.02077 0.07700 -0.02561 0.12400 0.07972 
1403715292.667142912 0.44934 0.33988 -0.06975 -0.00214 0.02077 0.07694 -0.02498 0.12664 0.08264 
1403715292.877143040 0.33311 0.36127 0.07960 -0.00211 0.02082 0.07695 -0.02555 0.12630 0.08251 
1403715293.122142976 0.23292 0.35569 0.30849 -0.00212 0.02090 0.07707 -0.02755 0.12350 0.07800 
1403715293.372143104 0.20627 0.32561 0.31569 -0.00214 0.02091 0.07709 -0.02763 0.12367 0.07790 
1403715293.622142976 0.20430 0.22950 0.31606 -0.00211 0.02090 0.07705 -0.02767 0.12362 0.07778 
1403715293.817143040 0.20921 0.18985 0.31845 -0.00214 0.02092 0.07705 -0.02752 0.12363 0.07823 
1403715294.27142912 0.20866 0.17497 0.18839 -0.00228 0.02094 0.07698 -0.02522 0.12163 0.08369 
1403715294.287142912 0.22489 0.13401 -0.13837 -0.00226 0.02095 0.07691 -0.02486 0.12131 0.08423 
1403715294.517143040 0.25305 0.07098 -0.26993 -0.00229 0.02094 0.07692 -0.02490 0.12140 0.08420 
1403715294.742142976 0.25946 0.03082 -0.25603 -0.00224 0.02093 0.07690 -0.02454 0.12180 0.08487 
1403715294.892143104 0.22944 0.04892 -0.24559 -0.00228 0.02096 0.07691 -0.02413 0.12129 0.08539 
1403715295.117143040 0.17000 0.04129 -0.20928 -0.00231 0.02092 0.07688 -0.02114 0.12186 0.09187 
1403715295.197143040 0.16510 0.02248 -0.15646 -0.00231 0.02092 0.07688 -0.02114 0.12186 0.09187 
1403715295.367142912 0.17414 -0.02470 0.04296 -0.00232 0.02092 0.07688 -0.02117 0.12203 0.09179 
1403715295.567142912 0.18177 -0.04004 0.02860 -0.00230 0.02093 0.07690 -0.02109 0.12172 0.09137 
1403715295.742142976 0.18271 -0.07004 -0.17417 -0.00228 0.02092 0.07692 -0.02093 0.12185 0.09074 
1403715295.892143104 0.18872 -0.11939 -0.21601 -0.00225 0.02095 0.07694 -0.02216 0.12029 0.08715 
1403715296.177143040 0.26915 -0.12367 -0.29248 -0.00215 0.02102 0.07694 -0.02218 0.11849 0.08609 
1403715296.467142912 0.27012 0.01568 -0.10928 -0.00208 0.02105 0.07694 -0.02190 0.11763 0.08547 
1403715296.722142976 0.23591 0.19212 0.03035 -0.00206 0.02112 0.07693 -0.02356 0.10835 0.08075 
1403715296.967142912 0.16749 0.22366 0.00318 -0.00205 0.02116 0.07693 -0.02363 0.10779 0.08049 
1403715297.132143104 0.14950 0.20424 -0.06255 -0.00207 0.02114 0.07696 -0.02371 0.10819 0.08005 
1403715297.322142976 0.05758 0.27890 -0.09209 -0.00207 0.02112 0.07696 -0.02358 0.10848 0.08024 
1403715297.482142976 -0.03177 0.39561 -0.06241 -0.00208 0.02113 0.07697 -0.02351 0.10842 0.08009 
1403715297.717143040 -0.14876 0.48153 -0.07541 -0.00207 0.02107 0.07698 -0.02331 0.10818 0.07977 
1403715297.992143104 -0.24662 0.59938 0.00955 -0.00214 0.02104 0.07701 -0.02281 0.10893 0.07943 
1403715298.267142912 -0.08259 0.60818 -0.00384 -0.00217 0.02098 0.07702 -0.02267 0.11359 0.07891 
1403715298.517143040 0.00453 0.40852 0.04140 -0.00213 0.02103 0.07707 -0.02305 0.11157 0.07729 
1403715298.672143104 0.02322 0.22240 0.08267 -0.00211 0.02102 0.07708 -0.02307 0.11199 0.07722 
1403715298.777143040 0.04592 0.06134 0.11346 -0.00211 0.02103 0.07708 -0.02310 0.11194 0.07695 
1403715299.67142912 0.04980 -0.21399 0.09259 -0.00211 0.02095 0.07709 -0.02291 0.11572 0.07655 
1403715299.182142976 -0.02034 -0.24378 0.09799 -0.00210 0.02092 0.07711 -0.02281 0.11646 0.07643 
1403715299.372143104 -0.15875 -0.27530 0.09938 -0.00210 0.02093 0.07713 -0.02285 0.11705 0.07597 
1403715299.627142912 -0.30249 -0.28582 0.07828 -0.00197 0.02091 0.07708 -0.02269 0.11748 0.07576 
1403715299.757143040 -0.34652 -0.26999 0.04887 -0.00195 0.02090 0.07706 -0.02254 0.11747 0.07591 
1403715299.947142912 -0.39211 -0.24308 0.00372 -0.00196 0.02090 0.07706 -0.02251 0.11718 0.07570 
1403715300.132143104 -0.43018 -0.21014 0.00257 -0.00199 0.02092 0.07709 -0.02280 0.11710 0.07553 
1403715300.417143040 -0.36281 -0.15212 0.00896 -0.00205 0.02091 0.07707 -0.02274 0.11687 0.07645 
1403715300.667142912 -0.26214 -0.03353 0.00611 -0.00200 0.02087 0.07702 -0.02276 0.11792 0.07728 
1403715300.927142912 -0.15848 0.10793 -0.00125 -0.00199 0.02082 0.07700 -0.02255 0.12010 0.07917 
1403715301.187142912 -0.00612 0.16106 -0.02827 -0.00203 0.02079 0.07701 -0.02267 0.12061 0.07957 
1403715301.372143104 0.16233 0.17104 -0.06837 -0.00204 0.02079 0.07702 -0.02286 0.12053 0.07955 
1403715301.537143040 0.28141 0.18498 -0.12653 -0.00201 0.02079 0.07700 -0.02305 0.12030 0.07953 
1403715301.722142976 0.32316 0.21267 -0.15184 -0.00207 0.02078 0.07701 -0.02320 0.12038 0.07966 
1403715301.872143104 0.32978 0.21394 -0.14141 -0.00202 0.02079 0.07699 -0.02322 0.12076 0.07972 
1403715302.117143040 0.39271 0.17260 -0.08852 -0.00203 0.02081 0.07702 -0.02337 0.12134 0.07990 
1403715302.317143040 0.43039 0.08974 -0.03131 -0.00211 0.02082 0.07705 -0.02370 0.12128 0.07959 
1403715302.517143040 0.46507 -0.01581 0.01315 -0.00212 0.02081 0.07706 -0.02373 0.12109 0.07973 
1403715302.772143104 0.43085 -0.06894 -0.03269 -0.00215 0.02081 0.07706 -0.02370 0.12090 0.07979 
1403715303.2142976 0.30352 -0.12930 -0.06832 -0.00217 0.02081 0.07705 -0.02361 0.12095 0.07985 
1403715303.217143040 0.17662 -0.22153 -0.03198 -0.00211 0.02079 0.07702 -0.02378 0.12060 0.08004 
1403715303.327142912 0.14151 -0.26623 -0.01399 -0.00205 0.02080 0.07702 -0.02358 0.12091 0.08023 
1403715303.517143040 0.13353 -0.29374 0.00211 -0.00204 0.02080 0.07700 -0.02343 0.12064 0.08056 
1403715303.682142976 0.17499 -0.30725 -0.00401 -0.00199 0.02080 0.07699 -0.02307 0.12596 0.08025 
1403715303.872143104 0.19667 -0.27727 -0.00701 -0.00201 0.02080 0.07701 -0.02302 0.12590 0.07994 
1403715304.117143040 0.17126 -0.19827 -0.04115 -0.00199 0.02081 0.07702 -0.02279 0.12590 0.07962 
1403715304.272143104 0.13807 -0.13210 -0.06846 -0.00205 0.02081 0.07703 -0.02334 0.12549 0.07805 
1403715304.467142912 0.09658 -0.06405 -0.10289 -0.00206 0.02081 0.07705 -0.02342 0.12558 0.07798 
1403715304.642142976 0.08985 -0.03372 -0.25890 -0.00205 0.02081 0.07706 -0.02349 0.12611 0.07801 
1403715304.857143040 0.10660 0.00950 -0.15568 -0.00207 0.02080 0.07707 -0.02346 0.12666 0.07776 
1403715305.22142976 0.12005 0.00683 0.02912 -0.00208 0.02080 0.07707 -0.02363 0.12629 0.07751 
1403715305.267142912 0.12573 0.00107 0.05270 -0.00203 0.02077 0.07707 -0.02366 0.12701 0.07743 
1403715305.427142912 0.12305 -0.00214 0.07805 -0.00204 0.02074 0.07704 -0.02448 0.12798 0.07648 
1403715305.627142912 0.12010 0.00675 0.32405 -0.00200 0.02073 0.07703 -0.02451 0.12852 0.07714 
1403715305.867142912 0.08005 0.01882 0.37369 -0.00201 0.02073 0.07703 -0.02459 0.12860 0.07734 
1403715306.12143104 0.04984 0.00386 0.31743 -0.00202 0.02073 0.07704 -0.02472 0.12844 0.07750 
1403715306.177143040 0.01338 -0.00910 0.27303 -0.00204 0.02074 0.07703 -0.02515 0.12844 0.07764 
1403715306.322142976 -0.04915 0.01189 0.24706 -0.00206 0.02074 0.07704 -0.02523 0.12855 0.07777 
1403715306.667142912 -0.27199 0.22528 0.25054 -0.00210 0.02074 0.07707 -0.02539 0.12851 0.07784 
1403715306.837143040 -0.28578 0.38882 0.24592 -0.00204 0.02074 0.07702 -0.02564 0.12861 0.07770 
1403715307.17143040 -0.18805 0.51821 0.15204 -0.00207 0.02074 0.07703 -0.02560 0.12876 0.07785 
1403715307.267142912 0.05263 0.54938 -0.19441 -0.00205 0.02073 0.07702 -0.02555 0.12856 0.07784 
1403715307.522142976 0.21511 0.40135 -0.25576 -0.00193 0.02073 0.07695 -0.02581 0.12874 0.07757 
1403715307.682142976 0.18716 0.33778 -0.25212 -0.00190 0.02073 0.07692 -0.02605 0.13013 0.07699 
1403715307.872143104 0.14468 0.30267 -0.26714 -0.00188 0.02073 0.07693 -0.02612 0.13000 0.07716 
1403715307.997143040 0.10298 0.25399 -0.26206 -0.00188 0.02074 0.07693 -0.02615 0.13016 0.07718 
1403715308.142142976 0.06094 0.18424 -0.24277 -0.00185 0.02073 0.07694 -0.02574 0.12888 0.07839 
1403715308.377143040 0.01265 0.06442 -0.24141 -0.00183 0.02072 0.07693 -0.02552 0.12913 0.07879 
1403715308.617143040 -0.05196 -0.02538 -0.10153 -0.00184 0.02070 0.07693 -0.02560 0.12857 0.07844 
1403715308.727142912 -0.09720 -0.02997 0.00987 -0.00183 0.02069 0.07692 -0.02555 0.12737 0.07850 
1403715308.922142976 -0.17506 -0.01026 0.08749 -0.00186 0.02069 0.07691 -0.02559 0.12718 0.07844 
1403715309.77143040 -0.24557 0.01590 0.06983 -0.00188 0.02070 0.07690 -0.02593 0.12726 0.07791 
1403715309.222142976 -0.28162 0.06318 0.08215 -0.00188 0.02070 0.07688 -0.02606 0.12752 0.07783 
1403715309.427142912 -0.26189 0.17746 0.05852 -0.00189 0.02070 0.07687 -0.02624 0.12767 0.07771 
1403715309.672143104 -0.19770 0.21058 0.06612 -0.00190 0.02071 0.07688 -0.02627 0.12770 0.07780 
1403715309.917143040 -0.14450 0.23009 0.05540 -0.00190 0.02070 0.07687 -0.02637 0.12760 0.07751 
1403715310.67142912 -0.16551 0.29361 0.02650 -0.00191 0.02070 0.07688 -0.02647 0.12780 0.07721 
1403715310.197143040 -0.14867 0.38613 0.02448 -0.00192 0.02072 0.07687 -0.02658 0.12808 0.07680 
1403715310.417143040 -0.01542 0.46418 0.05134 -0.00196 0.02073 0.07687 -0.02669 0.12835 0.07690 
1403715310.632143104 0.07216 0.41599 0.06239 -0.00192 0.02074 0.07688 -0.02715 0.13201 0.07568 
1403715310.777143040 0.07712 0.37541 0.05797 -0.00192 0.02074 0.07687 -0.02708 0.13205 0.07580 
1403715311.67142912 0.05158 0.31871 0.05374 -0.00189 0.02074 0.07686 -0.02694 0.13030 0.07600 
1403715311.322142976 -0.02169 0.34590 0.03751 -0.00189 0.02074 0.07686 -0.02660 0.13054 0.07589 
1403715311.522142976 -0.10651 0.40294 0.09003 -0.00188 0.02076 0.07683 -0.02658 0.13046 0.07563 
1403715311.667142912 -0.15636 0.40263 0.09298 -0.00187 0.02076 0.07683 -0.02639 0.13049 0.07581 
1403715311.842142976 -0.21070 0.40649 0.08134 -0.00188 0.02076 0.07683 -0.02613 0.13028 0.07580 
1403715311.972143104 -0.25726 0.40151 0.08604 -0.00187 0.02076 0.07683 -0.02618 0.12991 0.07522 
1403715312.52143104 -0.28551 0.40684 0.06949 -0.00189 0.02077 0.07682 -0.02609 0.12988 0.07515 
1403715312.177143040 -0.31463 0.39476 0.06843 -0.00192 0.02077 0.07682 -0.02597 0.13003 0.07480 
1403715312.317143040 -0.33238 0.37283 0.06057 -0.00192 0.02078 0.07682 -0.02595 0.13000 0.07478 
1403715312.517143040 -0.36145 0.37527 0.02014 -0.00192 0.02078 0.07682 -0.02589 0.12993 0.07467 
1403715312.772143104 -0.35860 0.36557 -0.05149 -0.00192 0.02079 0.07682 -0.02585 0.13045 0.07447 
1403715312.967142912 -0.27051 0.28657 0.07338 -0.00191 0.02079 0.07683 -0.02584 0.13066 0.07453 
1403715313.167142912 -0.14313 0.19243 0.22181 -0.00191 0.02080 0.07684 -0.02584 0.13069 0.07450 
1403715313.382142976 -0.02251 0.10980 0.17762 -0.00188 0.02079 0.07684 -0.02586 0.13089 0.07468 
1403715313.527142912 0.02163 0.10921 0.17346 -0.00191 0.02079 0.07687 -0.02590 0.13068 0.07464 
1403715313.697143040 0.04358 0.05863 0.19767 -0.00188 0.02079 0.07688 -0.02580 0.13098 0.07499 
1403715313.917143040 0.05051 -0.03320 0.22599 -0.00184 0.02079 0.07688 -0.02571 0.13152 0.07502 
1403715314.127142912 0.07010 -0.04617 0.15251 -0.00186 0.02079 0.07689 -0.02544 0.13141 0.07503 
1403715314.377143040 0.05946 -0.12201 0.09379 -0.00184 0.02078 0.07689 -0.02514 0.13132 0.07509 
1403715314.592143104 0.00046 -0.21311 0.06801 -0.00186 0.02078 0.07689 -0.02482 0.13163 0.07519 
1403715314.877143040 -0.02510 -0.27739 0.02898 -0.00186 0.02076 0.07688 -0.02415 0.13175 0.07482 
1403715315.137143040 -0.07500 -0.32460 -0.01298 -0.00187 0.02078 0.07687 -0.02385 0.13245 0.07469 
1403715315.282142976 -0.06257 -0.32069 -0.00690 -0.00186 0.02078 0.07686 -0.02383 0.13244 0.07468 
1403715315.492143104 -0.05782 -0.31424 0.03458 -0.00186 0.02077 0.07685 -0.02386 0.13229 0.07461 
1403715315.717143040 -0.03146 -0.29820 0.04996 -0.00185 0.02077 0.07686 -0.02376 0.13210 0.07445 
1403715315.882142976 0.01623 -0.23551 0.03039 -0.00188 0.02074 0.07687 -0.02351 0.13212 0.07421 
1403715316.52143104 0.06687 -0.18386 -0.02589 -0.00189 0.02074 0.07686 -0.02336 0.13223 0.07423 
1403715316.317143040 0.07483 -0.12179 -0.12710 -0.00186 0.02075 0.07686 -0.02312 0.13255 0.07429 
1403715316.532143104 -0.06122 -0.14483 -0.14311 -0.00188 0.02073 0.07687 -0.02302 0.13214 0.07438 
1403715316.772143104 -0.19839 -0.15526 -0.18310 -0.00185 0.02073 0.07688 -0.02280 0.13204 0.07458 
1403715316.967142912 -0.23913 -0.15708 -0.18760 -0.00181 0.02073 0.07687 -0.02252 0.13204 0.07511 
1403715317.167142912 -0.23841 -0.19482 -0.18913 -0.00182 0.02074 0.07687 -0.02245 0.13225 0.07504 
1403715317.372143104 -0.24769 -0.21530 -0.15932 -0.00180 0.02074 0.07686 -0.02210 0.13254 0.07568 
1403715317.572143104 -0.25940 -0.20981 -0.13378 -0.00179 0.02075 0.07685 -0.02198 0.13304 0.07586 
1403715317.767142912 -0.24312 -0.18978 -0.12356 -0.00178 0.02077 0.07683 -0.02200 0.13333 0.07558 
1403715317.932143104 -0.18257 -0.15958 -0.11770 -0.00179 0.02078 0.07683 -0.02193 0.13507 0.07577 
1403715318.117143040 -0.09619 -0.12530 -0.10588 -0.00179 0.02078 0.07682 -0.02196 0.13495 0.07586 
1403715318.317143040 0.01688 -0.08204 -0.11337 -0.00180 0.02078 0.07682 -0.02203 0.13560 0.07574 
1403715318.472143104 0.10877 -0.07212 -0.11931 -0.00180 0.02078 0.07681 -0.02206 0.13500 0.07549 
1403715318.672143104 0.13815 -0.02535 -0.14960 -0.00179 0.02078 0.07681 -0.02207 0.13488 0.07550 
1403715318.917143040 0.13843 0.18273 -0.11410 -0.00179 0.02078 0.07680 -0.02217 0.13488 0.07539 
1403715319.27142912 0.14556 0.28006 -0.09305 -0.00180 0.02078 0.07681 -0.02311 0.13505 0.07307 
1403715319.202142976 0.12171 0.37194 -0.07014 -0.00180 0.02077 0.07681 -0.02301 0.13486 0.07334 
1403715319.442142976 0.02905 0.45994 -0.06451 -0.00181 0.02076 0.07682 -0.02300 0.13517 0.07351 
1403715319.767142912 -0.09870 0.52465 0.15305 -0.00183 0.02076 0.07683 -0.02286 0.13429 0.07391 
1403715319.977143040 -0.12911 0.56482 0.30852 -0.00186 0.02076 0.07682 -0.02312 0.13408 0.07365 
1403715320.227142912 -0.17862 0.61258 0.26765 -0.00187 0.02078 0.07682 -0.02293 0.13482 0.07399 
1403715320.382142976 -0.22318 0.59713 0.23435 -0.00184 0.02078 0.07681 -0.02306 0.13571 0.07344 
1403715320.552143104 -0.26272 0.51798 0.22292 -0.00184 0.02076 0.07681 -0.02295 0.13519 0.07343 
1403715320.667142912 -0.27382 0.45508 0.21204 -0.00185 0.02076 0.07681 -0.02288 0.13521 0.07334 
1403715320.922142976 -0.23476 0.25482 0.13213 -0.00186 0.02076 0.07682 -0.02283 0.13491 0.07279 
1403715321.217143040 -0.06164 0.01509 0.08433 -0.00186 0.02076 0.07680 -0.02270 0.13480 0.07294 
1403715321.472143104 0.05832 -0.13849 0.06700 -0.00182 0.02076 0.07679 -0.02213 0.13417 0.07458 
1403715321.722142976 0.18160 -0.26122 0.09758 -0.00179 0.02075 0.07680 -0.02212 0.13396 0.07504 
1403715321.922142976 0.23370 -0.40938 0.10618 -0.00180 0.02075 0.07681 -0.02215 0.13374 0.07498 
1403715322.72143104 0.24930 -0.56197 0.09820 -0.00180 0.02074 0.07680 -0.02207 0.13328 0.07508 
1403715322.317143040 0.30129 -0.68652 0.08322 -0.00184 0.02072 0.07681 -0.02199 0.13314 0.07518 
1403715322.622142976 0.35214 -0.61013 -0.22680 -0.00186 0.02072 0.07681 -0.02190 0.13296 0.07521 
1403715322.877143040 0.45553 -0.47262 -0.11795 -0.00185 0.02071 0.07682 -0.02191 0.13130 0.07527 
1403715323.127142912 0.54345 -0.28910 0.06715 -0.00185 0.02074 0.07682 -0.02184 0.13174 0.07545 
1403715323.272143104 0.57320 -0.19940 -0.09483 -0.00184 0.02074 0.07682 -0.02187 0.13178 0.07547 
1403715323.572143104 0.63070 0.02981 0.13985 -0.00184 0.02073 0.07684 -0.02195 0.13175 0.07553 
1403715323.727142912 0.62305 0.10521 0.22196 -0.00183 0.02074 0.07683 -0.02197 0.13185 0.07544 
1403715324.22142976 0.29028 0.15973 0.18265 -0.00183 0.02074 0.07685 -0.02182 0.13230 0.07488 
1403715324.132143104 0.13130 0.14180 0.13539 -0.00182 0.02075 0.07684 -0.02184 0.13235 0.07468 
1403715324.277143040 -0.02727 0.13235 0.11503 -0.00183 0.02077 0.07685 -0.02179 0.13315 0.07433 
1403715324.577143040 -0.10516 -0.00422 0.12054 -0.00183 0.02078 0.07684 -0.02182 0.13302 0.07387 
1403715324.867142912 -0.00465 -0.08693 0.09260 -0.00183 0.02078 0.07683 -0.02168 0.13401 0.07433 
1403715325.122142976 -0.08079 -0.05916 0.03697 -0.00184 0.02076 0.07683 -0.02171 0.13429 0.07510 
1403715325.327142912 -0.18477 -0.07329 0.02509 -0.00181 0.02075 0.07681 -0.02182 0.13426 0.07540 
1403715325.617143040 -0.18573 -0.10757 0.02327 -0.00185 0.02077 0.07682 -0.02185 0.13384 0.07541 
1403715325.772143104 -0.12657 -0.19648 0.01498 -0.00189 0.02079 0.07682 -0.02163 0.13386 0.07578 
1403715326.37143040 -0.01735 -0.31802 -0.01912 -0.00189 0.02078 0.07682 -0.02156 0.13375 0.07580 
1403715326.177143040 0.02259 -0.33216 -0.06641 -0.00188 0.02078 0.07682 -0.02155 0.13361 0.07564 
1403715326.427142912 0.03438 -0.28288 -0.07863 -0.00192 0.02078 0.07684 -0.02164 0.13391 0.07557 
1403715326.677143040 -0.10864 -0.28566 -0.06896 -0.00192 0.02079 0.07683 -0.02177 0.13387 0.07548 
1403715326.857143040 -0.20813 -0.29483 -0.10376 -0.00193 0.02078 0.07683 -0.02165 0.13357 0.07545 
1403715327.67142912 -0.22402 -0.32553 -0.09436 -0.00192 0.02080 0.07683 -0.02157 0.13363 0.07537 
1403715327.237143040 -0.17843 -0.38451 -0.08608 -0.00192 0.02080 0.07682 -0.02154 0.13375 0.07547 
1403715327.417143040 -0.09647 -0.45229 -0.06586 -0.00191 0.02079 0.07681 -0.02170 0.13367 0.07534 
1403715327.622142976 0.02185 -0.53689 -0.06660 -0.00191 0.02080 0.07679 -0.02197 0.13373 0.07458 
1403715327.942142976 0.13701 -0.50845 -0.09868 -0.00190 0.02081 0.07679 -0.02201 0.13375 0.07461 
1403715328.37143040 0.15519 -0.50499 -0.09785 -0.00190 0.02081 0.07679 -0.02201 0.13374 0.07458 
1403715328.192143104 0.16901 -0.47753 -0.05240 -0.00190 0.02081 0.07679 -0.02195 0.13384 0.07469 
1403715328.352143104 0.11800 -0.45259 -0.03830 -0.00191 0.02081 0.07680 -0.02203 0.13390 0.07470 
1403715328.617143040 -0.05097 -0.39474 -0.05331 -0.00191 0.02080 0.07680 -0.02221 0.13378 0.07445 
1403715328.867142912 -0.13125 -0.23899 -0.05417 -0.00192 0.02079 0.07681 -0.02225 0.13364 0.07449 
1403715329.72143104 -0.16725 -0.14886 -0.05059 -0.00191 0.02079 0.07680 -0.02234 0.13346 0.07446 
1403715329.292143104 -0.15016 -0.12604 -0.09063 -0.00194 0.02079 0.07681 -0.02234 0.13352 0.07450 
1403715329.477143040 -0.12065 -0.12228 -0.16252 -0.00191 0.02080 0.07679 -0.02223 0.13359 0.07468 
1403715329.607142912 -0.10216 -0.11702 -0.15683 -0.00192 0.02080 0.07678 -0.02224 0.13365 0.07472 
1403715329.742142976 -0.09246 -0.09868 -0.18137 -0.00192 0.02081 0.07679 -0.02236 0.13375 0.07470 
1403715329.932143104 -0.06775 -0.04701 -0.22308 -0.00191 0.02082 0.07680 -0.02274 0.13308 0.07430 
1403715330.127142912 -0.05390 -0.02339 -0.28147 -0.00189 0.02083 0.07680 -0.02313 0.13289 0.07416 
1403715330.327142912 -0.02326 0.00919 -0.23911 -0.00190 0.02083 0.07680 -0.02329 0.13280 0.07441 
1403715330.567142912 -0.00074 0.04297 -0.02284 -0.00191 0.02082 0.07679 -0.02335 0.13317 0.07479 
1403715330.827142912 -0.01267 0.00316 0.14141 -0.00193 0.02082 0.07679 -0.02358 0.13313 0.07487 
1403715330.997143040 0.01649 -0.03136 0.13043 -0.00193 0.02083 0.07679 -0.02387 0.13308 0.07498 
1403715331.187142912 0.11943 -0.09958 0.22533 -0.00193 0.02084 0.07679 -0.02405 0.13289 0.07514 
1403715331.317143040 0.19023 -0.13423 0.29713 -0.00198 0.02084 0.07681 -0.02408 0.13302 0.07526 
1403715331.427142912 0.22475 -0.13672 0.35754 -0.00198 0.02085 0.07681 -0.02418 0.13327 0.07528 
1403715331.522142976 0.24358 -0.12879 0.36734 -0.00197 0.02085 0.07681 -0.02416 0.13320 0.07532 
1403715331.692143104 0.26213 -0.11794 0.33635 -0.00197 0.02084 0.07682 -0.02440 0.13324 0.07495 
1403715332.17143040 0.24587 -0.08903 0.13002 -0.00196 0.02083 0.07682 -0.02441 0.13329 0.07509 
1403715332.322142976 0.27059 -0.03308 0.03348 -0.00194 0.02081 0.07682 -0.02438 0.13457 0.07495 
1403715332.472143104 0.34105 -0.01876 0.05547 -0.00193 0.02080 0.07682 -0.02438 0.13458 0.07490 
1403715332.717143040 0.46492 0.05036 0.07715 -0.00195 0.02080 0.07683 -0.02440 0.13462 0.07481 
1403715332.927142912 0.52034 0.13152 0.10500 -0.00195 0.02080 0.07683 -0.02450 0.13448 0.07466 
1403715333.222142976 0.51153 -0.00630 0.00235 -0.00191 0.02081 0.07682 -0.02468 0.13492 0.07416 
1403715333.522142976 0.44606 -0.16348 -0.06972 -0.00190 0.02081 0.07682 -0.02476 0.13479 0.07402 
1403715333.732143104 0.42750 -0.24104 -0.11432 -0.00189 0.02083 0.07681 -0.02490 0.13396 0.07381 
1403715333.867142912 0.42497 -0.24730 -0.08751 -0.00189 0.02083 0.07680 -0.02490 0.13392 0.07385 
1403715334.67142912 0.42843 -0.18513 -0.00939 -0.00190 0.02082 0.07681 -0.02485 0.13398 0.07383 
1403715334.197143040 0.45800 -0.14968 0.01955 -0.00190 0.02083 0.07681 -0.02495 0.13396 0.07373 
1403715334.317143040 0.47852 -0.12129 0.02630 -0.00190 0.02083 0.07681 -0.02490 0.13394 0.07385 
1403715334.427142912 0.48944 -0.08886 0.02796 -0.00189 0.02082 0.07681 -0.02488 0.13391 0.07384 
1403715334.542142976 0.50150 -0.06454 0.03291 -0.00188 0.02082 0.07681 -0.02501 0.13366 0.07345 
1403715334.672143104 0.50764 -0.04925 0.01235 -0.00188 0.02082 0.07682 -0.02499 0.13366 0.07350 
1403715334.892143104 0.49833 -0.00258 -0.00149 -0.00188 0.02082 0.07681 -0.02496 0.13372 0.07345 
1403715335.37143040 0.47188 0.02610 -0.01716 -0.00189 0.02083 0.07682 -0.02499 0.13368 0.07338 
1403715335.222142976 0.44581 0.06262 -0.02403 -0.00188 0.02083 0.07681 -0.02497 0.13378 0.07330 
1403715335.332143104 0.41890 0.09201 -0.02443 -0.00188 0.02083 0.07681 -0.02499 0.13373 0.07319 
1403715335.467142912 0.39184 0.13193 -0.03502 -0.00188 0.02084 0.07682 -0.02502 0.13370 0.07318 
1403715335.722142976 0.36445 0.19426 -0.03256 -0.00188 0.02084 0.07681 -0.02470 0.13310 0.07405 
1403715335.997143040 0.37536 0.22426 -0.04046 -0.00192 0.02083 0.07682 -0.02477 0.13267 0.07420 
1403715336.167142912 0.36529 0.22467 -0.04139 -0.00192 0.02083 0.07682 -0.02477 0.13266 0.07429 
1403715336.342142976 0.36512 0.19087 -0.06450 -0.00193 0.02084 0.07682 -0.02477 0.13270 0.07437 
1403715336.572143104 0.35050 0.18983 -0.02192 -0.00193 0.02084 0.07682 -0.02466 0.13327 0.07509 
1403715336.757143040 0.33710 0.20739 -0.00162 -0.00194 0.02083 0.07682 -0.02471 0.13347 0.07507 
1403715336.917143040 0.31198 0.22831 0.04456 -0.00192 0.02083 0.07681 -0.02473 0.13358 0.07512 
1403715337.137143040 0.22935 0.21467 0.09735 -0.00190 0.02082 0.07681 -0.02483 0.13383 0.07512 
1403715337.392143104 0.17974 0.26788 0.08109 -0.00191 0.02081 0.07681 -0.02475 0.13386 0.07529 
1403715337.577143040 0.21769 0.32421 0.07680 -0.00194 0.02080 0.07682 -0.02468 0.13404 0.07528 
1403715337.822142976 0.26005 0.37702 0.06799 -0.00193 0.02081 0.07682 -0.02473 0.13367 0.07523 
1403715338.122142976 0.25202 0.37163 0.08485 -0.00191 0.02079 0.07681 -0.02486 0.13411 0.07495 
1403715338.427142912 0.24607 0.36376 0.06502 -0.00190 0.02079 0.07681 -0.02481 0.13409 0.07493 
1403715338.622142976 0.26980 0.39054 0.09708 -0.00190 0.02080 0.07681 -0.02478 0.13377 0.07502 
1403715338.732143104 0.28696 0.38229 0.08710 -0.00192 0.02079 0.07681 -0.02477 0.13392 0.07490 
1403715338.922142976 0.31562 0.37145 0.04071 -0.00193 0.02079 0.07682 -0.02472 0.13396 0.07505 
1403715339.72143104 0.32214 0.38130 0.01737 -0.00191 0.02080 0.07682 -0.02480 0.13407 0.07514 
1403715339.322142976 0.26351 0.41193 -0.01418 -0.00191 0.02080 0.07681 -0.02475 0.13418 0.07528 
1403715339.477143040 0.25055 0.40643 -0.02875 -0.00190 0.02080 0.07681 -0.02471 0.13413 0.07532 
1403715339.732143104 0.23160 0.38925 -0.08789 -0.00193 0.02080 0.07682 -0.02459 0.13386 0.07546 
1403715339.872143104 0.16622 0.35385 -0.10946 -0.00192 0.02080 0.07682 -0.02461 0.13393 0.07537 
1403715340.27142912 0.01590 0.31294 -0.09811 -0.00192 0.02081 0.07682 -0.02450 0.13383 0.07550 
1403715340.167142912 -0.11603 0.22572 -0.02863 -0.00192 0.02081 0.07682 -0.02452 0.13389 0.07546 
1403715340.417143040 -0.27181 0.15236 0.14908 -0.00192 0.02082 0.07681 -0.02448 0.13368 0.07556 
1403715340.637143040 -0.28173 0.17346 0.12645 -0.00192 0.02083 0.07680 -0.02457 0.13354 0.07561 
1403715340.867142912 -0.26452 0.22980 0.11465 -0.00191 0.02083 0.07680 -0.02446 0.13356 0.07573 
1403715341.67142912 -0.23853 0.32179 0.10554 -0.00188 0.02083 0.07679 -0.02432 0.13386 0.07577 
1403715341.272143104 -0.23040 0.40247 0.10681 -0.00190 0.02084 0.07681 -0.02445 0.13382 0.07524 
1403715341.427142912 -0.19495 0.37756 0.09896 -0.00188 0.02084 0.07680 -0.02437 0.13396 0.07530 
1403715341.567142912 -0.18036 0.34822 0.09872 -0.00188 0.02083 0.07681 -0.02444 0.13397 0.07496 
1403715341.677143040 -0.17918 0.32251 0.08310 -0.00190 0.02083 0.07682 -0.02489 0.13284 0.07376 
1403715341.892143104 -0.25150 0.20725 0.02323 -0.00191 0.02084 0.07682 -0.02498 0.13277 0.07352 
1403715342.77143040 -0.28108 0.12163 0.02651 -0.00193 0.02083 0.07684 -0.02502 0.13294 0.07361 
1403715342.392143104 -0.30882 0.14863 0.00010 -0.00190 0.02082 0.07682 -0.02502 0.13300 0.07379 
1403715342.527142912 -0.33543 0.19780 -0.00062 -0.00191 0.02082 0.07682 -0.02506 0.13296 0.07376 
1403715342.672143104 -0.38878 0.22294 0.02142 -0.00189 0.02081 0.07681 -0.02505 0.13287 0.07387 
1403715342.872143104 -0.45107 0.17582 0.00243 -0.00188 0.02081 0.07680 -0.02497 0.13276 0.07400 
1403715343.17143040 -0.46757 0.17882 -0.03325 -0.00189 0.02080 0.07680 -0.02487 0.13281 0.07407 
1403715343.222142976 -0.48187 0.18709 -0.08449 -0.00189 0.02081 0.07679 -0.02493 0.13272 0.07422 
1403715343.467142912 -0.46803 0.18563 -0.10717 -0.00189 0.02081 0.07679 -0.02495 0.13317 0.07462 
1403715343.667142912 -0.50897 0.18951 -0.08472 -0.00188 0.02081 0.07678 -0.02500 0.13299 0.07500 
1403715343.867142912 -0.55969 0.16831 -0.04253 -0.00186 0.02082 0.07677 -0.02521 0.13347 0.07487 
1403715344.27142912 -0.60785 0.11731 -0.02485 -0.00189 0.02083 0.07678 -0.02523 0.13318 0.07508 
1403715344.272143104 -0.61019 0.02686 -0.03686 -0.00190 0.02083 0.07679 -0.02526 0.13303 0.07508 
1403715344.522142976 -0.56626 -0.13084 -0.04428 -0.00191 0.02083 0.07678 -0.02534 0.13284 0.07515 
1403715344.642142976 -0.53580 -0.23283 -0.09683 -0.00194 0.02082 0.07678 -0.02527 0.13292 0.07539 
1403715344.757143040 -0.54245 -0.33522 -0.10670 -0.00195 0.02083 0.07678 -0.02524 0.13267 0.07546 
1403715344.977143040 -0.57582 -0.49967 -0.09069 -0.00195 0.02084 0.07678 -0.02523 0.13265 0.07566 
1403715345.272143104 -0.53308 -0.59982 -0.08299 -0.00193 0.02084 0.07677 -0.02534 0.13264 0.07562 
1403715345.527142912 -0.47994 -0.66129 -0.09499 -0.00193 0.02083 0.07677 -0.02527 0.13262 0.07597 
1403715345.827142912 -0.41063 -0.70993 -0.12223 -0.00191 0.02082 0.07678 -0.02540 0.13277 0.07576 
1403715346.117143040 -0.41273 -0.67459 -0.07004 -0.00191 0.02082 0.07677 -0.02538 0.13232 0.07606 
1403715346.267142912 -0.45448 -0.62299 -0.02467 -0.00189 0.02081 0.07676 -0.02559 0.13262 0.07558 
1403715346.402142976 -0.47117 -0.59891 -0.00659 -0.00189 0.02081 0.07676 -0.02557 0.13261 0.07570 
1403715346.632143104 -0.43639 -0.55137 0.01057 -0.00188 0.02082 0.07676 -0.02565 0.13271 0.07571 
1403715346.737143040 -0.39859 -0.54326 0.01201 -0.00189 0.02082 0.07676 -0.02576 0.13251 0.07542 
1403715346.937143040 -0.34546 -0.50751 -0.01536 -0.00189 0.02081 0.07676 -0.02571 0.13226 0.07564 
1403715347.72143104 -0.31941 -0.45629 0.01793 -0.00190 0.02081 0.07677 -0.02573 0.13209 0.07567 
1403715347.232143104 -0.33103 -0.40991 0.03596 -0.00191 0.02082 0.07677 -0.02575 0.13225 0.07582 
1403715347.427142912 -0.33675 -0.39625 0.06436 -0.00193 0.02081 0.07676 -0.02587 0.13233 0.07567 
1403715347.667142912 -0.32699 -0.46469 0.07925 -0.00192 0.02080 0.07675 -0.02590 0.13217 0.07600 
1403715347.847142912 -0.30051 -0.50404 0.05624 -0.00194 0.02081 0.07676 -0.02597 0.13177 0.07599 
1403715348.27142912 -0.22946 -0.47789 0.03920 -0.00193 0.02080 0.07675 -0.02594 0.13146 0.07625 
1403715348.272143104 -0.14737 -0.33053 0.04241 -0.00193 0.02081 0.07675 -0.02617 0.13248 0.07572 
1403715348.382142976 -0.14596 -0.24892 -0.01788 -0.00192 0.02082 0.07676 -0.02625 0.13269 0.07548 
1403715348.462142976 -0.14684 -0.18862 -0.09975 -0.00192 0.02082 0.07676 -0.02629 0.13264 0.07538 
1403715348.592143104 -0.19019 -0.11649 -0.23494 -0.00192 0.02082 0.07677 -0.02635 0.13279 0.07531 
1403715348.767142912 -0.22146 -0.00384 -0.33052 -0.00191 0.02082 0.07678 -0.02642 0.13253 0.07528 
1403715348.972143104 -0.21205 0.12986 -0.26986 -0.00191 0.02082 0.07679 -0.02644 0.13310 0.07523 
1403715349.87142912 -0.21914 0.19340 -0.24160 -0.00191 0.02081 0.07680 -0.02642 0.13316 0.07502 
1403715349.222142976 -0.19403 0.24772 -0.21897 -0.00191 0.02081 0.07680 -0.02642 0.13325 0.07489 
1403715349.427142912 -0.12776 0.33062 -0.21211 -0.00190 0.02081 0.07680 -0.02655 0.13266 0.07435 
1403715349.722142976 -0.00845 0.31745 -0.22953 -0.00189 0.02081 0.07679 -0.02640 0.13258 0.07419 
1403715350.17143040 0.03590 0.32631 -0.18088 -0.00190 0.02081 0.07679 -0.02629 0.13249 0.07422 
1403715350.137143040 0.05209 0.35416 -0.19904 -0.00191 0.02081 0.07678 -0.02625 0.13251 0.07430 
1403715350.317143040 0.01056 0.35943 -0.21193 -0.00191 0.02081 0.07678 -0.02624 0.13244 0.07437 
1403715350.437143040 -0.04007 0.31166 -0.19695 -0.00191 0.02081 0.07677 -0.02598 0.13214 0.07528 
1403715350.677143040 -0.15605 0.10310 -0.17728 -0.00190 0.02081 0.07677 -0.02602 0.13229 0.07519 
1403715350.972143104 -0.27745 -0.07355 -0.09881 -0.00191 0.02080 0.07677 -0.02598 0.13233 0.07554 
1403715351.222142976 -0.31420 -0.24657 -0.04817 -0.00193 0.02080 0.07677 -0.02594 0.13224 0.07566 
1403715351.437143040 -0.33583 -0.36119 0.00081 -0.00193 0.02080 0.07677 -0.02590 0.13236 0.07574 
1403715351.717143040 -0.25788 -0.50184 0.04083 -0.00193 0.02080 0.07676 -0.02594 0.13231 0.07580 
1403715351.972143104 -0.20021 -0.61310 0.07533 -0.00192 0.02080 0.07676 -0.02587 0.13231 0.07602 
1403715352.227142912 -0.18853 -0.56767 0.12175 -0.00195 0.02080 0.07676 -0.02583 0.13221 0.07616 
1403715352.472143104 -0.23702 -0.49515 0.07543 -0.00196 0.02081 0.07676 -0.02570 0.13227 0.07644 
1403715352.677143040 -0.29165 -0.38473 0.04469 -0.00195 0.02080 0.07676 -0.02562 0.13213 0.07658 
1403715352.877143040 -0.27253 -0.31451 0.02649 -0.00193 0.02080 0.07674 -0.02560 0.13235 0.07652 
1403715353.127142912 -0.17812 -0.25088 0.07155 -0.00194 0.02078 0.07675 -0.02572 0.13293 0.07626 
1403715353.467142912 -0.09684 -0.19039 0.14454 -0.00193 0.02078 0.07675 -0.02564 0.13276 0.07656 
1403715353.717143040 -0.05744 -0.15837 -0.12913 -0.00194 0.02078 0.07674 -0.02568 0.13272 0.07652 
1403715354.17143040 0.01374 -0.17329 -0.21079 -0.00196 0.02078 0.07675 -0.02570 0.13270 0.07657 
1403715354.267142912 0.00918 -0.12414 -0.19375 -0.00195 0.02079 0.07674 -0.02572 0.13269 0.07650 
1403715354.472143104 -0.05773 -0.09085 -0.17441 -0.00195 0.02079 0.07674 -0.02577 0.13265 0.07647 
1403715354.677143040 -0.11316 -0.11459 -0.01664 -0.00197 0.02080 0.07674 -0.02583 0.13278 0.07654 
1403715354.867142912 -0.15412 -0.13054 0.22415 -0.00197 0.02080 0.07674 -0.02581 0.13271 0.07667 
1403715355.77143040 -0.17808 -0.10993 0.28212 -0.00197 0.02080 0.07673 -0.02577 0.13274 0.07676 
1403715355.352143104 -0.18920 -0.08388 0.21221 -0.00199 0.02079 0.07672 -0.02580 0.13277 0.07675 
1403715355.577143040 -0.18615 -0.07289 0.19256 -0.00196 0.02079 0.07671 -0.02580 0.13281 0.07681 
1403715355.872143104 -0.20039 -0.03886 0.14098 -0.00199 0.02079 0.07671 -0.02586 0.13282 0.07668 
1403715356.82142976 -0.18703 -0.05426 0.13072 -0.00196 0.02078 0.07670 -0.02584 0.13280 0.07673 
1403715356.267142912 -0.14116 -0.12136 0.09867 -0.00198 0.02078 0.07671 -0.02589 0.13293 0.07672 
1403715356.442142976 -0.07860 -0.21252 0.03490 -0.00197 0.02078 0.07671 -0.02591 0.13294 0.07669 
1403715356.632143104 -0.07049 -0.30926 -0.00336 -0.00197 0.02078 0.07671 -0.02600 0.13296 0.07659 
1403715356.842142976 -0.12635 -0.36834 -0.00593 -0.00197 0.02078 0.07671 -0.02604 0.13288 0.07674 
1403715357.117143040 -0.21273 -0.38302 0.12924 -0.00196 0.02078 0.07670 -0.02602 0.13289 0.07679 
1403715357.327142912 -0.29265 -0.38313 0.18057 -0.00198 0.02078 0.07672 -0.02606 0.13299 0.07667 
1403715357.542142976 -0.27321 -0.36709 0.10668 -0.00198 0.02077 0.07672 -0.02604 0.13294 0.07676 
1403715357.682142976 -0.24957 -0.38592 0.10510 -0.00198 0.02077 0.07672 -0.02608 0.13291 0.07680 
1403715357.967142912 -0.13342 -0.44471 0.00389 -0.00195 0.02077 0.07672 -0.02629 0.13308 0.07659 
1403715358.177143040 -0.01909 -0.54709 -0.03351 -0.00195 0.02077 0.07672 -0.02638 0.13299 0.07649 
1403715358.417143040 0.03076 -0.66702 -0.05111 -0.00194 0.02077 0.07672 -0.02638 0.13295 0.07650 
1403715358.667142912 0.13499 -0.75965 -0.08909 -0.00194 0.02077 0.07672 -0.02640 0.13286 0.07646 
1403715358.857143040 0.17380 -0.73995 -0.09354 -0.00195 0.02078 0.07673 -0.02646 0.13276 0.07651 
1403715359.27142912 0.16875 -0.68079 -0.14310 -0.00194 0.02078 0.07672 -0.02658 0.13267 0.07643 
1403715359.132143104 0.15721 -0.62721 -0.13429 -0.00194 0.02078 0.07672 -0.02665 0.13261 0.07641 
1403715359.267142912 0.14674 -0.56162 -0.12419 -0.00195 0.02078 0.07672 -0.02659 0.13224 0.07681 
1403715359.487142912 0.19996 -0.45313 -0.07215 -0.00195 0.02077 0.07672 -0.02664 0.13227 0.07719 
1403715359.717143040 0.31137 -0.37667 -0.00735 -0.00195 0.02077 0.07672 -0.02658 0.13199 0.07757 
1403715359.967142912 0.35606 -0.27885 0.02833 -0.00195 0.02077 0.07671 -0.02672 0.13226 0.07739 
1403715360.127142912 0.35049 -0.24800 0.03745 -0.00195 0.02076 0.07670 -0.02676 0.13210 0.07750 
1403715360.517143040 0.24739 -0.16103 0.03968 -0.00196 0.02077 0.07670 -0.02667 0.13176 0.07784 
1403715360.797143040 0.06242 -0.05336 0.07958 -0.00197 0.02077 0.07671 -0.02704 0.13254 0.07689 
1403715360.967142912 0.02115 -0.02841 0.09198 -0.00197 0.02077 0.07671 -0.02713 0.13276 0.07669 
1403715361.182142976 0.01733 -0.02455 0.08827 -0.00197 0.02078 0.07670 -0.02704 0.13243 0.07696 
1403715361.337143040 0.02410 -0.04094 0.08953 -0.00198 0.02078 0.07671 -0.02701 0.13262 0.07714 
1403715361.522142976 0.04639 -0.08659 0.03327 -0.00198 0.02079 0.07670 -0.02705 0.13277 0.07703 
1403715361.677143040 0.06430 -0.14099 0.00259 -0.00197 0.02079 0.07670 -0.02712 0.13282 0.07685 
1403715361.927142912 0.02258 -0.23154 -0.03751 -0.00197 0.02079 0.07670 -0.02700 0.13275 0.07714 
1403715362.92143104 -0.01200 -0.26576 -0.06639 -0.00196 0.02079 0.07670 -0.02684 0.13272 0.07733 
1403715362.297143040 -0.06971 -0.32106 -0.10737 -0.00197 0.02079 0.07670 -0.02690 0.13243 0.07698 
1403715362.427142912 -0.07302 -0.36384 -0.11798 -0.00196 0.02079 0.07670 -0.02675 0.13243 0.07730 
1403715362.722142976 -0.11879 -0.47664 -0.09346 -0.00196 0.02079 0.07669 -0.02667 0.13271 0.07744 
1403715362.922142976 -0.15290 -0.48830 -0.02277 -0.00196 0.02079 0.07670 -0.02682 0.13287 0.07717 
1403715363.122142976 -0.13623 -0.32956 0.01962 -0.00197 0.02079 0.07670 -0.02703 0.13266 0.07656 
1403715363.322142976 -0.07764 -0.12817 0.07628 -0.00196 0.02079 0.07670 -0.02675 0.13277 0.07736 
1403715363.577143040 -0.00232 0.08962 0.13024 -0.00195 0.02078 0.07670 -0.02648 0.13228 0.07803 
1403715363.767142912 0.04037 0.17770 0.13003 -0.00195 0.02078 0.07670 -0.02617 0.13127 0.07876 
1403715363.922142976 0.07471 0.21217 0.13074 -0.00195 0.02078 0.07670 -0.02608 0.13111 0.07899 
1403715364.122142976 0.13019 0.20821 0.12733 -0.00196 0.02077 0.07669 -0.02663 0.13109 0.07730 
1403715364.277143040 0.15667 0.18327 0.10918 -0.00196 0.02077 0.07669 -0.02687 0.13031 0.07650 
1403715364.617143040 0.23139 0.22141 0.15436 -0.00197 0.02077 0.07668 -0.02687 0.13084 0.07650 
1403715364.877143040 0.28735 0.26088 0.15830 -0.00196 0.02079 0.07667 -0.02741 0.13075 0.07514 
1403715365.67142912 0.27408 0.25533 0.16477 -0.00196 0.02079 0.07667 -0.02748 0.13082 0.07505 
1403715365.172143104 0.24820 0.24092 0.17743 -0.00196 0.02079 0.07667 -0.02756 0.13074 0.07488 
1403715365.342142976 0.20952 0.19825 0.13469 -0.00195 0.02079 0.07666 -0.02763 0.13063 0.07469 
1403715365.522142976 0.19693 0.14440 0.10222 -0.00194 0.02079 0.07667 -0.02725 0.13243 0.07575 
1403715365.677143040 0.20452 0.11150 0.08579 -0.00194 0.02079 0.07667 -0.02722 0.13263 0.07594 
1403715365.837143040 0.23612 0.09526 0.06469 -0.00194 0.02079 0.07667 -0.02728 0.13274 0.07583 
1403715366.122142976 0.31926 0.08046 0.02689 -0.00194 0.02079 0.07668 -0.02728 0.13292 0.07601 
1403715366.297143040 0.41335 0.05878 0.01148 -0.00194 0.02079 0.07669 -0.02720 0.13318 0.07646 
1403715366.492143104 0.49944 0.03767 0.01523 -0.00194 0.02079 0.07669 -0.02705 0.13260 0.07693 
1403715366.667142912 0.50105 0.03325 -0.01855 -0.00192 0.02078 0.07668 -0.02702 0.13264 0.07724 
1403715366.812143104 0.49496 0.04897 -0.02348 -0.00193 0.02078 0.07668 -0.02703 0.13241 0.07733 
1403715366.967142912 0.46393 0.09079 -0.00601 -0.00193 0.02078 0.07668 -0.02705 0.13227 0.07737 
1403715367.142142976 0.44006 0.17316 0.03392 -0.00193 0.02079 0.07667 -0.02726 0.13198 0.07733 
1403715367.317143040 0.42728 0.24985 0.04103 -0.00193 0.02078 0.07667 -0.02750 0.13233 0.07684 
1403715367.527142912 0.42436 0.35540 0.04900 -0.00194 0.02078 0.07667 -0.02753 0.13234 0.07687 
1403715367.772143104 0.41258 0.48826 0.06784 -0.00194 0.02078 0.07667 -0.02757 0.13245 0.07692 
1403715367.957143040 0.39937 0.56356 0.06617 -0.00193 0.02078 0.07666 -0.02762 0.13246 0.07686 
1403715368.122142976 0.40645 0.58636 0.02541 -0.00193 0.02078 0.07666 -0.02764 0.13232 0.07697 
1403715368.302142976 0.43851 0.57435 -0.00754 -0.00193 0.02078 0.07667 -0.02762 0.13224 0.07715 
1403715368.432143104 0.48950 0.57544 -0.01804 -0.00194 0.02078 0.07667 -0.02763 0.13219 0.07716 
1403715368.582142976 0.55849 0.57442 -0.03550 -0.00193 0.02078 0.07667 -0.02766 0.13238 0.07728 
1403715368.737143040 0.61138 0.54246 -0.04588 -0.00194 0.02077 0.07667 -0.02765 0.13209 0.07738 
1403715368.892143104 0.61225 0.49877 -0.04834 -0.00194 0.02077 0.07668 -0.02785 0.13204 0.07693 
1403715369.132143104 0.57415 0.46679 -0.02827 -0.00193 0.02077 0.07667 -0.02791 0.13197 0.07700 
1403715369.372143104 0.51038 0.48598 0.00859 -0.00195 0.02077 0.07668 -0.02795 0.13196 0.07700 
1403715369.522142976 0.46920 0.49030 0.02353 -0.00194 0.02077 0.07668 -0.02796 0.13197 0.07692 
1403715369.732143104 0.43809 0.51939 0.02862 -0.00195 0.02077 0.07668 -0.02790 0.13210 0.07697 
1403715370.17143040 0.33513 0.54904 -0.01921 -0.00197 0.02077 0.07668 -0.02781 0.13198 0.07697 
1403715370.272143104 0.16799 0.52499 -0.01050 -0.00196 0.02078 0.07668 -0.02778 0.13211 0.07685 
1403715370.477143040 0.13144 0.50041 0.00168 -0.00196 0.02078 0.07668 -0.02776 0.13171 0.07678 
1403715370.667142912 0.15440 0.50432 -0.00742 -0.00196 0.02078 0.07668 -0.02778 0.13199 0.07659 
1403715370.827142912 0.16429 0.51758 -0.00087 -0.00197 0.02078 0.07669 -0.02774 0.13178 0.07663 
1403715371.72143104 0.12518 0.50957 -0.05488 -0.00195 0.02078 0.07669 -0.02779 0.13201 0.07649 
1403715371.222142976 0.02819 0.56250 -0.06512 -0.00197 0.02079 0.07669 -0.02775 0.13235 0.07651 
1403715371.522142976 -0.14929 0.68216 -0.06328 -0.00196 0.02079 0.07669 -0.02776 0.13207 0.07656 
1403715371.722142976 -0.15432 0.74414 -0.07944 -0.00195 0.02079 0.07669 -0.02782 0.13198 0.07655 
1403715371.922142976 -0.10149 0.79302 -0.09455 -0.00194 0.02078 0.07669 -0.02792 0.13198 0.07642 
1403715372.92143104 -0.10630 0.80648 -0.07280 -0.00198 0.02078 0.07670 -0.02791 0.13182 0.07650 
1403715372.242142976 -0.13625 0.81342 -0.01536 -0.00198 0.02078 0.07670 -0.02791 0.13193 0.07647 
1403715372.417143040 -0.13553 0.79909 0.05547 -0.00200 0.02077 0.07671 -0.02788 0.13203 0.07661 
1403715372.767142912 -0.13755 0.76295 0.09014 -0.00199 0.02077 0.07670 -0.02781 0.13222 0.07686 
1403715372.942142976 -0.13274 0.75216 0.06720 -0.00199 0.02076 0.07670 -0.02784 0.13226 0.07690 
1403715373.82142976 -0.12775 0.74550 0.04711 -0.00202 0.02076 0.07671 -0.02795 0.13201 0.07669 
1403715373.182142976 -0.11116 0.74444 0.04185 -0.00202 0.02076 0.07671 -0.02791 0.13213 0.07683 
1403715373.332143104 -0.08348 0.72759 0.05173 -0.00201 0.02075 0.07670 -0.02788 0.13259 0.07699 
1403715373.577143040 -0.07624 0.68147 0.04210 -0.00201 0.02074 0.07670 -0.02792 0.13274 0.07712 
1403715373.827142912 -0.13144 0.53607 0.01789 -0.00200 0.02074 0.07669 -0.02788 0.13279 0.07717 
1403715373.982142976 -0.15505 0.45504 0.02069 -0.00201 0.02075 0.07669 -0.02789 0.13281 0.07714 
1403715374.132143104 -0.16349 0.37709 -0.00288 -0.00200 0.02074 0.07669 -0.02787 0.13281 0.07718 
1403715374.372143104 -0.15450 0.31465 0.00533 -0.00200 0.02075 0.07669 -0.02792 0.13280 0.07702 
1403715374.627142912 -0.21355 0.29299 0.01591 -0.00200 0.02075 0.07669 -0.02809 0.13255 0.07687 
1403715374.917143040 -0.38807 0.25260 0.02190 -0.00200 0.02076 0.07669 -0.02811 0.13242 0.07683 
1403715375.67142912 -0.45790 0.20457 -0.00002 -0.00201 0.02076 0.07669 -0.02812 0.13237 0.07678 
1403715375.317143040 -0.50528 0.09400 -0.03519 -0.00200 0.02077 0.07669 -0.02812 0.13228 0.07684 
1403715375.422142976 -0.52563 0.06001 -0.02771 -0.00201 0.02076 0.07669 -0.02810 0.13234 0.07694 
1403715375.722142976 -0.56218 0.00702 -0.05759 -0.00200 0.02077 0.07669 -0.02806 0.13218 0.07716 
1403715375.967142912 -0.56398 -0.03057 -0.04243 -0.00200 0.02077 0.07669 -0.02788 0.13194 0.07750 
1403715376.172143104 -0.53442 -0.07344 -0.09015 -0.00199 0.02076 0.07668 -0.02793 0.13216 0.07726 
1403715376.327142912 -0.49707 -0.09185 -0.08902 -0.00201 0.02076 0.07669 -0.02786 0.13210 0.07735 
1403715376.527142912 -0.39833 -0.12906 -0.12158 -0.00200 0.02075 0.07669 -0.02787 0.13218 0.07736 
1403715376.677143040 -0.35931 -0.18141 -0.10532 -0.00200 0.02075 0.07668 -0.02796 0.13218 0.07720 
1403715376.867142912 -0.31660 -0.24872 -0.06636 -0.00200 0.02075 0.07668 -0.02782 0.13207 0.07746 
1403715377.77143040 -0.19974 -0.34054 -0.10225 -0.00201 0.02075 0.07668 -0.02765 0.13230 0.07764 
1403715377.237143040 -0.13118 -0.41159 -0.08343 -0.00201 0.02074 0.07668 -0.02762 0.13229 0.07764 
1403715377.417143040 -0.08614 -0.48510 -0.05936 -0.00200 0.02075 0.07667 -0.02767 0.13227 0.07753 
1403715377.622142976 -0.00172 -0.55297 -0.07666 -0.00202 0.02074 0.07668 -0.02754 0.13218 0.07768 
1403715377.787142912 0.03768 -0.58251 -0.06406 -0.00202 0.02075 0.07667 -0.02750 0.13225 0.07778 
1403715378.27142912 0.09227 -0.63227 -0.07717 -0.00203 0.02075 0.07667 -0.02743 0.13222 0.07786 
1403715378.322142976 0.15456 -0.59693 -0.09968 -0.00201 0.02076 0.07666 -0.02736 0.13248 0.07785 
1403715378.617143040 0.16273 -0.47634 -0.03412 -0.00202 0.02076 0.07666 -0.02732 0.13231 0.07789 
1403715378.872143104 0.08273 -0.43134 0.00801 -0.00203 0.02076 0.07666 -0.02725 0.13244 0.07778 
1403715379.172143104 -0.05416 -0.36976 0.08605 -0.00203 0.02077 0.07666 -0.02713 0.13233 0.07804 
1403715379.472143104 -0.11664 -0.40535 0.07828 -0.00204 0.02076 0.07666 -0.02708 0.13242 0.07794 
1403715379.717143040 -0.21818 -0.48199 0.08470 -0.00203 0.02077 0.07666 -0.02705 0.13219 0.07806 
1403715379.872143104 -0.29164 -0.53934 0.11615 -0.00204 0.02077 0.07666 -0.02705 0.13211 0.07803 
1403715379.977143040 -0.32055 -0.59098 0.10282 -0.00204 0.02077 0.07666 -0.02704 0.13229 0.07793 
1403715380.217143040 -0.31432 -0.68280 0.05252 -0.00204 0.02077 0.07666 -0.02701 0.13246 0.07788 
1403715380.472143104 -0.29248 -0.65752 0.04849 -0.00204 0.02077 0.07666 -0.02701 0.13252 0.07793 
1403715380.767142912 -0.25981 -0.68546 0.06921 -0.00204 0.02077 0.07666 -0.02705 0.13226 0.07787 
1403715380.947142912 -0.21216 -0.71058 0.03162 -0.00204 0.02076 0.07667 -0.02708 0.13219 0.07785 
1403715381.172143104 -0.18293 -0.74461 0.02225 -0.00203 0.02076 0.07667 -0.02715 0.13221 0.07792 
1403715381.387142912 -0.15275 -0.71858 -0.00182 -0.00203 0.02076 0.07667 -0.02718 0.13216 0.07803 
1403715381.717143040 -0.06922 -0.67240 -0.05677 -0.00204 0.02076 0.07667 -0.02725 0.13200 0.07804 
1403715381.917143040 -0.07725 -0.68293 -0.06544 -0.00203 0.02076 0.07667 -0.02725 0.13212 0.07822 
1403715382.117143040 -0.14003 -0.70073 -0.05879 -0.00203 0.02075 0.07667 -0.02732 0.13186 0.07805 
1403715382.367142912 -0.21966 -0.67868 -0.04731 -0.00203 0.02075 0.07667 -0.02731 0.13160 0.07826 
1403715382.562142976 -0.28920 -0.66839 -0.04410 -0.00203 0.02075 0.07667 -0.02733 0.13159 0.07839 
1403715382.817143040 -0.36388 -0.60059 -0.05142 -0.00202 0.02075 0.07666 -0.02747 0.13169 0.07826 
1403715383.22142976 -0.43082 -0.55594 -0.05510 -0.00202 0.02076 0.07665 -0.02755 0.13196 0.07829 
1403715383.272143104 -0.51136 -0.46400 -0.06644 -0.00202 0.02076 0.07665 -0.02758 0.13173 0.07833 
1403715383.567142912 -0.53953 -0.29369 -0.06626 -0.00203 0.02076 0.07664 -0.02757 0.13183 0.07841 
1403715383.722142976 -0.50765 -0.21282 -0.07851 -0.00203 0.02076 0.07665 -0.02762 0.13136 0.07835 
1403715383.917143040 -0.47377 -0.13679 -0.08190 -0.00203 0.02077 0.07664 -0.02791 0.13202 0.07764 
1403715384.117143040 -0.42166 -0.11507 -0.05611 -0.00204 0.02077 0.07664 -0.02783 0.13219 0.07781 
1403715384.272143104 -0.38298 -0.08224 -0.03810 -0.00205 0.02077 0.07664 -0.02781 0.13211 0.07782 
1403715384.472143104 -0.31340 -0.05206 -0.02909 -0.00205 0.02077 0.07664 -0.02782 0.13194 0.07780 
1403715384.632143104 -0.25765 0.00085 -0.01869 -0.00205 0.02077 0.07664 -0.02782 0.13194 0.07780 
1403715384.872143104 -0.18002 0.11820 0.02331 -0.00204 0.02077 0.07664 -0.02786 0.13228 0.07775 
1403715385.97143040 -0.11154 0.21366 0.06235 -0.00205 0.02077 0.07663 -0.02791 0.13225 0.07762 
1403715385.277143040 -0.09938 0.25313 0.07744 -0.00205 0.02077 0.07663 -0.02789 0.13229 0.07756 
1403715385.417143040 -0.10631 0.28136 0.07891 -0.00204 0.02076 0.07663 -0.02785 0.13209 0.07762 
1403715385.627142912 -0.07620 0.30687 0.07821 -0.00205 0.02076 0.07663 -0.02787 0.13180 0.07748 
1403715385.782142976 -0.00413 0.31966 0.10512 -0.00206 0.02077 0.07663 -0.02790 0.13189 0.07742 
1403715386.67142912 0.16911 0.29903 0.12790 -0.00203 0.02077 0.07661 -0.02801 0.13223 0.07724 
1403715386.327142912 0.21488 0.22797 0.07785 -0.00204 0.02076 0.07661 -0.02818 0.13225 0.07667 
1403715386.542142976 0.23041 0.15400 0.03815 -0.00205 0.02076 0.07662 -0.02817 0.13220 0.07668 
1403715386.777143040 0.29244 0.03558 -0.04526 -0.00205 0.02076 0.07661 -0.02817 0.13199 0.07655 
1403715387.67142912 0.52885 -0.01358 -0.07647 -0.00205 0.02077 0.07661 -0.02813 0.13179 0.07661 
1403715387.242142976 0.64216 0.00615 -0.09141 -0.00204 0.02077 0.07661 -0.02829 0.13204 0.07607 
1403715387.477143040 0.70763 0.02702 -0.09546 -0.00203 0.02077 0.07660 -0.02823 0.13203 0.07614 
1403715387.677143040 0.72551 0.07106 0.07558 -0.00203 0.02077 0.07660 -0.02818 0.13208 0.07616 
1403715387.782142976 0.74037 0.10929 0.20716 -0.00203 0.02077 0.07660 -0.02818 0.13198 0.07615 
1403715388.22142976 0.75696 0.21030 0.05839 -0.00204 0.02077 0.07661 -0.02805 0.13196 0.07642 
1403715388.177143040 0.77379 0.24650 -0.15031 -0.00202 0.02076 0.07660 -0.02800 0.13215 0.07649 
1403715388.377143040 0.77962 0.29386 -0.25264 -0.00203 0.02076 0.07660 -0.02797 0.13227 0.07661 
1403715388.567142912 0.78129 0.31339 -0.24717 -0.00205 0.02076 0.07661 -0.02804 0.13209 0.07645 
1403715388.737143040 0.76591 0.31282 -0.21403 -0.00204 0.02076 0.07661 -0.02795 0.13229 0.07658 
1403715388.847142912 0.75160 0.31200 -0.17651 -0.00203 0.02076 0.07661 -0.02795 0.13226 0.07655 
1403715389.27142912 0.72954 0.32144 0.00001 -0.00204 0.02075 0.07662 -0.02808 0.13229 0.07609 
1403715389.282142976 0.67802 0.31332 0.13167 -0.00204 0.02076 0.07662 -0.02810 0.13235 0.07600 
1403715389.472143104 0.62916 0.30055 0.08487 -0.00203 0.02075 0.07661 -0.02806 0.13253 0.07598 
1403715389.687142912 0.55971 0.29156 0.05076 -0.00204 0.02075 0.07662 -0.02802 0.13218 0.07607 
1403715389.867142912 0.53730 0.28605 0.01271 -0.00205 0.02075 0.07662 -0.02804 0.13213 0.07602 
1403715390.27142912 0.53036 0.30236 -0.02821 -0.00204 0.02075 0.07662 -0.02801 0.13215 0.07609 
1403715390.172143104 0.48985 0.35197 -0.04192 -0.00204 0.02075 0.07662 -0.02806 0.13219 0.07586 
1403715390.332143104 0.41639 0.42068 -0.06339 -0.00203 0.02075 0.07661 -0.02802 0.13219 0.07596 
1403715390.532143104 0.30048 0.48372 -0.05505 -0.00204 0.02076 0.07662 -0.02796 0.13188 0.07602 
1403715390.687142912 0.20024 0.48619 -0.05858 -0.00205 0.02076 0.07662 -0.02801 0.13191 0.07581 
1403715390.887142912 0.09380 0.50881 -0.05879 -0.00205 0.02076 0.07662 -0.02797 0.13190 0.07586 
1403715391.57143040 0.02638 0.55546 -0.06852 -0.00205 0.02076 0.07662 -0.02781 0.13209 0.07620 
1403715391.237143040 -0.03362 0.63402 -0.04820 -0.00206 0.02076 0.07663 -0.02775 0.13224 0.07620 
1403715391.522142976 -0.05242 0.76981 -0.04378 -0.00206 0.02076 0.07663 -0.02782 0.13191 0.07596 
1403715391.722142976 -0.06471 0.85855 0.06913 -0.00208 0.02076 0.07663 -0.02781 0.13166 0.07595 
1403715391.887142912 -0.06776 0.92375 0.25109 -0.00207 0.02076 0.07663 -0.02753 0.13230 0.07657 
1403715392.32143104 -0.08301 0.95292 0.26107 -0.00206 0.02076 0.07662 -0.02749 0.13231 0.07660 
1403715392.267142912 -0.16897 0.98882 0.24126 -0.00206 0.02076 0.07662 -0.02748 0.13228 0.07657 
1403715392.567142912 -0.19256 0.95300 0.19595 -0.00206 0.02075 0.07662 -0.02735 0.13280 0.07694 
1403715392.837143040 -0.11857 0.83103 0.11582 -0.00207 0.02075 0.07662 -0.02716 0.13278 0.07752 
1403715393.32143104 -0.12364 0.75748 0.12178 -0.00207 0.02075 0.07661 -0.02721 0.13282 0.07734 
1403715393.232143104 -0.16289 0.65996 0.07407 -0.00206 0.02075 0.07661 -0.02733 0.13301 0.07686 
1403715393.477143040 -0.16165 0.48939 0.03531 -0.00205 0.02074 0.07661 -0.02719 0.13323 0.07707 
1403715393.717143040 -0.11790 0.26994 -0.01196 -0.00207 0.02074 0.07662 -0.02721 0.13328 0.07689 
1403715393.947142912 -0.10024 0.13996 -0.01428 -0.00207 0.02074 0.07663 -0.02737 0.13296 0.07639 
1403715394.142142976 -0.10379 0.08404 -0.02348 -0.00207 0.02075 0.07663 -0.02739 0.13284 0.07627 
1403715394.327142912 -0.07636 0.02767 -0.03075 -0.00207 0.02074 0.07663 -0.02727 0.13280 0.07653 
1403715394.517143040 -0.03385 -0.02424 -0.01762 -0.00206 0.02075 0.07663 -0.02742 0.13288 0.07619 
1403715394.767142912 0.09639 -0.07497 -0.05469 -0.00208 0.02075 0.07662 -0.02714 0.13251 0.07691 
1403715394.952143104 0.12851 -0.10261 -0.03447 -0.00209 0.02075 0.07663 -0.02714 0.13204 0.07707 
1403715395.32143104 0.14125 -0.11624 -0.04540 -0.00210 0.02075 0.07663 -0.02713 0.13191 0.07710 
1403715395.242142976 0.16392 -0.16294 -0.04059 -0.00210 0.02075 0.07662 -0.02694 0.13212 0.07776 
1403715395.387142912 0.17596 -0.19194 -0.06531 -0.00210 0.02075 0.07662 -0.02691 0.13217 0.07783 
1403715395.572143104 0.18635 -0.22180 -0.11094 -0.00210 0.02075 0.07662 -0.02680 0.13226 0.07818 
1403715395.767142912 0.18897 -0.27031 -0.14603 -0.00210 0.02074 0.07661 -0.02662 0.13256 0.07860 
1403715396.27142912 0.17783 -0.31284 -0.15218 -0.00211 0.02074 0.07661 -0.02634 0.13363 0.07917 
1403715396.137143040 0.12990 -0.31073 -0.13554 -0.00211 0.02074 0.07661 -0.02633 0.13370 0.07918 
1403715396.322142976 0.03269 -0.32351 -0.10649 -0.00210 0.02073 0.07660 -0.02632 0.13416 0.07914 
1403715396.472143104 0.01711 -0.30785 -0.11484 -0.00211 0.02073 0.07661 -0.02624 0.13425 0.07940 
1403715396.727142912 0.09128 -0.28814 -0.15219 -0.00209 0.02072 0.07660 -0.02615 0.13477 0.07978 
1403715397.17143040 0.11424 -0.29468 -0.19745 -0.00210 0.02072 0.07660 -0.02606 0.13448 0.08012 
1403715397.222142976 0.09995 -0.38943 -0.20271 -0.00210 0.02072 0.07659 -0.02602 0.13557 0.08027 
1403715397.432143104 0.00097 -0.50792 -0.17342 -0.00212 0.02072 0.07660 -0.02597 0.13539 0.08045 
1403715397.717143040 -0.20890 -0.63406 -0.06418 -0.00212 0.02072 0.07659 -0.02595 0.13540 0.08047 
1403715397.972143104 -0.31553 -0.63750 0.00303 -0.00212 0.02071 0.07659 -0.02591 0.13573 0.08058 
1403715398.222142976 -0.30547 -0.52171 -0.07852 -0.00211 0.02071 0.07659 -0.02590 0.13569 0.08050 
1403715398.492143104 -0.27343 -0.35975 -0.09968 -0.00212 0.02070 0.07659 -0.02577 0.13603 0.08074 
1403715398.667142912 -0.22787 -0.28156 -0.05913 -0.00213 0.02071 0.07659 -0.02571 0.13605 0.08079 
1403715398.922142976 -0.06480 -0.13427 -0.04966 -0.00214 0.02071 0.07660 -0.02571 0.13605 0.08067 
1403715399.177143040 0.13438 0.03209 -0.02995 -0.00214 0.02071 0.07660 -0.02568 0.13599 0.08067 
1403715399.282142976 0.18773 0.11105 -0.02237 -0.00216 0.02070 0.07661 -0.02572 0.13584 0.08053 
1403715399.527142912 0.29762 0.23285 -0.02160 -0.00215 0.02070 0.07660 -0.02572 0.13590 0.08053 
1403715399.722142976 0.38415 0.23457 -0.00462 -0.00216 0.02070 0.07661 -0.02568 0.13591 0.08056 
1403715399.917143040 0.41518 0.15862 0.04107 -0.00217 0.02071 0.07661 -0.02568 0.13583 0.08055 
1403715400.57143040 0.43599 0.07622 0.08408 -0.00217 0.02071 0.07661 -0.02563 0.13586 0.08065 
1403715400.277143040 0.49816 -0.04953 0.08448 -0.00217 0.02071 0.07661 -0.02556 0.13592 0.08079 
1403715400.517143040 0.62640 -0.17304 0.03542 -0.00217 0.02071 0.07660 -0.02555 0.13594 0.08085 
1403715400.647142912 0.66003 -0.22867 -0.00189 -0.00216 0.02071 0.07659 -0.02554 0.13599 0.08087 
1403715400.872143104 0.65733 -0.34304 -0.03683 -0.00214 0.02071 0.07659 -0.02559 0.13630 0.08090 
1403715401.72143104 0.56821 -0.42989 -0.01835 -0.00215 0.02072 0.07658 -0.02562 0.13628 0.08092 
1403715401.342142976 0.39878 -0.60019 0.06851 -0.00216 0.02072 0.07658 -0.02567 0.13592 0.08101 
1403715401.527142912 0.30174 -0.71949 0.10719 -0.00217 0.02072 0.07659 -0.02566 0.13603 0.08097 
1403715401.727142912 0.19238 -0.75094 0.11875 -0.00217 0.02072 0.07659 -0.02566 0.13593 0.08085 
1403715401.917143040 0.10121 -0.70644 0.10033 -0.00218 0.02072 0.07659 -0.02558 0.13596 0.08101 
1403715402.67142912 0.06832 -0.67930 0.08355 -0.00217 0.02071 0.07659 -0.02558 0.13591 0.08100 
1403715402.232143104 0.07988 -0.60821 0.04257 -0.00218 0.02071 0.07659 -0.02558 0.13565 0.08089 
1403715402.527142912 0.13323 -0.50042 0.00834 -0.00218 0.02071 0.07658 -0.02592 0.13535 0.08033 
1403715402.817143040 0.30862 -0.51343 -0.02103 -0.00219 0.02071 0.07658 -0.02604 0.13525 0.08010 
1403715403.2142976 0.33326 -0.50022 -0.01372 -0.00219 0.02071 0.07658 -0.02604 0.13498 0.08014 
1403715403.222142976 0.21039 -0.47120 0.05149 -0.00220 0.02070 0.07658 -0.02607 0.13498 0.08015 
1403715403.472143104 0.02411 -0.46687 0.07519 -0.00220 0.02070 0.07658 -0.02599 0.13501 0.08036 
1403715403.727142912 -0.09706 -0.46543 0.01569 -0.00220 0.02069 0.07658 -0.02596 0.13471 0.08037 
1403715404.22142976 -0.32756 -0.45381 0.07387 -0.00221 0.02070 0.07658 -0.02601 0.13466 0.08029 
1403715404.322142976 -0.42407 -0.49228 0.04321 -0.00218 0.02070 0.07657 -0.02606 0.13459 0.08015 
1403715404.672143104 -0.37867 -0.63140 -0.02710 -0.00218 0.02070 0.07657 -0.02600 0.13456 0.08030 
1403715404.777143040 -0.37144 -0.65972 -0.03493 -0.00218 0.02070 0.07658 -0.02603 0.13463 0.08020 
1403715404.942142976 -0.35880 -0.65062 -0.05450 -0.00218 0.02070 0.07658 -0.02610 0.13490 0.07991 
1403715405.227142912 -0.28698 -0.52428 -0.08544 -0.00217 0.02071 0.07656 -0.02613 0.13500 0.07976 
1403715405.367142912 -0.27077 -0.43892 -0.08879 -0.00218 0.02071 0.07657 -0.02615 0.13503 0.07963 
1403715405.572143104 -0.24906 -0.33506 -0.08859 -0.00218 0.02071 0.07657 -0.02614 0.13510 0.07961 
1403715405.767142912 -0.28084 -0.28140 -0.10468 -0.00219 0.02071 0.07657 -0.02610 0.13535 0.07975 
1403715405.922142976 -0.33818 -0.26503 -0.11937 -0.00219 0.02071 0.07656 -0.02616 0.13541 0.07962 
1403715406.142142976 -0.39334 -0.22680 -0.15486 -0.00219 0.02071 0.07656 -0.02618 0.13541 0.07969 
1403715406.272143104 -0.40172 -0.20698 -0.16990 -0.00218 0.02071 0.07656 -0.02620 0.13548 0.07971 
1403715406.372143104 -0.39470 -0.18806 -0.17995 -0.00218 0.02071 0.07656 -0.02614 0.13536 0.07994 
1403715406.577143040 -0.37148 -0.12313 -0.20531 -0.00218 0.02070 0.07656 -0.02613 0.13461 0.08006 
1403715406.817143040 -0.32393 -0.00373 -0.20271 -0.00218 0.02069 0.07657 -0.02592 0.13430 0.08053 
1403715407.32143104 -0.29628 0.05512 -0.15437 -0.00216 0.02069 0.07657 -0.02573 0.13330 0.08103 
1403715407.227142912 -0.27662 0.10355 -0.13419 -0.00216 0.02069 0.07657 -0.02567 0.13335 0.08121 
1403715407.397143040 -0.30980 0.20634 -0.08487 -0.00216 0.02069 0.07657 -0.02557 0.13336 0.08141 
1403715407.517143040 -0.34429 0.29351 -0.04947 -0.00216 0.02069 0.07658 -0.02555 0.13361 0.08144 
1403715407.727142912 -0.41113 0.39405 0.02591 -0.00216 0.02070 0.07658 -0.02554 0.13373 0.08141 
1403715407.917143040 -0.47184 0.41970 0.01090 -0.00217 0.02070 0.07658 -0.02551 0.13394 0.08146 
1403715408.82142976 -0.50556 0.42796 0.17208 -0.00217 0.02069 0.07657 -0.02559 0.13351 0.08126 
1403715408.297143040 -0.51921 0.45639 0.29758 -0.00218 0.02069 0.07657 -0.02577 0.13364 0.08096 
1403715408.472143104 -0.53050 0.44199 0.10159 -0.00217 0.02068 0.07657 -0.02573 0.13393 0.08114 
1403715408.677143040 -0.50187 0.36934 -0.08373 -0.00214 0.02067 0.07656 -0.02557 0.13396 0.08172 
1403715408.867142912 -0.44409 0.25772 -0.04196 -0.00215 0.02066 0.07657 -0.02584 0.13374 0.08118 
1403715408.972143104 -0.40902 0.20501 0.00284 -0.00215 0.02067 0.07657 -0.02584 0.13379 0.08126 
1403715409.172143104 -0.30470 0.10266 0.06477 -0.00214 0.02067 0.07656 -0.02584 0.13416 0.08128 
1403715409.417143040 -0.16954 0.08838 0.14980 -0.00215 0.02067 0.07657 -0.02601 0.13379 0.08083 
1403715409.592143104 -0.10356 0.06156 0.17412 -0.00214 0.02067 0.07657 -0.02590 0.13402 0.08106 
1403715409.727142912 -0.08456 0.05580 0.19611 -0.00214 0.02068 0.07657 -0.02625 0.13398 0.08016 
1403715409.842142976 -0.09461 0.06507 0.22448 -0.00214 0.02068 0.07657 -0.02595 0.13399 0.08097 
1403715410.67142912 -0.17053 0.12425 0.24601 -0.00217 0.02068 0.07657 -0.02585 0.13349 0.08133 
1403715410.147142912 -0.20196 0.15211 0.24173 -0.00217 0.02069 0.07658 -0.02586 0.13346 0.08131 
1403715410.327142912 -0.24918 0.15626 0.01486 -0.00218 0.02069 0.07658 -0.02579 0.13364 0.08145 
1403715410.547142912 -0.27874 0.12922 -0.03501 -0.00216 0.02068 0.07657 -0.02575 0.13398 0.08143 
1403715410.667142912 -0.31298 0.10109 -0.04389 -0.00216 0.02068 0.07657 -0.02572 0.13382 0.08145 
1403715410.867142912 -0.31625 0.05390 -0.02234 -0.00216 0.02068 0.07656 -0.02571 0.13345 0.08146 
1403715411.22142976 -0.26796 -0.01507 -0.06834 -0.00216 0.02068 0.07656 -0.02567 0.13286 0.08160 
1403715411.217143040 -0.23125 -0.04909 -0.03420 -0.00217 0.02068 0.07656 -0.02560 0.13269 0.08174 
1403715411.377143040 -0.18191 -0.05478 -0.02151 -0.00217 0.02068 0.07657 -0.02552 0.13242 0.08190 
1403715411.522142976 -0.11140 -0.05395 -0.03294 -0.00217 0.02068 0.07656 -0.02548 0.13253 0.08194 
1403715411.692143104 -0.03582 -0.06857 -0.02667 -0.00217 0.02067 0.07656 -0.02563 0.13416 0.08142 
1403715411.867142912 0.01007 -0.07447 -0.04548 -0.00218 0.02068 0.07656 -0.02561 0.13383 0.08140 
1403715412.22142976 0.03857 -0.08145 -0.04604 -0.00218 0.02068 0.07656 -0.02567 0.13371 0.08104 
1403715412.177143040 0.05926 -0.08827 -0.04517 -0.00218 0.02068 0.07656 -0.02564 0.13355 0.08103 
1403715412.367142912 0.08054 -0.08569 -0.05653 -0.00218 0.02068 0.07656 -0.02562 0.13336 0.08099 
1403715412.567142912 0.08277 -0.08155 -0.05996 -0.00218 0.02068 0.07657 -0.02565 0.13327 0.08090 
1403715412.772143104 0.05363 -0.05335 -0.03543 -0.00219 0.02069 0.07657 -0.02560 0.13328 0.08100 
1403715412.967142912 0.02101 -0.03073 -0.01307 -0.00217 0.02068 0.07657 -0.02565 0.13299 0.08087 
1403715413.187142912 0.00330 -0.03981 -0.21887 -0.00218 0.02068 0.07657 -0.02558 0.13344 0.08109 
1403715413.372143104 0.00658 -0.05997 -0.32402 -0.00218 0.02068 0.07657 -0.02557 0.13330 0.08110 
1403715413.517143040 0.03355 -0.04432 -0.25074 -0.00217 0.02068 0.07657 -0.02560 0.13329 0.08107 
1403715413.747142912 0.07975 -0.02325 -0.18130 -0.00219 0.02069 0.07657 -0.02554 0.13304 0.08124 
1403715413.972143104 0.08893 -0.04511 -0.24118 -0.00217 0.02068 0.07657 -0.02554 0.13305 0.08120 
1403715414.267142912 0.04728 -0.09403 0.06328 -0.00218 0.02069 0.07657 -0.02540 0.13365 0.08166 
1403715414.477143040 -0.07234 -0.03980 0.02099 -0.00219 0.02069 0.07657 -0.02544 0.13370 0.08171 
1403715414.667142912 -0.15418 -0.04622 -0.09213 -0.00218 0.02069 0.07657 -0.02547 0.13366 0.08163 
1403715414.917143040 -0.15821 -0.04607 -0.18035 -0.00218 0.02069 0.07658 -0.02557 0.13377 0.08163 
1403715415.137143040 -0.06020 0.02874 -0.21099 -0.00220 0.02068 0.07657 -0.02552 0.13337 0.08159 
1403715415.297143040 0.00940 0.07116 -0.15477 -0.00218 0.02068 0.07657 -0.02551 0.13383 0.08159 
1403715415.542142976 0.02630 0.05298 -0.06266 -0.00217 0.02068 0.07657 -0.02555 0.13366 0.08153 
1403715415.727142912 0.00936 0.01192 -0.13350 -0.00217 0.02067 0.07657 -0.02554 0.13371 0.08155 
1403715415.982142976 -0.01050 -0.01048 -0.01327 -0.00218 0.02067 0.07657 -0.02551 0.13372 0.08162 
1403715416.87142912 -0.00654 0.00601 0.03058 -0.00218 0.02067 0.07657 -0.02551 0.13372 0.08161 
1403715416.322142976 0.00404 0.00878 0.01901 -0.00218 0.02067 0.07657 -0.02548 0.13373 0.08168 
1403715416.627142912 0.00638 -0.00194 0.01577 -0.00219 0.02067 0.07657 -0.02539 0.13376 0.08183 
1403715416.817143040 0.00490 -0.00875 0.02006 -0.00219 0.02068 0.07657 -0.02541 0.13377 0.08175 
1403715417.27142912 0.00051 -0.00921 0.02419 -0.00219 0.02068 0.07657 -0.02544 0.13377 0.08165 
1403715417.202142976 -0.00295 -0.01163 0.03036 -0.00219 0.02068 0.07658 -0.02546 0.13377 0.08156 
1403715417.327142912 -0.00846 -0.00531 0.03067 -0.00220 0.02068 0.07658 -0.02553 0.13373 0.08133 
1403715417.482142976 -0.00795 -0.00801 0.03167 -0.00220 0.02068 0.07658 -0.02561 0.13363 0.08103 
1403715417.572143104 -0.01206 -0.00199 0.03094 -0.00221 0.02069 0.07658 -0.02567 0.13358 0.08080 
1403715417.777143040 -0.02752 -0.00166 0.03325 -0.00219 0.02072 0.07659 -0.02552 0.13418 0.08106 
1403715417.922142976 -0.03484 -0.00014 0.03674 -0.00219 0.02072 0.07659 -0.02549 0.13423 0.08111 
1403715418.57143040 -0.04012 0.00365 0.03831 -0.00218 0.02072 0.07659 -0.02546 0.13425 0.08113 
1403715418.187142912 -0.04262 0.00638 0.03916 -0.00218 0.02073 0.07658 -0.02542 0.13422 0.08117 
1403715418.422142976 -0.04716 0.01086 0.04229 -0.00218 0.02073 0.07659 -0.02533 0.13412 0.08131 
1403715418.592143104 -0.04333 0.01066 0.04121 -0.00220 0.02072 0.07659 -0.02527 0.13412 0.08131 
1403715418.777143040 -0.04743 0.01591 0.04456 -0.00220 0.02073 0.07660 -0.02517 0.13399 0.08151 
