1413393886.220760576 -0.00742 0.00322 -0.05424 -0.00449 0.00135 0.02323 0.00014 0.00013 -0.00045 
1413393886.510760448 -0.01539 -0.00199 -0.00549 -0.00225 0.02127 0.07733 -0.00547 0.00025 0.00178 
1413393886.765760512 -0.01748 0.00453 -0.00184 -0.00104 0.02378 0.07970 -0.00990 -0.00022 0.00319 
1413393887.20760576 0.00575 0.00119 0.00090 -0.00101 0.02362 0.07975 -0.01597 -0.00009 0.00510 
1413393887.270760448 -0.00413 0.00279 -0.00048 -0.00082 0.02328 0.07982 -0.01864 0.00008 0.00579 
1413393887.560760576 -0.00530 0.00745 -0.00015 -0.00094 0.02365 0.08007 -0.01294 0.00002 0.00401 
1413393887.770760448 -0.00388 -0.00009 -0.00592 -0.00095 0.02296 0.07990 -0.01642 -0.00001 0.00517 
1413393888.60760576 0.00374 0.00083 0.01095 -0.00120 0.02328 0.08022 -0.02852 0.00012 0.00907 
1413393888.315760384 -0.00893 -0.00457 -0.00031 -0.00101 0.02326 0.08035 -0.01251 0.00010 0.00394 
1413393888.570760448 0.00310 0.00163 -0.00407 -0.00118 0.02337 0.08032 -0.01363 0.00012 0.00435 
1413393888.860760576 -0.00005 -0.00133 -0.01503 -0.00135 0.02344 0.08030 -0.00934 0.00006 0.00298 
1413393889.115760384 0.00443 0.01103 0.01960 -0.00118 0.02311 0.07996 -0.02240 0.00014 0.00716 
1413393889.370760448 -0.02119 0.00963 -0.00746 -0.00108 0.02344 0.08013 -0.01818 0.00011 0.00579 
1413393889.660760576 -0.00831 0.03504 0.06930 -0.00113 0.02352 0.08007 -0.01889 0.00013 0.00603 
1413393889.915760384 -0.12858 -0.00754 0.49668 -0.00114 0.02351 0.08005 -0.01935 0.00014 0.00617 
1413393890.170760448 -0.22830 -0.19388 0.54021 -0.00115 0.02350 0.08002 -0.01954 0.00015 0.00624 
1413393890.275760384 -0.21836 -0.23595 0.34571 -0.00097 0.02339 0.07951 -0.02178 0.00024 0.00834 
1413393890.465760512 -0.22800 -0.26359 0.00627 -0.00104 0.02339 0.07939 -0.02192 -0.00212 0.00920 
1413393890.635760384 -0.16835 -0.23981 0.02180 -0.00116 0.02344 0.07919 -0.02108 -0.00625 0.00850 
1413393890.770760448 -0.08817 -0.24644 0.05769 -0.00104 0.02333 0.07907 -0.02042 -0.00671 0.01019 
1413393890.960760576 -0.03703 -0.25142 0.11964 -0.00103 0.02292 0.07898 -0.01482 -0.00520 0.01218 
1413393891.160760576 -0.03734 -0.27874 0.18816 -0.00100 0.02312 0.07902 -0.01474 -0.00406 0.01118 
1413393891.365760512 0.01148 -0.28282 -0.04893 -0.00144 0.02288 0.07901 -0.01307 -0.00599 0.01489 
1413393891.620760576 0.58482 -0.29321 -0.14062 -0.00101 0.02262 0.07895 -0.01425 -0.00441 0.01490 
1413393891.760760576 0.94115 -0.29402 -0.04534 -0.00094 0.02305 0.07918 -0.01711 -0.00264 0.01295 
1413393891.915760384 1.33853 -0.30322 0.03133 -0.00130 0.02309 0.07941 -0.01756 0.00016 0.01061 
1413393892.110760448 1.55322 -0.31908 0.12447 -0.00129 0.02339 0.07961 -0.02330 0.00231 -0.00080 
1413393892.270760448 1.52262 -0.35388 0.11978 -0.00120 0.02343 0.07980 -0.02572 0.00440 -0.00109 
1413393892.460760576 1.41006 -0.36565 -0.06483 -0.00120 0.02355 0.07986 -0.03361 0.00595 -0.02341 
1413393892.585760512 1.34948 -0.37170 -0.20608 -0.00110 0.02355 0.07966 -0.03940 0.00531 -0.04287 
1413393892.760760576 1.19357 -0.39873 -0.24561 -0.00129 0.02354 0.07969 -0.04431 0.00658 -0.05615 
1413393892.930760448 0.84237 -0.42324 -0.15358 -0.00135 0.02397 0.07977 -0.04943 0.00703 -0.07173 
1413393893.90760448 0.42013 -0.46269 -0.06586 -0.00127 0.02411 0.07975 -0.05151 0.00638 -0.07799 
1413393893.235760384 0.04818 -0.48926 0.03989 -0.00110 0.02419 0.07975 -0.05340 0.00723 -0.08058 
1413393893.460760576 -0.43501 -0.46133 0.10097 -0.00129 0.02448 0.07960 -0.05477 -0.00085 -0.07815 
1413393893.630760448 -0.72252 -0.38040 0.11866 -0.00122 0.02453 0.07954 -0.05646 -0.00151 -0.07950 
1413393893.820760576 -1.02209 -0.24613 0.18218 -0.00123 0.02451 0.07954 -0.05751 -0.00192 -0.07909 
1413393894.10760448 -1.19565 -0.10190 0.20468 -0.00128 0.02439 0.07938 -0.05880 -0.00333 -0.07926 
1413393894.235760384 -1.26852 0.02879 0.23190 -0.00121 0.02435 0.07943 -0.05913 -0.00214 -0.07544 
1413393894.435760384 -1.29624 0.14710 -0.04594 -0.00112 0.02416 0.07942 -0.04697 -0.00545 -0.03614 
1413393894.720760576 -1.33974 0.26268 -0.20208 -0.00102 0.02417 0.07947 -0.03580 -0.00572 -0.00217 
1413393894.915760384 -1.30938 0.31199 -0.11818 -0.00097 0.02405 0.07947 -0.03471 -0.00573 0.00083 
1413393895.20760576 -1.28679 0.32514 -0.08751 -0.00091 0.02405 0.07950 -0.03470 -0.00547 0.00124 
1413393895.215760384 -1.20253 0.34435 -0.04165 -0.00084 0.02403 0.07945 -0.03451 -0.00541 0.00177 
1413393895.510760448 -1.04651 0.34958 -0.23210 -0.00106 0.02411 0.07970 -0.02724 -0.00741 0.02335 
1413393895.765760512 -0.90036 0.37314 -0.12901 -0.00109 0.02423 0.07965 -0.02736 -0.00711 0.02122 
1413393895.920760576 -0.78173 0.37603 -0.06688 -0.00128 0.02433 0.07969 -0.02333 -0.01162 0.03293 
1413393896.25760512 -0.69349 0.37583 -0.05526 -0.00140 0.02441 0.07969 -0.02387 -0.01195 0.03152 
1413393896.210760448 -0.55505 0.31131 0.00967 -0.00139 0.02431 0.07969 -0.02317 -0.01174 0.03279 
1413393896.315760384 -0.46454 0.22813 0.02079 -0.00132 0.02431 0.07972 -0.01888 -0.01598 0.04333 
1413393896.465760512 -0.29580 0.08547 0.06952 -0.00153 0.02443 0.07972 -0.02006 -0.01683 0.03831 
1413393896.545760512 -0.18119 0.01842 0.09425 -0.00126 0.02447 0.07969 -0.01601 -0.02201 0.04978 
1413393896.660760576 -0.07143 0.00970 0.12775 -0.00129 0.02450 0.07968 -0.01638 -0.02226 0.04899 
1413393896.795760384 0.06446 0.04741 0.17024 -0.00138 0.02469 0.07964 -0.01842 -0.02353 0.04289 
1413393896.930760448 0.20335 0.16613 0.15879 -0.00162 0.02490 0.07959 -0.01571 -0.01978 0.04786 
1413393897.110760448 0.30764 0.42313 0.08096 -0.00169 0.02502 0.07952 -0.01745 -0.02252 0.04191 
1413393897.230760448 0.20614 0.59993 0.07897 -0.00147 0.02521 0.07937 -0.01827 -0.00780 0.03931 
1413393897.420760576 -0.09357 0.67375 0.06692 -0.00133 0.02520 0.07932 -0.01576 0.02158 0.04543 
1413393897.705760512 -0.38746 0.60870 0.07548 -0.00157 0.02507 0.07946 -0.01727 0.05896 0.03823 
1413393897.880760576 -0.48412 0.58064 0.10443 -0.00162 0.02507 0.07955 -0.01737 0.06325 0.03878 
1413393898.80760576 -0.62724 0.54187 0.18381 -0.00153 0.02502 0.07956 -0.01710 0.08324 0.03961 
1413393898.260760576 -0.78894 0.32960 0.22573 -0.00159 0.02501 0.07964 -0.01670 0.08598 0.04076 
1413393898.460760576 -0.81987 -0.07585 0.22261 -0.00172 0.02499 0.07969 -0.01668 0.09883 0.04116 
1413393898.630760448 -0.67362 -0.45198 -0.02426 -0.00166 0.02489 0.07963 -0.01679 0.11331 0.04204 
1413393898.760760576 -0.48161 -0.59568 -0.13916 -0.00166 0.02488 0.07962 -0.01720 0.11337 0.04161 
1413393899.20760576 -0.16285 -0.03857 0.09223 -0.00165 0.02484 0.07965 -0.01835 0.12998 0.03739 
1413393899.220760576 -0.17924 0.61290 0.40757 -0.00169 0.02483 0.07961 -0.01942 0.13400 0.03488 
1413393899.385760512 -0.28222 0.49593 0.41367 -0.00162 0.02476 0.07963 -0.01880 0.14335 0.03620 
1413393899.625760512 -0.20218 -0.30076 0.29284 -0.00174 0.02478 0.07963 -0.02061 0.13736 0.03342 
1413393899.910760448 0.22341 -1.05962 0.00915 -0.00175 0.02476 0.07961 -0.02024 0.13487 0.03523 
1413393900.165760512 0.66363 -0.57404 -0.01183 -0.00175 0.02479 0.07961 -0.02004 0.13148 0.03441 
1413393900.345760512 0.74457 0.05141 -0.03652 -0.00176 0.02478 0.07960 -0.01965 0.12901 0.03452 
1413393900.610760448 0.50877 0.38790 -0.20870 -0.00185 0.02479 0.07956 -0.01784 0.12407 0.03908 
1413393900.860760576 0.39422 -0.14999 -0.40828 -0.00188 0.02477 0.07962 -0.01924 0.12167 0.03542 
1413393901.90760448 0.50242 -0.65928 -0.32872 -0.00185 0.02469 0.07956 -0.01949 0.12379 0.03640 
1413393901.210760448 0.58624 -0.63969 -0.23985 -0.00187 0.02469 0.07955 -0.01906 0.12365 0.03691 
1413393901.460760576 0.51465 -0.12440 -0.09515 -0.00177 0.02474 0.07952 -0.01998 0.12145 0.03400 
1413393901.770760448 0.14596 0.65488 0.11444 -0.00176 0.02479 0.07943 -0.01877 0.11770 0.03742 
1413393901.935760384 -0.03896 0.71320 0.04448 -0.00180 0.02475 0.07941 -0.01856 0.11952 0.03738 
1413393902.185760512 -0.25616 0.73696 0.07841 -0.00175 0.02476 0.07943 -0.01905 0.12018 0.03614 
1413393902.455760384 -0.44773 0.74045 -0.01006 -0.00170 0.02476 0.07927 -0.01864 0.11631 0.03882 
1413393902.630760448 -0.58852 0.71829 0.07077 -0.00180 0.02474 0.07926 -0.01790 0.11907 0.04106 
1413393902.715760384 -0.65421 0.69009 0.18522 -0.00173 0.02470 0.07920 -0.01731 0.12148 0.04212 
1413393902.920760576 -0.76156 0.71353 0.30346 -0.00175 0.02470 0.07917 -0.01688 0.11982 0.04225 
1413393903.70760448 -0.70080 0.81552 0.35672 -0.00174 0.02465 0.07914 -0.01694 0.12393 0.04187 
1413393903.235760384 -0.60336 0.92800 0.36126 -0.00186 0.02468 0.07912 -0.01645 0.12359 0.04390 
1413393903.420760576 -0.52590 0.97036 0.16471 -0.00185 0.02473 0.07916 -0.01790 0.12350 0.03944 
1413393903.660760576 -0.44919 0.92260 -0.09985 -0.00202 0.02480 0.07917 -0.01711 0.12174 0.04154 
1413393903.805760512 -0.34121 0.82353 -0.07265 -0.00207 0.02479 0.07915 -0.01591 0.11974 0.04506 
1413393903.915760384 -0.24207 0.74700 -0.02771 -0.00200 0.02478 0.07914 -0.01617 0.12130 0.04413 
1413393904.170760448 0.07933 0.55643 -0.12418 -0.00199 0.02475 0.07907 -0.01518 0.12085 0.04560 
1413393904.345760512 0.26090 0.45400 0.05614 -0.00194 0.02473 0.07903 -0.01475 0.12080 0.04664 
1413393904.520760576 0.45192 0.42203 0.37273 -0.00196 0.02473 0.07908 -0.01595 0.12280 0.04397 
1413393904.660760576 0.52536 0.36595 0.28053 -0.00185 0.02472 0.07901 -0.01575 0.12305 0.04527 
1413393904.815760384 0.52635 0.41942 0.15004 -0.00180 0.02466 0.07897 -0.01475 0.12315 0.04810 
1413393904.960760576 0.51161 0.58233 0.08189 -0.00178 0.02466 0.07897 -0.01471 0.12349 0.04849 
1413393905.115760384 0.43929 0.66930 -0.10628 -0.00175 0.02465 0.07896 -0.01464 0.12355 0.04873 
1413393905.230760448 0.36754 0.70428 -0.26622 -0.00174 0.02470 0.07898 -0.01516 0.12035 0.04696 
1413393905.330760448 0.29871 0.69765 -0.27954 -0.00170 0.02465 0.07899 -0.01487 0.12058 0.04808 
1413393905.460760576 0.24447 0.67767 -0.22948 -0.00166 0.02466 0.07899 -0.01508 0.12066 0.04777 
1413393905.610760448 0.20222 0.61568 -0.21291 -0.00164 0.02466 0.07899 -0.01454 0.12042 0.04972 
1413393905.770760448 0.21178 0.50216 -0.13500 -0.00152 0.02467 0.07898 -0.01469 0.12127 0.04946 
1413393905.965760512 0.34767 0.28319 -0.05633 -0.00158 0.02468 0.07898 -0.01508 0.12047 0.04890 
1413393906.120760576 0.54915 0.11492 0.04717 -0.00154 0.02469 0.07895 -0.01478 0.12072 0.05071 
1413393906.310760448 0.65796 0.08772 -0.09552 -0.00149 0.02470 0.07892 -0.01487 0.12054 0.05069 
1413393906.515760384 0.56729 0.14764 -0.36153 -0.00159 0.02472 0.07896 -0.01381 0.11726 0.05316 
1413393906.820760576 0.40145 0.07960 -0.44312 -0.00132 0.02469 0.07887 -0.01346 0.11839 0.05398 
1413393907.30760448 0.26351 -0.11597 -0.41977 -0.00133 0.02466 0.07890 -0.01334 0.11893 0.05432 
1413393907.260760576 0.13386 -0.17745 -0.36683 -0.00108 0.02473 0.07877 -0.01351 0.11679 0.05474 
1413393907.410760448 0.06348 -0.03213 -0.32114 -0.00113 0.02474 0.07878 -0.01337 0.11636 0.05512 
1413393907.570760448 0.01366 0.15871 -0.02400 -0.00112 0.02474 0.07878 -0.01345 0.11607 0.05518 
1413393907.820760576 -0.00694 0.16339 -0.26480 -0.00095 0.02473 0.07873 -0.01387 0.11685 0.05456 
1413393907.965760512 -0.03991 0.11657 -0.54855 -0.00115 0.02472 0.07878 -0.01347 0.11638 0.05516 
1413393908.160760576 -0.18046 0.09915 -0.44494 -0.00108 0.02468 0.07875 -0.01300 0.11449 0.05533 
1413393908.315760384 -0.24159 0.12005 -0.23746 -0.00112 0.02467 0.07877 -0.01278 0.11458 0.05567 
1413393908.455760384 -0.32528 0.14813 -0.27100 -0.00103 0.02466 0.07876 -0.01257 0.11434 0.05597 
1413393908.675760384 -0.38623 0.14600 -0.23956 -0.00120 0.02470 0.07881 -0.01290 0.11503 0.05684 
1413393908.810760448 -0.38545 0.03741 -0.09811 -0.00120 0.02469 0.07884 -0.01299 0.11508 0.05665 
1413393909.65760512 -0.43935 -0.22327 0.23791 -0.00133 0.02474 0.07891 -0.01416 0.11671 0.05486 
1413393909.265760512 -0.49323 -0.16161 0.18721 -0.00120 0.02475 0.07890 -0.01437 0.11707 0.05461 
1413393909.565760512 -0.57815 -0.02260 -0.17409 -0.00116 0.02472 0.07892 -0.01454 0.11732 0.05460 
1413393909.830760448 -0.47968 0.09304 -0.38635 -0.00143 0.02470 0.07904 -0.01480 0.11900 0.05414 
1413393910.85760512 -0.18412 0.22764 -0.40164 -0.00142 0.02471 0.07902 -0.01467 0.11904 0.05447 
1413393910.215760384 0.04859 0.27616 -0.18656 -0.00159 0.02473 0.07909 -0.01479 0.11762 0.05410 
1413393910.460760576 0.56670 0.28847 0.11386 -0.00168 0.02478 0.07911 -0.01518 0.11633 0.05394 
1413393910.615760384 0.92737 0.18918 0.05261 -0.00160 0.02487 0.07909 -0.01632 0.11521 0.05183 
1413393910.795760384 1.22436 0.05906 -0.13512 -0.00169 0.02495 0.07905 -0.01551 0.11274 0.05463 
1413393911.10760448 1.41674 -0.03079 -0.30497 -0.00171 0.02494 0.07903 -0.01554 0.11283 0.05438 
1413393911.160760576 1.42868 -0.05799 -0.33930 -0.00175 0.02494 0.07902 -0.01483 0.11328 0.05700 
1413393911.320760576 1.41475 -0.09429 -0.29725 -0.00176 0.02493 0.07900 -0.01438 0.11469 0.05917 
1413393911.485760512 1.26305 -0.09608 -0.25975 -0.00177 0.02491 0.07896 -0.01360 0.11437 0.06118 
1413393911.615760384 1.08913 -0.05189 -0.08524 -0.00178 0.02492 0.07899 -0.01426 0.11459 0.05947 
1413393911.810760448 0.77757 0.02842 0.13627 -0.00171 0.02493 0.07898 -0.01453 0.11576 0.05940 
1413393911.980760576 0.71782 0.09807 0.37298 -0.00171 0.02500 0.07899 -0.01531 0.11316 0.05998 
1413393912.165760512 0.92250 -0.00019 0.60093 -0.00165 0.02508 0.07902 -0.01684 0.11053 0.05728 
1413393912.380760576 1.37539 -0.19220 0.67687 -0.00169 0.02530 0.07901 -0.01766 0.10239 0.05630 
1413393912.565760512 1.59078 -0.31695 0.59885 -0.00172 0.02529 0.07902 -0.01719 0.10198 0.05665 
1413393912.760760576 1.58679 -0.39450 0.34528 -0.00183 0.02530 0.07899 -0.01522 0.10151 0.06195 
1413393912.965760512 1.48861 -0.46352 0.09562 -0.00181 0.02525 0.07903 -0.01578 0.10318 0.05977 
1413393913.165760512 1.34669 -0.53023 -0.03994 -0.00181 0.02521 0.07904 -0.01593 0.10478 0.05961 
1413393913.285760512 1.22933 -0.60711 -0.14661 -0.00177 0.02522 0.07904 -0.01621 0.10481 0.05886 
1413393913.470760448 1.02866 -0.78659 -0.13861 -0.00177 0.02519 0.07906 -0.01602 0.10571 0.05935 
1413393913.580760576 0.89021 -0.92991 -0.03359 -0.00171 0.02518 0.07904 -0.01597 0.10677 0.05966 
1413393913.815760384 0.46522 -1.09447 0.16711 -0.00176 0.02515 0.07903 -0.01513 0.10792 0.06231 
1413393913.985760512 0.10695 -1.09473 0.27467 -0.00174 0.02511 0.07900 -0.01366 0.10957 0.06581 
1413393914.170760448 -0.23309 -0.96097 0.26656 -0.00169 0.02514 0.07907 -0.01317 0.10347 0.06369 
1413393914.460760576 -0.38455 -0.74002 0.31151 -0.00171 0.02536 0.07909 -0.01300 0.08267 0.06143 
1413393914.720760576 -0.43546 -0.67173 0.33424 -0.00176 0.02541 0.07907 -0.01199 0.08108 0.06261 
1413393915.15760384 -0.57435 -0.73030 0.33664 -0.00170 0.02544 0.07900 -0.01144 0.08367 0.06337 
1413393915.260760576 -0.55281 -0.86306 0.26970 -0.00163 0.02542 0.07899 -0.01163 0.08565 0.06251 
1413393915.515760384 -0.40792 -0.99046 0.15487 -0.00162 0.02545 0.07904 -0.01200 0.08467 0.05996 
1413393915.810760448 -0.18156 -0.91945 0.15060 -0.00167 0.02542 0.07902 -0.01085 0.08896 0.06224 
1413393916.65760512 0.04741 -0.82731 0.16609 -0.00171 0.02543 0.07910 -0.01116 0.09050 0.06015 
1413393916.220760576 0.22346 -0.74814 0.18093 -0.00175 0.02532 0.07911 -0.01033 0.09938 0.06179 
1413393916.335760384 0.32195 -0.71052 0.18286 -0.00173 0.02530 0.07913 -0.01032 0.10123 0.06135 
1413393916.510760448 0.37961 -0.61859 0.25335 -0.00172 0.02527 0.07913 -0.00998 0.10321 0.06192 
1413393916.680760576 0.40849 -0.55668 0.28276 -0.00173 0.02521 0.07909 -0.00898 0.10511 0.06428 
1413393916.865760512 0.43572 -0.49593 0.23601 -0.00166 0.02517 0.07906 -0.00827 0.10638 0.06554 
1413393917.60760576 0.40270 -0.44060 0.22940 -0.00153 0.02517 0.07891 -0.00649 0.10369 0.06900 
1413393917.215760384 0.32597 -0.38748 0.25056 -0.00161 0.02524 0.07898 -0.00757 0.10159 0.06718 
1413393917.410760448 0.18978 -0.21140 0.18313 -0.00164 0.02524 0.07898 -0.00739 0.10103 0.06806 
1413393917.665760512 -0.03708 -0.07622 -0.06255 -0.00164 0.02528 0.07897 -0.00828 0.09949 0.06587 
1413393917.910760448 -0.16465 0.00962 -0.08867 -0.00168 0.02524 0.07898 -0.00851 0.10321 0.06541 
1413393918.25760512 -0.16820 0.04135 -0.06536 -0.00169 0.02526 0.07905 -0.00961 0.10447 0.06286 
1413393918.175760384 -0.21066 0.12004 -0.04268 -0.00172 0.02519 0.07906 -0.01065 0.11127 0.06040 
1413393918.360760576 -0.26778 0.29476 -0.01153 -0.00183 0.02525 0.07909 -0.01182 0.10937 0.05794 
1413393918.615760384 -0.30205 0.59210 0.06908 -0.00183 0.02512 0.07911 -0.01249 0.11755 0.05633 
1413393918.715760384 -0.28673 0.69521 0.05614 -0.00183 0.02514 0.07913 -0.01281 0.11743 0.05552 
1413393918.915760384 -0.14900 0.87126 0.05142 -0.00171 0.02514 0.07909 -0.01348 0.11904 0.05451 
1413393919.110760448 0.08853 0.91483 0.05952 -0.00174 0.02504 0.07910 -0.01374 0.12504 0.05451 
1413393919.310760448 0.32856 0.78702 0.05563 -0.00186 0.02498 0.07913 -0.01430 0.12725 0.05408 
1413393919.565760512 0.64652 0.43996 -0.19876 -0.00178 0.02493 0.07918 -0.01617 0.13064 0.05064 
1413393919.820760576 0.95923 0.11854 -0.33579 -0.00181 0.02496 0.07920 -0.01684 0.12949 0.04953 
1413393920.110760448 0.93911 -0.30778 -0.62958 -0.00175 0.02491 0.07924 -0.01822 0.13144 0.04605 
1413393920.365760512 0.83029 -0.57914 -0.66739 -0.00172 0.02485 0.07926 -0.01897 0.13407 0.04401 
1413393920.560760576 0.75969 -0.67491 -0.58999 -0.00170 0.02488 0.07923 -0.01884 0.13194 0.04446 
1413393920.770760448 0.66705 -0.65888 -0.53288 -0.00170 0.02487 0.07922 -0.01860 0.13292 0.04516 
1413393921.70760448 0.51676 -0.56399 -0.51729 -0.00172 0.02485 0.07926 -0.01874 0.13384 0.04457 
1413393921.265760512 0.38778 -0.33691 -0.41673 -0.00171 0.02481 0.07922 -0.01828 0.13508 0.04634 
1413393921.430760448 0.25736 -0.09178 -0.32024 -0.00172 0.02486 0.07928 -0.01896 0.13343 0.04431 
1413393921.610760448 0.15974 0.06696 -0.28933 -0.00172 0.02485 0.07928 -0.01901 0.13381 0.04427 
1413393921.780760576 0.09856 0.06851 -0.47719 -0.00176 0.02487 0.07926 -0.01871 0.13295 0.04558 
1413393922.20760576 -0.00275 0.02135 -0.55230 -0.00184 0.02490 0.07926 -0.01861 0.13218 0.04634 
1413393922.120760576 -0.05228 -0.01990 -0.55700 -0.00186 0.02492 0.07927 -0.01871 0.13207 0.04633 
1413393922.315760384 -0.12761 -0.00033 -0.57222 -0.00190 0.02491 0.07929 -0.01867 0.13204 0.04611 
1413393922.615760384 -0.10243 0.44058 -0.39619 -0.00190 0.02496 0.07929 -0.01856 0.13080 0.04607 
1413393922.815760384 0.06784 0.59605 -0.35873 -0.00183 0.02495 0.07928 -0.01877 0.13075 0.04551 
1413393922.960760576 0.19260 0.71265 -0.18963 -0.00180 0.02496 0.07925 -0.01878 0.13063 0.04562 
1413393923.215760384 0.16866 1.03896 0.11682 -0.00178 0.02491 0.07927 -0.01875 0.13148 0.04562 
1413393923.475760384 0.15082 1.34568 0.17695 -0.00171 0.02495 0.07923 -0.01876 0.13085 0.04601 
1413393923.665760512 0.31043 1.38384 0.21436 -0.00169 0.02495 0.07922 -0.01878 0.13084 0.04587 
1413393923.885760512 0.41560 1.38334 0.20281 -0.00178 0.02496 0.07924 -0.01863 0.13083 0.04574 
1413393924.70760448 0.41204 1.41763 0.17810 -0.00174 0.02500 0.07925 -0.01865 0.12978 0.04499 
1413393924.310760448 0.21858 1.41649 0.20582 -0.00175 0.02498 0.07925 -0.01850 0.13020 0.04455 
1413393924.460760576 -0.05373 1.29716 0.24421 -0.00171 0.02502 0.07925 -0.01856 0.12917 0.04427 
1413393924.710760448 -0.69811 0.76258 0.43366 -0.00169 0.02500 0.07927 -0.01877 0.12963 0.04334 
1413393924.865760512 -1.12726 0.27238 0.65612 -0.00168 0.02498 0.07930 -0.01913 0.13020 0.04221 
1413393925.65760512 -1.52575 -0.16564 0.96451 -0.00165 0.02499 0.07934 -0.01979 0.13089 0.04043 
1413393925.315760384 -1.67996 -0.13370 1.05424 -0.00169 0.02501 0.07934 -0.01967 0.12866 0.04087 
1413393925.535760384 -1.65702 0.12400 1.07089 -0.00170 0.02502 0.07934 -0.01945 0.12827 0.04127 
1413393925.765760512 -1.66800 0.28325 0.56846 -0.00168 0.02504 0.07935 -0.01964 0.12755 0.04039 
1413393925.960760576 -1.64183 0.35497 0.11543 -0.00168 0.02507 0.07934 -0.01915 0.12669 0.04118 
1413393926.135760384 -1.53577 0.34498 0.03406 -0.00167 0.02507 0.07934 -0.01914 0.12672 0.04087 
1413393926.260760576 -1.39849 0.32822 0.06139 -0.00164 0.02510 0.07932 -0.01905 0.12531 0.04080 
1413393926.365760512 -1.28286 0.32699 0.07799 -0.00165 0.02507 0.07927 -0.01820 0.12702 0.04223 
1413393926.510760448 -1.16091 0.33033 0.05591 -0.00164 0.02509 0.07923 -0.01728 0.12584 0.04337 
1413393926.760760576 -0.94979 0.28743 -0.05156 -0.00159 0.02502 0.07916 -0.01645 0.12877 0.04420 
1413393927.10760448 -0.74344 0.23019 0.27642 -0.00161 0.02502 0.07912 -0.01532 0.12724 0.04530 
1413393927.410760448 -0.79108 0.55617 0.44281 -0.00166 0.02500 0.07913 -0.01532 0.12969 0.04448 
1413393927.720760576 -1.01610 0.51281 0.54795 -0.00163 0.02502 0.07912 -0.01537 0.12915 0.04470 
1413393927.910760448 -1.06653 0.21010 0.60221 -0.00162 0.02503 0.07910 -0.01539 0.12879 0.04520 
1413393928.210760448 -0.99237 -0.34959 0.39037 -0.00162 0.02499 0.07912 -0.01541 0.13034 0.04493 
1413393928.460760576 -0.87938 -0.67897 0.14720 -0.00165 0.02497 0.07912 -0.01492 0.13077 0.04604 
1413393928.660760576 -0.71573 -0.69354 0.07192 -0.00164 0.02494 0.07913 -0.01516 0.13174 0.04511 
1413393928.860760576 -0.47715 -0.69503 0.10038 -0.00163 0.02494 0.07914 -0.01518 0.13191 0.04461 
1413393929.70760448 -0.23411 -0.78605 0.14965 -0.00160 0.02491 0.07913 -0.01495 0.13181 0.04545 
1413393929.260760576 -0.08369 -0.94806 0.16801 -0.00162 0.02490 0.07915 -0.01538 0.13284 0.04425 
1413393929.415760384 -0.03070 -1.05334 0.20446 -0.00163 0.02490 0.07917 -0.01539 0.13296 0.04424 
1413393929.665760512 0.00381 -1.11510 0.25749 -0.00161 0.02491 0.07917 -0.01552 0.13298 0.04358 
1413393929.885760512 -0.00573 -1.10311 0.26990 -0.00163 0.02492 0.07914 -0.01522 0.13258 0.04445 
1413393930.70760448 0.08460 -1.00476 0.20590 -0.00160 0.02489 0.07912 -0.01525 0.13278 0.04457 
1413393930.295760384 0.23148 -0.84042 0.00393 -0.00159 0.02488 0.07911 -0.01528 0.13269 0.04456 
1413393930.560760576 0.28548 -0.74229 -0.42631 -0.00157 0.02487 0.07910 -0.01519 0.13291 0.04492 
1413393930.765760512 0.29008 -0.70368 -0.71687 -0.00156 0.02486 0.07910 -0.01547 0.13273 0.04429 
1413393930.965760512 0.37920 -0.65198 -0.50379 -0.00155 0.02487 0.07908 -0.01528 0.13224 0.04478 
1413393931.170760448 0.44052 -0.62082 -0.16438 -0.00157 0.02486 0.07909 -0.01502 0.13316 0.04539 
1413393931.415760384 0.51317 -0.53008 -0.27723 -0.00157 0.02485 0.07911 -0.01486 0.13264 0.04571 
1413393931.585760512 0.60865 -0.46298 -0.46236 -0.00156 0.02484 0.07912 -0.01491 0.13172 0.04528 
1413393931.760760576 0.69159 -0.31763 -0.57902 -0.00155 0.02485 0.07912 -0.01483 0.13148 0.04509 
1413393931.965760512 0.79600 -0.13508 -0.54838 -0.00153 0.02484 0.07913 -0.01490 0.13162 0.04488 
1413393932.215760384 0.86081 0.06033 -0.41222 -0.00155 0.02484 0.07912 -0.01478 0.13128 0.04538 
1413393932.510760448 0.72639 0.16537 -0.33411 -0.00159 0.02483 0.07911 -0.01459 0.13095 0.04628 
1413393932.760760576 0.55504 0.16094 -0.23879 -0.00161 0.02480 0.07913 -0.01456 0.13165 0.04628 
1413393932.895760384 0.47518 0.13425 -0.18754 -0.00166 0.02480 0.07912 -0.01401 0.13114 0.04783 
1413393933.85760512 0.37748 0.01951 -0.10849 -0.00168 0.02479 0.07916 -0.01482 0.13144 0.04547 
1413393933.320760576 0.37388 -0.23532 -0.02256 -0.00171 0.02480 0.07915 -0.01461 0.13086 0.04611 
1413393933.515760384 0.51343 -0.33790 0.00038 -0.00168 0.02480 0.07915 -0.01477 0.13039 0.04531 
1413393933.710760448 0.69227 -0.23385 -0.08587 -0.00165 0.02483 0.07915 -0.01516 0.12956 0.04392 
1413393933.950760448 0.75182 -0.16199 -0.20727 -0.00160 0.02483 0.07911 -0.01477 0.12912 0.04444 
1413393934.115760384 0.71455 -0.22551 0.01838 -0.00158 0.02482 0.07912 -0.01445 0.13078 0.04495 
1413393934.410760448 0.66838 -0.38861 -0.10503 -0.00163 0.02484 0.07913 -0.01421 0.13037 0.04511 
1413393934.620760576 0.71264 -0.34468 -0.33353 -0.00164 0.02488 0.07912 -0.01418 0.12922 0.04490 
1413393934.815760384 0.80971 -0.24957 -0.50044 -0.00164 0.02485 0.07908 -0.01376 0.12993 0.04596 
1413393935.10760448 0.93662 -0.01703 -0.62326 -0.00161 0.02486 0.07906 -0.01373 0.12944 0.04600 
1413393935.160760576 0.86190 0.15811 -0.53658 -0.00162 0.02487 0.07906 -0.01385 0.12912 0.04586 
1413393935.250760448 0.74962 0.24270 -0.36932 -0.00164 0.02486 0.07907 -0.01389 0.12990 0.04583 
1413393935.460760576 0.45435 0.35173 -0.01357 -0.00163 0.02485 0.07906 -0.01394 0.13014 0.04591 
1413393935.715760384 0.12732 0.28936 0.15053 -0.00173 0.02484 0.07909 -0.01326 0.12980 0.04651 
1413393935.925760512 -0.17928 -0.01215 0.13246 -0.00165 0.02487 0.07908 -0.01357 0.12878 0.04460 
1413393936.115760384 -0.38294 -0.29220 0.16282 -0.00163 0.02487 0.07909 -0.01366 0.12848 0.04403 
1413393936.305760512 -0.52339 -0.30949 0.19890 -0.00162 0.02488 0.07908 -0.01371 0.12798 0.04387 
1413393936.565760512 -0.64857 -0.12244 0.25166 -0.00162 0.02488 0.07906 -0.01330 0.12842 0.04485 
1413393936.820760576 -0.58059 -0.00002 0.28137 -0.00167 0.02483 0.07905 -0.01310 0.13062 0.04550 
1413393937.110760448 -0.28241 0.11402 0.35763 -0.00167 0.02479 0.07904 -0.01288 0.13241 0.04637 
1413393937.315760384 -0.00590 0.19912 0.41089 -0.00166 0.02477 0.07905 -0.01285 0.13302 0.04635 
1413393937.515760384 0.18701 0.29451 0.24065 -0.00169 0.02475 0.07907 -0.01317 0.13457 0.04546 
1413393937.785760512 0.21863 0.28457 -0.07456 -0.00168 0.02474 0.07908 -0.01340 0.13521 0.04496 
1413393937.965760512 0.12349 0.19368 0.07194 -0.00170 0.02472 0.07910 -0.01389 0.13626 0.04405 
1413393938.110760448 0.13004 0.11907 0.11782 -0.00163 0.02472 0.07906 -0.01362 0.13631 0.04475 
1413393938.370760448 0.47392 -0.01158 0.17430 -0.00170 0.02470 0.07910 -0.01361 0.13737 0.04461 
1413393938.560760576 0.67889 0.01533 0.16718 -0.00170 0.02469 0.07908 -0.01334 0.13697 0.04550 
1413393938.825760512 0.69445 0.17774 -0.08356 -0.00187 0.02472 0.07911 -0.01313 0.13660 0.04642 
1413393938.950760448 0.67838 0.25961 -0.07123 -0.00181 0.02472 0.07909 -0.01328 0.13655 0.04608 
1413393939.160760576 0.67982 0.41060 0.05863 -0.00181 0.02472 0.07909 -0.01338 0.13633 0.04588 
1413393939.300760576 0.66576 0.57247 -0.04756 -0.00177 0.02471 0.07905 -0.01315 0.13588 0.04707 
1413393939.460760576 0.64568 0.58471 -0.18370 -0.00179 0.02471 0.07906 -0.01307 0.13601 0.04748 
1413393939.630760448 0.53688 0.25375 -0.28025 -0.00177 0.02473 0.07905 -0.01336 0.13540 0.04688 
1413393939.765760512 0.40281 -0.19621 -0.25581 -0.00176 0.02472 0.07905 -0.01314 0.13563 0.04739 
1413393940.10760448 0.29405 -0.59233 -0.06441 -0.00180 0.02471 0.07904 -0.01320 0.13582 0.04764 
1413393940.165760512 0.24235 -0.23014 -0.09005 -0.00181 0.02470 0.07904 -0.01290 0.13642 0.04824 
1413393940.410760448 0.09870 0.54239 -0.13167 -0.00184 0.02467 0.07907 -0.01272 0.13881 0.04901 
1413393940.670760448 -0.10024 0.41756 -0.01931 -0.00180 0.02466 0.07906 -0.01338 0.13786 0.04772 
1413393940.885760512 -0.47175 -0.22490 0.22499 -0.00176 0.02467 0.07905 -0.01395 0.13950 0.04669 
1413393941.115760384 -0.65486 -0.35137 0.30794 -0.00180 0.02468 0.07906 -0.01407 0.13796 0.04722 
1413393941.310760448 -0.68554 0.04213 0.18167 -0.00181 0.02468 0.07908 -0.01393 0.13827 0.04802 
1413393941.510760448 -0.70705 0.28048 0.13921 -0.00180 0.02467 0.07908 -0.01415 0.13822 0.04750 
1413393941.710760448 -0.76274 0.02186 0.16800 -0.00176 0.02467 0.07904 -0.01396 0.13795 0.04796 
1413393941.895760384 -0.80058 -0.45252 0.09528 -0.00179 0.02466 0.07903 -0.01392 0.13811 0.04792 
1413393942.60760576 -0.79593 -0.66751 0.15130 -0.00180 0.02465 0.07904 -0.01392 0.13854 0.04798 
1413393942.225760512 -0.74385 -0.48226 0.14772 -0.00180 0.02465 0.07903 -0.01376 0.13856 0.04845 
1413393942.465760512 -0.60598 0.09040 0.13498 -0.00182 0.02464 0.07905 -0.01382 0.13878 0.04813 
1413393942.675760384 -0.51017 0.30256 0.04466 -0.00188 0.02463 0.07907 -0.01393 0.13880 0.04774 
1413393942.815760384 -0.48528 0.14290 -0.04305 -0.00189 0.02462 0.07907 -0.01370 0.13870 0.04807 
1413393943.65760512 -0.45407 -0.39021 -0.11684 -0.00185 0.02462 0.07903 -0.01325 0.13875 0.04837 
1413393943.415760384 -0.29921 -0.21074 -0.03156 -0.00188 0.02462 0.07907 -0.01368 0.13900 0.04696 
1413393943.710760448 -0.17053 0.25985 -0.10342 -0.00188 0.02462 0.07906 -0.01340 0.13861 0.04802 
1413393943.970760448 -0.15003 -0.15848 0.12987 -0.00189 0.02465 0.07906 -0.01361 0.13863 0.04729 
1413393944.215760384 -0.15912 -0.38132 0.22288 -0.00189 0.02463 0.07905 -0.01340 0.13888 0.04769 
1413393944.475760384 -0.20956 -0.01329 0.16578 -0.00190 0.02463 0.07906 -0.01330 0.13843 0.04785 
1413393944.675760384 -0.16248 0.26452 0.10418 -0.00191 0.02463 0.07907 -0.01336 0.13860 0.04772 
1413393944.920760576 -0.20294 0.03445 0.22283 -0.00184 0.02464 0.07902 -0.01357 0.13890 0.04706 
1413393945.120760576 -0.32179 -0.28963 0.32317 -0.00177 0.02464 0.07900 -0.01311 0.13905 0.04800 
1413393945.460760576 -0.09304 -0.00588 -0.19799 -0.00184 0.02465 0.07904 -0.01300 0.13900 0.04811 
1413393945.570760448 0.00662 0.12701 -0.29022 -0.00187 0.02465 0.07906 -0.01323 0.13942 0.04748 
1413393945.825760512 0.08918 0.22546 -0.23463 -0.00189 0.02464 0.07907 -0.01293 0.13887 0.04831 
1413393946.60760576 -0.07634 -0.01831 -0.02835 -0.00186 0.02466 0.07907 -0.01313 0.13899 0.04780 
1413393946.280760576 0.09371 0.00360 -0.07881 -0.00189 0.02466 0.07908 -0.01304 0.13905 0.04819 
1413393946.565760512 0.36168 0.14290 -0.10029 -0.00189 0.02465 0.07909 -0.01321 0.13910 0.04834 
1413393946.710760448 0.27226 0.17146 -0.05790 -0.00189 0.02465 0.07908 -0.01291 0.13871 0.04901 
1413393946.965760512 -0.10936 0.03529 0.16498 -0.00187 0.02466 0.07907 -0.01294 0.13894 0.04855 
1413393947.165760512 -0.03248 -0.04763 -0.12040 -0.00186 0.02463 0.07906 -0.01227 0.13954 0.05019 
1413393947.315760384 0.16606 -0.11446 -0.31574 -0.00184 0.02463 0.07907 -0.01264 0.13740 0.04920 
1413393947.490760448 0.32882 -0.16676 -0.49169 -0.00185 0.02463 0.07909 -0.01292 0.13740 0.04834 
1413393947.715760384 0.48603 -0.01025 -0.41214 -0.00181 0.02463 0.07907 -0.01268 0.13805 0.04883 
1413393947.965760512 0.39603 0.27980 -0.15989 -0.00178 0.02462 0.07905 -0.01202 0.13842 0.05026 
1413393948.210760448 0.13938 0.15879 -0.08276 -0.00180 0.02463 0.07907 -0.01233 0.13858 0.04931 
1413393948.425760512 0.12635 -0.10882 -0.05306 -0.00180 0.02463 0.07907 -0.01254 0.13748 0.04828 
1413393948.710760448 0.24618 -0.40649 -0.09276 -0.00180 0.02463 0.07907 -0.01278 0.13804 0.04759 
1413393948.920760576 0.15225 -0.28910 0.03402 -0.00182 0.02462 0.07906 -0.01243 0.13853 0.04859 
1413393949.175760384 0.07226 -0.13531 0.16941 -0.00183 0.02462 0.07908 -0.01205 0.13766 0.04942 
1413393949.460760576 0.04501 -0.37819 0.16090 -0.00187 0.02464 0.07909 -0.01196 0.13784 0.04945 
1413393949.710760448 0.19743 -0.65684 0.04652 -0.00184 0.02464 0.07908 -0.01204 0.13845 0.04908 
1413393949.920760576 0.56923 -0.64235 0.10917 -0.00180 0.02465 0.07906 -0.01231 0.13915 0.04820 
1413393950.165760512 1.11499 -0.41693 0.23475 -0.00185 0.02467 0.07907 -0.01220 0.13924 0.04860 
1413393950.370760448 1.14071 -0.18691 0.17827 -0.00189 0.02466 0.07908 -0.01157 0.14025 0.05045 
1413393950.520760576 1.07706 0.01631 0.07022 -0.00191 0.02467 0.07908 -0.01132 0.14022 0.05114 
1413393950.765760512 1.01275 0.21913 -0.14071 -0.00186 0.02469 0.07907 -0.01149 0.13919 0.05040 
1413393950.950760448 0.93679 0.23849 -0.32428 -0.00185 0.02469 0.07908 -0.01149 0.13949 0.05028 
1413393951.145760512 0.75862 0.26740 -0.27487 -0.00182 0.02470 0.07907 -0.01155 0.13908 0.04988 
1413393951.325760512 0.62016 0.30642 -0.19065 -0.00185 0.02471 0.07909 -0.01161 0.14003 0.04936 
1413393951.560760576 0.50233 0.37275 -0.24584 -0.00184 0.02470 0.07909 -0.01160 0.14002 0.04928 
1413393951.810760448 0.36005 0.46214 -0.37608 -0.00184 0.02470 0.07908 -0.01132 0.14009 0.04992 
1413393952.20760576 0.23165 0.53932 -0.28727 -0.00184 0.02470 0.07908 -0.01134 0.14018 0.05007 
1413393952.210760448 0.12665 0.54901 -0.06569 -0.00186 0.02471 0.07908 -0.01134 0.14013 0.05028 
1413393952.370760448 0.06025 0.51871 0.07284 -0.00185 0.02470 0.07909 -0.01148 0.13991 0.04975 
1413393952.615760384 -0.01630 0.51929 0.08098 -0.00186 0.02470 0.07907 -0.01142 0.13956 0.05033 
1413393952.815760384 -0.07777 0.51049 0.07200 -0.00192 0.02470 0.07908 -0.01151 0.13931 0.05061 
1413393953.760576 -0.09711 0.50149 0.08894 -0.00192 0.02469 0.07908 -0.01159 0.13956 0.05073 
1413393953.160760576 -0.04860 0.52026 -0.05112 -0.00189 0.02469 0.07907 -0.01162 0.13963 0.05097 
1413393953.415760384 0.11835 0.58086 -0.06056 -0.00189 0.02467 0.07908 -0.01164 0.13995 0.05137 
1413393953.635760384 0.29047 0.53471 0.19603 -0.00183 0.02466 0.07906 -0.01192 0.13954 0.05050 
1413393953.865760512 0.25867 0.35132 0.02969 -0.00185 0.02464 0.07907 -0.01189 0.13972 0.05058 
1413393954.90760448 0.17959 0.17894 -0.07196 -0.00186 0.02463 0.07907 -0.01185 0.14004 0.05057 
1413393954.320760576 0.06279 0.22674 0.04931 -0.00185 0.02462 0.07907 -0.01179 0.14020 0.05060 
1413393954.515760384 -0.06311 0.39871 0.09657 -0.00189 0.02462 0.07909 -0.01181 0.14029 0.05058 
1413393954.670760448 -0.16672 0.56968 0.11874 -0.00181 0.02462 0.07905 -0.01175 0.14018 0.05059 
1413393954.875760384 -0.31751 0.79983 0.12863 -0.00178 0.02462 0.07905 -0.01170 0.13995 0.05062 
1413393955.65760512 -0.49612 0.96666 0.17563 -0.00179 0.02462 0.07905 -0.01173 0.13998 0.05060 
1413393955.365760512 -0.65196 1.00581 0.16034 -0.00179 0.02465 0.07905 -0.01172 0.13980 0.05048 
1413393955.560760576 -0.65756 0.95970 0.17233 -0.00182 0.02464 0.07906 -0.01168 0.13976 0.05052 
1413393955.765760512 -0.57599 0.80140 -0.04180 -0.00182 0.02464 0.07905 -0.01154 0.13979 0.05071 
1413393955.870760448 -0.57547 0.64264 -0.15838 -0.00183 0.02465 0.07905 -0.01143 0.13978 0.05076 
1413393956.60760576 -0.68893 0.40382 -0.08963 -0.00183 0.02466 0.07905 -0.01138 0.13956 0.05082 
1413393956.215760384 -0.77015 0.34862 -0.01502 -0.00184 0.02467 0.07905 -0.01132 0.13934 0.05081 
1413393956.370760448 -0.78862 0.31160 0.04529 -0.00187 0.02468 0.07906 -0.01105 0.13893 0.05119 
1413393956.530760448 -0.75326 0.25227 0.02897 -0.00185 0.02470 0.07906 -0.01123 0.13887 0.05066 
1413393956.665760512 -0.71825 0.21128 -0.01620 -0.00186 0.02470 0.07906 -0.01117 0.13841 0.05080 
1413393956.860760576 -0.69292 0.15634 -0.00322 -0.00184 0.02469 0.07905 -0.01104 0.13849 0.05112 
1413393957.30760448 -0.68967 0.18142 0.01112 -0.00188 0.02469 0.07904 -0.01054 0.13778 0.05261 
1413393957.260760576 -0.75444 0.19122 0.02846 -0.00187 0.02469 0.07902 -0.01032 0.13727 0.05341 
1413393957.510760448 -0.77247 0.17122 -0.00861 -0.00191 0.02466 0.07900 -0.01022 0.13915 0.05418 
1413393957.810760448 -0.68379 0.18535 -0.32084 -0.00189 0.02466 0.07900 -0.01037 0.13961 0.05349 
1413393958.95760384 -0.37682 0.17990 -0.11378 -0.00197 0.02463 0.07900 -0.00989 0.14050 0.05480 
1413393958.315760384 -0.25218 -0.05155 0.19310 -0.00194 0.02464 0.07898 -0.00998 0.14130 0.05431 
1413393958.570760448 -0.19638 -0.06703 -0.00858 -0.00198 0.02460 0.07890 -0.00857 0.14128 0.05891 
1413393958.860760576 -0.28418 -0.19570 -0.26883 -0.00198 0.02460 0.07890 -0.00859 0.14112 0.05906 
1413393959.115760384 -0.29093 -0.22266 -0.45775 -0.00199 0.02460 0.07890 -0.00890 0.14116 0.05866 
1413393959.370760448 -0.29696 -0.09017 -0.36949 -0.00204 0.02462 0.07896 -0.00945 0.14141 0.05757 
1413393959.660760576 -0.20266 0.00531 -0.18109 -0.00203 0.02462 0.07894 -0.00946 0.14110 0.05779 
1413393959.870760448 -0.01416 0.18529 -0.19733 -0.00203 0.02463 0.07895 -0.00981 0.14244 0.05704 
1413393960.115760384 0.08501 0.21143 -0.09538 -0.00206 0.02463 0.07896 -0.00987 0.14230 0.05702 
1413393960.295760384 0.04084 0.08249 -0.05538 -0.00208 0.02465 0.07896 -0.00995 0.14204 0.05698 
1413393960.520760576 -0.01926 -0.14273 -0.09791 -0.00204 0.02465 0.07895 -0.01004 0.14207 0.05697 
1413393960.810760448 0.04785 -0.20930 -0.66560 -0.00215 0.02467 0.07898 -0.01007 0.14186 0.05729 
1413393961.15760384 0.02712 -0.29434 -0.51431 -0.00218 0.02467 0.07901 -0.01014 0.14168 0.05712 
1413393961.165760512 -0.03398 -0.40534 -0.30782 -0.00210 0.02468 0.07898 -0.01007 0.14169 0.05717 
1413393961.415760384 -0.08988 -0.25001 0.04856 -0.00206 0.02470 0.07896 -0.01025 0.14153 0.05696 
1413393961.660760576 -0.06634 0.15059 0.39608 -0.00211 0.02472 0.07894 -0.01057 0.14044 0.05906 
1413393961.840760576 0.02238 0.24577 0.70937 -0.00208 0.02469 0.07893 -0.01073 0.14078 0.05919 
1413393961.925760512 0.05254 0.24478 0.83337 -0.00208 0.02469 0.07894 -0.01118 0.14128 0.05845 
1413393962.65760512 0.08413 0.20498 1.01942 -0.00207 0.02468 0.07893 -0.01131 0.14119 0.05842 
1413393962.145760512 0.09468 0.16172 1.11932 -0.00202 0.02467 0.07891 -0.01132 0.14127 0.05850 
1413393962.325760512 0.09883 0.04108 1.23391 -0.00203 0.02466 0.07892 -0.01141 0.14194 0.05846 
1413393962.490760448 0.06690 -0.08256 0.89797 -0.00196 0.02465 0.07888 -0.01123 0.14215 0.05915 
1413393962.665760512 -0.02103 -0.29771 0.58201 -0.00204 0.02463 0.07890 -0.01115 0.14255 0.05913 
1413393962.860760576 -0.04911 -0.60262 0.42523 -0.00206 0.02462 0.07890 -0.01071 0.14279 0.06021 
1413393963.10760448 0.04359 -0.74775 0.24014 -0.00208 0.02462 0.07891 -0.01122 0.14244 0.05883 
1413393963.260760576 0.30333 -0.93520 -0.01687 -0.00216 0.02460 0.07894 -0.01152 0.14268 0.05874 
1413393963.410760448 0.40970 -0.98751 -0.15030 -0.00217 0.02461 0.07895 -0.01223 0.14248 0.05767 
1413393963.665760512 0.54697 -1.06251 -0.33735 -0.00213 0.02464 0.07892 -0.01181 0.14200 0.06045 
1413393963.920760576 0.72592 -1.06109 -0.54839 -0.00210 0.02463 0.07891 -0.01181 0.14177 0.06033 
1413393964.310760448 0.86835 -1.14956 -0.69635 -0.00208 0.02461 0.07891 -0.01174 0.14099 0.06057 
1413393964.525760512 0.93175 -1.08482 -0.55944 -0.00203 0.02460 0.07891 -0.01190 0.14038 0.06045 
1413393964.730760448 0.97820 -0.91723 -0.44886 -0.00199 0.02459 0.07890 -0.01158 0.14053 0.06172 
1413393964.815760384 1.02545 -0.82999 -0.41456 -0.00198 0.02459 0.07892 -0.01196 0.13935 0.06075 
1413393964.955760384 1.04787 -0.64302 -0.36821 -0.00197 0.02459 0.07892 -0.01208 0.13900 0.06068 
1413393965.170760448 0.97390 -0.17147 -0.23668 -0.00196 0.02458 0.07892 -0.01200 0.14063 0.06082 
1413393965.360760576 0.78196 0.42752 -0.05177 -0.00195 0.02459 0.07892 -0.01195 0.13940 0.06100 
1413393965.615760384 0.19932 0.78095 0.09943 -0.00195 0.02459 0.07893 -0.01173 0.13950 0.06147 
1413393965.815760384 -0.33070 0.65662 0.16447 -0.00195 0.02459 0.07893 -0.01203 0.13992 0.06072 
1413393966.160760576 -0.71701 0.31678 0.12688 -0.00196 0.02460 0.07893 -0.01190 0.14047 0.06155 
1413393966.410760448 -0.95408 0.01649 0.52629 -0.00200 0.02459 0.07895 -0.01177 0.14029 0.06182 
1413393966.660760576 -0.99484 -0.38610 0.35046 -0.00199 0.02459 0.07894 -0.01136 0.14078 0.06302 
1413393966.910760448 -0.82096 -0.73075 0.04967 -0.00198 0.02459 0.07895 -0.01166 0.14015 0.06223 
1413393967.170760448 -0.66140 -0.82911 -0.11241 -0.00197 0.02459 0.07895 -0.01177 0.13986 0.06204 
1413393967.460760576 -0.45430 -0.75247 -0.28689 -0.00195 0.02458 0.07894 -0.01151 0.14005 0.06253 
1413393967.720760576 -0.22950 -0.71040 -0.21610 -0.00197 0.02459 0.07894 -0.01160 0.13941 0.06193 
1413393967.880760576 -0.10140 -0.74476 -0.08463 -0.00198 0.02459 0.07895 -0.01146 0.14042 0.06219 
1413393968.70760448 -0.08485 -0.60894 0.25093 -0.00198 0.02459 0.07895 -0.01148 0.14044 0.06206 
1413393968.330760448 -0.13717 -0.33962 0.33528 -0.00195 0.02461 0.07894 -0.01165 0.14051 0.06221 
1413393968.520760576 -0.22458 -0.18167 0.20264 -0.00193 0.02462 0.07892 -0.01163 0.14064 0.06223 
1413393968.715760384 -0.36894 -0.10068 -0.00382 -0.00190 0.02461 0.07891 -0.01147 0.14081 0.06257 
1413393968.915760384 -0.48211 -0.01711 -0.17839 -0.00189 0.02461 0.07890 -0.01136 0.14096 0.06258 
1413393969.110760448 -0.45510 -0.06289 -0.34695 -0.00192 0.02460 0.07891 -0.01145 0.13995 0.06174 
1413393969.220760576 -0.40867 -0.07784 -0.31823 -0.00193 0.02460 0.07891 -0.01136 0.13959 0.06167 
1413393969.420760576 -0.37294 -0.14958 -0.26294 -0.00196 0.02460 0.07892 -0.01140 0.13951 0.06156 
1413393969.660760576 -0.15335 -0.16246 -0.14322 -0.00190 0.02460 0.07890 -0.01131 0.13950 0.06183 
1413393969.915760384 0.23166 -0.13842 0.31265 -0.00189 0.02459 0.07890 -0.01119 0.13946 0.06212 
1413393970.210760448 0.38183 -0.09844 0.36543 -0.00177 0.02457 0.07888 -0.01083 0.13789 0.06293 
1413393970.465760512 0.26727 0.03957 0.21363 -0.00173 0.02457 0.07885 -0.01060 0.13784 0.06346 
1413393970.605760512 0.18731 0.09587 0.23174 -0.00175 0.02457 0.07886 -0.01061 0.13762 0.06333 
1413393970.810760448 0.03758 0.09385 -0.03360 -0.00178 0.02457 0.07887 -0.01071 0.13759 0.06292 
1413393970.985760512 -0.27958 0.08143 -0.12134 -0.00181 0.02458 0.07887 -0.01069 0.13748 0.06287 
1413393971.200760576 -0.66091 -0.00604 0.09636 -0.00187 0.02458 0.07890 -0.01077 0.13772 0.06282 
1413393971.410760448 -0.85675 -0.32543 0.04539 -0.00181 0.02458 0.07888 -0.01104 0.13757 0.06243 
1413393971.770760448 -0.75884 -0.82824 -0.03113 -0.00188 0.02457 0.07891 -0.01116 0.13818 0.06210 
1413393972.160760576 0.01258 -0.90387 0.03446 -0.00188 0.02460 0.07892 -0.01122 0.13866 0.06209 
1413393972.370760448 0.23518 -0.79479 -0.09217 -0.00193 0.02459 0.07893 -0.01095 0.13884 0.06246 
1413393972.625760512 0.18251 -0.63369 -0.07013 -0.00195 0.02461 0.07894 -0.01092 0.13834 0.06216 
1413393972.810760448 0.06499 -0.45830 -0.10219 -0.00196 0.02461 0.07894 -0.01067 0.13853 0.06259 
1413393972.980760576 -0.06059 -0.29288 -0.11980 -0.00197 0.02462 0.07895 -0.01068 0.13858 0.06229 
1413393973.170760448 -0.25569 -0.16938 -0.11355 -0.00194 0.02463 0.07894 -0.01065 0.13854 0.06248 
1413393973.360760576 -0.45582 -0.21634 -0.09568 -0.00196 0.02463 0.07895 -0.01052 0.13849 0.06277 
1413393973.520760576 -0.62720 -0.41405 -0.11855 -0.00198 0.02463 0.07895 -0.01050 0.13838 0.06278 
1413393973.670760448 -0.76888 -0.65790 -0.13410 -0.00197 0.02463 0.07895 -0.01045 0.13840 0.06300 
1413393973.860760576 -0.74283 -0.92258 -0.12320 -0.00197 0.02464 0.07895 -0.01050 0.13808 0.06282 
1413393974.115760384 -0.08816 -0.90338 -0.00540 -0.00196 0.02463 0.07894 -0.01049 0.13868 0.06258 
1413393974.305760512 0.45084 -0.29227 0.24844 -0.00200 0.02463 0.07894 -0.01036 0.13824 0.06300 
1413393974.560760576 0.44106 0.94989 0.46782 -0.00199 0.02465 0.07893 -0.01069 0.13848 0.06251 
1413393974.770760448 -0.00301 1.48592 0.45228 -0.00199 0.02464 0.07892 -0.01052 0.13849 0.06303 
1413393974.985760512 -0.37563 1.54789 0.13201 -0.00198 0.02465 0.07891 -0.01066 0.13833 0.06256 
1413393975.160760576 -0.51170 1.41373 -0.11642 -0.00200 0.02464 0.07891 -0.01059 0.13838 0.06281 
1413393975.365760512 -0.56047 1.20316 -0.01174 -0.00199 0.02463 0.07891 -0.01060 0.13875 0.06320 
1413393975.605760512 -0.66821 0.89117 0.03857 -0.00198 0.02463 0.07890 -0.01043 0.13910 0.06351 
1413393975.765760512 -0.75204 0.65975 0.02750 -0.00199 0.02462 0.07891 -0.01040 0.13952 0.06341 
1413393975.990760448 -0.69926 0.40209 0.04623 -0.00200 0.02462 0.07892 -0.01070 0.13886 0.06251 
1413393976.260760576 -0.61016 0.23497 -0.20191 -0.00200 0.02464 0.07892 -0.01099 0.13794 0.06169 
1413393976.345760512 -0.55988 0.18320 -0.19413 -0.00200 0.02464 0.07892 -0.01090 0.13781 0.06191 
1413393976.560760576 -0.39654 0.04761 0.00939 -0.00199 0.02464 0.07891 -0.01094 0.13756 0.06158 
1413393976.670760448 -0.29686 0.00020 -0.05558 -0.00199 0.02463 0.07890 -0.01041 0.13874 0.06301 
1413393976.815760384 -0.15413 -0.02008 -0.18052 -0.00199 0.02463 0.07889 -0.01037 0.13871 0.06303 
1413393976.925760512 -0.03511 -0.03121 -0.15847 -0.00197 0.02463 0.07889 -0.01032 0.13896 0.06300 
1413393977.120760576 0.09736 0.09449 0.02211 -0.00197 0.02463 0.07888 -0.01022 0.13859 0.06323 
1413393977.260760576 0.07726 0.20447 0.23822 -0.00197 0.02463 0.07888 -0.01011 0.13856 0.06341 
1413393977.370760448 0.02896 0.24115 0.37649 -0.00199 0.02463 0.07890 -0.01009 0.13880 0.06305 
1413393977.620760576 -0.08996 0.26064 0.31676 -0.00194 0.02461 0.07887 -0.00990 0.13876 0.06288 
1413393977.870760448 -0.21582 0.28442 0.11840 -0.00197 0.02461 0.07887 -0.00979 0.13900 0.06271 
1413393978.120760576 -0.34352 0.29770 0.15123 -0.00197 0.02460 0.07888 -0.00971 0.13924 0.06257 
1413393978.370760448 -0.32620 0.30875 0.16811 -0.00195 0.02459 0.07887 -0.00970 0.13930 0.06247 
1413393978.570760448 -0.23894 0.23952 0.17909 -0.00196 0.02459 0.07888 -0.00969 0.13943 0.06243 
1413393978.790760448 -0.12440 0.13182 0.18612 -0.00193 0.02459 0.07886 -0.00967 0.13946 0.06243 
1413393979.15760384 0.00073 0.06535 0.22385 -0.00189 0.02459 0.07885 -0.00961 0.13934 0.06249 
1413393979.130760448 0.08402 0.00242 0.21916 -0.00188 0.02459 0.07884 -0.00961 0.13928 0.06252 
1413393979.285760512 0.17881 -0.08495 0.06089 -0.00186 0.02459 0.07883 -0.00945 0.13888 0.06303 
1413393979.380760576 0.22094 -0.16246 -0.06286 -0.00183 0.02458 0.07882 -0.00939 0.13887 0.06305 
1413393979.615760384 0.38281 -0.36806 -0.27054 -0.00184 0.02458 0.07882 -0.00941 0.13893 0.06306 
1413393979.780760576 0.50768 -0.53122 -0.16508 -0.00182 0.02459 0.07881 -0.00953 0.13899 0.06294 
1413393979.915760384 0.56714 -0.62716 -0.09466 -0.00184 0.02460 0.07882 -0.00948 0.13894 0.06301 
1413393980.60760576 0.61286 -0.69493 -0.07105 -0.00182 0.02460 0.07881 -0.00947 0.13900 0.06291 
1413393980.220760576 0.68597 -0.65049 -0.05268 -0.00178 0.02461 0.07880 -0.00940 0.13873 0.06290 
1413393980.350760448 0.77659 -0.54635 -0.03594 -0.00179 0.02461 0.07880 -0.00941 0.13864 0.06279 
1413393980.545760512 0.92545 -0.36275 -0.00809 -0.00186 0.02461 0.07882 -0.00935 0.13859 0.06282 
1413393980.665760512 0.96647 -0.24370 -0.01961 -0.00187 0.02461 0.07883 -0.00934 0.13884 0.06272 
1413393981.10760448 1.00366 0.02043 0.04409 -0.00188 0.02462 0.07885 -0.00922 0.13887 0.06292 
1413393981.190760448 1.13947 0.02090 0.24684 -0.00192 0.02462 0.07885 -0.00916 0.13885 0.06285 
1413393981.410760448 1.24517 -0.06836 0.39025 -0.00191 0.02462 0.07884 -0.00889 0.13857 0.06384 
1413393981.585760512 1.31066 -0.11019 0.20083 -0.00193 0.02462 0.07886 -0.00900 0.13838 0.06353 
1413393981.780760576 1.39925 -0.02764 0.00179 -0.00192 0.02461 0.07885 -0.00888 0.13854 0.06388 
1413393981.935760384 1.44032 0.10013 -0.09253 -0.00193 0.02461 0.07885 -0.00892 0.13872 0.06362 
1413393982.165760512 1.36953 0.33206 -0.05576 -0.00193 0.02461 0.07886 -0.00909 0.13842 0.06286 
1413393982.365760512 1.25428 0.49570 0.00252 -0.00192 0.02461 0.07886 -0.00899 0.13855 0.06283 
1413393982.530760448 1.13627 0.59328 0.00324 -0.00194 0.02461 0.07887 -0.00905 0.13867 0.06239 
1413393982.660760576 1.07624 0.68155 -0.00853 -0.00194 0.02461 0.07887 -0.00910 0.13861 0.06207 
1413393982.810760448 0.98403 0.78889 0.00022 -0.00195 0.02462 0.07888 -0.00924 0.13846 0.06167 
1413393983.60760576 0.71481 0.88156 -0.03991 -0.00195 0.02463 0.07887 -0.00910 0.13882 0.06206 
1413393983.320760576 0.30808 0.94622 -0.04705 -0.00194 0.02463 0.07887 -0.00917 0.13886 0.06197 
1413393983.515760384 -0.10303 0.89447 0.00895 -0.00195 0.02463 0.07887 -0.00895 0.13846 0.06280 
1413393983.685760512 -0.43916 0.73132 0.06920 -0.00196 0.02463 0.07888 -0.00885 0.13843 0.06313 
1413393983.910760448 -0.78945 0.41987 0.12800 -0.00195 0.02462 0.07889 -0.00931 0.13840 0.06203 
1413393984.165760512 -1.06087 0.00338 0.17235 -0.00198 0.02462 0.07889 -0.00943 0.13807 0.06190 
1413393984.420760576 -1.18574 -0.44835 0.23734 -0.00199 0.02462 0.07889 -0.00943 0.13759 0.06217 
1413393984.710760448 -1.15052 -0.88732 0.10599 -0.00197 0.02461 0.07888 -0.00940 0.13843 0.06234 
1413393984.965760512 -1.09097 -0.88908 -0.17046 -0.00197 0.02462 0.07889 -0.00960 0.13796 0.06193 
1413393985.220760576 -1.03608 -0.67378 -0.33309 -0.00199 0.02462 0.07890 -0.00969 0.13838 0.06175 
1413393985.510760448 -0.95474 -0.66947 -0.30573 -0.00199 0.02461 0.07890 -0.00987 0.13852 0.06131 
1413393985.720760576 -0.92499 -0.70620 -0.28354 -0.00198 0.02461 0.07891 -0.01009 0.13888 0.06071 
1413393985.920760576 -0.92928 -0.54355 -0.15725 -0.00198 0.02461 0.07890 -0.01002 0.13899 0.06099 
1413393986.160760576 -0.87550 -0.23858 0.00993 -0.00194 0.02461 0.07890 -0.01008 0.13903 0.06080 
1413393986.300760576 -0.72720 -0.05690 0.06382 -0.00191 0.02458 0.07888 -0.00942 0.14001 0.06227 
1413393986.475760384 -0.47759 0.18102 0.13250 -0.00186 0.02457 0.07888 -0.00997 0.14023 0.06035 
1413393986.660760576 -0.26681 0.35077 0.21387 -0.00181 0.02456 0.07888 -0.01006 0.14001 0.05958 
1413393986.815760384 -0.26269 0.32223 0.23772 -0.00175 0.02455 0.07887 -0.01015 0.14024 0.05862 
1413393987.60760576 -0.42048 0.18961 0.11560 -0.00173 0.02455 0.07888 -0.01018 0.13996 0.05766 
1413393987.315760384 -0.53912 0.19990 0.04749 -0.00176 0.02455 0.07890 -0.01030 0.14014 0.05702 
1413393987.465760512 -0.58889 0.20239 0.11432 -0.00174 0.02455 0.07890 -0.00978 0.13941 0.05810 
1413393987.665760512 -0.61703 0.22155 0.13411 -0.00176 0.02455 0.07891 -0.00957 0.13852 0.05813 
1413393987.960760576 -0.67835 0.22071 -0.07947 -0.00178 0.02456 0.07892 -0.00963 0.13909 0.05779 
1413393988.175760384 -0.68783 0.23110 -0.33131 -0.00179 0.02457 0.07893 -0.00968 0.13885 0.05729 
1413393988.430760448 -0.76525 0.20613 -0.37249 -0.00177 0.02458 0.07891 -0.00945 0.13845 0.05789 
1413393988.610760448 -0.95363 0.20731 -0.31424 -0.00176 0.02458 0.07892 -0.00949 0.13846 0.05776 
1413393988.860760576 -1.13278 0.22389 -0.19455 -0.00176 0.02459 0.07892 -0.00939 0.13840 0.05782 
1413393989.115760384 -0.79175 0.34066 0.23175 -0.00176 0.02459 0.07892 -0.00949 0.13849 0.05753 
1413393989.395760384 -0.18885 0.54070 0.65296 -0.00174 0.02456 0.07889 -0.00922 0.13918 0.05809 
1413393989.625760512 -0.26819 0.50167 0.31230 -0.00174 0.02456 0.07889 -0.00923 0.13923 0.05791 
1413393989.870760448 -0.40435 0.41586 0.02531 -0.00177 0.02456 0.07890 -0.00922 0.13925 0.05795 
1413393990.120760576 -0.36656 0.23786 -0.17336 -0.00178 0.02457 0.07890 -0.00925 0.13888 0.05767 
1413393990.345760512 -0.34864 0.00816 -0.32083 -0.00175 0.02456 0.07889 -0.00893 0.13907 0.05841 
1413393990.570760448 -0.23553 -0.20529 -0.24101 -0.00176 0.02456 0.07889 -0.00892 0.13906 0.05842 
1413393990.735760384 -0.01606 -0.30163 -0.16658 -0.00174 0.02457 0.07889 -0.00891 0.13886 0.05838 
1413393990.920760576 0.40671 -0.14670 -0.00840 -0.00170 0.02457 0.07887 -0.00887 0.13869 0.05839 
1413393991.210760448 0.65659 0.34591 0.17312 -0.00172 0.02457 0.07887 -0.00884 0.13859 0.05821 
1413393991.465760512 0.08911 0.31347 0.01164 -0.00173 0.02456 0.07888 -0.00879 0.13845 0.05829 
1413393991.760760576 -0.05313 -0.02787 0.14852 -0.00176 0.02456 0.07889 -0.00883 0.13838 0.05825 
1413393992.10760448 0.17711 -0.18878 0.35009 -0.00174 0.02456 0.07888 -0.00861 0.13851 0.05844 
1413393992.220760576 -0.05133 -0.22589 0.16094 -0.00173 0.02456 0.07888 -0.00870 0.13840 0.05805 
1413393992.515760384 0.02423 -0.16323 0.11560 -0.00174 0.02457 0.07888 -0.00890 0.13879 0.05728 
1413393992.630760448 0.15799 -0.21008 0.06397 -0.00175 0.02457 0.07889 -0.00904 0.13863 0.05705 
1413393992.815760384 0.09322 -0.27263 0.02080 -0.00172 0.02457 0.07886 -0.00863 0.13908 0.05796 
1413393992.965760512 -0.13214 -0.29979 -0.04196 -0.00169 0.02457 0.07885 -0.00866 0.13922 0.05790 
1413393993.220760576 -0.25613 -0.19359 -0.02010 -0.00171 0.02458 0.07887 -0.00874 0.13932 0.05775 
1413393993.430760448 0.11145 0.00888 0.12962 -0.00172 0.02459 0.07887 -0.00862 0.13874 0.05813 
1413393993.575760384 0.39382 0.20667 0.26480 -0.00170 0.02459 0.07885 -0.00834 0.13892 0.05894 
1413393993.775760384 0.39982 0.32463 0.16061 -0.00169 0.02459 0.07884 -0.00843 0.13900 0.05870 
1413393993.960760576 0.07764 0.29719 -0.22394 -0.00167 0.02457 0.07883 -0.00837 0.13919 0.05890 
1413393994.210760448 -0.71111 0.04970 0.11277 -0.00168 0.02456 0.07885 -0.00845 0.13857 0.05869 
1413393994.415760384 -1.01416 -0.21954 0.19383 -0.00175 0.02455 0.07887 -0.00843 0.13872 0.05846 
1413393994.710760448 -0.61500 -0.22709 -0.31285 -0.00166 0.02454 0.07883 -0.00835 0.13896 0.05824 
1413393994.960760576 0.19019 0.09000 -0.13224 -0.00168 0.02454 0.07884 -0.00815 0.13875 0.05857 
1413393995.215760384 0.29932 0.19096 -0.29101 -0.00165 0.02453 0.07883 -0.00783 0.13879 0.05920 
1413393995.470760448 0.37053 0.00079 -0.27590 -0.00161 0.02453 0.07882 -0.00811 0.13875 0.05830 
1413393995.710760448 0.45230 -0.19467 -0.16796 -0.00163 0.02454 0.07883 -0.00833 0.13878 0.05759 
1413393996.10760448 0.31479 -0.38821 -0.14477 -0.00161 0.02454 0.07883 -0.00836 0.13901 0.05749 
1413393996.260760576 0.22168 -0.61999 -0.19415 -0.00159 0.02454 0.07883 -0.00844 0.13895 0.05718 
1413393996.515760384 0.24781 -0.70219 -0.39187 -0.00159 0.02456 0.07883 -0.00819 0.13863 0.05790 
1413393996.775760384 0.27730 -0.57314 -0.37332 -0.00157 0.02458 0.07881 -0.00833 0.13755 0.05752 
1413393997.60760576 0.24956 -0.36914 -0.23596 -0.00157 0.02458 0.07882 -0.00842 0.13736 0.05740 
1413393997.310760448 0.20590 -0.21941 -0.15878 -0.00156 0.02458 0.07880 -0.00819 0.13752 0.05814 
1413393997.520760576 0.15453 -0.17292 -0.45085 -0.00157 0.02459 0.07880 -0.00818 0.13741 0.05825 
1413393997.750760448 0.06689 -0.15533 -0.33413 -0.00155 0.02458 0.07879 -0.00817 0.13737 0.05832 
1413393997.970760448 -0.01364 -0.13085 -0.21390 -0.00156 0.02458 0.07879 -0.00812 0.13717 0.05853 
1413393998.110760448 -0.05963 -0.09874 -0.18044 -0.00157 0.02459 0.07879 -0.00806 0.13701 0.05867 
1413393998.315760384 -0.14707 -0.04086 -0.10818 -0.00157 0.02459 0.07880 -0.00813 0.13709 0.05869 
1413393998.570760448 -0.22500 0.04076 0.00345 -0.00160 0.02458 0.07882 -0.00825 0.13784 0.05853 
1413393998.810760448 -0.13359 0.04540 -0.07499 -0.00161 0.02458 0.07882 -0.00826 0.13771 0.05850 
1413393998.995760384 -0.03742 0.01371 -0.09528 -0.00159 0.02458 0.07881 -0.00827 0.13767 0.05851 
1413393999.125760512 -0.04007 -0.00764 -0.14497 -0.00157 0.02458 0.07880 -0.00829 0.13762 0.05857 
1413393999.275760384 -0.09909 0.03173 -0.18459 -0.00156 0.02459 0.07880 -0.00834 0.13747 0.05829 
1413393999.460760576 -0.09672 0.10711 -0.16917 -0.00159 0.02461 0.07881 -0.00842 0.13727 0.05824 
1413393999.715760384 0.03526 0.17522 -0.14030 -0.00156 0.02461 0.07880 -0.00857 0.13723 0.05825 
1413393999.830760448 0.11111 0.18646 -0.24263 -0.00159 0.02462 0.07881 -0.00852 0.13713 0.05846 
1413394000.60760576 -0.04325 0.03663 0.03882 -0.00157 0.02462 0.07879 -0.00845 0.13696 0.05853 
1413394000.275760384 -0.03430 -0.03763 -0.27796 -0.00154 0.02461 0.07878 -0.00842 0.13709 0.05859 
1413394000.480760576 -0.00195 0.01964 -0.13503 -0.00154 0.02460 0.07878 -0.00839 0.13731 0.05864 
1413394000.685760512 0.00153 0.01854 0.01022 -0.00155 0.02460 0.07879 -0.00841 0.13746 0.05864 
1413394000.830760448 0.01077 0.01145 0.00087 -0.00155 0.02460 0.07879 -0.00839 0.13747 0.05870 
1413394001.25760512 0.01342 0.01117 -0.00063 -0.00155 0.02460 0.07879 -0.00836 0.13747 0.05879 
1413394001.265760512 0.00722 0.00927 -0.00175 -0.00156 0.02460 0.07879 -0.00831 0.13750 0.05895 
1413394001.465760512 0.00573 0.00695 -0.00436 -0.00156 0.02459 0.07879 -0.00825 0.13752 0.05912 
1413394001.710760448 0.00485 0.00362 0.00107 -0.00156 0.02459 0.07879 -0.00821 0.13753 0.05926 
1413394001.920760576 0.00866 0.00542 0.00365 -0.00156 0.02459 0.07879 -0.00818 0.13753 0.05933 
1413394002.165760512 0.00812 0.00916 0.00902 -0.00157 0.02459 0.07879 -0.00815 0.13753 0.05944 
1413394002.365760512 0.00858 0.01095 0.01193 -0.00157 0.02459 0.07880 -0.00800 0.13747 0.05980 
1413394002.610760448 0.00421 0.01083 0.01224 -0.00157 0.02459 0.07880 -0.00775 0.13739 0.06035 
1413394002.725760512 0.00313 0.01211 0.01178 -0.00157 0.02459 0.07880 -0.00772 0.13735 0.06039 
1413394002.920760576 0.00089 0.01331 0.00873 -0.00157 0.02459 0.07881 -0.00768 0.13716 0.06033 
1413394003.115760384 0.00130 0.01645 0.00608 -0.00157 0.02459 0.07881 -0.00769 0.13709 0.06023 
1413394003.360760576 0.00080 0.01934 0.00970 -0.00157 0.02459 0.07881 -0.00769 0.13706 0.06016 
