1413393212.470760448 0.07000 -0.00435 -0.06552 -0.00566 -0.00015 0.03107 0.00022 -0.00073 -0.00024 
1413393212.760760576 0.00370 -0.00035 -0.01555 -0.00142 0.02052 0.07861 -0.00621 0.00115 0.00180 
1413393213.15760384 0.00307 0.00265 -0.00503 -0.00181 0.02364 0.08177 -0.01306 0.00062 0.00329 
1413393213.270760448 0.00381 0.00394 0.00314 -0.00174 0.02368 0.08248 -0.03187 0.00113 0.00915 
1413393213.560760576 0.00746 0.00570 0.00011 -0.00173 0.02389 0.08285 -0.02380 0.00073 0.00721 
1413393213.815760384 -0.00283 -0.00061 0.00125 -0.00176 0.02415 0.08321 -0.02492 0.00041 0.00670 
1413393214.70760448 0.00443 0.00651 0.00134 -0.00169 0.02396 0.08317 -0.02544 0.00050 0.00750 
1413393214.360760576 -0.00374 0.00110 0.00707 -0.00180 0.02382 0.08304 -0.03154 0.00045 0.00848 
1413393214.615760384 -0.00048 -0.00078 0.00061 -0.00182 0.02393 0.08326 -0.02546 0.00035 0.00705 
1413393214.870760448 0.00315 0.00034 0.00213 -0.00187 0.02390 0.08335 -0.02554 0.00031 0.00740 
1413393215.160760576 -0.00820 0.00235 -0.00624 -0.00202 0.02395 0.08321 -0.02040 0.00034 0.00546 
1413393215.415760384 0.00352 0.00134 -0.00234 -0.00189 0.02391 0.08313 -0.02191 0.00032 0.00626 
1413393215.665760512 -0.01222 0.00524 0.00571 -0.00208 0.02421 0.08339 -0.02486 0.00024 0.00722 
1413393215.920760576 -0.00530 0.00355 0.00697 -0.00218 0.02398 0.08320 -0.03062 0.00032 0.00835 
1413393216.210760448 -0.00305 0.00070 0.00042 -0.00206 0.02393 0.08311 -0.02934 0.00036 0.00816 
1413393216.465760512 -0.00302 0.00553 -0.00193 -0.00214 0.02385 0.08296 -0.03642 0.00037 0.01046 
1413393216.720760576 0.00569 0.01229 0.01481 -0.00199 0.02395 0.08307 -0.03303 0.00045 0.00941 
1413393217.10760448 0.05017 -0.02378 0.16394 -0.00191 0.02362 0.08291 -0.03933 0.00044 0.01102 
1413393217.265760512 0.10533 -0.09086 0.22300 -0.00235 0.02407 0.08268 -0.03729 0.00024 0.01080 
1413393217.520760576 0.18689 -0.16622 0.10680 -0.00255 0.02404 0.08248 -0.03845 0.00023 0.01122 
1413393217.810760448 0.22908 -0.26041 0.20256 -0.00254 0.02421 0.08257 -0.03893 0.00009 0.01153 
1413393218.65760512 0.21577 -0.32692 0.20159 -0.00250 0.02459 0.08237 -0.03915 0.00004 0.01185 
1413393218.325760512 0.27157 -0.27045 -0.01546 -0.00250 0.02453 0.08287 -0.04000 -0.00034 0.01207 
1413393218.585760512 0.30017 -0.22048 -0.08216 -0.00231 0.02484 0.08283 -0.04200 0.00261 0.01468 
1413393218.860760576 0.32659 -0.28931 -0.03987 -0.00218 0.02458 0.08280 -0.04245 0.00201 0.01416 
1413393219.110760448 0.20474 -0.23760 0.05830 -0.00199 0.02461 0.08274 -0.04274 0.00794 0.01729 
1413393219.370760448 0.04741 -0.17453 0.11892 -0.00216 0.02483 0.08270 -0.03828 0.01228 0.03733 
1413393219.660760576 -0.07239 -0.10251 0.04329 -0.00218 0.02457 0.08261 -0.04098 -0.00121 0.02601 
1413393219.915760384 -0.04670 -0.06428 0.34502 -0.00206 0.02454 0.08253 -0.03925 -0.00216 0.03523 
1413393220.170760448 -0.01163 -0.07596 0.22251 -0.00190 0.02467 0.08266 -0.03387 0.00405 0.05287 
1413393220.365760512 0.00747 -0.10073 0.23384 -0.00214 0.02486 0.08279 -0.03563 0.00030 0.04620 
1413393220.545760512 0.03558 -0.12430 0.19609 -0.00212 0.02497 0.08278 -0.03575 -0.00322 0.04694 
1413393220.680760576 0.02846 -0.14683 0.04111 -0.00204 0.02498 0.08275 -0.03672 -0.00317 0.04353 
1413393220.860760576 0.03220 -0.11553 -0.00420 -0.00214 0.02504 0.08268 -0.03782 -0.00364 0.03945 
1413393221.160760576 -0.00004 -0.02596 0.22208 -0.00225 0.02506 0.08265 -0.03507 -0.00291 0.05135 
1413393221.380760576 -0.05253 0.03203 0.24113 -0.00234 0.02499 0.08261 -0.02879 -0.00110 0.07621 
1413393221.570760448 -0.11441 0.02935 0.11009 -0.00223 0.02492 0.08261 -0.02238 0.00610 0.10155 
1413393221.790760448 -0.16634 -0.00041 0.12316 -0.00212 0.02487 0.08253 -0.01386 0.00988 0.13151 
1413393221.915760384 -0.16323 -0.02293 0.11809 -0.00212 0.02482 0.08252 -0.01264 0.01005 0.13661 
1413393222.110760448 -0.15660 -0.02550 -0.07548 -0.00223 0.02480 0.08257 -0.01042 0.01020 0.14501 
1413393222.265760512 -0.13439 -0.02917 -0.24891 -0.00230 0.02477 0.08259 -0.00795 0.01010 0.15407 
1413393222.460760576 -0.14929 -0.04195 -0.22147 -0.00234 0.02472 0.08260 -0.00645 0.00936 0.15905 
1413393222.670760448 -0.19301 -0.05041 -0.03229 -0.00255 0.02450 0.08251 -0.00723 0.00909 0.15903 
1413393222.910760448 -0.31339 -0.05711 0.17551 -0.00227 0.02448 0.08246 -0.00733 0.00806 0.15940 
1413393223.30760448 -0.36748 -0.05123 0.24025 -0.00245 0.02450 0.08242 -0.00751 0.00786 0.15978 
1413393223.170760448 -0.42314 -0.03783 0.22249 -0.00240 0.02448 0.08235 -0.00751 0.00721 0.15953 
1413393223.270760448 -0.45503 -0.05161 0.20562 -0.00241 0.02451 0.08238 -0.00758 0.00707 0.15932 
1413393223.380760576 -0.47711 -0.05915 0.03327 -0.00237 0.02450 0.08241 -0.00744 0.00727 0.15930 
1413393223.465760512 -0.48021 -0.06316 -0.14809 -0.00236 0.02449 0.08240 -0.00745 0.00736 0.15942 
1413393223.660760576 -0.46702 -0.07510 -0.41898 -0.00238 0.02455 0.08241 -0.00776 0.00800 0.15957 
1413393223.815760384 -0.44923 -0.11406 -0.23173 -0.00243 0.02452 0.08246 -0.00772 0.00849 0.15941 
1413393223.970760448 -0.43714 -0.15217 -0.02279 -0.00233 0.02462 0.08241 -0.00800 0.00783 0.15910 
1413393224.90760448 -0.44738 -0.17994 -0.05638 -0.00238 0.02486 0.08243 -0.00765 0.00462 0.16221 
1413393224.170760448 -0.42561 -0.20189 -0.12744 -0.00242 0.02491 0.08249 -0.00790 0.00473 0.16223 
1413393224.315760384 -0.39311 -0.22803 -0.29748 -0.00254 0.02489 0.08257 -0.00797 0.00440 0.16227 
1413393224.465760512 -0.38529 -0.23584 -0.42672 -0.00247 0.02497 0.08256 -0.00844 0.00443 0.16280 
1413393224.600760576 -0.35632 -0.23592 -0.49978 -0.00239 0.02503 0.08251 -0.00880 0.00439 0.16275 
1413393224.755760384 -0.28133 -0.21506 -0.43688 -0.00242 0.02506 0.08257 -0.00904 0.00394 0.16251 
1413393224.970760448 -0.19774 -0.18053 -0.19546 -0.00234 0.02515 0.08248 -0.00665 -0.00421 0.17121 
1413393225.180760576 -0.24354 -0.12734 -0.03392 -0.00234 0.02534 0.08244 -0.00695 -0.00411 0.16969 
1413393225.370760448 -0.26392 -0.08676 -0.02054 -0.00246 0.02544 0.08241 -0.00638 -0.00444 0.16899 
1413393225.615760384 -0.28119 0.02581 0.08461 -0.00243 0.02545 0.08237 -0.00608 -0.00450 0.16802 
1413393225.870760448 -0.20932 0.12046 0.03869 -0.00275 0.02545 0.08242 -0.00849 -0.00591 0.15693 
1413393226.15760384 -0.18946 0.11379 -0.22253 -0.00257 0.02546 0.08235 -0.00832 -0.00594 0.15762 
1413393226.315760384 -0.23355 0.07094 -0.01758 -0.00279 0.02558 0.08231 -0.01679 0.00654 0.13245 
1413393226.565760512 -0.26243 0.12351 -0.15509 -0.00254 0.02568 0.08215 -0.02396 0.04023 0.11503 
1413393226.765760512 -0.30799 0.19407 -0.11808 -0.00244 0.02569 0.08211 -0.02415 0.03976 0.11584 
1413393227.60760576 -0.38665 0.18346 -0.05154 -0.00255 0.02565 0.08208 -0.02397 0.03973 0.11586 
1413393227.285760512 -0.41291 0.17256 -0.00835 -0.00224 0.02557 0.08196 -0.02826 0.06760 0.10172 
1413393227.520760576 -0.38973 0.18449 0.02685 -0.00196 0.02556 0.08184 -0.02776 0.06675 0.10140 
1413393227.810760448 -0.30455 0.23188 -0.00589 -0.00221 0.02556 0.08186 -0.02735 0.06657 0.10098 
1413393228.10760448 -0.23123 0.26667 -0.01857 -0.00221 0.02554 0.08188 -0.03041 0.06907 0.09091 
1413393228.215760384 -0.17970 0.30628 -0.01442 -0.00234 0.02557 0.08188 -0.03037 0.06865 0.08987 
1413393228.495760384 -0.17027 0.33073 0.01447 -0.00190 0.02564 0.08171 -0.03113 0.06871 0.08761 
1413393228.625760512 -0.15931 0.32394 0.01411 -0.00190 0.02564 0.08171 -0.03113 0.06871 0.08761 
1413393228.775760384 -0.16544 0.32446 0.01929 -0.00189 0.02563 0.08171 -0.03122 0.06843 0.08696 
1413393228.945760512 -0.17897 0.36933 -0.02166 -0.00190 0.02568 0.08172 -0.03143 0.06843 0.08606 
1413393229.165760512 -0.19405 0.42109 -0.05899 -0.00211 0.02559 0.08187 -0.03520 0.07797 0.07441 
1413393229.330760448 -0.24854 0.42641 -0.12082 -0.00233 0.02560 0.08193 -0.03526 0.07777 0.07395 
1413393229.560760576 -0.29148 0.41450 -0.13412 -0.00213 0.02558 0.08185 -0.03545 0.07784 0.07277 
1413393229.760760576 -0.26264 0.44092 -0.08699 -0.00218 0.02558 0.08184 -0.03515 0.07823 0.07244 
1413393229.875760384 -0.25061 0.48989 -0.02720 -0.00202 0.02560 0.08178 -0.03545 0.07818 0.07226 
1413393230.20760576 -0.25168 0.58076 0.04828 -0.00196 0.02553 0.08187 -0.03864 0.09101 0.06232 
1413393230.270760448 -0.31972 0.63735 -0.00033 -0.00205 0.02554 0.08191 -0.03842 0.09130 0.06214 
1413393230.460760576 -0.35020 0.63776 -0.04771 -0.00215 0.02555 0.08194 -0.03812 0.09118 0.06218 
1413393230.640760576 -0.31482 0.66083 0.00715 -0.00225 0.02547 0.08207 -0.04084 0.09712 0.05305 
1413393230.790760448 -0.26060 0.69727 0.07298 -0.00230 0.02547 0.08208 -0.04063 0.09701 0.05267 
1413393231.20760576 -0.20091 0.74653 0.16155 -0.00197 0.02543 0.08195 -0.04008 0.09728 0.05306 
1413393231.115760384 -0.21118 0.75214 0.16031 -0.00224 0.02540 0.08209 -0.04145 0.09689 0.04798 
1413393231.360760576 -0.32836 0.75488 0.04642 -0.00215 0.02541 0.08209 -0.04151 0.09615 0.04515 
1413393231.615760384 -0.33165 0.70391 -0.14275 -0.00217 0.02541 0.08210 -0.04158 0.09550 0.04319 
1413393231.870760448 -0.19455 0.54511 -0.10503 -0.00239 0.02539 0.08225 -0.04352 0.09723 0.03584 
1413393232.35760384 -0.06025 0.50285 -0.03372 -0.00235 0.02541 0.08225 -0.04330 0.09741 0.03498 
1413393232.130760448 0.01302 0.49228 0.00837 -0.00236 0.02543 0.08224 -0.04320 0.09765 0.03456 
1413393232.285760512 0.10501 0.48606 -0.04379 -0.00232 0.02542 0.08226 -0.04486 0.10001 0.02943 
1413393232.520760576 0.18676 0.48803 -0.19649 -0.00217 0.02544 0.08226 -0.04500 0.10061 0.02698 
1413393232.665760512 0.22898 0.49734 -0.24648 -0.00222 0.02547 0.08223 -0.04338 0.10085 0.03118 
1413393232.760760576 0.26975 0.48514 -0.23241 -0.00222 0.02546 0.08225 -0.04298 0.10111 0.03170 
1413393232.920760576 0.32620 0.51121 -0.17843 -0.00215 0.02548 0.08222 -0.04282 0.10147 0.03196 
1413393233.30760448 0.36329 0.53404 -0.09767 -0.00223 0.02550 0.08224 -0.04273 0.10154 0.03218 
1413393233.220760576 0.39103 0.57924 0.05245 -0.00210 0.02551 0.08220 -0.04314 0.10148 0.03127 
1413393233.330760448 0.38951 0.58916 0.13844 -0.00210 0.02551 0.08214 -0.04149 0.10100 0.03638 
1413393233.515760384 0.36906 0.54437 0.29166 -0.00215 0.02549 0.08215 -0.04145 0.10103 0.03755 
1413393233.680760576 0.33940 0.50496 0.35376 -0.00209 0.02550 0.08213 -0.04160 0.10129 0.03721 
1413393233.815760384 0.29556 0.50794 0.46586 -0.00211 0.02549 0.08214 -0.04142 0.10152 0.03797 
1413393234.10760448 0.22104 0.45247 0.44587 -0.00210 0.02546 0.08216 -0.04131 0.10149 0.03862 
1413393234.165760512 0.20112 0.37820 0.36029 -0.00226 0.02541 0.08221 -0.04091 0.10077 0.03986 
1413393234.365760512 0.21954 0.25853 0.20338 -0.00220 0.02540 0.08220 -0.04085 0.10096 0.03995 
1413393234.565760512 0.25697 -0.06763 0.13483 -0.00218 0.02541 0.08223 -0.04146 0.09784 0.03822 
1413393234.730760448 0.20886 -0.31735 0.40622 -0.00226 0.02541 0.08225 -0.04165 0.09709 0.03848 
1413393234.885760512 0.12055 -0.33939 0.29945 -0.00226 0.02541 0.08226 -0.04154 0.09733 0.03887 
1413393235.165760512 0.08967 -0.31655 -0.21596 -0.00241 0.02549 0.08227 -0.03994 0.09354 0.04217 
1413393235.385760512 0.10265 -0.28054 -0.19705 -0.00233 0.02554 0.08227 -0.04031 0.09259 0.03967 
1413393235.515760384 0.13222 -0.17756 -0.12794 -0.00229 0.02550 0.08220 -0.03891 0.09788 0.04369 
1413393235.765760512 0.10666 0.11660 -0.08978 -0.00214 0.02552 0.08214 -0.03914 0.09744 0.04290 
1413393235.955760384 0.05495 0.25131 -0.06687 -0.00203 0.02549 0.08212 -0.03924 0.10001 0.04198 
1413393236.160760576 0.00740 0.14654 0.03164 -0.00195 0.02548 0.08205 -0.03930 0.10052 0.04272 
1413393236.270760448 -0.05385 0.06484 0.10915 -0.00202 0.02549 0.08209 -0.04023 0.10081 0.03986 
1413393236.520760576 -0.05841 0.07565 0.11994 -0.00177 0.02553 0.08204 -0.04099 0.10038 0.03667 
1413393236.630760448 -0.02798 0.08479 0.08885 -0.00167 0.02555 0.08204 -0.04181 0.10013 0.03401 
1413393236.860760576 0.08781 0.06934 -0.06383 -0.00162 0.02563 0.08207 -0.04310 0.10014 0.03004 
1413393237.30760448 0.14256 -0.00904 0.16972 -0.00150 0.02570 0.08204 -0.04423 0.10007 0.02702 
1413393237.175760384 0.17222 -0.01501 0.24799 -0.00156 0.02575 0.08208 -0.04487 0.10026 0.02548 
1413393237.340760576 0.18214 0.05519 -0.00323 -0.00162 0.02576 0.08212 -0.04544 0.09977 0.02328 
1413393237.470760448 0.18619 0.13784 -0.11690 -0.00164 0.02580 0.08212 -0.04577 0.10086 0.02227 
1413393237.670760448 0.16420 0.17750 -0.11329 -0.00154 0.02581 0.08212 -0.04629 0.10080 0.02065 
1413393237.830760448 0.15664 0.11314 -0.09181 -0.00167 0.02581 0.08215 -0.04643 0.10117 0.02081 
1413393237.980760576 0.19363 0.05549 -0.09554 -0.00180 0.02584 0.08220 -0.04651 0.10181 0.02130 
1413393238.90760448 0.22089 0.04389 -0.07616 -0.00170 0.02583 0.08215 -0.04672 0.10204 0.02093 
1413393238.220760576 0.28593 0.06490 0.00686 -0.00179 0.02583 0.08218 -0.04642 0.10167 0.02151 
1413393238.360760576 0.40368 0.14198 0.09286 -0.00182 0.02559 0.08212 -0.04415 0.11988 0.02856 
1413393238.560760576 0.49057 0.20182 0.08334 -0.00176 0.02558 0.08211 -0.04440 0.11954 0.02953 
1413393238.825760512 0.50711 0.04160 -0.10960 -0.00184 0.02554 0.08207 -0.04429 0.11814 0.03296 
1413393238.935760384 0.49576 -0.03237 -0.06916 -0.00185 0.02551 0.08208 -0.04428 0.11764 0.03399 
1413393239.110760448 0.49058 -0.07493 -0.05389 -0.00181 0.02548 0.08205 -0.04459 0.11739 0.03449 
1413393239.275760384 0.49483 -0.00775 -0.03742 -0.00190 0.02545 0.08208 -0.04483 0.11787 0.03512 
1413393239.470760448 0.49752 0.06414 0.03577 -0.00195 0.02538 0.08210 -0.04526 0.11831 0.03501 
1413393239.625760512 0.51814 0.13554 0.06218 -0.00200 0.02530 0.08191 -0.04090 0.12494 0.04966 
1413393239.760760576 0.52966 0.13614 0.07467 -0.00199 0.02529 0.08189 -0.04109 0.12508 0.04971 
1413393240.10760448 0.53658 0.00799 0.09365 -0.00208 0.02526 0.08190 -0.04116 0.12482 0.05008 
1413393240.185760512 0.54126 -0.00374 0.06227 -0.00204 0.02523 0.08182 -0.04016 0.12703 0.05402 
1413393240.335760384 0.51450 0.03783 -0.08658 -0.00195 0.02520 0.08178 -0.04023 0.12706 0.05423 
1413393240.485760512 0.51824 0.05885 -0.20231 -0.00206 0.02521 0.08183 -0.04040 0.12701 0.05431 
1413393240.670760448 0.57573 0.00031 0.00922 -0.00202 0.02522 0.08181 -0.04051 0.12679 0.05466 
1413393240.820760576 0.60554 -0.03536 0.19257 -0.00207 0.02523 0.08183 -0.04061 0.12660 0.05418 
1413393241.115760384 0.47636 -0.01619 -0.18305 -0.00238 0.02520 0.08186 -0.03920 0.12735 0.05696 
1413393241.270760448 0.38247 -0.01646 -0.27413 -0.00204 0.02515 0.08179 -0.03897 0.12750 0.05645 
1413393241.430760448 0.35471 -0.08136 -0.22483 -0.00206 0.02515 0.08178 -0.03906 0.12755 0.05645 
1413393241.665760512 0.35589 -0.12586 -0.16328 -0.00202 0.02515 0.08175 -0.03891 0.12779 0.05688 
1413393241.860760576 0.34916 -0.07233 -0.13116 -0.00200 0.02507 0.08179 -0.04001 0.13517 0.05463 
1413393242.25760512 0.33255 0.00602 -0.08001 -0.00208 0.02506 0.08182 -0.04047 0.13515 0.05398 
1413393242.195760384 0.25654 0.07303 -0.03980 -0.00187 0.02505 0.08174 -0.04051 0.13542 0.05399 
1413393242.345760512 0.14428 0.10064 -0.03365 -0.00174 0.02504 0.08169 -0.04053 0.13574 0.05423 
1413393242.560760576 0.03931 0.05867 -0.01837 -0.00200 0.02502 0.08180 -0.04079 0.13568 0.05367 
1413393242.810760448 0.09626 -0.09239 0.05028 -0.00188 0.02504 0.08174 -0.04064 0.13547 0.05442 
1413393243.60760576 0.16187 -0.16182 0.06717 -0.00197 0.02502 0.08177 -0.04134 0.14033 0.05330 
1413393243.315760384 0.20203 -0.10390 0.05781 -0.00207 0.02500 0.08181 -0.04143 0.14066 0.05374 
1413393243.610760448 0.10962 -0.08855 -0.17226 -0.00202 0.02501 0.08178 -0.04134 0.14034 0.05429 
1413393243.760760576 0.05362 -0.07572 -0.11524 -0.00212 0.02503 0.08182 -0.04149 0.14023 0.05474 
1413393243.920760576 -0.00817 -0.04729 -0.05780 -0.00212 0.02502 0.08184 -0.04169 0.14060 0.05413 
1413393244.160760576 -0.07113 -0.00339 -0.01427 -0.00200 0.02502 0.08180 -0.04181 0.14031 0.05415 
1413393244.265760512 -0.09401 0.03888 -0.00326 -0.00187 0.02503 0.08175 -0.04196 0.14029 0.05414 
1413393244.420760576 -0.13185 0.08966 -0.04281 -0.00208 0.02503 0.08184 -0.04189 0.14038 0.05453 
1413393244.670760448 -0.20165 0.08782 -0.16392 -0.00207 0.02501 0.08184 -0.04196 0.14046 0.05454 
1413393244.875760384 -0.24953 0.03767 0.04083 -0.00208 0.02505 0.08185 -0.04243 0.13990 0.05409 
1413393245.70760448 -0.24162 -0.02980 0.10365 -0.00223 0.02502 0.08191 -0.04285 0.14025 0.05368 
1413393245.230760448 -0.20758 -0.05855 -0.05117 -0.00215 0.02504 0.08187 -0.04280 0.13963 0.05475 
1413393245.335760384 -0.16878 -0.05770 -0.16234 -0.00203 0.02503 0.08182 -0.04283 0.13933 0.05511 
1413393245.575760384 -0.15730 -0.02380 -0.25980 -0.00222 0.02499 0.08190 -0.04319 0.14084 0.05446 
1413393245.765760512 -0.17547 0.02488 -0.21313 -0.00221 0.02497 0.08192 -0.04361 0.14110 0.05345 
1413393246.760576 -0.17654 0.08187 -0.16040 -0.00232 0.02497 0.08196 -0.04382 0.14098 0.05376 
1413393246.170760448 -0.10960 0.04098 -0.10935 -0.00225 0.02495 0.08195 -0.04421 0.14090 0.05318 
1413393246.305760512 -0.05010 0.02445 -0.06746 -0.00228 0.02494 0.08204 -0.04686 0.14067 0.04632 
1413393246.470760448 -0.02350 0.00636 -0.03610 -0.00227 0.02493 0.08201 -0.04702 0.14086 0.04666 
1413393246.610760448 -0.05885 0.00845 -0.05456 -0.00224 0.02491 0.08200 -0.04699 0.14121 0.04640 
1413393246.720760576 -0.08353 0.01352 -0.04706 -0.00229 0.02489 0.08201 -0.04676 0.14128 0.04671 
1413393246.830760448 -0.11426 0.03080 -0.07404 -0.00232 0.02488 0.08202 -0.04648 0.14137 0.04694 
1413393246.985760512 -0.15471 0.05740 -0.13467 -0.00228 0.02486 0.08199 -0.04634 0.14153 0.04724 
1413393247.175760384 -0.20130 0.08587 -0.20548 -0.00224 0.02487 0.08198 -0.04629 0.14167 0.04739 
1413393247.320760576 -0.20434 0.09378 -0.25628 -0.00226 0.02486 0.08198 -0.04620 0.14162 0.04725 
1413393247.510760448 -0.09877 0.10950 -0.23189 -0.00222 0.02479 0.08194 -0.04490 0.14970 0.05069 
1413393247.760760576 0.11613 0.08098 -0.22132 -0.00223 0.02480 0.08193 -0.04471 0.14967 0.05098 
1413393247.960760576 0.31098 0.01716 -0.13318 -0.00227 0.02481 0.08192 -0.04386 0.15037 0.05297 
1413393248.115760384 0.26080 -0.09093 -0.18214 -0.00230 0.02482 0.08192 -0.04416 0.15062 0.05330 
1413393248.270760448 0.20101 -0.16683 -0.14356 -0.00226 0.02477 0.08191 -0.04393 0.15061 0.05312 
1413393248.470760448 0.10906 -0.24217 -0.06806 -0.00230 0.02480 0.08192 -0.04505 0.15142 0.05395 
1413393248.610760448 0.03942 -0.25592 -0.02796 -0.00226 0.02483 0.08191 -0.04522 0.15123 0.05413 
1413393248.825760512 -0.09881 -0.32472 0.02723 -0.00232 0.02478 0.08195 -0.04630 0.15192 0.05403 
1413393249.115760384 -0.07058 -0.25550 -0.13413 -0.00236 0.02479 0.08199 -0.04790 0.15271 0.05336 
1413393249.335760384 0.04590 -0.16418 -0.10351 -0.00226 0.02485 0.08195 -0.05028 0.15603 0.05099 
1413393249.480760576 0.07252 -0.11598 -0.07321 -0.00240 0.02487 0.08198 -0.05093 0.15556 0.05156 
1413393249.635760384 0.05013 -0.00684 -0.12957 -0.00246 0.02487 0.08200 -0.05129 0.15565 0.05169 
1413393249.810760448 0.00341 0.11521 -0.20251 -0.00240 0.02482 0.08197 -0.05153 0.15601 0.05164 
1413393249.920760576 -0.02365 0.15706 -0.19865 -0.00245 0.02483 0.08198 -0.05168 0.15594 0.05205 
1413393250.60760576 -0.05141 0.19951 -0.17168 -0.00250 0.02483 0.08198 -0.05168 0.15569 0.05223 
1413393250.265760512 -0.02422 0.25397 -0.12442 -0.00263 0.02482 0.08199 -0.05172 0.15620 0.05281 
1413393250.415760384 -0.02633 0.29546 -0.09683 -0.00262 0.02482 0.08199 -0.05169 0.15623 0.05284 
1413393250.630760448 -0.08647 0.24872 -0.08180 -0.00263 0.02479 0.08198 -0.05163 0.15611 0.05288 
1413393250.800760576 -0.12003 0.15598 -0.07585 -0.00255 0.02478 0.08196 -0.05156 0.15597 0.05336 
1413393251.65760512 -0.04551 0.05215 0.02921 -0.00252 0.02478 0.08194 -0.05162 0.15566 0.05350 
1413393251.265760512 -0.01135 0.01367 0.05446 -0.00247 0.02479 0.08194 -0.05161 0.15521 0.05358 
1413393251.470760448 -0.03884 -0.02932 0.10480 -0.00246 0.02479 0.08195 -0.05153 0.15539 0.05363 
1413393251.550760448 -0.06860 -0.03988 0.11943 -0.00242 0.02479 0.08193 -0.05163 0.15542 0.05350 
1413393251.765760512 -0.18953 -0.06491 0.14386 -0.00224 0.02479 0.08187 -0.05184 0.15646 0.05362 
1413393251.915760384 -0.24915 -0.05636 0.15633 -0.00218 0.02484 0.08186 -0.05177 0.15668 0.05422 
1413393252.90760448 -0.24479 -0.03939 0.20723 -0.00227 0.02484 0.08189 -0.05179 0.15673 0.05412 
1413393252.270760448 -0.20439 -0.01897 0.22117 -0.00232 0.02484 0.08189 -0.05141 0.15653 0.05463 
1413393252.420760576 -0.18039 -0.00735 0.16165 -0.00233 0.02486 0.08187 -0.04973 0.15458 0.05917 
1413393252.565760512 -0.13792 -0.01403 0.02605 -0.00237 0.02486 0.08187 -0.04940 0.15486 0.05969 
1413393252.760760576 -0.09659 -0.05282 -0.04121 -0.00234 0.02487 0.08188 -0.04930 0.15401 0.05971 
1413393252.970760448 -0.05382 -0.03827 0.01948 -0.00236 0.02488 0.08189 -0.04919 0.15450 0.06006 
1413393253.185760512 0.01326 0.03120 0.04156 -0.00237 0.02487 0.08191 -0.04889 0.15402 0.06019 
1413393253.285760512 0.06309 0.03016 0.04822 -0.00238 0.02487 0.08191 -0.04881 0.15416 0.06018 
1413393253.465760512 0.17523 -0.00878 0.09012 -0.00238 0.02490 0.08189 -0.04815 0.15096 0.06165 
1413393253.575760384 0.23824 -0.03927 0.13008 -0.00238 0.02490 0.08188 -0.04816 0.15109 0.06135 
1413393253.720760576 0.28840 -0.06988 0.14216 -0.00240 0.02489 0.08189 -0.04807 0.15091 0.06147 
1413393253.890760448 0.31254 -0.08619 0.16328 -0.00242 0.02489 0.08190 -0.04794 0.15117 0.06168 
1413393254.70760448 0.31991 -0.09192 0.19969 -0.00243 0.02488 0.08192 -0.04788 0.15136 0.06190 
1413393254.275760384 0.31453 -0.11944 0.25074 -0.00243 0.02488 0.08192 -0.04787 0.15141 0.06196 
1413393254.470760448 0.34428 -0.08820 0.26179 -0.00233 0.02490 0.08190 -0.04787 0.15052 0.06215 
1413393254.615760384 0.42089 -0.06821 0.25340 -0.00234 0.02489 0.08191 -0.04794 0.15096 0.06183 
1413393254.730760448 0.48026 -0.06538 0.27347 -0.00231 0.02490 0.08189 -0.04794 0.15099 0.06215 
1413393254.925760512 0.46686 -0.04034 0.23402 -0.00228 0.02490 0.08185 -0.04655 0.14810 0.06540 
1413393255.80760576 0.43735 -0.02441 0.21568 -0.00229 0.02490 0.08186 -0.04648 0.14811 0.06523 
1413393255.280760576 0.36142 -0.04043 0.16120 -0.00228 0.02490 0.08185 -0.04640 0.14828 0.06534 
1413393255.430760448 0.28802 -0.08260 0.10405 -0.00233 0.02491 0.08187 -0.04630 0.14844 0.06533 
1413393255.715760384 0.17153 -0.16638 0.07150 -0.00230 0.02491 0.08188 -0.04641 0.15025 0.06449 
1413393255.830760448 0.13689 -0.18106 0.03101 -0.00229 0.02490 0.08188 -0.04622 0.15010 0.06461 
1413393256.30760448 0.15878 -0.22207 0.03929 -0.00230 0.02490 0.08188 -0.04618 0.14996 0.06464 
1413393256.270760448 0.23344 -0.21211 -0.01237 -0.00236 0.02488 0.08189 -0.04591 0.15003 0.06467 
1413393256.525760512 0.30045 -0.26731 0.10756 -0.00237 0.02489 0.08190 -0.04584 0.15018 0.06435 
1413393256.625760512 0.31623 -0.30989 0.15336 -0.00237 0.02489 0.08190 -0.04579 0.15019 0.06434 
1413393256.720760576 0.34780 -0.31866 0.10219 -0.00233 0.02490 0.08190 -0.04582 0.15012 0.06421 
1413393256.915760384 0.38902 -0.30296 -0.06444 -0.00237 0.02488 0.08192 -0.04589 0.15169 0.06364 
1413393257.115760384 0.42601 -0.30103 -0.09891 -0.00232 0.02487 0.08190 -0.04573 0.15191 0.06335 
1413393257.330760448 0.44310 -0.32655 -0.07419 -0.00233 0.02489 0.08190 -0.04524 0.15165 0.06362 
1413393257.525760512 0.43708 -0.34279 -0.07853 -0.00235 0.02488 0.08191 -0.04501 0.15158 0.06339 
1413393257.720760576 0.43595 -0.37099 -0.09746 -0.00233 0.02489 0.08192 -0.04485 0.15116 0.06330 
1413393257.870760448 0.42135 -0.38079 -0.08264 -0.00241 0.02490 0.08194 -0.04450 0.15098 0.06326 
1413393258.215760384 0.49130 -0.32036 0.00179 -0.00233 0.02491 0.08195 -0.04539 0.14914 0.06023 
1413393258.415760384 0.49626 -0.23573 0.01381 -0.00231 0.02491 0.08195 -0.04522 0.14924 0.05983 
1413393258.635760384 0.42662 -0.13468 0.03992 -0.00229 0.02493 0.08195 -0.04498 0.14934 0.05973 
1413393258.820760576 0.36799 -0.11053 0.05625 -0.00235 0.02493 0.08198 -0.04490 0.14910 0.05951 
1413393258.985760512 0.35223 -0.09676 0.07075 -0.00231 0.02493 0.08197 -0.04477 0.14921 0.05945 
1413393259.140760576 0.34746 -0.08905 0.08188 -0.00230 0.02492 0.08198 -0.04487 0.14907 0.05850 
1413393259.335760384 0.35648 -0.09308 0.08336 -0.00231 0.02492 0.08197 -0.04454 0.14896 0.05846 
1413393259.520760576 0.40327 -0.09797 0.10426 -0.00228 0.02492 0.08196 -0.04424 0.14903 0.05834 
1413393259.725760512 0.42756 -0.11052 0.11840 -0.00226 0.02493 0.08194 -0.04406 0.14916 0.05820 
1413393259.865760512 0.45628 -0.10064 0.13110 -0.00224 0.02493 0.08194 -0.04393 0.14928 0.05805 
1413393260.70760448 0.47398 -0.08759 0.12206 -0.00227 0.02493 0.08194 -0.04351 0.14898 0.05834 
1413393260.285760512 0.48706 -0.08706 0.08790 -0.00225 0.02492 0.08192 -0.04331 0.14919 0.05850 
1413393260.425760512 0.45446 -0.12254 0.02154 -0.00228 0.02491 0.08189 -0.04223 0.14949 0.06139 
1413393260.605760512 0.25385 -0.13246 -0.09046 -0.00228 0.02490 0.08190 -0.04211 0.14984 0.06158 
1413393260.815760384 -0.11841 -0.03401 -0.11678 -0.00228 0.02485 0.08187 -0.04119 0.15446 0.06379 
1413393261.20760576 -0.25608 0.07782 -0.03254 -0.00227 0.02484 0.08187 -0.04142 0.15446 0.06333 
1413393261.210760448 -0.21387 0.14110 -0.01370 -0.00228 0.02483 0.08186 -0.04109 0.15501 0.06429 
1413393261.460760576 -0.13627 0.27164 0.04067 -0.00231 0.02484 0.08187 -0.04103 0.15485 0.06434 
1413393261.765760512 -0.02486 0.29901 0.04187 -0.00228 0.02482 0.08186 -0.04088 0.15538 0.06461 
1413393262.65760512 0.16363 0.23309 0.08466 -0.00230 0.02483 0.08186 -0.04059 0.15495 0.06505 
1413393262.220760576 0.19657 0.21170 0.12379 -0.00233 0.02481 0.08185 -0.03958 0.15736 0.06787 
1413393262.475760384 0.20289 0.22130 0.10089 -0.00233 0.02481 0.08187 -0.03964 0.15743 0.06757 
1413393262.760760576 0.20016 0.22636 -0.17794 -0.00231 0.02480 0.08184 -0.03942 0.15772 0.06789 
1413393263.20760576 0.19003 0.24019 -0.17865 -0.00231 0.02481 0.08184 -0.03932 0.15753 0.06808 
1413393263.165760512 0.22942 0.26376 -0.10810 -0.00234 0.02481 0.08184 -0.03899 0.15863 0.06917 
1413393263.365760512 0.27539 0.23731 -0.06846 -0.00231 0.02481 0.08182 -0.03901 0.15866 0.06921 
1413393263.570760448 0.31432 0.24151 -0.18002 -0.00232 0.02481 0.08183 -0.03897 0.15855 0.06918 
1413393263.745760512 0.27525 0.21226 -0.29763 -0.00230 0.02481 0.08182 -0.03901 0.15857 0.06906 
1413393263.930760448 0.17794 0.14066 -0.27193 -0.00235 0.02481 0.08184 -0.03904 0.15872 0.06890 
1413393264.80760576 0.10673 0.07163 -0.23229 -0.00234 0.02480 0.08184 -0.03907 0.15898 0.06875 
1413393264.310760448 0.07052 0.02540 -0.19115 -0.00231 0.02481 0.08184 -0.03949 0.15830 0.06759 
1413393264.520760576 0.07861 0.11139 -0.12435 -0.00232 0.02483 0.08186 -0.03963 0.15766 0.06731 
1413393264.715760384 0.06979 0.17612 -0.10273 -0.00232 0.02483 0.08187 -0.03965 0.15769 0.06725 
1413393264.920760576 0.07688 0.20243 -0.12438 -0.00234 0.02483 0.08188 -0.03960 0.15768 0.06726 
1413393265.160760576 0.07090 0.23950 -0.07060 -0.00228 0.02484 0.08185 -0.03959 0.15735 0.06725 
1413393265.365760512 -0.00944 0.16181 -0.06859 -0.00227 0.02484 0.08184 -0.03955 0.15731 0.06738 
1413393265.560760576 -0.04096 0.05209 -0.02219 -0.00231 0.02484 0.08186 -0.03949 0.15716 0.06726 
1413393265.760760576 -0.03868 0.01234 0.05141 -0.00234 0.02485 0.08186 -0.03967 0.15739 0.06717 
1413393265.930760448 -0.09489 0.03354 0.10040 -0.00233 0.02484 0.08185 -0.03966 0.15744 0.06707 
1413393266.110760448 -0.13417 0.05772 0.15704 -0.00232 0.02485 0.08185 -0.03965 0.15742 0.06709 
1413393266.320760576 -0.16763 0.05541 0.23287 -0.00232 0.02485 0.08184 -0.03956 0.15741 0.06707 
1413393266.530760448 -0.20881 0.04953 0.28128 -0.00228 0.02484 0.08183 -0.03949 0.15757 0.06711 
1413393266.710760448 -0.16580 0.01494 0.08063 -0.00229 0.02484 0.08183 -0.03941 0.15750 0.06718 
1413393266.865760512 -0.08569 -0.01625 0.13072 -0.00229 0.02484 0.08182 -0.03919 0.15729 0.06763 
1413393267.70760448 0.05172 -0.08590 0.43395 -0.00231 0.02483 0.08179 -0.03867 0.15800 0.06881 
1413393267.210760448 0.10738 -0.10094 0.31206 -0.00231 0.02484 0.08179 -0.03857 0.15776 0.06907 
1413393267.335760384 0.15420 -0.09096 0.17786 -0.00232 0.02482 0.08178 -0.03780 0.15885 0.07091 
1413393267.485760512 0.19082 -0.06942 0.04288 -0.00232 0.02482 0.08178 -0.03759 0.15939 0.07124 
1413393267.610760448 0.20064 -0.08853 -0.06209 -0.00230 0.02482 0.08178 -0.03767 0.16005 0.07062 
1413393267.820760576 0.19027 -0.12635 -0.20738 -0.00230 0.02482 0.08179 -0.03758 0.15993 0.06976 
1413393267.970760448 0.13828 -0.13646 -0.16393 -0.00229 0.02483 0.08179 -0.03774 0.15933 0.06869 
1413393268.80760576 0.11072 -0.13137 -0.11862 -0.00228 0.02485 0.08181 -0.03840 0.15638 0.06655 
1413393268.220760576 0.08999 -0.09569 -0.09911 -0.00227 0.02489 0.08182 -0.03909 0.15591 0.06403 
1413393268.445760512 0.04939 -0.04840 -0.01283 -0.00230 0.02491 0.08182 -0.03950 0.15530 0.06259 
1413393268.595760384 -0.01501 -0.01866 0.06701 -0.00230 0.02492 0.08182 -0.03966 0.15483 0.06188 
1413393268.860760576 -0.04911 0.03671 0.13321 -0.00230 0.02493 0.08181 -0.03943 0.15441 0.06211 
1413393269.55760384 -0.05301 0.08207 0.01141 -0.00232 0.02494 0.08181 -0.03857 0.14995 0.06452 
1413393269.160760576 -0.08186 0.06366 0.02303 -0.00233 0.02494 0.08181 -0.03848 0.14959 0.06472 
1413393269.310760448 -0.15184 0.00593 0.07744 -0.00234 0.02492 0.08182 -0.03838 0.14987 0.06477 
1413393269.505760512 -0.11564 -0.06768 -0.04998 -0.00232 0.02490 0.08180 -0.03814 0.14994 0.06518 
1413393269.660760576 -0.05135 -0.09716 -0.23986 -0.00235 0.02489 0.08182 -0.03809 0.14991 0.06499 
1413393269.820760576 0.01665 -0.09004 -0.27998 -0.00237 0.02489 0.08182 -0.03782 0.14990 0.06520 
1413393270.20760576 0.03661 -0.06518 -0.24273 -0.00235 0.02488 0.08181 -0.03743 0.14949 0.06539 
1413393270.115760384 0.02608 -0.05997 -0.23912 -0.00235 0.02488 0.08181 -0.03743 0.14991 0.06523 
1413393270.305760512 0.00789 -0.04688 -0.20048 -0.00233 0.02487 0.08181 -0.03711 0.14959 0.06541 
1413393270.435760384 0.00477 0.01448 -0.13036 -0.00234 0.02488 0.08181 -0.03704 0.14953 0.06547 
1413393270.630760448 0.08302 -0.03769 -0.14416 -0.00238 0.02487 0.08182 -0.03704 0.15297 0.06456 
1413393270.835760384 0.03360 0.02221 0.14418 -0.00233 0.02487 0.08181 -0.03680 0.15309 0.06445 
1413393271.10760448 -0.06152 0.06723 0.21706 -0.00236 0.02492 0.08182 -0.03682 0.15293 0.06429 
1413393271.210760448 -0.15364 0.10748 0.00706 -0.00237 0.02497 0.08182 -0.03668 0.15128 0.06385 
1413393271.340760576 -0.19822 0.08363 -0.08711 -0.00236 0.02498 0.08182 -0.03679 0.15146 0.06376 
1413393271.515760384 -0.25136 0.02007 -0.03967 -0.00234 0.02497 0.08181 -0.03668 0.15148 0.06396 
1413393271.600760576 -0.27941 -0.01926 -0.01477 -0.00236 0.02496 0.08181 -0.03650 0.15169 0.06385 
1413393271.680760576 -0.27457 -0.04452 -0.00695 -0.00237 0.02496 0.08181 -0.03651 0.15173 0.06382 
1413393271.825760512 -0.28118 -0.05460 0.03970 -0.00236 0.02495 0.08180 -0.03652 0.15186 0.06369 
1413393271.960760576 -0.31380 -0.03556 0.08253 -0.00235 0.02495 0.08180 -0.03651 0.15178 0.06375 
1413393272.130760448 -0.33358 -0.03472 0.10428 -0.00238 0.02494 0.08179 -0.03642 0.15207 0.06366 
1413393272.270760448 -0.33180 -0.04275 0.12875 -0.00245 0.02493 0.08182 -0.03635 0.15193 0.06357 
1413393272.495760384 -0.27464 -0.08609 0.13951 -0.00239 0.02489 0.08181 -0.03634 0.15139 0.06342 
1413393272.590760448 -0.25923 -0.10586 0.15329 -0.00239 0.02488 0.08181 -0.03637 0.15123 0.06336 
1413393272.720760576 -0.27599 -0.11565 0.13638 -0.00237 0.02487 0.08179 -0.03625 0.15107 0.06344 
1413393272.800760576 -0.29090 -0.12826 0.13465 -0.00237 0.02486 0.08180 -0.03613 0.15087 0.06367 
1413393272.970760448 -0.32936 -0.13327 0.15046 -0.00236 0.02486 0.08180 -0.03613 0.14975 0.06344 
1413393273.100760576 -0.34983 -0.12071 0.12299 -0.00237 0.02485 0.08180 -0.03614 0.14975 0.06334 
1413393273.245760512 -0.33758 -0.09700 0.13220 -0.00236 0.02485 0.08179 -0.03616 0.14935 0.06339 
1413393273.325760512 -0.33935 -0.08884 0.11923 -0.00235 0.02484 0.08179 -0.03619 0.14944 0.06341 
1413393273.520760576 -0.33428 -0.04955 0.14088 -0.00232 0.02483 0.08179 -0.03614 0.14861 0.06375 
1413393273.770760448 -0.33132 -0.03973 0.16469 -0.00232 0.02482 0.08179 -0.03623 0.14840 0.06357 
1413393274.10760448 -0.32744 -0.03608 0.18285 -0.00232 0.02482 0.08179 -0.03635 0.14804 0.06335 
1413393274.165760512 -0.27196 -0.05088 0.20658 -0.00235 0.02482 0.08179 -0.03651 0.14610 0.06282 
1413393274.370760448 -0.20148 -0.06773 0.21870 -0.00234 0.02482 0.08179 -0.03648 0.14591 0.06278 
1413393274.615760384 -0.15791 -0.10694 -0.02059 -0.00233 0.02482 0.08178 -0.03646 0.14493 0.06271 
1413393274.740760576 -0.11945 -0.11585 -0.10660 -0.00234 0.02481 0.08179 -0.03639 0.14495 0.06289 
1413393274.910760448 -0.10795 -0.11832 -0.07093 -0.00233 0.02481 0.08178 -0.03648 0.14531 0.06284 
1413393275.70760448 -0.13205 -0.13006 -0.02392 -0.00234 0.02481 0.08178 -0.03669 0.14616 0.06274 
1413393275.260760576 -0.18171 -0.14734 -0.02560 -0.00234 0.02481 0.08178 -0.03671 0.14621 0.06274 
1413393275.385760512 -0.19844 -0.14885 0.00215 -0.00232 0.02481 0.08176 -0.03672 0.14636 0.06260 
1413393275.520760576 -0.20945 -0.17785 0.03846 -0.00232 0.02481 0.08176 -0.03677 0.14626 0.06253 
1413393275.700760576 -0.21442 -0.22229 0.08524 -0.00231 0.02481 0.08175 -0.03675 0.14637 0.06259 
1413393275.815760384 -0.21419 -0.24133 0.08643 -0.00233 0.02481 0.08176 -0.03678 0.14614 0.06241 
1413393276.20760576 -0.09984 -0.26859 0.10143 -0.00232 0.02482 0.08175 -0.03686 0.14558 0.06202 
1413393276.140760576 -0.02345 -0.29264 0.15617 -0.00232 0.02482 0.08174 -0.03684 0.14556 0.06194 
1413393276.220760576 -0.00852 -0.27757 0.16915 -0.00233 0.02481 0.08175 -0.03679 0.14533 0.06195 
1413393276.415760384 -0.02524 -0.19028 0.04867 -0.00234 0.02481 0.08175 -0.03674 0.14535 0.06224 
1413393276.660760576 0.01464 -0.13374 -0.11803 -0.00235 0.02482 0.08174 -0.03680 0.14476 0.06200 
1413393276.775760384 0.05393 -0.13568 -0.08224 -0.00234 0.02483 0.08173 -0.03676 0.14494 0.06205 
1413393276.905760512 0.10168 -0.14258 -0.05302 -0.00237 0.02482 0.08174 -0.03678 0.14475 0.06186 
1413393276.985760512 0.13202 -0.14828 -0.04579 -0.00237 0.02483 0.08174 -0.03685 0.14474 0.06157 
1413393277.115760384 0.17432 -0.14637 -0.02454 -0.00234 0.02483 0.08173 -0.03728 0.14554 0.06018 
1413393277.235760384 0.19566 -0.14377 0.01982 -0.00235 0.02482 0.08174 -0.03727 0.14546 0.06019 
1413393277.380760576 0.20515 -0.14399 0.04204 -0.00234 0.02482 0.08174 -0.03717 0.14562 0.06041 
1413393277.570760448 0.20845 -0.12261 0.07864 -0.00235 0.02483 0.08174 -0.03708 0.14547 0.06069 
1413393277.765760512 0.21515 -0.12644 -0.04053 -0.00234 0.02483 0.08173 -0.03716 0.14562 0.06042 
1413393277.975760384 0.14496 -0.18878 -0.12815 -0.00234 0.02483 0.08172 -0.03713 0.14556 0.06064 
1413393278.165760512 0.05388 -0.25309 -0.08132 -0.00236 0.02483 0.08173 -0.03700 0.14525 0.06051 
1413393278.315760384 0.01299 -0.28766 -0.05002 -0.00234 0.02482 0.08172 -0.03697 0.14539 0.06042 
1413393278.505760512 0.03128 -0.39458 -0.02235 -0.00234 0.02483 0.08172 -0.03687 0.14536 0.06054 
1413393278.660760576 0.04786 -0.53341 0.00332 -0.00234 0.02483 0.08171 -0.03693 0.14533 0.06049 
1413393278.865760512 0.07479 -0.63471 0.09100 -0.00235 0.02483 0.08171 -0.03714 0.14515 0.06009 
1413393279.110760448 0.09149 -0.57074 0.10004 -0.00235 0.02483 0.08170 -0.03734 0.14554 0.05996 
1413393279.315760384 0.12555 -0.49280 -0.11467 -0.00237 0.02482 0.08171 -0.03738 0.14544 0.05990 
1413393279.480760576 0.17780 -0.44168 -0.06672 -0.00232 0.02482 0.08169 -0.03755 0.14537 0.05967 
1413393279.620760576 0.23550 -0.39419 -0.00485 -0.00234 0.02481 0.08170 -0.03761 0.14533 0.05955 
1413393279.745760512 0.27473 -0.35213 -0.00101 -0.00234 0.02481 0.08170 -0.03759 0.14539 0.05954 
1413393279.885760512 0.28096 -0.30125 -0.04466 -0.00235 0.02481 0.08170 -0.03760 0.14531 0.05948 
1413393280.35760384 0.25275 -0.25009 -0.02719 -0.00236 0.02481 0.08171 -0.03756 0.14540 0.05928 
1413393280.230760448 0.20266 -0.20702 0.01597 -0.00238 0.02481 0.08172 -0.03752 0.14545 0.05929 
1413393280.420760576 0.14598 -0.22961 0.08699 -0.00237 0.02481 0.08173 -0.03749 0.14546 0.05931 
1413393280.705760512 0.01610 -0.37933 -0.08105 -0.00240 0.02481 0.08173 -0.03747 0.14552 0.05933 
1413393280.970760448 0.01204 -0.59317 -0.07392 -0.00237 0.02481 0.08173 -0.03749 0.14557 0.05923 
1413393281.140760576 0.05640 -0.70551 0.10242 -0.00239 0.02482 0.08173 -0.03744 0.14567 0.05933 
1413393281.345760512 0.09932 -0.67261 0.18816 -0.00235 0.02482 0.08172 -0.03719 0.14539 0.05933 
1413393281.470760448 0.09381 -0.61694 0.16389 -0.00234 0.02479 0.08171 -0.03688 0.14532 0.05933 
1413393281.710760448 0.12918 -0.52565 0.18028 -0.00235 0.02480 0.08172 -0.03631 0.14404 0.05923 
1413393281.930760448 0.08687 -0.42416 0.18868 -0.00233 0.02481 0.08172 -0.03607 0.14384 0.05903 
1413393282.260760576 0.06050 -0.40619 0.21129 -0.00238 0.02482 0.08175 -0.03582 0.14358 0.05901 
1413393282.410760448 0.08779 -0.44066 0.25606 -0.00238 0.02483 0.08175 -0.03575 0.14352 0.05902 
1413393282.610760448 0.11537 -0.40381 0.08792 -0.00239 0.02484 0.08175 -0.03568 0.14351 0.05901 
1413393282.770760448 0.10402 -0.31379 0.00895 -0.00238 0.02484 0.08174 -0.03546 0.14348 0.05903 
1413393282.915760384 0.06093 -0.24483 0.01204 -0.00238 0.02484 0.08174 -0.03544 0.14348 0.05902 
1413393283.170760448 0.05201 -0.16567 0.06960 -0.00238 0.02483 0.08175 -0.03533 0.14349 0.05900 
1413393283.425760512 0.12613 -0.06236 0.05390 -0.00238 0.02483 0.08173 -0.03516 0.14357 0.05910 
1413393283.580760576 0.15358 0.00387 -0.08447 -0.00241 0.02483 0.08174 -0.03500 0.14362 0.05921 
1413393283.695760384 0.16589 0.03306 -0.20491 -0.00241 0.02483 0.08173 -0.03495 0.14364 0.05926 
1413393283.810760448 0.18123 0.07075 -0.23750 -0.00239 0.02483 0.08173 -0.03492 0.14369 0.05916 
1413393283.985760512 0.15444 0.12938 -0.21482 -0.00241 0.02483 0.08173 -0.03483 0.14372 0.05933 
1413393284.90760448 0.14570 0.16039 -0.17583 -0.00240 0.02483 0.08173 -0.03478 0.14364 0.05938 
1413393284.315760384 0.12537 0.24967 -0.08426 -0.00238 0.02483 0.08172 -0.03470 0.14378 0.05958 
1413393284.515760384 0.08263 0.31147 -0.05623 -0.00240 0.02483 0.08172 -0.03471 0.14355 0.05966 
1413393284.635760384 0.04146 0.31936 -0.06150 -0.00241 0.02482 0.08171 -0.03456 0.14379 0.05995 
1413393284.815760384 0.02826 0.34231 -0.06135 -0.00241 0.02483 0.08172 -0.03454 0.14379 0.05991 
1413393284.965760512 0.06554 0.33682 -0.03524 -0.00240 0.02482 0.08171 -0.03443 0.14368 0.06038 
1413393285.215760384 0.13869 0.32606 -0.01352 -0.00239 0.02481 0.08169 -0.03410 0.14484 0.06143 
1413393285.460760576 0.22918 0.31958 0.01316 -0.00240 0.02481 0.08169 -0.03409 0.14491 0.06167 
1413393285.610760448 0.25138 0.32803 0.02428 -0.00238 0.02481 0.08170 -0.03425 0.14524 0.06115 
1413393285.860760576 0.24663 0.28334 0.06549 -0.00237 0.02479 0.08169 -0.03418 0.14661 0.06146 
1413393286.115760384 0.24027 0.27130 0.08802 -0.00237 0.02480 0.08168 -0.03405 0.14666 0.06176 
1413393286.320760576 0.27008 0.23209 -0.01068 -0.00238 0.02478 0.08167 -0.03320 0.14813 0.06399 
1413393286.525760512 0.28470 0.17062 -0.22379 -0.00238 0.02478 0.08166 -0.03308 0.14835 0.06427 
1413393286.765760512 0.27748 0.15886 -0.06873 -0.00238 0.02479 0.08167 -0.03327 0.14801 0.06406 
1413393287.10760448 0.12454 0.18658 0.04230 -0.00239 0.02480 0.08167 -0.03341 0.14769 0.06413 
1413393287.220760576 -0.05738 0.16637 0.07542 -0.00238 0.02479 0.08166 -0.03332 0.14768 0.06425 
1413393287.475760384 -0.14670 0.16570 0.14921 -0.00238 0.02478 0.08166 -0.03324 0.14801 0.06441 
1413393287.730760448 -0.13506 0.17181 0.15293 -0.00239 0.02478 0.08165 -0.03308 0.14822 0.06464 
1413393287.930760448 -0.11216 0.19485 0.10953 -0.00239 0.02478 0.08166 -0.03306 0.14814 0.06453 
1413393288.165760512 -0.03140 0.24813 0.04764 -0.00240 0.02478 0.08166 -0.03283 0.14848 0.06479 
1413393288.415760384 -0.04409 0.32187 0.01546 -0.00236 0.02477 0.08163 -0.03268 0.14878 0.06491 
1413393288.665760512 -0.04567 0.34037 -0.00035 -0.00240 0.02476 0.08163 -0.03258 0.14889 0.06496 
1413393288.920760576 -0.00382 0.31383 -0.07398 -0.00240 0.02477 0.08163 -0.03222 0.14843 0.06566 
1413393289.210760448 0.00201 0.27992 -0.18496 -0.00239 0.02477 0.08163 -0.03195 0.14862 0.06603 
1413393289.465760512 0.04047 0.25512 -0.04015 -0.00238 0.02477 0.08161 -0.03170 0.14831 0.06640 
1413393289.710760448 0.03121 0.23514 0.03071 -0.00238 0.02476 0.08161 -0.03155 0.14855 0.06641 
1413393289.970760448 -0.00571 0.21729 0.09127 -0.00240 0.02476 0.08161 -0.03150 0.14842 0.06652 
1413393290.230760448 0.01780 0.15697 -0.14705 -0.00241 0.02475 0.08162 -0.03142 0.14871 0.06617 
1413393290.470760448 -0.00764 0.12959 -0.22871 -0.00242 0.02476 0.08163 -0.03128 0.14846 0.06639 
1413393290.760760576 -0.06735 0.16061 -0.19869 -0.00243 0.02476 0.08163 -0.03130 0.14870 0.06624 
1413393291.15760384 -0.10772 0.20037 -0.23354 -0.00239 0.02477 0.08161 -0.03121 0.14845 0.06613 
1413393291.220760576 -0.04717 0.24911 -0.23124 -0.00239 0.02478 0.08161 -0.03113 0.14843 0.06622 
1413393291.460760576 0.04426 0.23700 -0.20126 -0.00237 0.02478 0.08160 -0.03109 0.14835 0.06616 
1413393291.635760384 0.04799 0.23652 -0.11135 -0.00235 0.02478 0.08160 -0.03099 0.14831 0.06648 
1413393291.820760576 0.02132 0.21976 0.00827 -0.00234 0.02479 0.08158 -0.03102 0.14816 0.06630 
1413393292.65760512 -0.01402 0.15820 0.25163 -0.00232 0.02478 0.08158 -0.03092 0.14814 0.06614 
1413393292.235760384 -0.02845 0.10134 0.21924 -0.00228 0.02479 0.08157 -0.03100 0.14753 0.06571 
1413393292.480760576 -0.00765 -0.01268 0.15237 -0.00228 0.02480 0.08156 -0.03097 0.14727 0.06552 
1413393292.610760448 0.00774 -0.07992 0.14150 -0.00226 0.02480 0.08156 -0.03100 0.14740 0.06557 
1413393292.810760448 -0.00490 -0.15582 0.13737 -0.00228 0.02480 0.08157 -0.03101 0.14743 0.06575 
1413393292.945760512 -0.01155 -0.23569 0.16087 -0.00228 0.02480 0.08157 -0.03103 0.14754 0.06582 
1413393293.85760512 -0.00474 -0.28601 0.15500 -0.00226 0.02480 0.08156 -0.03112 0.14743 0.06606 
1413393293.315760384 0.01874 -0.34441 0.10038 -0.00226 0.02479 0.08155 -0.03125 0.14739 0.06617 
1413393293.515760384 0.04516 -0.34169 -0.08219 -0.00224 0.02479 0.08155 -0.03116 0.14767 0.06656 
1413393293.770760448 0.07100 -0.34508 -0.02913 -0.00221 0.02478 0.08154 -0.03133 0.14773 0.06662 
1413393294.15760384 0.01924 -0.42322 0.05377 -0.00221 0.02478 0.08154 -0.03131 0.14787 0.06658 
1413393294.165760512 -0.01149 -0.46544 0.10738 -0.00222 0.02477 0.08154 -0.03129 0.14791 0.06669 
1413393294.360760576 0.00298 -0.52295 0.07439 -0.00224 0.02477 0.08154 -0.03113 0.14815 0.06684 
1413393294.560760576 -0.01131 -0.57774 0.06688 -0.00222 0.02476 0.08153 -0.03110 0.14821 0.06687 
1413393294.765760512 -0.03504 -0.61046 0.04960 -0.00223 0.02476 0.08153 -0.03143 0.14848 0.06567 
1413393294.920760576 -0.04281 -0.59112 0.06969 -0.00220 0.02476 0.08151 -0.03138 0.14886 0.06569 
1413393295.35760384 -0.04260 -0.57794 0.08866 -0.00218 0.02475 0.08150 -0.03129 0.14888 0.06588 
1413393295.175760384 -0.06936 -0.56492 0.09453 -0.00221 0.02475 0.08151 -0.03121 0.14881 0.06597 
1413393295.365760512 -0.10469 -0.55324 0.10531 -0.00222 0.02475 0.08151 -0.03113 0.14865 0.06595 
1413393295.510760448 -0.11673 -0.50142 0.09304 -0.00220 0.02475 0.08150 -0.03109 0.14873 0.06597 
1413393295.670760448 -0.06793 -0.43205 -0.03435 -0.00223 0.02475 0.08152 -0.03115 0.14907 0.06563 
1413393295.770760448 -0.06299 -0.39404 -0.11795 -0.00222 0.02475 0.08151 -0.03109 0.14898 0.06562 
1413393295.965760512 -0.06829 -0.30853 -0.05453 -0.00223 0.02475 0.08152 -0.03105 0.14893 0.06568 
1413393296.140760576 -0.14839 -0.33696 0.02018 -0.00221 0.02476 0.08151 -0.03106 0.14890 0.06555 
1413393296.365760512 -0.25406 -0.38932 0.06336 -0.00221 0.02476 0.08151 -0.03087 0.14917 0.06562 
1413393296.565760512 -0.27125 -0.39566 -0.11748 -0.00222 0.02476 0.08151 -0.03085 0.14913 0.06562 
1413393296.740760576 -0.28150 -0.35167 -0.22829 -0.00221 0.02475 0.08151 -0.03078 0.14917 0.06558 
1413393296.920760576 -0.30884 -0.25978 -0.16385 -0.00223 0.02477 0.08151 -0.03083 0.14918 0.06552 
1413393297.165760512 -0.32688 -0.17830 -0.11513 -0.00225 0.02478 0.08151 -0.03086 0.14923 0.06563 
1413393297.355760384 -0.32566 -0.10616 -0.09223 -0.00224 0.02478 0.08150 -0.03088 0.14914 0.06548 
1413393297.520760576 -0.32493 -0.03930 -0.07875 -0.00227 0.02478 0.08150 -0.03091 0.14921 0.06548 
1413393297.810760448 -0.30397 0.03386 -0.07343 -0.00225 0.02478 0.08149 -0.03082 0.14907 0.06566 
1413393298.10760448 -0.24960 0.09557 -0.06835 -0.00224 0.02478 0.08149 -0.03079 0.14906 0.06566 
1413393298.240760576 -0.18956 0.18584 -0.08016 -0.00225 0.02478 0.08149 -0.03074 0.14891 0.06559 
1413393298.350760448 -0.20388 0.21073 -0.07858 -0.00224 0.02477 0.08149 -0.03073 0.14887 0.06558 
1413393298.520760576 -0.29014 0.20267 -0.05889 -0.00223 0.02478 0.08149 -0.03069 0.14895 0.06555 
1413393298.670760448 -0.36623 0.15571 -0.04947 -0.00220 0.02478 0.08148 -0.03065 0.14893 0.06557 
1413393298.820760576 -0.38673 0.14193 -0.02648 -0.00220 0.02477 0.08148 -0.03067 0.14888 0.06557 
1413393298.930760448 -0.37415 0.15220 -0.01231 -0.00220 0.02477 0.08147 -0.03070 0.14887 0.06554 
1413393299.180760576 -0.35422 0.20014 0.03821 -0.00220 0.02477 0.08146 -0.03069 0.14898 0.06543 
1413393299.320760576 -0.35542 0.15987 0.06124 -0.00223 0.02477 0.08148 -0.03067 0.14888 0.06544 
1413393299.490760448 -0.30840 0.05926 0.03385 -0.00223 0.02477 0.08148 -0.03059 0.14885 0.06540 
1413393299.730760448 -0.21594 -0.02110 0.06990 -0.00225 0.02477 0.08148 -0.03066 0.14878 0.06531 
1413393299.960760576 -0.14954 -0.05636 0.09722 -0.00226 0.02477 0.08147 -0.03066 0.14905 0.06533 
1413393300.210760448 -0.20225 -0.13141 0.09104 -0.00225 0.02477 0.08146 -0.03059 0.14909 0.06540 
1413393300.380760576 -0.22982 -0.15642 0.10935 -0.00226 0.02477 0.08146 -0.03053 0.14920 0.06545 
1413393300.480760576 -0.22531 -0.13025 0.13771 -0.00227 0.02477 0.08145 -0.03052 0.14916 0.06550 
1413393300.670760448 -0.16357 -0.05363 0.12648 -0.00226 0.02477 0.08144 -0.03050 0.14895 0.06533 
1413393300.965760512 -0.12665 0.00565 -0.09113 -0.00225 0.02477 0.08144 -0.03050 0.14889 0.06531 
1413393301.160760576 -0.12848 -0.03246 -0.26225 -0.00226 0.02477 0.08143 -0.03037 0.14892 0.06546 
1413393301.315760384 -0.09149 -0.09215 -0.25035 -0.00225 0.02477 0.08143 -0.03049 0.14923 0.06548 
1413393301.430760448 -0.01961 -0.13600 -0.22061 -0.00225 0.02475 0.08142 -0.03041 0.14943 0.06558 
1413393301.585760512 0.05818 -0.18209 -0.17700 -0.00228 0.02474 0.08143 -0.03044 0.14978 0.06529 
1413393301.810760448 0.08766 -0.22741 -0.11977 -0.00229 0.02473 0.08143 -0.03038 0.14993 0.06540 
1413393302.10760448 0.07356 -0.28994 -0.08611 -0.00226 0.02473 0.08141 -0.03041 0.14981 0.06542 
1413393302.170760448 0.03667 -0.35345 -0.04134 -0.00227 0.02474 0.08142 -0.03047 0.15011 0.06551 
1413393302.320760576 0.02177 -0.39337 -0.02197 -0.00228 0.02475 0.08142 -0.03053 0.14984 0.06556 
1413393302.515760384 0.01380 -0.40738 0.04136 -0.00228 0.02475 0.08143 -0.03068 0.14960 0.06542 
1413393302.630760448 0.00923 -0.39597 0.07490 -0.00228 0.02475 0.08142 -0.03065 0.14948 0.06574 
1413393302.860760576 -0.01128 -0.33229 0.15706 -0.00230 0.02474 0.08142 -0.03071 0.14905 0.06587 
1413393303.20760576 -0.03830 -0.26947 0.17858 -0.00231 0.02475 0.08142 -0.03072 0.14886 0.06607 
1413393303.180760576 -0.04768 -0.21700 0.18850 -0.00231 0.02475 0.08142 -0.03072 0.14879 0.06622 
1413393303.415760384 -0.06501 -0.18432 0.20244 -0.00232 0.02475 0.08143 -0.03065 0.14878 0.06623 
1413393303.620760576 -0.09716 -0.21197 0.26670 -0.00233 0.02475 0.08142 -0.03063 0.14872 0.06636 
1413393303.860760576 -0.08621 -0.25898 0.28484 -0.00232 0.02475 0.08143 -0.03061 0.14886 0.06634 
1413393304.110760448 -0.07087 -0.20402 0.03509 -0.00232 0.02475 0.08142 -0.03054 0.14847 0.06652 
1413393304.265760512 -0.09746 -0.16111 -0.11897 -0.00232 0.02475 0.08142 -0.03056 0.14848 0.06645 
1413393304.515760384 -0.18229 -0.14228 -0.12060 -0.00227 0.02476 0.08140 -0.03072 0.14855 0.06669 
1413393304.665760512 -0.21930 -0.15230 -0.09232 -0.00227 0.02476 0.08140 -0.03076 0.14877 0.06711 
1413393304.770760448 -0.24179 -0.18062 -0.06650 -0.00227 0.02476 0.08140 -0.03078 0.14890 0.06748 
1413393305.20760576 -0.26236 -0.20131 -0.03749 -0.00228 0.02476 0.08140 -0.03083 0.14892 0.06773 
1413393305.215760384 -0.29429 -0.19588 0.03967 -0.00229 0.02476 0.08140 -0.03084 0.14884 0.06790 
1413393305.420760576 -0.31874 -0.24084 0.06629 -0.00230 0.02476 0.08140 -0.03098 0.14881 0.06787 
1413393305.615760384 -0.34590 -0.28225 0.09870 -0.00231 0.02476 0.08141 -0.03101 0.14876 0.06790 
1413393305.810760448 -0.39010 -0.29933 0.16205 -0.00231 0.02476 0.08141 -0.03140 0.14888 0.06699 
1413393306.75760384 -0.42987 -0.45285 0.16297 -0.00230 0.02476 0.08140 -0.03139 0.14905 0.06690 
1413393306.280760576 -0.43452 -0.52087 0.15932 -0.00229 0.02476 0.08139 -0.03136 0.14905 0.06693 
1413393306.465760512 -0.43719 -0.51002 0.07025 -0.00227 0.02475 0.08138 -0.03137 0.14888 0.06681 
1413393306.720760576 -0.45839 -0.44708 -0.08124 -0.00228 0.02475 0.08139 -0.03145 0.14883 0.06691 
1413393307.15760384 -0.38398 -0.26836 0.02299 -0.00231 0.02475 0.08139 -0.03138 0.14880 0.06694 
1413393307.225760512 -0.34366 -0.13051 0.03470 -0.00230 0.02475 0.08138 -0.03136 0.14863 0.06675 
1413393307.435760384 -0.32811 -0.05575 0.07201 -0.00230 0.02476 0.08138 -0.03137 0.14885 0.06656 
1413393307.670760448 -0.33423 -0.00796 0.11288 -0.00229 0.02475 0.08137 -0.03117 0.14906 0.06686 
1413393307.925760512 -0.39724 0.05653 0.13594 -0.00228 0.02475 0.08137 -0.03129 0.14888 0.06616 
1413393308.125760512 -0.45198 0.04858 0.13409 -0.00228 0.02475 0.08137 -0.03145 0.14863 0.06553 
1413393308.310760448 -0.50604 0.02653 0.14894 -0.00227 0.02475 0.08136 -0.03139 0.14854 0.06563 
1413393308.565760512 -0.50357 -0.01052 0.03151 -0.00228 0.02475 0.08136 -0.03102 0.14829 0.06658 
1413393308.760760576 -0.45654 0.03396 -0.09598 -0.00230 0.02475 0.08137 -0.03109 0.14774 0.06616 
1413393308.960760576 -0.36017 0.05657 -0.18017 -0.00230 0.02475 0.08137 -0.03120 0.14768 0.06572 
1413393309.160760576 -0.27109 0.03415 -0.12319 -0.00231 0.02475 0.08136 -0.03121 0.14671 0.06528 
1413393309.320760576 -0.22051 0.00495 -0.08028 -0.00230 0.02475 0.08136 -0.03108 0.14643 0.06518 
1413393309.510760448 -0.23723 -0.00839 -0.01518 -0.00229 0.02475 0.08135 -0.03078 0.14821 0.06544 
1413393309.710760448 -0.25861 0.02048 0.02099 -0.00227 0.02476 0.08136 -0.03069 0.14832 0.06510 
1413393309.905760512 -0.23967 0.09388 0.03964 -0.00226 0.02476 0.08136 -0.03058 0.14796 0.06495 
1413393310.110760448 -0.12521 0.16475 0.05980 -0.00227 0.02476 0.08136 -0.03049 0.14810 0.06462 
1413393310.215760384 -0.07186 0.18910 0.07372 -0.00227 0.02476 0.08136 -0.03055 0.14818 0.06419 
1413393310.465760512 -0.07109 0.21185 0.04220 -0.00225 0.02477 0.08135 -0.03041 0.14822 0.06421 
1413393310.680760576 -0.07455 0.20940 0.02584 -0.00224 0.02477 0.08135 -0.03012 0.14823 0.06445 
1413393310.820760576 -0.02478 0.21126 0.02217 -0.00222 0.02477 0.08134 -0.03010 0.14781 0.06427 
1413393311.80760576 0.08163 0.25456 -0.05186 -0.00222 0.02477 0.08133 -0.03012 0.14798 0.06370 
1413393311.265760512 0.07536 0.29335 -0.24004 -0.00218 0.02478 0.08132 -0.03004 0.14833 0.06384 
1413393311.460760576 0.08631 0.36963 -0.20014 -0.00218 0.02478 0.08133 -0.02997 0.14843 0.06397 
1413393311.675760384 0.06959 0.45368 -0.08632 -0.00218 0.02477 0.08131 -0.02926 0.14938 0.06589 
1413393312.10760448 -0.01727 0.48169 -0.01868 -0.00214 0.02476 0.08129 -0.02919 0.14928 0.06566 
1413393312.360760576 -0.10552 0.38664 -0.00802 -0.00214 0.02475 0.08129 -0.02922 0.14901 0.06560 
1413393312.605760512 -0.03187 0.35802 0.02364 -0.00214 0.02475 0.08129 -0.02918 0.14899 0.06562 
1413393312.815760384 -0.00128 0.33595 0.02170 -0.00214 0.02475 0.08128 -0.02906 0.14907 0.06579 
1413393313.65760512 0.00146 0.26558 0.07474 -0.00217 0.02474 0.08129 -0.02900 0.14895 0.06599 
1413393313.295760384 -0.02310 0.25042 0.11102 -0.00219 0.02475 0.08130 -0.02900 0.14894 0.06599 
1413393313.525760512 0.01909 0.27259 0.09676 -0.00223 0.02474 0.08131 -0.02894 0.14884 0.06590 
1413393313.765760512 0.14412 0.15826 0.06325 -0.00224 0.02473 0.08131 -0.02900 0.14885 0.06572 
1413393313.910760448 0.20224 0.02826 0.03752 -0.00222 0.02472 0.08130 -0.02888 0.14907 0.06553 
1413393314.135760384 0.22077 -0.01477 0.05960 -0.00222 0.02472 0.08130 -0.02861 0.14902 0.06552 
1413393314.320760576 0.19767 0.03277 0.08140 -0.00220 0.02472 0.08130 -0.02848 0.14905 0.06548 
1413393314.620760576 0.09434 0.08854 0.03800 -0.00220 0.02471 0.08131 -0.02841 0.14903 0.06486 
1413393314.870760448 0.00141 0.16967 -0.00093 -0.00221 0.02471 0.08131 -0.02839 0.14918 0.06476 
1413393315.115760384 -0.06237 0.28293 -0.03298 -0.00219 0.02470 0.08129 -0.02824 0.14940 0.06475 
1413393315.305760512 -0.10766 0.35851 -0.06500 -0.00218 0.02471 0.08129 -0.02819 0.14954 0.06488 
1413393315.470760448 -0.19150 0.34287 -0.08577 -0.00218 0.02469 0.08129 -0.02783 0.15019 0.06536 
1413393315.625760512 -0.30337 0.29069 -0.01910 -0.00215 0.02469 0.08127 -0.02774 0.15013 0.06549 
1413393315.810760448 -0.37998 0.21109 0.23362 -0.00216 0.02470 0.08127 -0.02788 0.15021 0.06519 
1413393315.975760384 -0.37216 0.17548 0.29108 -0.00215 0.02471 0.08127 -0.02787 0.15017 0.06527 
1413393316.100760576 -0.37108 0.16063 0.30812 -0.00215 0.02471 0.08127 -0.02790 0.15018 0.06526 
1413393316.275760384 -0.37464 0.12848 0.36226 -0.00216 0.02472 0.08127 -0.02793 0.14986 0.06528 
1413393316.420760576 -0.39104 0.09526 0.37199 -0.00216 0.02472 0.08127 -0.02790 0.14970 0.06545 
1413393316.645760512 -0.40831 0.08183 0.33488 -0.00217 0.02473 0.08127 -0.02791 0.14956 0.06548 
1413393316.770760448 -0.41854 0.08775 0.22518 -0.00217 0.02473 0.08127 -0.02788 0.14951 0.06554 
1413393316.960760576 -0.42741 0.10267 -0.00646 -0.00217 0.02474 0.08126 -0.02783 0.14948 0.06563 
1413393317.130760448 -0.44432 0.09728 -0.08904 -0.00219 0.02474 0.08127 -0.02786 0.14945 0.06553 
1413393317.280760576 -0.45198 0.06197 -0.06256 -0.00217 0.02474 0.08126 -0.02783 0.14934 0.06561 
1413393317.465760512 -0.44909 -0.01506 -0.06664 -0.00221 0.02475 0.08127 -0.02771 0.14874 0.06589 
1413393317.710760448 -0.46172 -0.12087 -0.29080 -0.00222 0.02475 0.08128 -0.02766 0.14868 0.06596 
1413393317.865760512 -0.44227 -0.17479 -0.25277 -0.00221 0.02475 0.08127 -0.02769 0.14865 0.06598 
1413393318.60760576 -0.45745 -0.22299 -0.26128 -0.00220 0.02476 0.08127 -0.02784 0.14843 0.06574 
1413393318.315760384 -0.47475 -0.22315 -0.30021 -0.00216 0.02476 0.08126 -0.02808 0.14833 0.06528 
1413393318.510760448 -0.42183 -0.20539 -0.34026 -0.00217 0.02476 0.08126 -0.02812 0.14831 0.06539 
1413393318.760760576 -0.32273 -0.17238 -0.25971 -0.00216 0.02476 0.08126 -0.02822 0.14837 0.06538 
1413393319.20760576 -0.21461 -0.21503 -0.12566 -0.00220 0.02475 0.08127 -0.02818 0.14837 0.06587 
1413393319.225760512 -0.13066 -0.27290 -0.04627 -0.00220 0.02474 0.08126 -0.02808 0.14800 0.06629 
1413393319.410760448 -0.07276 -0.26134 -0.14059 -0.00219 0.02474 0.08126 -0.02803 0.14778 0.06665 
1413393319.555760384 -0.03927 -0.19008 -0.21567 -0.00219 0.02474 0.08126 -0.02848 0.14860 0.06553 
1413393319.765760512 0.01834 -0.05360 -0.23840 -0.00218 0.02473 0.08126 -0.02842 0.14879 0.06602 
1413393320.110760448 -0.01146 0.03875 -0.33791 -0.00219 0.02474 0.08126 -0.02866 0.14900 0.06541 
1413393320.365760512 -0.06780 -0.01739 -0.13815 -0.00218 0.02474 0.08125 -0.02859 0.14880 0.06534 
1413393320.565760512 -0.11646 0.00733 -0.00598 -0.00219 0.02476 0.08127 -0.02917 0.14883 0.06375 
1413393320.680760576 -0.14532 0.03553 -0.26574 -0.00218 0.02476 0.08126 -0.02864 0.14862 0.06536 
1413393320.815760384 -0.13310 0.02434 -0.48874 -0.00219 0.02477 0.08126 -0.02870 0.14861 0.06520 
1413393321.10760448 0.04592 -0.02860 -0.03346 -0.00219 0.02476 0.08127 -0.02868 0.14863 0.06519 
1413393321.220760576 -0.03931 0.02391 0.13835 -0.00220 0.02476 0.08127 -0.02863 0.14863 0.06535 
1413393321.365760512 0.05679 0.03987 0.11443 -0.00220 0.02476 0.08127 -0.02847 0.14873 0.06582 
1413393321.580760576 -0.03003 0.05600 -0.00401 -0.00220 0.02476 0.08127 -0.02839 0.14877 0.06606 
1413393321.820760576 -0.00658 0.01562 0.00649 -0.00219 0.02473 0.08126 -0.02827 0.14886 0.06609 
1413393322.70760448 -0.01499 0.01971 0.01207 -0.00219 0.02473 0.08126 -0.02797 0.14851 0.06694 
1413393322.285760512 -0.00881 0.00854 0.01321 -0.00218 0.02473 0.08126 -0.02724 0.14754 0.06892 
1413393322.460760576 -0.01774 0.00279 0.01489 -0.00217 0.02473 0.08125 -0.02701 0.14705 0.06953 
1413393322.665760512 -0.01423 0.00222 0.01821 -0.00216 0.02473 0.08125 -0.02673 0.14632 0.07016 
1413393322.830760448 -0.01349 0.00376 0.01640 -0.00215 0.02473 0.08125 -0.02658 0.14581 0.07042 
1413393323.15760384 -0.01195 0.00172 0.01249 -0.00214 0.02473 0.08125 -0.02644 0.14518 0.07053 
1413393323.165760512 -0.00816 0.00017 0.00939 -0.00214 0.02473 0.08125 -0.02632 0.14496 0.07069 
1413393323.315760384 -0.01084 0.00235 0.00855 -0.00213 0.02473 0.08124 -0.02629 0.14491 0.07065 
1413393323.425760512 -0.01371 0.00549 0.00330 -0.00213 0.02473 0.08124 -0.02627 0.14488 0.07067 
1413393323.620760576 -0.01520 0.00637 0.00427 -0.00213 0.02473 0.08124 -0.02622 0.14474 0.07073 
1413393323.845760512 -0.01787 0.00871 0.01466 -0.00212 0.02473 0.08124 -0.02625 0.14471 0.07068 
1413393324.30760448 -0.01488 0.00895 0.01835 -0.00211 0.02473 0.08123 -0.02622 0.14471 0.07063 
1413393324.280760576 -0.00832 0.00629 0.01442 -0.00211 0.02472 0.08123 -0.02605 0.14500 0.07076 
1413393324.520760576 -0.00909 0.00888 0.01378 -0.00211 0.02472 0.08123 -0.02595 0.14521 0.07084 
1413393324.735760384 -0.00793 0.01188 0.01358 -0.00211 0.02472 0.08123 -0.02590 0.14521 0.07083 
1413393324.840760576 -0.00723 0.01328 0.01286 -0.00211 0.02472 0.08123 -0.02587 0.14524 0.07084 
1413393325.25760512 -0.00729 0.01204 0.00615 -0.00211 0.02472 0.08123 -0.02577 0.14521 0.07093 
1413393325.165760512 -0.00689 0.01299 0.00515 -0.00210 0.02472 0.08123 -0.02574 0.14533 0.07093 
1413393325.315760384 -0.00202 0.01667 0.00539 -0.00210 0.02472 0.08123 -0.02576 0.14540 0.07086 
1413393325.540760576 -0.00157 0.01651 0.00934 -0.00210 0.02472 0.08123 -0.02580 0.14561 0.07068 
1413393325.680760576 -0.00095 0.02003 0.01416 -0.00210 0.02472 0.08123 -0.02583 0.14566 0.07057 
1413393325.865760512 -0.00883 0.01874 0.01378 -0.00210 0.02472 0.08124 -0.02573 0.14552 0.07071 
1413393326.65760512 -0.01075 0.02218 0.01635 -0.00210 0.02472 0.08124 -0.02562 0.14553 0.07088 
