1548147006.212156928 -0.00245 -0.00014 0.00289 0.00000 0.00000 0.00000 0.00000 0.00000 0.00000 
1548147006.501097216 0.01252 -0.00048 0.03055 -0.00026 0.00031 -0.00006 -0.00002 0.00000 -0.00000 
1548147006.760136960 -0.01165 -0.00772 0.00416 -0.00073 0.00089 -0.00043 0.00918 0.00005 -0.00047 
1548147007.49086976 -0.00878 0.00637 0.00152 -0.00065 0.00091 -0.00022 0.01635 -0.00005 0.00124 
1548147007.303156992 -0.02050 0.00126 0.00981 -0.00064 0.00091 -0.00018 0.00684 -0.00006 0.00062 
1548147007.557227008 0.00609 0.00552 -0.00009 -0.00063 0.00092 -0.00015 0.01942 -0.00012 0.00230 
1548147007.851137280 -0.03749 0.01723 0.00167 -0.00066 0.00092 -0.00016 0.01889 -0.00007 0.00232 
1548147008.105207040 -0.01146 -0.00436 -0.00155 -0.00066 0.00091 -0.00014 0.02173 -0.00005 0.00266 
1548147008.359277056 -0.03105 -0.01317 0.01443 -0.00067 0.00091 -0.00010 0.00957 -0.00000 0.00120 
1548147008.648227072 -0.01204 0.00206 0.00258 -0.00068 0.00095 -0.00013 0.01837 -0.00011 0.00220 
1548147008.902307072 -0.00726 -0.00476 0.00308 -0.00067 0.00094 -0.00013 0.01777 -0.00009 0.00216 
1548147009.201217024 0.00324 0.00129 0.00027 -0.00069 0.00093 -0.00011 0.01976 -0.00009 0.00241 
1548147009.470226944 0.00587 -0.00427 -0.01398 -0.00068 0.00093 -0.00012 0.02654 -0.00011 0.00326 
1548147009.749207040 -0.00081 -0.01030 -0.00552 -0.00068 0.00093 -0.00011 0.02240 -0.00008 0.00275 
1548147009.958436864 -0.01512 -0.00488 0.00994 -0.00068 0.00094 -0.00012 0.01522 -0.00005 0.00187 
1548147010.247376896 -0.00891 0.00259 -0.00237 -0.00067 0.00096 -0.00011 0.02079 -0.00008 0.00256 
1548147010.501436928 -0.00243 -0.00131 -0.00043 -0.00067 0.00097 -0.00012 0.01985 -0.00007 0.00244 
1548147010.755516928 0.00266 0.00049 -0.00284 -0.00068 0.00096 -0.00012 0.02071 -0.00008 0.00255 
1548147010.999616768 0.00231 -0.00099 -0.00113 -0.00069 0.00096 -0.00011 0.01983 -0.00007 0.00244 
1548147011.258686976 -0.01086 0.00292 0.00397 -0.00069 0.00096 -0.00012 0.01811 -0.00007 0.00223 
1548147011.507777024 -0.00590 0.00942 0.01844 -0.00069 0.00095 -0.00012 0.01327 -0.00005 0.00164 
1548147011.796717056 -0.00727 -0.00128 0.00412 -0.00069 0.00096 -0.00012 0.01824 -0.00007 0.00225 
1548147012.50787072 0.01921 -0.00503 -0.00956 -0.00070 0.00096 -0.00012 0.02238 -0.00008 0.00276 
1548147012.304857088 0.00042 -0.00279 0.00281 -0.00070 0.00096 -0.00012 0.01854 -0.00007 0.00228 
1548147012.593807104 0.01097 0.00457 -0.00177 -0.00070 0.00096 -0.00013 0.02008 -0.00007 0.00247 
1548147012.847877120 0.00481 0.00229 -0.00116 -0.00070 0.00097 -0.00013 0.01993 -0.00007 0.00245 
1548147013.121876992 0.01177 -0.00048 0.00175 -0.00070 0.00097 -0.00014 0.01918 -0.00006 0.00236 
1548147013.395856896 -0.01192 0.00116 0.00529 -0.00070 0.00098 -0.00014 0.01808 -0.00006 0.00223 
1548147013.649906944 -0.00988 0.00136 0.00351 -0.00071 0.00098 -0.00013 0.01861 -0.00006 0.00229 
1548147013.903976960 -0.00786 0.00066 -0.00217 -0.00071 0.00098 -0.00013 0.02010 -0.00007 0.00247 
1548147014.192926976 -0.00097 0.00010 0.00154 -0.00071 0.00096 -0.00013 0.01921 -0.00006 0.00236 
1548147014.446987008 0.00512 0.00117 0.00088 -0.00072 0.00097 -0.00013 0.01962 -0.00006 0.00241 
1548147014.706036736 0.00553 0.00063 -0.00198 -0.00071 0.00097 -0.00012 0.02016 -0.00007 0.00248 
1548147014.994967040 0.00485 0.00339 0.00511 -0.00070 0.00097 -0.00012 0.01872 -0.00006 0.00230 
1548147015.249016832 -0.00207 -0.00252 0.00478 -0.00071 0.00097 -0.00013 0.01881 -0.00006 0.00231 
1548147015.503076864 0.02073 -0.00285 0.00017 -0.00071 0.00098 -0.00013 0.01984 -0.00006 0.00244 
1548147015.792006656 -0.00681 -0.00374 0.00027 -0.00070 0.00097 -0.00013 0.01954 -0.00006 0.00241 
1548147016.46066688 -0.10741 0.00895 0.01582 -0.00076 0.00104 -0.00012 0.01972 -0.00006 0.00242 
1548147016.195516928 -0.12840 -0.01392 0.03417 -0.00078 0.00108 -0.00010 0.01868 -0.00007 0.00229 
1548147016.454556928 -0.21371 0.01759 0.04896 -0.00062 0.00095 -0.00009 0.01995 -0.00007 0.00244 
1548147016.743486976 -0.15213 0.00398 0.01285 -0.00064 0.00077 -0.00017 0.02261 0.00011 0.00417 
1548147016.952716800 -0.28079 -0.05535 -0.01003 -0.00067 0.00090 -0.00007 0.02322 -0.00050 0.00237 
1548147017.201806848 -0.37625 -0.00584 0.04797 -0.00068 0.00090 -0.00017 0.01851 0.00026 0.00204 
1548147017.490736640 -0.20831 0.00780 0.01727 -0.00076 0.00081 -0.00018 0.01374 0.00073 0.06195 
1548147017.645156864 -0.22266 0.01484 0.01462 -0.00073 0.00068 -0.00015 0.00811 0.00043 0.10315 
1548147017.799586816 -0.12813 0.00960 0.03567 -0.00067 0.00065 -0.00013 0.00179 0.00135 0.14433 
1548147018.93496832 -0.03521 0.02321 0.06653 -0.00069 0.00074 -0.00012 -0.00202 0.00191 0.17401 
1548147018.342576640 -0.29645 0.01300 0.05647 -0.00068 0.00093 -0.00008 -0.00330 0.00511 0.16621 
1548147018.596636672 -0.15350 0.06975 0.02008 -0.00069 0.00096 -0.00019 -0.00002 0.00862 0.16415 
1548147018.795896832 -0.12118 0.01547 0.04133 -0.00073 0.00110 -0.00012 0.00445 0.00486 0.13183 
1548147019.39996928 -0.02103 -0.00706 0.03997 -0.00074 0.00121 -0.00012 0.00751 0.00687 0.11526 
1548147019.294056704 -0.18976 -0.00327 0.03459 -0.00071 0.00126 -0.00015 0.01146 0.00934 0.07460 
1548147019.548116736 -0.18999 0.00825 0.03542 -0.00061 0.00128 -0.00016 0.02277 0.01035 -0.01336 
1548147019.842026752 -0.12650 0.01100 0.01350 -0.00065 0.00138 -0.00014 0.02820 0.01092 -0.05299 
1548147020.61236736 -0.11186 0.01331 -0.02128 -0.00087 0.00168 -0.00003 0.03002 0.00804 -0.04748 
1548147020.340216576 -0.24570 -0.01657 0.01661 -0.00069 0.00135 -0.00009 0.03466 0.00509 -0.11386 
1548147020.594286592 -0.17581 0.01152 0.02549 -0.00069 0.00122 -0.00018 0.02522 0.01102 -0.03542 
1548147020.848366848 -0.03138 -0.00134 0.02567 -0.00078 0.00137 -0.00015 0.02559 0.00214 -0.02694 
1548147021.142306816 0.13898 -0.00211 0.07855 -0.00073 0.00146 -0.00016 0.02787 0.00423 -0.04456 
1548147021.296746752 0.28795 0.04509 0.05522 -0.00063 0.00147 -0.00021 0.03375 0.01130 -0.10835 
1548147021.590686720 0.06042 0.02186 0.03565 -0.00067 0.00140 -0.00019 0.03906 0.01825 -0.16678 
1548147021.839786752 0.01263 0.02036 0.03083 -0.00069 0.00143 -0.00019 0.04134 0.02083 -0.18931 
1548147022.93866496 0.01704 0.01875 0.01951 -0.00068 0.00146 -0.00019 0.04539 0.02523 -0.22618 
1548147022.342966784 0.01098 0.01572 0.01495 -0.00067 0.00149 -0.00019 0.04669 0.02700 -0.23798 
1548147022.587066624 -0.00437 0.01344 0.01053 -0.00066 0.00151 -0.00019 0.04753 0.02851 -0.24521 
1548147022.841126656 -0.01582 0.01498 0.00979 -0.00066 0.00151 -0.00019 0.04759 0.02862 -0.24555 
1548147023.95206656 -0.02522 0.01513 0.00836 -0.00067 0.00149 -0.00019 0.04779 0.02892 -0.24676 
1548147023.344276736 -0.02938 0.01363 0.00506 -0.00068 0.00147 -0.00019 0.04812 0.02935 -0.24900 
1548147023.598346752 -0.02058 0.01162 0.00113 -0.00067 0.00139 -0.00021 0.04868 0.03069 -0.25353 
1548147023.887296768 -0.02953 0.01410 -0.00023 -0.00066 0.00139 -0.00021 0.04872 0.03079 -0.25383 
1548147024.96516608 -0.02929 0.01296 -0.00183 -0.00066 0.00135 -0.00021 0.04882 0.03107 -0.25489 
1548147024.385456640 -0.03511 0.01680 -0.00215 -0.00066 0.00134 -0.00021 0.04887 0.03115 -0.25535 
1548147024.639526656 -0.03878 0.01929 -0.00306 -0.00065 0.00133 -0.00021 0.04889 0.03121 -0.25571 
1548147024.883636736 -0.03934 0.01900 -0.00457 -0.00065 0.00131 -0.00021 0.04894 0.03129 -0.25643 
1548147025.137706496 -0.02715 0.00795 -0.00492 -0.00063 0.00124 -0.00019 0.04890 0.03151 -0.25740 
1548147025.396766720 -0.01357 0.01134 -0.00874 -0.00064 0.00119 -0.00021 0.04925 0.03210 -0.26136 
1548147025.640876544 0.24525 0.02497 -0.00022 -0.00060 0.00121 -0.00022 0.04923 0.03250 -0.26159 
1548147025.845136640 0.25988 0.02028 -0.00939 -0.00055 0.00135 -0.00022 0.05157 0.03329 -0.28549 
1548147026.134086656 0.41209 0.01662 -0.02841 -0.00065 0.00139 -0.00017 0.05344 0.03154 -0.30302 
1548147026.383176448 0.28399 -0.00216 -0.05455 -0.00066 0.00150 -0.00019 0.05614 0.02940 -0.32828 
1548147026.637246720 0.24546 -0.00230 -0.03631 -0.00073 0.00143 -0.00017 0.05206 0.02332 -0.28014 
1548147026.886346496 0.21315 0.01053 -0.01083 -0.00064 0.00149 -0.00015 0.04776 0.02336 -0.23247 
1548147027.140426752 0.21831 0.00881 -0.02643 -0.00072 0.00152 -0.00015 0.04861 0.01918 -0.23259 
1548147027.389516544 0.20060 -0.00308 -0.02040 -0.00070 0.00135 -0.00016 0.04947 0.01950 -0.24715 
1548147027.638616576 0.22047 0.01782 -0.00921 -0.00070 0.00122 -0.00015 0.04888 0.01822 -0.24949 
1548147027.892686592 0.25229 0.00776 -0.01042 -0.00073 0.00121 -0.00014 0.04806 0.01445 -0.23710 
1548147028.186626560 0.38173 0.00457 -0.06836 -0.00078 0.00118 -0.00016 0.05095 0.01797 -0.27132 
1548147028.440716544 0.30047 0.01533 -0.07534 -0.00074 0.00124 -0.00016 0.05146 0.02377 -0.27681 
1548147028.734646528 0.38956 0.01405 -0.08112 -0.00072 0.00123 -0.00016 0.05233 0.02467 -0.28863 
1548147028.998686464 0.24638 -0.00710 -0.06252 -0.00062 0.00124 -0.00016 0.05212 0.02316 -0.28369 
1548147029.242816512 0.34812 0.00968 -0.08004 -0.00061 0.00114 -0.00016 0.05257 0.02520 -0.30547 
1548147029.486946560 0.46082 0.00188 -0.10902 -0.00071 0.00117 -0.00016 0.05393 0.02925 -0.31063 
1548147029.741036288 0.27117 0.00577 -0.11498 -0.00070 0.00119 -0.00018 0.05336 0.03028 -0.30766 
1548147029.985146624 0.34855 -0.00411 -0.07022 -0.00071 0.00111 -0.00015 0.05088 0.02614 -0.30135 
1548147030.279066624 0.52688 -0.04087 -0.09447 -0.00070 0.00098 -0.00014 0.05450 0.02960 -0.33301 
1548147030.503256576 -0.30921 -0.02364 -0.10973 -0.00070 0.00108 -0.00014 0.05372 0.02955 -0.30623 
1548147030.707506432 -0.05754 -0.05231 -0.02509 -0.00071 0.00102 -0.00016 0.05446 0.03319 -0.34850 
1548147030.832046592 0.09105 0.01496 -0.01166 -0.00071 0.00098 -0.00016 0.05418 0.03577 -0.36799 
1548147031.21346560 0.09052 0.01033 0.03481 -0.00071 0.00099 -0.00015 0.05298 0.03559 -0.35845 
1548147031.240546560 0.03467 0.00601 0.00922 -0.00070 0.00101 -0.00016 0.05313 0.03557 -0.35735 
1548147031.489636352 0.01124 -0.00015 0.01816 -0.00069 0.00101 -0.00017 0.05341 0.03458 -0.36202 
1548147031.728756480 0.01317 0.00372 0.01964 -0.00070 0.00102 -0.00016 0.05328 0.03351 -0.35722 
1548147031.982826496 0.01508 0.00089 0.02045 -0.00071 0.00103 -0.00016 0.05354 0.03357 -0.35920 
1548147032.202026240 0.01160 0.00298 0.02231 -0.00070 0.00103 -0.00016 0.05376 0.03333 -0.36099 
1548147032.391336448 0.01107 0.00188 0.02439 -0.00071 0.00103 -0.00017 0.05385 0.03358 -0.36134 
1548147032.685266432 0.00963 0.00168 0.02654 -0.00071 0.00103 -0.00016 0.05408 0.03356 -0.36289 
1548147032.789876480 0.01054 0.00224 0.02592 -0.00071 0.00103 -0.00016 0.05413 0.03335 -0.36223 
1548147032.949306368 0.01131 0.00376 0.02711 -0.00070 0.00103 -0.00017 0.05417 0.03372 -0.36190 
1548147033.133616384 0.01013 0.00095 0.02781 -0.00070 0.00103 -0.00016 0.05428 0.03405 -0.36195 
1548147033.228266496 0.01107 0.00170 0.02880 -0.00070 0.00103 -0.00016 0.05440 0.03414 -0.36337 
1548147033.382716416 0.01179 0.00266 0.02967 -0.00071 0.00103 -0.00016 0.05448 0.03457 -0.36357 
1548147033.576996352 0.00930 0.00300 0.03071 -0.00071 0.00103 -0.00016 0.05461 0.03505 -0.36408 
1548147033.701536512 0.01382 0.00064 0.03112 -0.00069 0.00102 -0.00016 0.05457 0.03532 -0.36268 
1548147033.841036288 0.00702 0.00114 0.03098 -0.00070 0.00103 -0.00016 0.05477 0.03582 -0.36441 
1548147034.30346496 0.01384 0.00402 0.03281 -0.00070 0.00103 -0.00016 0.05470 0.03611 -0.36226 
1548147034.184786432 0.01093 0.00522 0.03316 -0.00069 0.00102 -0.00016 0.05479 0.03601 -0.36221 
1548147034.339226368 0.00840 0.00507 0.03153 -0.00069 0.00103 -0.00016 0.05477 0.03657 -0.36000 
1548147034.483696384 0.01254 0.00300 0.03198 -0.00070 0.00103 -0.00016 0.05468 0.03698 -0.35785 
1548147034.757706496 0.01183 0.00418 0.03408 -0.00070 0.00103 -0.00016 0.05485 0.03675 -0.35876 
1548147034.877266432 0.01139 0.00410 0.03464 -0.00070 0.00103 -0.00016 0.05484 0.03683 -0.35806 
1548147035.86496256 0.00989 0.00324 0.03460 -0.00070 0.00103 -0.00016 0.05490 0.03722 -0.35741 
1548147035.270816256 0.00763 0.00177 0.03579 -0.00070 0.00104 -0.00016 0.05494 0.03719 -0.35703 
1548147035.430246400 0.00844 0.00513 0.03405 -0.00070 0.00104 -0.00016 0.05481 0.03710 -0.35343 
1548147035.604606464 0.00926 0.00150 0.03408 -0.00070 0.00104 -0.00016 0.05479 0.03703 -0.35193 
1548147035.833766400 0.00900 0.01323 0.03486 -0.00069 0.00104 -0.00016 0.05485 0.03671 -0.35159 
1548147036.28046336 -0.15252 -0.00454 0.05327 -0.00070 0.00104 -0.00016 0.05488 0.03669 -0.35062 
1548147036.227326464 -0.26089 0.03470 0.06017 -0.00068 0.00106 -0.00015 0.05437 0.03634 -0.33973 
1548147036.451496448 -0.44445 -0.01076 0.11538 -0.00065 0.00103 -0.00015 0.05533 0.03831 -0.36041 
1548147036.576046336 -0.38226 -0.01321 0.08982 -0.00066 0.00105 -0.00014 0.05492 0.03423 -0.35149 
1548147036.740456448 -0.34116 -0.00824 0.09780 -0.00063 0.00100 -0.00014 0.05489 0.03348 -0.35287 
1548147036.889896448 -0.44691 0.00099 0.07224 -0.00064 0.00104 -0.00014 0.05408 0.03233 -0.33484 
1548147037.79206144 -0.42187 -0.01165 0.05039 -0.00065 0.00107 -0.00015 0.05388 0.03067 -0.32836 
1548147037.223686144 -0.42448 0.00841 0.08391 -0.00065 0.00106 -0.00017 0.05445 0.02928 -0.34071 
1548147037.383106304 -0.52949 0.01107 0.09389 -0.00064 0.00113 -0.00019 0.05503 0.03127 -0.34801 
1548147037.577396480 -0.46358 0.00493 0.10149 -0.00068 0.00104 -0.00017 0.05572 0.03493 -0.36686 
1548147037.786646272 -0.40942 0.00746 0.09841 -0.00066 0.00104 -0.00015 0.05539 0.03494 -0.36009 
1548147037.975946240 -0.41343 0.00189 0.10863 -0.00063 0.00104 -0.00016 0.05549 0.03515 -0.36260 
1548147038.105466368 -0.37011 0.02898 0.12063 -0.00062 0.00102 -0.00016 0.05524 0.03311 -0.35826 
1548147038.329646336 -0.43619 0.02591 0.11002 -0.00063 0.00102 -0.00016 0.05527 0.03366 -0.35865 
1548147038.449206272 -0.49560 -0.06036 0.10092 -0.00061 0.00098 -0.00012 0.05514 0.03364 -0.35204 
1548147038.638506240 -0.49191 -0.01295 0.08653 -0.00062 0.00101 -0.00012 0.05521 0.03396 -0.35589 
1548147038.832786432 -0.40948 -0.01479 0.07956 -0.00062 0.00098 -0.00013 0.05509 0.03375 -0.35682 
1548147038.997176064 -0.30882 -0.00059 0.07221 -0.00064 0.00098 -0.00012 0.05518 0.03376 -0.35425 
1548147039.231306240 -0.35181 -0.01221 0.05627 -0.00064 0.00101 -0.00012 0.05561 0.03426 -0.35523 
1548147039.390736384 -0.44697 -0.01368 0.04368 -0.00064 0.00103 -0.00012 0.05603 0.03453 -0.35570 
1548147039.535196416 -0.43878 0.00600 0.05164 -0.00063 0.00103 -0.00013 0.05605 0.03477 -0.35300 
1548147039.704576256 -0.37320 0.01357 0.04786 -0.00066 0.00102 -0.00013 0.05604 0.03577 -0.35395 
1548147039.928776192 -0.39125 0.01456 0.04254 -0.00062 0.00102 -0.00014 0.05615 0.03499 -0.35459 
1548147040.177866240 -0.43711 -0.00065 0.06066 -0.00060 0.00104 -0.00012 0.05649 0.03546 -0.35377 
1548147040.377156352 -0.53005 -0.01915 0.02828 -0.00061 0.00101 -0.00014 0.05610 0.03450 -0.35794 
1548147040.581406208 -0.50585 0.00643 0.03002 -0.00067 0.00097 -0.00015 0.05563 0.03467 -0.35561 
1548147040.830496256 -0.34736 0.00860 0.04111 -0.00066 0.00095 -0.00017 0.05558 0.03406 -0.35533 
1548147041.29766400 -0.17434 -0.00372 0.10248 -0.00068 0.00098 -0.00016 0.05573 0.03463 -0.35623 
1548147041.288836352 0.09213 0.04150 0.01927 -0.00069 0.00103 -0.00019 0.05626 0.03473 -0.35892 
1548147041.483126272 0.00234 0.00920 0.01549 -0.00066 0.00112 -0.00014 0.05711 0.04002 -0.36773 
1548147041.622616320 -0.05024 0.00648 0.00623 -0.00063 0.00113 -0.00012 0.05724 0.04086 -0.36823 
1548147041.772076032 -0.04557 0.00797 0.00348 -0.00061 0.00114 -0.00011 0.05734 0.04103 -0.36839 
1548147041.876686080 -0.04308 0.00488 0.00109 -0.00061 0.00114 -0.00011 0.05737 0.04098 -0.36845 
1548147042.31126272 -0.03846 0.00688 -0.00273 -0.00061 0.00115 -0.00011 0.05747 0.04091 -0.36866 
1548147042.190546176 -0.02504 0.00788 -0.00544 -0.00063 0.00116 -0.00011 0.05750 0.04074 -0.36851 
1548147042.379856128 -0.01226 0.00803 -0.00841 -0.00065 0.00116 -0.00011 0.05747 0.04070 -0.36817 
1548147042.579126016 -0.02232 0.00900 -0.01167 -0.00066 0.00116 -0.00012 0.05749 0.04070 -0.36818 
1548147042.723606016 -0.02151 0.00942 -0.01394 -0.00066 0.00116 -0.00012 0.05749 0.04072 -0.36815 
1548147043.22516224 -0.01773 0.00587 -0.01541 -0.00071 0.00114 -0.00012 0.05732 0.04082 -0.36737 
1548147043.186916096 -0.01940 0.00622 -0.01746 -0.00071 0.00114 -0.00012 0.05731 0.04075 -0.36733 
1548147043.371246080 -0.01984 0.00593 -0.01978 -0.00072 0.00113 -0.00012 0.05726 0.04081 -0.36720 
1548147043.590446336 -0.01734 0.00435 -0.02118 -0.00072 0.00112 -0.00012 0.05716 0.04086 -0.36682 
1548147043.759826176 -0.01654 0.00505 -0.02247 -0.00072 0.00111 -0.00012 0.05711 0.04059 -0.36663 
1548147043.919246080 -0.01712 0.00649 -0.02407 -0.00072 0.00111 -0.00012 0.05707 0.04049 -0.36649 
1548147044.173316352 -0.01578 0.00269 -0.02277 -0.00074 0.00110 -0.00012 0.05690 0.04044 -0.36606 
1548147044.347676160 -0.01654 0.00417 -0.02356 -0.00074 0.00110 -0.00012 0.05683 0.04052 -0.36588 
1548147044.571856128 -0.02184 0.00605 -0.02319 -0.00072 0.00111 -0.00012 0.05669 0.04067 -0.36549 
1548147044.781076224 -0.02187 0.00466 -0.02341 -0.00072 0.00111 -0.00012 0.05658 0.04078 -0.36512 
1548147044.970385920 -0.01756 0.00320 -0.02600 -0.00072 0.00110 -0.00012 0.05654 0.04071 -0.36509 
1548147045.174636032 -0.01741 0.00385 -0.02451 -0.00073 0.00110 -0.00013 0.05638 0.04058 -0.36461 
1548147045.324076288 -0.01854 0.00690 -0.02442 -0.00073 0.00110 -0.00013 0.05627 0.04071 -0.36399 
1548147045.493466112 -0.01289 0.00416 -0.02504 -0.00072 0.00109 -0.00013 0.05623 0.04054 -0.36414 
1548147045.732586240 -0.01799 0.00627 -0.02521 -0.00072 0.00109 -0.00013 0.05611 0.04058 -0.36373 
1548147045.916916224 -0.01815 0.00360 -0.02518 -0.00072 0.00109 -0.00013 0.05603 0.04073 -0.36341 
1548147046.121176064 -0.01298 0.00240 -0.02569 -0.00073 0.00108 -0.00013 0.05595 0.04078 -0.36332 
1548147046.305486080 -0.01759 0.00592 -0.02509 -0.00072 0.00109 -0.00013 0.05583 0.04064 -0.36279 
1548147046.529676032 -0.01875 -0.00120 -0.02554 -0.00072 0.00109 -0.00013 0.05576 0.04021 -0.36261 
1548147046.778746112 0.17803 0.01812 -0.02295 -0.00071 0.00109 -0.00013 0.05567 0.03996 -0.36242 
1548147046.918235904 0.29581 0.01355 -0.02272 -0.00072 0.00109 -0.00012 0.05569 0.04040 -0.36170 
1548147047.82656256 0.35862 0.01081 -0.01478 -0.00073 0.00110 -0.00012 0.05590 0.04068 -0.36118 
1548147047.326735872 0.45932 0.01782 -0.03760 -0.00068 0.00114 -0.00011 0.05617 0.04036 -0.36166 
1548147047.565846016 0.41544 0.01356 -0.04795 -0.00065 0.00117 -0.00012 0.05640 0.04060 -0.36222 
1548147047.829885952 0.27648 -0.01100 -0.06949 -0.00058 0.00119 -0.00009 0.05646 0.04045 -0.36119 
1548147048.34136064 0.37247 0.01015 -0.04439 -0.00055 0.00111 -0.00010 0.05598 0.04015 -0.36135 
1548147048.248346112 0.43194 0.01162 -0.04762 -0.00055 0.00108 -0.00009 0.05529 0.04057 -0.35892 
1548147048.402786048 0.38603 -0.00294 -0.05766 -0.00053 0.00110 -0.00008 0.05592 0.04115 -0.36152 
1548147048.582126080 0.31029 -0.00158 -0.05437 -0.00056 0.00112 -0.00008 0.05610 0.04029 -0.36174 
1548147048.746515968 0.34920 0.00584 -0.05047 -0.00059 0.00108 -0.00009 0.05586 0.03965 -0.36159 
1548147048.895965952 0.35717 -0.00463 -0.04390 -0.00060 0.00107 -0.00009 0.05563 0.04009 -0.36104 
1548147049.164976128 0.40191 -0.00770 -0.02870 -0.00061 0.00103 -0.00009 0.05523 0.03920 -0.36062 
1548147049.314425856 0.41485 -0.01157 -0.04299 -0.00060 0.00103 -0.00008 0.05579 0.03936 -0.36236 
1548147049.518675968 0.48850 0.04506 -0.05417 -0.00059 0.00105 -0.00008 0.05594 0.03893 -0.36251 
1548147049.767766016 0.53563 -0.05101 -0.13468 -0.00061 0.00110 -0.00009 0.05656 0.03856 -0.36180 
1548147049.972016128 0.55983 0.03159 -0.08962 -0.00059 0.00102 -0.00009 0.05597 0.03869 -0.36333 
1548147050.161315840 0.40191 0.00938 -0.09005 -0.00056 0.00107 -0.00009 0.05641 0.03832 -0.36175 
1548147050.370545920 0.28252 -0.01191 -0.09066 -0.00058 0.00115 -0.00009 0.05616 0.03759 -0.36089 
1548147050.505035776 0.37552 0.00488 -0.10901 -0.00057 0.00115 -0.00010 0.05619 0.03784 -0.36169 
1548147050.619625984 0.46622 0.00648 -0.10971 -0.00058 0.00114 -0.00009 0.05604 0.03810 -0.36277 
1548147050.764096000 0.48984 0.02311 -0.09600 -0.00058 0.00114 -0.00010 0.05501 0.03453 -0.34839 
1548147050.988265984 0.36440 -0.03726 -0.13890 -0.00058 0.00118 -0.00010 0.05584 0.03508 -0.34967 
1548147051.137725952 0.35125 -0.01864 -0.10024 -0.00058 0.00114 -0.00010 0.05561 0.03542 -0.34975 
1548147051.287175936 0.33094 -0.01110 -0.09892 -0.00063 0.00110 -0.00012 0.05438 0.03298 -0.33521 
1548147051.476475904 0.33793 -0.00929 -0.07367 -0.00063 0.00108 -0.00012 0.05402 0.03228 -0.33565 
1548147051.630915840 0.40361 -0.01149 -0.07943 -0.00062 0.00105 -0.00011 0.05421 0.03272 -0.33726 
1548147051.825206016 -0.23639 -0.07554 -0.04793 -0.00064 0.00105 -0.00012 0.05410 0.03163 -0.33682 
1548147052.39425792 -0.03038 -0.07178 -0.03922 -0.00070 0.00104 -0.00012 0.05418 0.03011 -0.33792 
1548147052.129105920 0.08173 -0.01050 -0.03521 -0.00064 0.00102 -0.00012 0.05456 0.02771 -0.34345 
1548147052.323395840 -0.07558 -0.01390 -0.02266 -0.00064 0.00103 -0.00014 0.05422 0.02693 -0.34357 
1548147052.482806016 0.03297 -0.00831 -0.01166 -0.00068 0.00103 -0.00014 0.05431 0.02755 -0.34483 
1548147052.662165760 -0.02751 -0.00585 -0.00387 -0.00064 0.00103 -0.00015 0.05423 0.02677 -0.34487 
1548147052.811606016 0.02266 0.00119 0.00064 -0.00064 0.00103 -0.00015 0.05419 0.02649 -0.34477 
1548147052.971035904 0.00372 0.00003 0.00299 -0.00065 0.00103 -0.00015 0.05418 0.02644 -0.34468 
1548147053.185255936 0.00892 -0.00100 0.00542 -0.00065 0.00103 -0.00015 0.05417 0.02646 -0.34464 
1548147053.334725888 0.01116 0.00032 0.00745 -0.00066 0.00103 -0.00015 0.05417 0.02647 -0.34458 
1548147053.568866048 0.01262 0.00438 0.01099 -0.00067 0.00103 -0.00015 0.05414 0.02650 -0.34439 
1548147053.827936000 0.01211 0.00419 0.01510 -0.00070 0.00104 -0.00015 0.05412 0.02665 -0.34410 
1548147054.91975936 0.01187 0.00576 0.01879 -0.00071 0.00104 -0.00015 0.05412 0.02671 -0.34374 
1548147054.271335936 0.01214 0.00681 0.01989 -0.00073 0.00105 -0.00015 0.05413 0.02693 -0.34342 
1548147054.430755840 0.01181 0.00697 0.02097 -0.00077 0.00105 -0.00015 0.05416 0.02736 -0.34327 
1548147054.659926016 0.01171 0.00757 0.02385 -0.00077 0.00105 -0.00015 0.05416 0.02735 -0.34312 
1548147054.864175872 0.01477 0.00834 0.02239 -0.00079 0.00106 -0.00015 0.05421 0.02687 -0.34232 
1548147055.63475968 0.01132 0.00602 0.02453 -0.00080 0.00106 -0.00015 0.05425 0.02702 -0.34273 
1548147055.237835776 0.00936 0.00577 0.02322 -0.00078 0.00106 -0.00014 0.05430 0.02702 -0.34228 
1548147055.372355840 0.00885 0.00761 0.02457 -0.00078 0.00106 -0.00015 0.05432 0.02700 -0.34244 
1548147055.566656000 0.00982 0.00657 0.02362 -0.00078 0.00106 -0.00014 0.05437 0.02740 -0.34196 
1548147055.706145792 0.00952 0.00747 0.02437 -0.00078 0.00106 -0.00014 0.05440 0.02731 -0.34184 
1548147055.870545920 0.01077 0.00725 0.02339 -0.00078 0.00106 -0.00014 0.05444 0.02754 -0.34146 
1548147056.114655744 0.00695 -0.00013 0.02347 -0.00079 0.00107 -0.00014 0.05451 0.02763 -0.34151 
1548147056.363746048 -0.10164 -0.01226 0.03465 -0.00078 0.00107 -0.00014 0.05449 0.02736 -0.34125 
1548147056.667635968 -0.39844 -0.02799 0.07951 -0.00073 0.00105 -0.00013 0.05447 0.02748 -0.34141 
1548147056.971515904 -0.33842 0.02126 0.07968 -0.00058 0.00103 -0.00013 0.05436 0.02712 -0.34114 
1548147057.210635776 -0.39085 -0.00347 0.06410 -0.00064 0.00103 -0.00013 0.05443 0.02725 -0.33921 
1548147057.459725824 -0.41715 -0.00652 0.05558 -0.00061 0.00110 -0.00014 0.05472 0.02764 -0.34161 
1548147057.658995968 -0.50556 -0.00985 0.08900 -0.00066 0.00113 -0.00013 0.05475 0.02642 -0.34513 
1548147057.873206016 -0.49254 -0.01339 0.08313 -0.00065 0.00107 -0.00013 0.05424 0.02559 -0.34202 
1548147058.102365696 -0.44452 -0.00010 0.09212 -0.00063 0.00104 -0.00013 0.05410 0.02590 -0.34118 
1548147058.271735552 -0.34559 -0.01045 0.08125 -0.00061 0.00101 -0.00012 0.05416 0.02655 -0.34145 
1548147058.416215552 -0.32528 0.02012 0.09922 -0.00064 0.00101 -0.00013 0.05417 0.02662 -0.34107 
1548147058.660325888 -0.40039 0.00670 0.09543 -0.00064 0.00100 -0.00013 0.05425 0.02609 -0.34157 
1548147058.864565760 -0.48140 -0.09906 0.10075 -0.00065 0.00100 -0.00012 0.05456 0.02672 -0.34310 
1548147059.33955840 -0.42979 -0.01914 0.06394 -0.00071 0.00101 -0.00013 0.05449 0.02626 -0.34261 
1548147059.218275840 -0.29375 0.00534 0.07109 -0.00067 0.00098 -0.00014 0.05396 0.02583 -0.34054 
1548147059.457405696 -0.22373 -0.01184 0.04829 -0.00066 0.00100 -0.00012 0.05448 0.02714 -0.34234 
1548147059.611845632 -0.29162 -0.00016 0.02318 -0.00063 0.00102 -0.00013 0.05483 0.02712 -0.34100 
1548147059.771255808 -0.39307 -0.01670 0.02677 -0.00063 0.00105 -0.00013 0.05482 0.02707 -0.34217 
1548147060.15365888 -0.35811 0.00435 0.05365 -0.00062 0.00104 -0.00013 0.05465 0.02785 -0.34308 
1548147060.159825920 -0.32978 0.00616 0.05356 -0.00061 0.00103 -0.00013 0.05441 0.02861 -0.34304 
1548147060.329215744 -0.38734 0.00301 0.04335 -0.00059 0.00105 -0.00012 0.05502 0.02774 -0.34893 
1548147060.463725824 -0.49412 0.00519 -0.02028 -0.00058 0.00106 -0.00012 0.05541 0.02790 -0.34919 
1548147060.633105664 -0.52565 -0.00042 -0.01858 -0.00051 0.00107 -0.00012 0.05537 0.02809 -0.34861 
1548147060.857285632 -0.50479 -0.00688 0.01679 -0.00056 0.00106 -0.00013 0.05512 0.02824 -0.34825 
1548147061.11725568 -0.45755 -0.00174 0.01889 -0.00057 0.00104 -0.00014 0.05471 0.02747 -0.34779 
1548147061.210995712 -0.37166 -0.00296 0.03253 -0.00059 0.00103 -0.00015 0.05450 0.02801 -0.34781 
1548147061.509915648 0.30102 0.04013 -0.00768 -0.00061 0.00102 -0.00014 0.05458 0.02775 -0.34945 
1548147061.759005696 0.08945 0.03267 0.02511 -0.00064 0.00103 -0.00015 0.05456 0.02814 -0.34862 
1548147062.8105728 -0.01905 0.01133 0.01934 -0.00062 0.00104 -0.00014 0.05474 0.02899 -0.34842 
1548147062.212355584 -0.02094 0.01545 0.01641 -0.00065 0.00105 -0.00014 0.05475 0.02873 -0.34817 
1548147062.456475648 -0.00197 0.01749 0.01154 -0.00064 0.00104 -0.00014 0.05483 0.02853 -0.34865 
1548147062.605935616 0.01113 0.01741 0.00830 -0.00064 0.00104 -0.00015 0.05488 0.02884 -0.34895 
1548147062.855035648 0.01796 0.02018 0.00440 -0.00063 0.00104 -0.00015 0.05489 0.02882 -0.34888 
1548147063.14455552 0.01450 0.01471 -0.00023 -0.00066 0.00104 -0.00015 0.05496 0.02926 -0.34931 
1548147063.188825600 0.01333 0.01442 -0.00211 -0.00067 0.00104 -0.00015 0.05495 0.02930 -0.34925 
1548147063.353225728 0.01296 0.01370 -0.00317 -0.00067 0.00104 -0.00015 0.05493 0.02940 -0.34910 
1548147063.512645632 0.01321 0.01420 -0.00478 -0.00066 0.00104 -0.00015 0.05492 0.02945 -0.34903 
1548147063.756775680 0.01610 0.01266 -0.00680 -0.00065 0.00104 -0.00015 0.05490 0.02967 -0.34897 
1548147064.5865472 0.01659 0.01009 -0.00826 -0.00064 0.00103 -0.00015 0.05488 0.02964 -0.34890 
1548147064.254955520 0.01850 0.01087 -0.01141 -0.00064 0.00103 -0.00014 0.05487 0.02963 -0.34883 
1548147064.414385664 0.01342 0.00794 -0.01023 -0.00064 0.00103 -0.00014 0.05478 0.02960 -0.34835 
1548147064.653505536 0.01545 0.00759 -0.01276 -0.00065 0.00103 -0.00014 0.05476 0.02968 -0.34818 
1548147064.768095744 0.01652 0.00793 -0.01384 -0.00065 0.00103 -0.00014 0.05475 0.02966 -0.34813 
1548147065.7225600 0.01696 0.00914 -0.01308 -0.00065 0.00103 -0.00015 0.05469 0.02947 -0.34793 
1548147065.201525760 0.02819 0.01852 -0.01631 -0.00065 0.00103 -0.00015 0.05468 0.02936 -0.34787 
1548147065.475525632 0.33924 0.03980 -0.00270 -0.00065 0.00103 -0.00015 0.05460 0.02927 -0.34751 
1548147065.704705536 0.40571 0.01623 -0.01236 -0.00064 0.00106 -0.00014 0.05494 0.02965 -0.34938 
1548147065.903985408 0.49715 0.03175 -0.02713 -0.00065 0.00107 -0.00015 0.05511 0.02963 -0.35022 
1548147066.103265536 0.47865 0.03874 -0.03707 -0.00059 0.00108 -0.00014 0.05556 0.02963 -0.35292 
1548147066.322475776 0.32953 -0.01202 -0.02480 -0.00056 0.00111 -0.00013 0.05593 0.02961 -0.35470 
1548147066.461975552 0.37489 0.00929 -0.05059 -0.00051 0.00108 -0.00013 0.05525 0.02908 -0.35064 
1548147066.711075584 0.40474 0.00996 -0.04283 -0.00051 0.00107 -0.00012 0.05484 0.02814 -0.34852 
1548147067.25600 0.41278 0.00688 -0.02782 -0.00056 0.00105 -0.00013 0.05464 0.02845 -0.34797 
1548147067.234165760 0.34796 0.00564 -0.04756 -0.00059 0.00106 -0.00013 0.05502 0.02780 -0.34970 
1548147067.463325440 0.36932 0.01007 -0.02311 -0.00061 0.00104 -0.00013 0.05449 0.02765 -0.34773 
1548147067.672575488 0.42575 -0.00342 -0.02812 -0.00061 0.00102 -0.00013 0.05458 0.02716 -0.34802 
1548147067.916695552 0.47026 -0.00816 -0.07294 -0.00060 0.00104 -0.00013 0.05493 0.02753 -0.34974 
1548147068.101025536 0.42706 -0.05414 -0.05513 -0.00064 0.00104 -0.00013 0.05501 0.02754 -0.35021 
1548147068.300305664 0.54430 -0.03494 -0.11251 -0.00073 0.00105 -0.00014 0.05507 0.02770 -0.35023 
1548147068.549405696 0.43804 0.01978 -0.08931 -0.00070 0.00109 -0.00013 0.05551 0.02717 -0.35242 
1548147068.753665536 0.30947 0.00574 -0.09765 -0.00068 0.00111 -0.00014 0.05629 0.02629 -0.36003 
1548147069.2765312 0.34613 0.00564 -0.11748 -0.00066 0.00111 -0.00014 0.05627 0.02641 -0.35968 
1548147069.251855616 0.47075 0.00736 -0.11193 -0.00067 0.00110 -0.00014 0.05602 0.02431 -0.35830 
1548147069.411275264 0.48340 0.02360 -0.08838 -0.00061 0.00111 -0.00013 0.05604 0.02444 -0.35600 
1548147069.560745472 0.36850 0.00318 -0.09436 -0.00063 0.00110 -0.00014 0.05605 0.02465 -0.35557 
1548147069.774965504 0.35444 -0.00219 -0.12150 -0.00058 0.00109 -0.00013 0.05656 0.02451 -0.36642 
1548147069.919435520 0.35837 -0.00104 -0.08181 -0.00060 0.00106 -0.00013 0.05624 0.02418 -0.36717 
1548147070.68885504 0.39593 -0.01723 -0.06578 -0.00058 0.00104 -0.00012 0.05620 0.02460 -0.36785 
1548147070.223315456 -0.21781 0.02839 -0.01798 -0.00070 0.00104 -0.00013 0.05677 0.02114 -0.37914 
1548147070.402655488 -0.15245 -0.03520 -0.03984 -0.00067 0.00104 -0.00013 0.05701 0.02272 -0.37942 
1548147070.671675392 0.09603 -0.03389 -0.03480 -0.00064 0.00102 -0.00014 0.05697 0.02188 -0.38039 
1548147070.856005376 -0.09193 -0.03458 -0.01347 -0.00062 0.00101 -0.00014 0.05695 0.02167 -0.38152 
1548147071.10445312 0.02988 -0.01439 -0.01466 -0.00062 0.00101 -0.00014 0.05696 0.02174 -0.38154 
1548147071.299385600 0.02108 -0.01367 -0.00650 -0.00063 0.00101 -0.00014 0.05696 0.02163 -0.38169 
1548147071.513585408 0.02032 -0.01702 -0.00055 -0.00063 0.00101 -0.00015 0.05696 0.02157 -0.38180 
1548147071.648095488 0.01794 -0.01537 0.00079 -0.00063 0.00101 -0.00015 0.05696 0.02153 -0.38182 
1548147071.827425536 0.02622 -0.01382 0.00398 -0.00063 0.00101 -0.00015 0.05696 0.02136 -0.38187 
1548147072.1785600 0.03336 -0.01181 0.00754 -0.00063 0.00101 -0.00015 0.05696 0.02127 -0.38189 
1548147072.245895424 0.03205 -0.00325 0.01637 -0.00066 0.00101 -0.00015 0.05693 0.02022 -0.38250 
1548147072.504955648 0.03159 0.00088 0.02305 -0.00070 0.00102 -0.00016 0.05691 0.02002 -0.38265 
1548147072.724155392 0.03289 0.00259 0.02694 -0.00071 0.00102 -0.00016 0.05691 0.01989 -0.38266 
1548147072.948335360 0.02407 0.00611 0.03206 -0.00079 0.00104 -0.00016 0.05691 0.01959 -0.38278 
1548147073.147595520 0.02709 0.00710 0.03128 -0.00083 0.00104 -0.00017 0.05692 0.01921 -0.38197 
1548147073.302045440 0.03311 0.00727 0.03395 -0.00079 0.00103 -0.00017 0.05692 0.01987 -0.38194 
1548147073.506295552 0.02395 0.00520 0.03659 -0.00080 0.00105 -0.00016 0.05695 0.01977 -0.38206 
1548147073.700585472 0.02362 0.00745 0.03836 -0.00081 0.00105 -0.00016 0.05695 0.01938 -0.38178 
1548147073.850045440 0.02854 0.00905 0.03738 -0.00081 0.00105 -0.00016 0.05696 0.01934 -0.38109 
1548147074.19415296 0.01967 0.00653 0.03932 -0.00082 0.00106 -0.00016 0.05697 0.01935 -0.38091 
1548147074.293425408 0.01758 0.00669 0.03872 -0.00079 0.00106 -0.00016 0.05700 0.01979 -0.38029 
1548147074.512625408 -0.12552 -0.00163 0.06092 -0.00084 0.00107 -0.00017 0.05701 0.01954 -0.38024 
1548147074.721845504 -0.35817 -0.01913 0.08788 -0.00081 0.00107 -0.00015 0.05706 0.01961 -0.38005 
1548147074.901195264 -0.40221 -0.03208 0.10358 -0.00075 0.00106 -0.00015 0.05707 0.01957 -0.37962 
1548147075.150285312 -0.31094 0.00728 0.08510 -0.00068 0.00103 -0.00015 0.05707 0.01956 -0.37949 
1548147075.399365376 -0.43603 -0.01108 0.05757 -0.00080 0.00106 -0.00016 0.05710 0.01909 -0.37719 
1548147075.518915328 -0.32452 -0.02512 0.09991 -0.00082 0.00106 -0.00016 0.05710 0.01913 -0.37697 
1548147075.693285120 -0.42434 -0.02160 0.08570 -0.00083 0.00109 -0.00016 0.05712 0.01976 -0.37914 
1548147075.852705280 -0.48418 -0.00985 0.10091 -0.00081 0.00109 -0.00016 0.05709 0.01932 -0.37940 
1548147076.46995456 -0.48196 -0.00159 0.10050 -0.00082 0.00107 -0.00016 0.05701 0.01957 -0.38088 
1548147076.251255296 -0.40058 0.00483 0.09359 -0.00084 0.00103 -0.00016 0.05698 0.01929 -0.37994 
1548147076.420635136 -0.31579 0.01877 0.10068 -0.00082 0.00103 -0.00016 0.05700 0.01991 -0.37919 
1548147076.599985408 -0.32713 0.01673 0.10702 -0.00079 0.00102 -0.00016 0.05699 0.02002 -0.37956 
1548147076.849075200 -0.36226 0.01613 0.04858 -0.00078 0.00102 -0.00015 0.05706 0.02019 -0.37917 
1548147076.998515456 -0.39835 -0.00599 0.08552 -0.00077 0.00103 -0.00015 0.05718 0.02144 -0.38061 
1548147077.167905280 -0.38186 0.00274 0.05617 -0.00079 0.00104 -0.00016 0.05725 0.02111 -0.37959 
1548147077.402045184 -0.25681 -0.01071 0.06576 -0.00076 0.00100 -0.00016 0.05719 0.02127 -0.38035 
1548147077.566435328 -0.22646 -0.00316 0.05377 -0.00082 0.00102 -0.00017 0.05760 0.02076 -0.38407 
1548147077.695965184 -0.31584 -0.00029 0.03954 -0.00085 0.00104 -0.00017 0.05762 0.02049 -0.38250 
1548147077.870335232 -0.37044 -0.00474 0.01258 -0.00086 0.00106 -0.00016 0.05778 0.02066 -0.37974 
1548147078.94515200 -0.33539 0.00484 0.04006 -0.00076 0.00106 -0.00016 0.05771 0.02181 -0.38042 
1548147078.298765056 -0.33118 0.02104 0.02641 -0.00090 0.00106 -0.00017 0.05767 0.02117 -0.38083 
1548147078.493045248 -0.34749 0.01076 0.01159 -0.00094 0.00106 -0.00017 0.05775 0.02095 -0.38155 
1548147078.692315392 -0.31413 -0.00250 0.03509 -0.00093 0.00106 -0.00017 0.05791 0.02189 -0.38217 
1548147078.866665472 -0.49855 -0.00284 0.01229 -0.00094 0.00106 -0.00018 0.05759 0.02190 -0.38129 
1548147079.31065344 -0.44421 0.01029 -0.00629 -0.00088 0.00106 -0.00017 0.05771 0.02266 -0.38177 
1548147079.295105280 -0.40400 0.00820 0.02505 -0.00079 0.00104 -0.00019 0.05745 0.02373 -0.38343 
1548147079.514315008 0.03060 0.08733 0.06821 -0.00081 0.00104 -0.00020 0.05745 0.02587 -0.38328 
1548147079.643855360 0.24310 0.00970 0.04654 -0.00073 0.00104 -0.00020 0.05756 0.02624 -0.38429 
1548147079.892955392 0.06332 0.04669 0.01053 -0.00075 0.00105 -0.00020 0.05768 0.02692 -0.38548 
1548147080.196855296 -0.02689 0.03508 0.00015 -0.00081 0.00106 -0.00020 0.05772 0.02698 -0.38510 
1548147080.445945344 -0.02092 0.03159 -0.00189 -0.00080 0.00106 -0.00019 0.05768 0.02682 -0.38462 
1548147080.660175360 -0.00477 0.03264 -0.00669 -0.00077 0.00105 -0.00019 0.05774 0.02766 -0.38495 
1548147080.809635072 0.00322 0.03399 -0.00903 -0.00074 0.00105 -0.00019 0.05773 0.02638 -0.38478 
1548147080.954115072 0.00639 0.03497 -0.00929 -0.00075 0.00106 -0.00019 0.05770 0.02614 -0.38468 
1548147081.203195136 0.00762 0.03535 -0.01120 -0.00079 0.00106 -0.00019 0.05765 0.02618 -0.38437 
1548147081.397505280 0.00436 0.03059 -0.01484 -0.00078 0.00106 -0.00018 0.05765 0.02569 -0.38423 
1548147081.601765120 -0.00426 0.01585 -0.01124 -0.00077 0.00107 -0.00017 0.05755 0.02523 -0.38414 
1548147081.815985152 -0.00125 0.01279 -0.01014 -0.00076 0.00106 -0.00017 0.05743 0.02596 -0.38347 
1548147081.990345216 0.12311 0.02036 -0.00841 -0.00075 0.00107 -0.00017 0.05738 0.02612 -0.38318 
1548147082.209545216 0.34365 0.03501 0.00430 -0.00075 0.00106 -0.00017 0.05733 0.02602 -0.38287 
1548147082.393885184 0.41591 0.04269 -0.00274 -0.00075 0.00106 -0.00017 0.05736 0.02599 -0.38308 
1548147082.642985216 0.52392 0.04055 -0.01753 -0.00079 0.00106 -0.00017 0.05759 0.02605 -0.38519 
1548147082.951865088 0.42410 0.03299 -0.02582 -0.00080 0.00110 -0.00015 0.05809 0.02524 -0.38751 
1548147083.235835136 0.35318 -0.01023 -0.04772 -0.00078 0.00110 -0.00015 0.05786 0.02482 -0.38622 
1548147083.400235264 0.36475 0.00902 -0.05622 -0.00089 0.00110 -0.00015 0.05799 0.02432 -0.38629 
1548147083.609475072 0.39379 0.01932 -0.04953 -0.00083 0.00108 -0.00015 0.05780 0.02408 -0.38627 
1548147083.748955136 0.34571 0.01862 -0.04441 -0.00084 0.00109 -0.00015 0.05787 0.02462 -0.38592 
1548147083.848595200 0.31270 0.00122 -0.04787 -0.00082 0.00110 -0.00014 0.05786 0.02518 -0.38542 
1548147084.87725056 0.30725 -0.00653 -0.04996 -0.00071 0.00109 -0.00013 0.05786 0.02465 -0.38613 
1548147084.341805312 0.33464 -0.00229 -0.03735 -0.00070 0.00107 -0.00013 0.05773 0.02448 -0.38657 
1548147084.590895104 0.40730 -0.00919 -0.04497 -0.00066 0.00106 -0.00014 0.05774 0.02401 -0.38671 
1548147084.750315264 0.39497 0.06586 -0.04078 -0.00070 0.00108 -0.00014 0.05781 0.02305 -0.38503 
1548147084.949585152 0.44147 -0.01344 -0.10316 -0.00075 0.00109 -0.00013 0.05786 0.02361 -0.38436 
1548147085.148855296 0.47624 0.03091 -0.06972 -0.00075 0.00109 -0.00015 0.05768 0.02149 -0.38468 
1548147085.402925056 0.31494 0.00096 -0.06534 -0.00079 0.00111 -0.00014 0.05780 0.02143 -0.38402 
1548147085.592244992 0.27089 0.00282 -0.08780 -0.00076 0.00112 -0.00014 0.05790 0.02121 -0.38302 
1548147085.786555136 0.39001 0.00612 -0.10970 -0.00070 0.00111 -0.00014 0.05828 0.02201 -0.38778 
1548147085.990805248 0.40488 0.00699 -0.12340 -0.00072 0.00110 -0.00014 0.05829 0.02212 -0.38769 
1548147086.190075136 0.29118 -0.02055 -0.11060 -0.00072 0.00110 -0.00014 0.05830 0.02214 -0.38615 
1548147086.444154880 0.32325 -0.00000 -0.11188 -0.00072 0.00109 -0.00014 0.05837 0.02160 -0.38795 
1548147086.743075072 0.39359 -0.00512 -0.06818 -0.00066 0.00106 -0.00014 0.05847 0.02204 -0.39345 
1548147086.917435136 0.09238 -0.00763 -0.06683 -0.00071 0.00105 -0.00014 0.05847 0.02198 -0.39322 
1548147087.86835200 -0.18711 -0.00470 -0.01122 -0.00070 0.00104 -0.00015 0.05884 0.02295 -0.39889 
1548147087.291095040 0.06835 -0.02920 -0.04747 -0.00069 0.00103 -0.00013 0.05859 0.02322 -0.39458 
1548147087.535205120 -0.08207 -0.02434 -0.01463 -0.00070 0.00102 -0.00015 0.05861 0.02362 -0.39853 
1548147087.739454976 0.04476 -0.02250 -0.00808 -0.00071 0.00103 -0.00015 0.05845 0.02336 -0.39673 
1548147087.988564992 0.02453 -0.00769 -0.00172 -0.00072 0.00103 -0.00015 0.05843 0.02322 -0.39720 
1548147088.207775232 0.02148 -0.01101 0.00144 -0.00073 0.00103 -0.00015 0.05843 0.02318 -0.39738 
1548147088.392115200 0.02032 -0.01099 0.00514 -0.00073 0.00103 -0.00015 0.05844 0.02314 -0.39745 
1548147088.636235008 0.02168 -0.00818 0.01086 -0.00074 0.00103 -0.00015 0.05845 0.02301 -0.39772 
1548147088.845475072 0.02257 -0.00688 0.01547 -0.00075 0.00103 -0.00015 0.05848 0.02278 -0.39814 
1548147089.34785024 0.02228 -0.00506 0.01958 -0.00076 0.00103 -0.00015 0.05850 0.02267 -0.39843 
1548147089.249015040 0.01958 -0.00145 0.02343 -0.00078 0.00103 -0.00016 0.05854 0.02237 -0.39893 
1548147089.582804992 0.01736 0.00376 0.02769 -0.00081 0.00104 -0.00016 0.05861 0.02208 -0.39947 
1548147089.836875008 0.01605 0.00300 0.03083 -0.00082 0.00104 -0.00016 0.05860 0.02208 -0.39912 
1548147090.46104832 0.01266 0.00332 0.03160 -0.00083 0.00105 -0.00016 0.05860 0.02199 -0.39848 
1548147090.240414976 0.01136 0.00416 0.03480 -0.00083 0.00105 -0.00016 0.05862 0.02196 -0.39857 
1548147090.494504960 0.00875 0.00354 0.03417 -0.00080 0.00106 -0.00016 0.05867 0.02203 -0.39827 
1548147090.693774848 0.01097 0.00424 0.03468 -0.00082 0.00105 -0.00016 0.05868 0.02200 -0.39792 
1548147090.932914944 0.01508 0.00576 0.03475 -0.00084 0.00105 -0.00016 0.05873 0.02196 -0.39782 
1548147091.186994944 0.01112 0.00531 0.03614 -0.00083 0.00106 -0.00016 0.05870 0.02197 -0.39697 
1548147091.386275072 0.00801 0.00475 0.03657 -0.00083 0.00106 -0.00016 0.05867 0.02194 -0.39596 
1548147091.590524928 0.01210 0.00441 0.03598 -0.00084 0.00106 -0.00016 0.05870 0.02202 -0.39583 
1548147091.849594880 -0.00302 -0.00076 0.03797 -0.00084 0.00106 -0.00016 0.05869 0.02195 -0.39535 
1548147092.93704960 -0.34528 -0.00567 0.07770 -0.00083 0.00106 -0.00016 0.05868 0.02208 -0.39446 
1548147092.332855040 -0.37374 -0.01025 0.09652 -0.00074 0.00106 -0.00016 0.05876 0.02297 -0.39495 
1548147092.537104896 -0.34802 0.00867 0.10101 -0.00078 0.00105 -0.00016 0.05873 0.02277 -0.39565 
1548147092.731414784 -0.37314 0.00145 0.08016 -0.00075 0.00105 -0.00016 0.05875 0.02275 -0.39373 
1548147093.35304704 -0.40549 0.02172 0.06793 -0.00077 0.00108 -0.00017 0.05879 0.02318 -0.39296 
1548147093.279435008 -0.52092 -0.00735 0.10192 -0.00078 0.00108 -0.00017 0.05865 0.02313 -0.39347 
1548147093.503614976 -0.44128 0.00140 0.09164 -0.00077 0.00106 -0.00016 0.05873 0.02270 -0.39614 
1548147093.687954944 -0.43605 0.01421 0.08237 -0.00075 0.00104 -0.00016 0.05874 0.02282 -0.39564 
1548147093.882254848 -0.36878 0.01766 0.09762 -0.00073 0.00104 -0.00016 0.05870 0.02277 -0.39518 
1548147094.136334848 -0.36964 0.00629 0.10698 -0.00074 0.00103 -0.00016 0.05872 0.02295 -0.39511 
1548147094.430285056 -0.44029 0.01091 0.09451 -0.00075 0.00104 -0.00016 0.05878 0.02290 -0.39455 
1548147094.679384832 -0.35112 0.04728 0.08895 -0.00072 0.00101 -0.00016 0.05875 0.02305 -0.39759 
1548147094.888644864 -0.27056 0.00845 0.05838 -0.00066 0.00103 -0.00015 0.05896 0.02268 -0.39633 
1548147095.182584832 -0.38605 0.00005 0.04435 -0.00069 0.00105 -0.00015 0.05903 0.02312 -0.39526 
1548147095.366914816 -0.41870 -0.00391 0.04324 -0.00065 0.00105 -0.00015 0.05909 0.02299 -0.39487 
1548147095.586124800 -0.33444 0.01810 0.06466 -0.00059 0.00104 -0.00015 0.05882 0.02269 -0.39458 
1548147095.790384896 -0.32112 0.01830 0.04526 -0.00060 0.00104 -0.00015 0.05910 0.02301 -0.39713 
1548147096.84324864 -0.41223 0.00960 0.02166 -0.00058 0.00105 -0.00014 0.05930 0.02322 -0.39633 
1548147096.333414912 -0.48793 0.00253 0.02088 -0.00061 0.00105 -0.00015 0.05903 0.02433 -0.39510 
1548147096.562574848 -0.42033 -0.00334 0.01945 -0.00056 0.00104 -0.00015 0.05906 0.02447 -0.39604 
1548147096.776794880 -0.38278 -0.00388 0.04236 -0.00057 0.00103 -0.00015 0.05889 0.02476 -0.39663 
1548147096.986024960 0.23185 0.04449 0.05928 -0.00058 0.00103 -0.00015 0.05897 0.02440 -0.39752 
1548147097.255054592 0.09277 0.08114 0.03901 -0.00056 0.00104 -0.00016 0.05911 0.02384 -0.39787 
1548147097.534034688 0.01253 0.02080 0.00553 -0.00058 0.00104 -0.00016 0.05915 0.02550 -0.39754 
1548147097.673524736 -0.01838 0.02575 0.00487 -0.00060 0.00104 -0.00016 0.05912 0.02563 -0.39715 
1548147097.813014784 -0.01751 0.02398 0.00247 -0.00059 0.00104 -0.00016 0.05913 0.02538 -0.39730 
1548147098.82054912 0.00199 0.02209 -0.00161 -0.00059 0.00104 -0.00016 0.05914 0.02582 -0.39735 
1548147098.336134656 0.02030 0.02355 -0.00421 -0.00058 0.00104 -0.00016 0.05913 0.02542 -0.39729 
1548147098.580244736 0.02326 0.02021 -0.01041 -0.00062 0.00105 -0.00016 0.05916 0.02579 -0.39744 
1548147098.734674688 0.02763 0.02249 -0.01264 -0.00062 0.00105 -0.00016 0.05914 0.02580 -0.39735 
1548147098.988754688 0.02178 0.02166 -0.01533 -0.00061 0.00105 -0.00016 0.05912 0.02573 -0.39728 
1548147099.342474752 0.01314 0.01920 -0.01805 -0.00061 0.00105 -0.00016 0.05906 0.02568 -0.39701 
1548147099.626454784 0.01417 0.01630 -0.01924 -0.00061 0.00105 -0.00016 0.05900 0.02561 -0.39677 
1548147099.880534528 0.01297 0.01258 -0.02197 -0.00061 0.00105 -0.00016 0.05898 0.02560 -0.39680 
1548147100.174464768 0.30889 0.04466 -0.01182 -0.00060 0.00104 -0.00016 0.05888 0.02510 -0.39630 
1548147100.428534784 0.41095 0.04680 -0.01137 -0.00063 0.00105 -0.00016 0.05898 0.02607 -0.39697 
1548147100.587954688 0.49926 0.04396 -0.02270 -0.00065 0.00105 -0.00017 0.05917 0.02641 -0.39839 
1548147100.842024704 0.41842 0.03348 -0.04085 -0.00058 0.00108 -0.00016 0.05950 0.02614 -0.40060 
1548147101.125984768 0.28430 0.01604 -0.07327 -0.00062 0.00110 -0.00015 0.05978 0.02573 -0.40189 
1548147101.330234880 0.35581 0.00581 -0.04916 -0.00058 0.00107 -0.00014 0.05920 0.02534 -0.39776 
1548147101.634124800 0.42797 0.02168 -0.03510 -0.00058 0.00106 -0.00014 0.05869 0.02473 -0.39496 
1548147101.873254656 0.31674 0.01488 -0.05207 -0.00055 0.00106 -0.00014 0.05925 0.02516 -0.39860 
1548147102.72534528 0.29817 0.01732 -0.06011 -0.00054 0.00107 -0.00014 0.05928 0.02488 -0.39857 
1548147102.281774848 0.35646 0.02948 -0.03733 -0.00059 0.00105 -0.00014 0.05883 0.02514 -0.39594 
1548147102.481054464 0.37448 0.00976 -0.03306 -0.00062 0.00105 -0.00014 0.05874 0.02459 -0.39600 
1548147102.695264512 0.46934 -0.00500 -0.08370 -0.00061 0.00105 -0.00014 0.05915 0.02429 -0.39848 
1548147102.824784640 0.40548 0.03527 -0.05773 -0.00062 0.00106 -0.00014 0.05945 0.02462 -0.40033 
1548147103.24044800 0.47510 0.01858 -0.10399 -0.00064 0.00106 -0.00014 0.05917 0.02544 -0.39791 
1548147103.223324416 0.53073 0.00970 -0.08493 -0.00064 0.00105 -0.00014 0.05914 0.02535 -0.39798 
1548147103.427574528 0.37198 0.00799 -0.07962 -0.00064 0.00107 -0.00014 0.05938 0.02544 -0.39924 
1548147103.631824640 0.30128 0.00176 -0.07811 -0.00062 0.00107 -0.00014 0.05923 0.02563 -0.39766 
1548147103.846024448 0.42140 0.01034 -0.09207 -0.00062 0.00106 -0.00014 0.05910 0.02554 -0.39683 
1548147104.50284544 0.44300 0.00968 -0.11244 -0.00065 0.00107 -0.00015 0.05928 0.02483 -0.39938 
1548147104.274454528 0.34867 -0.01790 -0.09456 -0.00066 0.00109 -0.00015 0.05941 0.02444 -0.39895 
1548147104.523534592 0.38727 0.00579 -0.09010 -0.00065 0.00106 -0.00014 0.05936 0.02390 -0.40102 
1548147104.727774720 0.36023 0.00115 -0.07445 -0.00063 0.00106 -0.00014 0.05935 0.02409 -0.40037 
1548147104.887174656 0.31415 -0.01320 -0.06003 -0.00064 0.00106 -0.00014 0.05930 0.02299 -0.40056 
1548147105.91444480 -0.26820 -0.07472 0.03065 -0.00070 0.00106 -0.00014 0.05931 0.02295 -0.40046 
1548147105.320594432 -0.03213 -0.05181 0.04506 -0.00067 0.00106 -0.00014 0.05943 0.02322 -0.40206 
1548147105.619504640 0.24967 0.00596 -0.03103 -0.00069 0.00102 -0.00015 0.05938 0.02052 -0.40419 
1548147105.783904512 0.25051 -0.00852 -0.01270 -0.00069 0.00096 -0.00014 0.05897 0.01942 -0.40300 
1548147106.32994560 0.62898 0.00778 -0.12831 -0.00071 0.00094 -0.00014 0.05978 0.01993 -0.41393 
1548147106.326914560 0.69436 -0.00788 -0.13023 -0.00073 0.00104 -0.00015 0.05981 0.02107 -0.40821 
1548147106.541124608 0.67229 0.02166 -0.21274 -0.00070 0.00107 -0.00015 0.05943 0.02191 -0.40163 
1548147106.730434560 0.52948 0.00176 0.01643 -0.00073 0.00108 -0.00015 0.05845 0.02086 -0.39176 
1548147106.884874496 -0.13796 -0.00428 -0.01005 -0.00073 0.00109 -0.00015 0.05857 0.02146 -0.39386 
1548147107.74184704 -0.48298 -0.05699 -0.07889 -0.00069 0.00110 -0.00015 0.05869 0.02190 -0.39329 
1548147107.273454336 -0.35529 -0.02004 -0.03395 -0.00068 0.00106 -0.00016 0.05726 0.02189 -0.37834 
1548147107.477704448 -0.15697 0.01164 0.01029 -0.00069 0.00102 -0.00017 0.05657 0.02111 -0.37220 
1548147107.642104576 0.03274 0.01901 -0.00340 -0.00071 0.00103 -0.00017 0.05638 0.01934 -0.37176 
1548147107.781594624 0.04058 0.01794 0.00811 -0.00072 0.00102 -0.00018 0.05625 0.01961 -0.37124 
1548147107.945984512 -0.03156 0.01631 0.01616 -0.00072 0.00102 -0.00018 0.05627 0.01960 -0.37151 
1548147108.130314496 -0.02519 0.02038 0.02415 -0.00072 0.00101 -0.00018 0.05627 0.01955 -0.37188 
1548147108.424244480 0.01336 0.02080 0.03016 -0.00071 0.00100 -0.00018 0.05626 0.01952 -0.37222 
1548147108.683314688 0.04004 0.02751 0.03277 -0.00073 0.00100 -0.00018 0.05626 0.01960 -0.37211 
1548147108.917464576 0.04386 0.02756 0.03586 -0.00073 0.00100 -0.00018 0.05626 0.02006 -0.37190 
1548147109.81864704 0.05278 0.03160 0.03662 -0.00073 0.00100 -0.00018 0.05630 0.01994 -0.37217 
1548147109.325984512 0.05851 0.03385 0.03956 -0.00073 0.00100 -0.00018 0.05645 0.02028 -0.37388 
1548147109.520274432 0.05918 0.03038 0.04217 -0.00074 0.00100 -0.00017 0.05649 0.02003 -0.37428 
1548147109.689674496 0.06587 0.03365 0.04282 -0.00074 0.00100 -0.00017 0.05653 0.02064 -0.37446 
1548147109.923824640 0.06770 0.03267 0.04644 -0.00074 0.00101 -0.00017 0.05659 0.02069 -0.37523 
1548147110.172894464 0.06656 0.03233 0.04556 -0.00074 0.00101 -0.00016 0.05665 0.02084 -0.37528 
1548147110.382114304 0.06578 0.02751 0.04768 -0.00072 0.00102 -0.00016 0.05673 0.02113 -0.37598 
1548147110.571424512 0.06903 0.02978 0.04797 -0.00073 0.00102 -0.00016 0.05681 0.02119 -0.37664 
1548147110.820504320 0.06843 0.02978 0.04915 -0.00076 0.00102 -0.00016 0.05685 0.02118 -0.37672 
1548147110.979924480 0.06468 0.02875 0.04958 -0.00075 0.00102 -0.00016 0.05693 0.02120 -0.37736 
1548147111.229024512 0.06578 0.03097 0.04998 -0.00075 0.00103 -0.00016 0.05701 0.02152 -0.37783 
1548147111.438254336 0.06757 0.02894 0.04940 -0.00075 0.00103 -0.00016 0.05706 0.02156 -0.37794 
1548147111.637524480 0.06742 0.02946 0.05083 -0.00073 0.00103 -0.00016 0.05714 0.02150 -0.37877 
1548147111.826834432 0.06838 0.02923 0.04984 -0.00075 0.00103 -0.00016 0.05726 0.02153 -0.37960 
1548147112.11164416 0.06177 0.02463 0.05134 -0.00075 0.00104 -0.00015 0.05724 0.02137 -0.37923 
1548147112.265244416 0.06637 0.02782 0.05251 -0.00073 0.00103 -0.00015 0.05734 0.02135 -0.38005 
1548147112.524304384 0.10284 0.03062 0.05224 -0.00074 0.00104 -0.00015 0.05743 0.02171 -0.38033 
1548147112.733554432 0.29787 0.04484 0.03724 -0.00074 0.00103 -0.00015 0.05754 0.02160 -0.38127 
1548147113.22504448 0.01077 0.02507 0.06840 -0.00076 0.00102 -0.00016 0.05762 0.02208 -0.38248 
1548147113.226764544 0.07549 0.03227 0.01748 -0.00073 0.00104 -0.00015 0.05762 0.02268 -0.37856 
1548147113.465894400 0.07884 0.02263 0.04598 -0.00075 0.00104 -0.00015 0.05776 0.02221 -0.38283 
1548147113.714994432 0.06248 0.02175 0.05337 -0.00077 0.00104 -0.00016 0.05791 0.02200 -0.38495 
1548147113.939184384 0.05993 0.02201 0.04938 -0.00076 0.00104 -0.00015 0.05803 0.02178 -0.38538 
1548147114.163364352 0.06679 0.02546 0.05098 -0.00075 0.00104 -0.00015 0.05809 0.02171 -0.38586 
1548147114.317814272 0.06607 0.02209 0.05189 -0.00075 0.00104 -0.00015 0.05812 0.02171 -0.38610 
1548147114.487184384 0.06627 0.02677 0.04778 -0.00074 0.00104 -0.00015 0.05818 0.02178 -0.38597 
1548147114.641624576 0.06902 0.02722 0.04983 -0.00074 0.00104 -0.00015 0.05819 0.02171 -0.38602 
1548147114.885734400 0.06417 0.02221 0.04946 -0.00074 0.00104 -0.00015 0.05827 0.02174 -0.38649 
1548147115.40184320 0.06344 0.02448 0.04913 -0.00073 0.00104 -0.00015 0.05829 0.02182 -0.38652 
1548147115.189634304 0.05630 0.02436 0.04926 -0.00074 0.00104 -0.00015 0.05831 0.02173 -0.38648 
1548147115.418804480 0.05730 0.02123 0.04883 -0.00074 0.00104 -0.00015 0.05836 0.02162 -0.38667 
1548147115.667894272 0.06147 0.02440 0.04759 -0.00074 0.00104 -0.00015 0.05844 0.02179 -0.38701 
1548147115.912014336 0.05353 0.01644 0.05064 -0.00073 0.00105 -0.00015 0.05844 0.02177 -0.38695 
1548147116.116264448 0.04378 0.01569 0.05110 -0.00072 0.00105 -0.00015 0.05849 0.02174 -0.38711 
1548147116.464984320 0.05383 0.01368 0.04822 -0.00072 0.00105 -0.00015 0.05859 0.02177 -0.38744 
1548147116.664264192 0.05217 0.01905 0.04500 -0.00072 0.00105 -0.00015 0.05861 0.02166 -0.38696 
1548147116.823684096 0.04484 0.01826 0.04797 -0.00071 0.00105 -0.00014 0.05863 0.02192 -0.38721 
1548147117.72784128 0.04882 0.01552 0.04898 -0.00072 0.00105 -0.00015 0.05869 0.02172 -0.38776 
1548147117.371714304 0.04423 0.01410 0.04915 -0.00073 0.00105 -0.00015 0.05872 0.02166 -0.38757 
1548147117.580944384 0.03974 0.01939 0.04869 -0.00072 0.00105 -0.00015 0.05877 0.02148 -0.38765 
1548147117.760294144 0.04407 0.01452 0.05344 -0.00072 0.00105 -0.00015 0.05878 0.02153 -0.38811 
1548147117.964554240 0.02052 0.00266 0.04885 -0.00072 0.00106 -0.00015 0.05881 0.02176 -0.38755 
1548147118.118974208 0.02862 0.01072 0.04927 -0.00073 0.00106 -0.00015 0.05887 0.02157 -0.38799 
1548147118.368074240 0.02203 0.00761 0.04942 -0.00072 0.00106 -0.00015 0.05888 0.02152 -0.38773 
1548147118.652044288 0.03558 0.01777 0.04754 -0.00073 0.00105 -0.00015 0.05892 0.02153 -0.38749 
1548147118.856304128 0.03929 0.01085 0.04944 -0.00073 0.00105 -0.00015 0.05895 0.02162 -0.38779 
1548147119.35644416 0.02814 0.00827 0.04957 -0.00071 0.00105 -0.00015 0.05898 0.02165 -0.38775 
1548147119.185104128 0.03215 0.00491 0.04947 -0.00070 0.00105 -0.00014 0.05899 0.02164 -0.38763 
1548147119.414254080 0.02652 0.00752 0.05067 -0.00072 0.00106 -0.00015 0.05904 0.02162 -0.38791 
1548147119.568694016 0.03376 0.01446 0.04902 -0.00071 0.00105 -0.00015 0.05906 0.02154 -0.38778 
1548147119.817794304 0.02627 0.01034 0.04944 -0.00071 0.00106 -0.00014 0.05909 0.02155 -0.38775 
1548147120.22054144 0.03418 0.00775 0.04645 -0.00072 0.00105 -0.00015 0.05915 0.02135 -0.38786 
1548147120.186454272 0.02520 0.00717 0.04784 -0.00072 0.00106 -0.00015 0.05915 0.02135 -0.38771 
1548147120.470424064 0.02733 0.00507 0.04898 -0.00071 0.00105 -0.00014 0.05919 0.02153 -0.38783 
1548147120.734464256 0.02812 0.00933 0.04861 -0.00071 0.00106 -0.00015 0.05923 0.02149 -0.38784 
1548147120.963654400 0.02811 0.00908 0.04965 -0.00071 0.00106 -0.00014 0.05924 0.02150 -0.38770 
1548147121.212744192 0.02381 0.00971 0.04571 -0.00071 0.00106 -0.00014 0.05929 0.02146 -0.38743 
1548147121.382134272 0.01952 0.00922 0.04781 -0.00071 0.00106 -0.00014 0.05931 0.02134 -0.38774 
1548147121.516644352 0.02652 0.00725 0.05186 -0.00071 0.00105 -0.00014 0.05929 0.02128 -0.38778 
1548147121.710934272 0.02602 0.00814 0.04543 -0.00071 0.00106 -0.00014 0.05934 0.02139 -0.38730 
1548147121.915194368 0.02479 0.01338 0.04609 -0.00071 0.00105 -0.00014 0.05936 0.02125 -0.38732 
1548147122.114464256 0.02379 0.01216 0.04596 -0.00071 0.00106 -0.00014 0.05938 0.02130 -0.38728 
1548147122.303774208 0.02087 0.00640 0.04581 -0.00072 0.00106 -0.00014 0.05939 0.02134 -0.38713 
1548147122.508024320 0.02743 0.01498 0.04729 -0.00071 0.00105 -0.00014 0.05944 0.02126 -0.38747 
1548147122.707304192 0.00806 0.00182 0.05084 -0.00070 0.00106 -0.00014 0.05943 0.02134 -0.38744 
1548147122.911564032 0.01601 0.00891 0.04733 -0.00072 0.00106 -0.00015 0.05948 0.02139 -0.38730 
1548147123.110854144 0.01481 0.00857 0.04799 -0.00071 0.00106 -0.00015 0.05949 0.02129 -0.38715 
1548147123.349974272 0.01820 0.00928 0.04809 -0.00070 0.00106 -0.00014 0.05952 0.02126 -0.38709 
1548147123.619003904 0.01921 0.00980 0.04682 -0.00069 0.00106 -0.00014 0.05957 0.02131 -0.38700 
1548147123.868104192 0.01983 0.01110 0.04608 -0.00070 0.00106 -0.00014 0.05956 0.02138 -0.38654 
1548147124.157064192 0.01413 0.00548 0.04506 -0.00069 0.00106 -0.00014 0.05960 0.02120 -0.38637 
