1403638127.505096960 0.00357 0.00648 -0.01256 -0.00534 0.00483 0.01377 0.00051 -0.00005 -0.00013 
1403638127.760097024 -0.00860 -0.00567 -0.00452 -0.00564 0.01409 0.04708 -0.01444 0.00098 0.00600 
1403638128.50096896 -0.00410 0.00208 -0.00297 -0.00307 0.01983 0.07600 -0.02866 0.00063 0.01394 
1403638128.305096960 0.00868 0.00388 0.00192 -0.00283 0.02020 0.07667 -0.04204 0.00062 0.01949 
1403638128.555097088 -0.00055 0.00400 0.00028 -0.00274 0.02028 0.07661 -0.03760 0.00045 0.01681 
1403638128.810096896 -0.00903 -0.00568 -0.00883 -0.00290 0.01980 0.07688 -0.03296 0.00038 0.01445 
1403638129.100097024 -0.00464 -0.01352 0.02232 -0.00241 0.01979 0.07733 -0.04193 0.00048 0.01853 
1403638129.355097088 0.02821 0.03361 0.10333 -0.00208 0.01974 0.07693 -0.03366 0.00043 0.01496 
1403638129.610096896 0.01762 -0.00569 0.08270 -0.00208 0.01979 0.07695 -0.03422 0.00044 0.01520 
1403638129.900097024 0.02183 -0.01610 0.24195 -0.00208 0.01981 0.07696 -0.03440 0.00043 0.01529 
1403638130.65096960 0.02089 0.00554 0.37748 -0.00208 0.01984 0.07696 -0.03470 0.00051 0.01520 
1403638130.255097088 0.02846 -0.00801 0.40140 -0.00209 0.01987 0.07696 -0.03512 0.00064 0.01488 
1403638130.365096960 0.00405 -0.00436 0.43022 -0.00213 0.02047 0.07664 -0.04889 0.00648 -0.00125 
1403638130.475097088 0.01302 -0.02498 0.39508 -0.00181 0.02021 0.07715 -0.04826 0.00996 0.00029 
1403638130.595097088 0.01666 -0.02602 0.40194 -0.00168 0.02030 0.07746 -0.05098 0.01254 -0.00057 
1403638130.740097024 0.02698 -0.00753 0.36355 -0.00157 0.02013 0.07737 -0.04830 0.01217 0.00144 
1403638130.880097024 0.06650 0.01600 0.21562 -0.00171 0.02017 0.07750 -0.04670 0.01096 0.00490 
1403638131.50096896 0.05411 0.03220 -0.06347 -0.00169 0.02025 0.07753 -0.04829 0.01316 0.00356 
1403638131.200097024 0.03085 0.00198 -0.27731 -0.00181 0.02041 0.07729 -0.04902 0.00959 0.00211 
1403638131.320097024 0.03018 0.02304 -0.31046 -0.00200 0.02082 0.07721 -0.05244 0.00963 -0.00305 
1403638131.445096960 0.05969 0.03874 -0.34160 -0.00193 0.02074 0.07726 -0.05166 0.01053 -0.00356 
1403638131.705096960 0.05599 0.03281 -0.44429 -0.00161 0.02093 0.07735 -0.05147 0.01249 -0.00902 
1403638131.885096960 0.05646 0.03352 -0.40160 -0.00172 0.02124 0.07735 -0.05365 0.01202 -0.01173 
1403638132.55097088 0.03154 -0.00872 -0.11360 -0.00184 0.02106 0.07721 -0.05339 0.01101 -0.01124 
1403638132.245096960 0.00817 -0.02065 0.43828 -0.00188 0.02121 0.07710 -0.05366 0.01247 -0.01312 
1403638132.495097088 0.00737 -0.03211 0.58514 -0.00180 0.02116 0.07693 -0.05279 0.01047 -0.01519 
1403638132.710096896 -0.01073 -0.11460 0.30968 -0.00189 0.02126 0.07697 -0.05367 0.00976 -0.01430 
1403638132.905096960 0.01351 -0.05199 0.02216 -0.00194 0.02146 0.07702 -0.05390 0.00964 -0.01404 
1403638133.25096960 -0.00270 0.06723 -0.15219 -0.00193 0.02132 0.07691 -0.05325 0.00933 -0.01427 
1403638133.135097088 -0.01911 0.18425 -0.22740 -0.00191 0.02128 0.07692 -0.05311 0.01001 -0.01406 
1403638133.315097088 0.02386 0.37125 -0.25307 -0.00188 0.02127 0.07700 -0.05299 0.00947 -0.01391 
1403638133.420097024 0.07819 0.44250 -0.22439 -0.00187 0.02118 0.07696 -0.05245 0.00962 -0.01392 
1403638133.570096896 0.14099 0.43380 -0.18146 -0.00169 0.02140 0.07687 -0.05307 0.00986 -0.01261 
1403638133.715097088 0.17840 0.36501 -0.17110 -0.00176 0.02138 0.07683 -0.05266 0.01000 -0.01212 
1403638133.850096896 0.07236 0.24635 -0.15671 -0.00174 0.02139 0.07686 -0.05291 0.00993 -0.01284 
1403638134.10096896 -0.14075 -0.06143 -0.04244 -0.00175 0.02129 0.07681 -0.05269 0.00940 -0.01395 
1403638134.190096896 -0.29950 -0.27246 0.04628 -0.00177 0.02131 0.07674 -0.05288 0.00934 -0.01426 
1403638134.360097024 -0.34804 -0.39256 0.02138 -0.00184 0.02127 0.07672 -0.04987 0.00253 -0.00680 
1403638134.555097088 -0.22564 -0.43416 0.03520 -0.00184 0.02122 0.07674 -0.05043 0.00202 -0.00720 
1403638134.785096960 -0.10150 -0.45523 0.08475 -0.00163 0.02124 0.07665 -0.05050 0.00318 -0.00749 
1403638134.950096896 -0.03820 -0.34613 0.08676 -0.00163 0.02129 0.07658 -0.05039 0.00328 -0.00736 
1403638135.145096960 0.02123 -0.18044 -0.05574 -0.00158 0.02142 0.07655 -0.04958 0.00334 -0.00771 
1403638135.260097024 0.08515 0.01651 -0.08768 -0.00163 0.02134 0.07657 -0.04943 0.00395 -0.00823 
1403638135.460097024 0.15959 0.24262 -0.09539 -0.00166 0.02142 0.07651 -0.04922 0.00438 -0.00794 
1403638135.695097088 0.18889 0.39683 -0.00688 -0.00167 0.02137 0.07661 -0.04921 0.00465 -0.00869 
1403638135.855097088 0.24506 0.33529 -0.01206 -0.00179 0.02139 0.07660 -0.04964 0.00414 -0.01020 
1403638136.100097024 0.24603 0.42362 0.18533 -0.00195 0.02131 0.07661 -0.04864 0.00553 -0.01012 
1403638136.350096896 0.24395 0.35485 -0.09457 -0.00193 0.02136 0.07661 -0.04861 0.00497 -0.00969 
1403638136.505096960 0.10573 0.09387 -0.01441 -0.00207 0.02147 0.07665 -0.04867 0.00349 -0.00806 
1403638136.765096960 -0.08179 -0.33696 0.13800 -0.00207 0.02141 0.07666 -0.04875 0.00317 -0.00873 
1403638136.935097088 -0.12528 -0.41256 -0.03902 -0.00215 0.02147 0.07664 -0.04941 0.00290 -0.00867 
1403638137.120097024 -0.06653 -0.32507 -0.33394 -0.00214 0.02139 0.07659 -0.04951 0.00291 -0.00894 
1403638137.280097024 -0.00591 -0.22688 -0.40348 -0.00208 0.02134 0.07662 -0.04929 0.00467 -0.00957 
1403638137.375097088 0.01962 -0.15103 -0.40142 -0.00205 0.02133 0.07660 -0.04944 0.00475 -0.01009 
1403638137.520097024 0.02737 -0.08991 -0.34926 -0.00201 0.02133 0.07660 -0.04868 0.00511 -0.00884 
1403638137.725096960 0.02672 -0.03251 -0.19407 -0.00194 0.02138 0.07667 -0.04907 0.00582 -0.00942 
1403638137.945096960 0.00719 -0.03214 -0.10338 -0.00190 0.02146 0.07665 -0.04586 0.01176 -0.00088 
1403638138.70096896 -0.01448 -0.01967 -0.04690 -0.00192 0.02147 0.07665 -0.04458 0.01281 0.00266 
1403638138.275097088 -0.01417 -0.00987 -0.01641 -0.00193 0.02147 0.07665 -0.04440 0.01277 0.00314 
1403638138.460097024 -0.02525 -0.00102 0.00017 -0.00195 0.02146 0.07666 -0.04430 0.01273 0.00348 
1403638138.750096896 -0.02472 -0.01360 -0.00476 -0.00196 0.02146 0.07666 -0.04415 0.01265 0.00396 
1403638138.920097024 -0.02192 0.00534 -0.00168 -0.00197 0.02145 0.07666 -0.04400 0.01241 0.00449 
1403638139.100097024 -0.03429 -0.02163 -0.00023 -0.00198 0.02142 0.07666 -0.04349 0.01194 0.00597 
1403638139.310096896 -0.01895 -0.00634 0.00065 -0.00202 0.02134 0.07663 -0.04123 0.00953 0.01202 
1403638139.510096896 -0.01961 0.00083 0.00110 -0.00203 0.02131 0.07663 -0.04060 0.00894 0.01361 
1403638139.670096896 -0.02133 -0.00385 0.00131 -0.00204 0.02129 0.07663 -0.04024 0.00869 0.01451 
1403638139.955097088 -0.02495 -0.00089 0.00389 -0.00204 0.02127 0.07664 -0.03988 0.00846 0.01536 
1403638140.200097024 -0.02694 0.00017 0.00507 -0.00206 0.02124 0.07665 -0.03919 0.00805 0.01690 
1403638140.405096960 -0.01688 0.00109 0.00128 -0.00208 0.02118 0.07669 -0.03839 0.00782 0.01838 
1403638140.595097088 -0.01601 0.00094 0.00216 -0.00210 0.02117 0.07670 -0.03815 0.00789 0.01874 
1403638140.720097024 -0.01685 0.00348 0.00305 -0.00210 0.02116 0.07671 -0.03802 0.00791 0.01900 
1403638140.860097024 -0.01544 0.00368 0.00374 -0.00211 0.02114 0.07672 -0.03790 0.00792 0.01913 
1403638141.25096960 -0.01755 0.00498 0.00521 -0.00211 0.02113 0.07673 -0.03780 0.00790 0.01925 
1403638141.210096896 -0.01532 0.00456 0.00378 -0.00212 0.02112 0.07676 -0.03759 0.00796 0.01944 
1403638141.400097024 -0.01114 0.00428 0.00306 -0.00214 0.02110 0.07679 -0.03733 0.00810 0.01967 
1403638141.565096960 -0.01132 0.00503 0.00324 -0.00215 0.02109 0.07680 -0.03725 0.00817 0.01970 
1403638141.725096960 -0.01315 0.00449 0.00295 -0.00215 0.02109 0.07681 -0.03718 0.00823 0.01972 
1403638141.955097088 -0.01414 0.00073 0.00393 -0.00216 0.02108 0.07685 -0.03709 0.00831 0.01958 
1403638142.115097088 -0.00811 0.01107 0.00041 -0.00216 0.02107 0.07686 -0.03705 0.00838 0.01945 
1403638142.255097088 -0.01528 -0.01300 0.00034 -0.00216 0.02106 0.07687 -0.03704 0.00842 0.01934 
1403638142.425096960 0.00214 0.02855 -0.00232 -0.00217 0.02106 0.07688 -0.03701 0.00846 0.01936 
1403638142.600097024 0.00126 0.00542 -0.00471 -0.00217 0.02105 0.07690 -0.03710 0.00842 0.01914 
1403638142.800097024 0.01168 0.00613 -0.00692 -0.00219 0.02105 0.07692 -0.03729 0.00855 0.01880 
1403638142.955097088 0.00754 0.01128 -0.00028 -0.00221 0.02102 0.07696 -0.03817 0.00857 0.01781 
1403638143.250096896 0.01262 0.00764 -0.00239 -0.00221 0.02102 0.07698 -0.03843 0.00875 0.01741 
1403638143.430096896 0.00607 0.00072 -0.00002 -0.00218 0.02100 0.07701 -0.03893 0.00862 0.01655 
1403638143.615097088 0.00223 0.00052 0.00060 -0.00217 0.02100 0.07702 -0.03895 0.00873 0.01658 
1403638143.765096960 0.00113 0.00083 0.00211 -0.00217 0.02100 0.07702 -0.03892 0.00882 0.01661 
1403638143.955097088 -0.00016 0.00116 0.00336 -0.00217 0.02100 0.07702 -0.03892 0.00884 0.01661 
1403638144.75097088 -0.00081 0.00256 0.00414 -0.00217 0.02100 0.07702 -0.03891 0.00886 0.01661 
1403638144.250096896 -0.00465 0.00068 0.00261 -0.00217 0.02099 0.07704 -0.03888 0.00902 0.01629 
1403638144.400097024 -0.00440 0.00363 0.00139 -0.00217 0.02098 0.07704 -0.03892 0.00905 0.01609 
1403638144.525096960 -0.00585 0.00400 0.00250 -0.00217 0.02098 0.07705 -0.03895 0.00911 0.01592 
1403638144.675097088 -0.00409 0.00344 0.00360 -0.00217 0.02098 0.07706 -0.03895 0.00917 0.01582 
1403638144.900097024 0.00242 0.00842 0.00039 -0.00217 0.02097 0.07707 -0.03894 0.00920 0.01569 
1403638145.100097024 0.00158 0.01043 0.00145 -0.00217 0.02097 0.07708 -0.03895 0.00911 0.01561 
1403638145.265096960 -0.00001 0.00581 0.00505 -0.00217 0.02096 0.07710 -0.03899 0.00898 0.01553 
1403638145.455097088 0.00274 0.00338 0.00743 -0.00217 0.02096 0.07711 -0.03897 0.00911 0.01547 
1403638145.620097024 0.00648 0.01110 0.00625 -0.00217 0.02095 0.07712 -0.03895 0.00928 0.01525 
1403638145.775097088 0.00647 0.00975 0.00484 -0.00217 0.02095 0.07713 -0.03899 0.00943 0.01486 
1403638145.970096896 0.00681 0.00971 -0.00084 -0.00217 0.02094 0.07714 -0.03903 0.00959 0.01447 
1403638146.170096896 0.00794 0.00358 -0.00114 -0.00217 0.02093 0.07718 -0.03906 0.00951 0.01456 
1403638146.305096960 0.01238 0.00657 -0.00656 -0.00217 0.02092 0.07719 -0.03913 0.00943 0.01454 
1403638146.425096960 0.00874 0.00431 -0.00368 -0.00217 0.02093 0.07720 -0.03914 0.00936 0.01450 
1403638146.555097088 0.00869 0.00350 -0.00837 -0.00217 0.02093 0.07720 -0.03925 0.00933 0.01453 
1403638146.755097088 0.01628 0.00173 -0.01111 -0.00217 0.02092 0.07720 -0.03944 0.00960 0.01434 
1403638146.905096960 0.02480 0.00061 -0.01156 -0.00217 0.02092 0.07720 -0.03956 0.00967 0.01427 
1403638147.100097024 0.01377 0.00028 -0.00166 -0.00217 0.02092 0.07721 -0.03986 0.00985 0.01389 
1403638147.205096960 0.01616 0.00468 0.01187 -0.00217 0.02091 0.07720 -0.04007 0.00973 0.01405 
1403638147.405096960 0.01946 0.00345 0.01307 -0.00217 0.02091 0.07720 -0.04003 0.00979 0.01409 
1403638147.525096960 0.00857 -0.00682 0.01812 -0.00218 0.02090 0.07720 -0.04001 0.00991 0.01384 
1403638147.725096960 -0.01487 -0.00697 0.01271 -0.00218 0.02091 0.07720 -0.03994 0.01026 0.01331 
1403638147.950096896 -0.09267 0.01425 0.11708 -0.00216 0.02089 0.07720 -0.03941 0.01041 0.01359 
1403638148.75097088 -0.09213 0.01846 0.20252 -0.00215 0.02089 0.07720 -0.03940 0.01060 0.01353 
1403638148.205096960 -0.07676 0.01915 0.34564 -0.00215 0.02090 0.07721 -0.03949 0.01067 0.01374 
1403638148.350096896 -0.06514 0.01763 0.51011 -0.00215 0.02094 0.07724 -0.03951 0.01412 0.01246 
1403638148.495097088 -0.05874 -0.00139 0.21667 -0.00214 0.02092 0.07724 -0.04015 0.02461 0.01025 
1403638148.580097024 -0.05974 -0.00065 0.00591 -0.00216 0.02091 0.07724 -0.04022 0.02865 0.01036 
1403638148.705096960 -0.10157 -0.01206 -0.10957 -0.00216 0.02092 0.07723 -0.04043 0.02826 0.01009 
1403638148.850096896 -0.16114 -0.02470 0.00505 -0.00221 0.02098 0.07726 -0.04026 0.03373 0.01004 
1403638149.155097088 -0.25104 -0.04851 0.32700 -0.00222 0.02101 0.07727 -0.04111 0.02913 0.01105 
1403638149.400097024 -0.24360 -0.06605 0.24353 -0.00221 0.02098 0.07726 -0.04172 0.02804 0.01070 
1403638149.610096896 -0.23034 -0.08209 0.11068 -0.00221 0.02095 0.07727 -0.04226 0.02560 0.00994 
1403638149.800097024 -0.22857 -0.10230 0.01447 -0.00223 0.02095 0.07728 -0.04293 0.02450 0.00879 
1403638150.45096960 -0.22104 -0.11406 -0.10310 -0.00222 0.02096 0.07726 -0.04340 0.02418 0.00850 
1403638150.170096896 -0.21880 -0.15559 -0.17215 -0.00223 0.02095 0.07725 -0.04327 0.02398 0.00937 
1403638150.340097024 -0.22697 -0.26300 -0.25471 -0.00219 0.02092 0.07727 -0.04363 0.02514 0.00925 
1403638150.430096896 -0.25751 -0.32381 -0.22117 -0.00220 0.02094 0.07726 -0.04426 0.02414 0.00819 
1403638150.700097024 -0.34541 -0.38384 0.03173 -0.00226 0.02093 0.07724 -0.04442 0.02244 0.00915 
1403638150.900097024 -0.43726 -0.40739 0.09290 -0.00227 0.02095 0.07724 -0.04467 0.02222 0.00892 
1403638151.85096960 -0.45522 -0.44977 -0.00024 -0.00231 0.02094 0.07724 -0.04554 0.02073 0.00744 
1403638151.205096960 -0.46992 -0.49168 -0.08668 -0.00227 0.02098 0.07723 -0.04863 -0.00679 0.00171 
1403638151.350096896 -0.46339 -0.52870 -0.10744 -0.00229 0.02097 0.07722 -0.04828 -0.00695 0.00292 
1403638151.450096896 -0.46675 -0.55637 -0.03170 -0.00230 0.02100 0.07722 -0.04850 -0.00760 0.00285 
1403638151.560097024 -0.46142 -0.55754 0.02104 -0.00231 0.02099 0.07720 -0.04885 -0.00748 0.00249 
1403638151.715097088 -0.45233 -0.57895 0.13166 -0.00234 0.02098 0.07721 -0.04841 -0.00879 0.00372 
1403638151.945096960 -0.47567 -0.61711 0.28119 -0.00233 0.02099 0.07721 -0.04844 -0.01016 0.00394 
1403638152.80097024 -0.47708 -0.64643 0.22469 -0.00232 0.02097 0.07723 -0.04887 -0.01037 0.00311 
1403638152.260097024 -0.48881 -0.68691 0.10010 -0.00232 0.02097 0.07724 -0.05040 -0.02607 -0.00025 
1403638152.400097024 -0.48858 -0.73158 -0.00188 -0.00233 0.02096 0.07724 -0.05012 -0.02655 0.00069 
1403638152.525096960 -0.49207 -0.78905 -0.05526 -0.00233 0.02095 0.07723 -0.04991 -0.02649 0.00152 
1403638152.650096896 -0.48261 -0.83819 -0.09378 -0.00235 0.02094 0.07723 -0.04953 -0.02641 0.00264 
1403638152.825096960 -0.52149 -0.91315 0.05680 -0.00234 0.02091 0.07722 -0.04952 -0.02612 0.00231 
1403638153.50096896 -0.52008 -0.93188 0.19630 -0.00236 0.02091 0.07721 -0.04942 -0.02597 0.00272 
1403638153.205096960 -0.54390 -0.92814 0.16125 -0.00235 0.02090 0.07721 -0.04886 -0.02675 0.00418 
1403638153.335097088 -0.56595 -0.93819 0.08925 -0.00237 0.02090 0.07721 -0.04867 -0.02676 0.00484 
1403638153.420097024 -0.57360 -0.95045 0.06993 -0.00237 0.02088 0.07720 -0.04871 -0.02630 0.00501 
1403638153.515097088 -0.58205 -0.97358 0.11847 -0.00237 0.02087 0.07719 -0.04841 -0.02626 0.00585 
1403638153.675097088 -0.57755 -1.04967 0.19042 -0.00240 0.02085 0.07717 -0.04924 -0.01092 0.00355 
1403638153.820097024 -0.58826 -1.10869 0.11071 -0.00240 0.02085 0.07717 -0.04937 -0.01031 0.00371 
1403638153.960097024 -0.57309 -1.13685 0.02931 -0.00242 0.02081 0.07717 -0.04920 -0.01092 0.00471 
1403638154.85096960 -0.54482 -1.14647 -0.04028 -0.00241 0.02078 0.07718 -0.04909 -0.01147 0.00508 
1403638154.260097024 -0.49623 -1.15150 -0.11047 -0.00242 0.02078 0.07719 -0.04747 0.00828 0.00909 
1403638154.450096896 -0.41670 -1.15679 -0.17142 -0.00241 0.02078 0.07720 -0.04758 0.00857 0.00949 
1403638154.650096896 -0.28450 -1.13363 -0.05508 -0.00241 0.02078 0.07718 -0.04744 0.00810 0.01051 
1403638154.805096960 -0.20549 -1.12095 0.05597 -0.00242 0.02076 0.07720 -0.04764 0.00856 0.01043 
1403638155.5096960 -0.11135 -1.13019 0.20523 -0.00245 0.02076 0.07719 -0.04144 0.02606 0.02560 
1403638155.175097088 -0.01827 -1.13677 0.20748 -0.00243 0.02072 0.07716 -0.04123 0.02624 0.02665 
1403638155.375097088 0.09333 -1.12554 0.08938 -0.00242 0.02068 0.07716 -0.04093 0.02586 0.02735 
1403638155.580097024 0.22862 -1.11855 -0.04192 -0.00241 0.02067 0.07715 -0.04100 0.02652 0.02703 
1403638155.705096960 0.30193 -1.07963 -0.09351 -0.00243 0.02066 0.07715 -0.04095 0.02634 0.02705 
1403638155.855097088 0.38373 -1.02705 -0.16033 -0.00241 0.02065 0.07716 -0.04105 0.02667 0.02643 
1403638156.110096896 0.45162 -0.89416 -0.00108 -0.00241 0.02068 0.07717 -0.03501 0.04061 0.04109 
1403638156.315097088 0.39942 -0.88533 0.10168 -0.00244 0.02070 0.07717 -0.03205 0.04547 0.04820 
1403638156.580097024 0.30660 -0.93355 -0.05576 -0.00243 0.02069 0.07718 -0.03195 0.04641 0.04841 
1403638156.855097088 0.20828 -1.01567 -0.17051 -0.00244 0.02068 0.07717 -0.03126 0.04505 0.05022 
1403638157.5096960 0.16162 -1.05279 -0.10048 -0.00243 0.02068 0.07718 -0.03103 0.04468 0.05106 
1403638157.120097024 0.11027 -1.08885 -0.02180 -0.00244 0.02066 0.07717 -0.03074 0.04407 0.05190 
1403638157.250096896 0.08673 -1.12904 0.05452 -0.00244 0.02065 0.07716 -0.03062 0.04960 0.05188 
1403638157.475097088 0.06420 -1.21993 0.05129 -0.00243 0.02061 0.07719 -0.02986 0.05123 0.05373 
1403638157.580097024 0.07612 -1.25734 0.00463 -0.00243 0.02060 0.07720 -0.02960 0.05246 0.05447 
1403638157.680097024 0.07743 -1.26116 -0.00460 -0.00243 0.02060 0.07718 -0.02942 0.05106 0.05523 
1403638157.810096896 0.11841 -1.26229 0.07190 -0.00243 0.02058 0.07718 -0.02912 0.05098 0.05572 
1403638157.970096896 0.15528 -1.27794 0.19071 -0.00242 0.02060 0.07716 -0.02928 0.05245 0.05556 
1403638158.160097024 0.14565 -1.22436 0.09096 -0.00245 0.02057 0.07717 -0.02882 0.05086 0.05682 
1403638158.320097024 0.10535 -1.21711 0.00823 -0.00244 0.02056 0.07716 -0.02882 0.05155 0.05689 
1403638158.505096960 0.09853 -1.14193 -0.07331 -0.00238 0.02061 0.07712 -0.02804 0.07323 0.05816 
1403638158.720097024 0.15983 -1.11523 -0.08632 -0.00235 0.02058 0.07712 -0.02787 0.07182 0.05880 
1403638158.910096896 0.15947 -1.09756 0.03800 -0.00236 0.02058 0.07711 -0.02766 0.07163 0.05953 
1403638159.60097024 0.13602 -1.11288 0.15099 -0.00236 0.02059 0.07710 -0.02796 0.07240 0.05886 
1403638159.205096960 0.10388 -1.17563 0.10348 -0.00242 0.02061 0.07710 -0.02793 0.07170 0.05914 
1403638159.325096960 0.06434 -1.25507 0.08636 -0.00243 0.02061 0.07710 -0.02783 0.07167 0.05954 
1403638159.430096896 0.03532 -1.28726 0.08228 -0.00244 0.02060 0.07709 -0.02792 0.07203 0.05937 
1403638159.525096960 0.01125 -1.24408 0.13647 -0.00244 0.02058 0.07710 -0.02784 0.07110 0.05958 
1403638159.680097024 -0.08258 -1.18400 0.25575 -0.00245 0.02061 0.07710 -0.02831 0.07214 0.05845 
1403638159.765096960 -0.16123 -1.09518 0.32423 -0.00242 0.02063 0.07710 -0.02836 0.07721 0.05834 
1403638159.905096960 -0.27165 -0.94403 0.44546 -0.00242 0.02063 0.07710 -0.02826 0.07630 0.05870 
1403638160.100097024 -0.31422 -0.70566 0.58544 -0.00243 0.02060 0.07709 -0.02756 0.07423 0.06053 
1403638160.180097024 -0.31957 -0.69720 0.67073 -0.00241 0.02061 0.07708 -0.02779 0.07426 0.05998 
1403638160.360097024 -0.31535 -0.64088 0.80888 -0.00241 0.02060 0.07709 -0.02743 0.07383 0.06067 
1403638160.470096896 -0.32062 -0.66155 0.76835 -0.00240 0.02061 0.07708 -0.02755 0.07413 0.06041 
1403638160.625096960 -0.32025 -0.69474 0.68129 -0.00242 0.02059 0.07709 -0.02587 0.07645 0.06398 
1403638160.805096960 -0.35353 -0.72316 0.61900 -0.00247 0.02057 0.07708 -0.02580 0.07673 0.06344 
1403638160.970096896 -0.42440 -0.65718 0.54272 -0.00245 0.02056 0.07707 -0.02567 0.07675 0.06335 
1403638161.250096896 -0.54359 -0.51035 0.44844 -0.00247 0.02058 0.07703 -0.02600 0.07810 0.06259 
1403638161.420097024 -0.55288 -0.44081 0.42336 -0.00246 0.02057 0.07708 -0.02309 0.07514 0.06982 
1403638161.650096896 -0.57529 -0.43977 0.30725 -0.00246 0.02056 0.07709 -0.02327 0.07534 0.06955 
1403638161.765096960 -0.60052 -0.43102 0.25223 -0.00248 0.02055 0.07711 -0.02315 0.07553 0.06992 
1403638161.970096896 -0.65486 -0.40189 0.17581 -0.00250 0.02055 0.07712 -0.02290 0.07424 0.07042 
1403638162.100097024 -0.68548 -0.39501 0.26629 -0.00250 0.02055 0.07713 -0.02276 0.07453 0.07060 
1403638162.400097024 -0.79381 -0.35960 0.26077 -0.00252 0.02056 0.07713 -0.02307 0.07474 0.06961 
1403638162.610096896 -0.87628 -0.31472 0.28243 -0.00252 0.02059 0.07714 -0.02303 0.07481 0.06920 
1403638162.900097024 -0.95033 -0.26083 0.47944 -0.00251 0.02061 0.07714 -0.02294 0.07529 0.06930 
1403638163.20097024 -1.00309 -0.24366 0.47620 -0.00251 0.02062 0.07713 -0.02272 0.07627 0.06935 
1403638163.270096896 -1.07380 -0.15003 0.06941 -0.00252 0.02067 0.07714 -0.02332 0.07686 0.06762 
1403638163.455097088 -1.08480 -0.08537 0.00974 -0.00252 0.02067 0.07713 -0.02342 0.07696 0.06766 
1403638163.625096960 -1.07855 -0.05675 0.15178 -0.00251 0.02069 0.07712 -0.02331 0.07751 0.06820 
1403638163.775097088 -1.06382 -0.02144 0.30163 -0.00250 0.02069 0.07711 -0.02342 0.07725 0.06816 
1403638163.975097088 -1.02185 0.03547 0.41998 -0.00248 0.02073 0.07713 -0.02116 0.08391 0.07297 
1403638164.155097088 -1.03696 0.10120 0.51380 -0.00248 0.02073 0.07712 -0.02105 0.08411 0.07314 
1403638164.250096896 -1.06155 0.13842 0.47725 -0.00247 0.02073 0.07712 -0.02117 0.08390 0.07295 
1403638164.375097088 -1.09263 0.19575 0.39540 -0.00247 0.02074 0.07711 -0.02167 0.08305 0.07183 
1403638164.515097088 -1.10901 0.25828 0.32572 -0.00247 0.02075 0.07711 -0.02151 0.08353 0.07195 
1403638164.615097088 -1.12960 0.32083 0.27273 -0.00247 0.02075 0.07712 -0.02133 0.08394 0.07229 
1403638164.765096960 -1.16907 0.42548 0.20562 -0.00245 0.02076 0.07712 -0.02092 0.08724 0.07295 
1403638164.860097024 -1.16370 0.46623 0.18047 -0.00244 0.02077 0.07712 -0.02080 0.08841 0.07301 
1403638165.97024 -1.10110 0.50378 0.11214 -0.00244 0.02077 0.07712 -0.02085 0.08802 0.07291 
1403638165.165096960 -1.05186 0.59938 0.01039 -0.00246 0.02075 0.07712 -0.02095 0.08552 0.07303 
1403638165.295097088 -1.00786 0.65192 -0.05659 -0.00245 0.02075 0.07713 -0.02077 0.08650 0.07342 
1403638165.420097024 -1.02142 0.67965 -0.09500 -0.00244 0.02075 0.07714 -0.02011 0.08772 0.07515 
1403638165.550096896 -1.02205 0.72381 -0.12238 -0.00244 0.02076 0.07716 -0.02008 0.08905 0.07491 
1403638165.720097024 -0.97205 0.81900 -0.21175 -0.00244 0.02077 0.07715 -0.02022 0.08774 0.07465 
1403638165.900097024 -0.85069 0.92735 -0.21466 -0.00244 0.02078 0.07715 -0.02026 0.08786 0.07442 
1403638166.35097088 -0.80718 0.93199 -0.10520 -0.00242 0.02080 0.07715 -0.01933 0.09013 0.07639 
1403638166.200097024 -0.77372 0.91093 0.13944 -0.00243 0.02082 0.07714 -0.01942 0.09085 0.07613 
1403638166.410096896 -0.69185 0.87775 0.49596 -0.00242 0.02082 0.07714 -0.01893 0.09229 0.07716 
1403638166.655097088 -0.66578 0.80641 0.35601 -0.00241 0.02085 0.07714 -0.01929 0.09200 0.07664 
1403638166.795097088 -0.65401 0.75155 0.22766 -0.00241 0.02086 0.07715 -0.01913 0.09442 0.07702 
1403638166.875097088 -0.66651 0.73937 0.15094 -0.00240 0.02087 0.07715 -0.01950 0.09512 0.07610 
1403638167.97024 -0.73929 0.69716 0.11312 -0.00240 0.02088 0.07715 -0.01983 0.09559 0.07543 
1403638167.205096960 -0.92195 0.57123 0.25775 -0.00242 0.02087 0.07715 -0.02006 0.09533 0.07484 
1403638167.350096896 -1.01500 0.46027 0.34614 -0.00242 0.02086 0.07715 -0.01994 0.09461 0.07519 
1403638167.500097024 -1.07488 0.38441 0.29002 -0.00244 0.02085 0.07714 -0.01946 0.09492 0.07636 
1403638167.705096960 -1.14132 0.35313 0.14258 -0.00242 0.02084 0.07714 -0.01902 0.09523 0.07739 
1403638167.955097088 -1.27337 0.40764 0.04405 -0.00243 0.02083 0.07714 -0.01915 0.09409 0.07735 
1403638168.155097088 -1.33029 0.50506 0.16564 -0.00244 0.02080 0.07713 -0.01881 0.09291 0.07805 
1403638168.360097024 -1.39077 0.61085 0.30930 -0.00243 0.02079 0.07712 -0.01836 0.09251 0.07931 
1403638168.525096960 -1.39843 0.63942 0.27386 -0.00244 0.02078 0.07712 -0.01939 0.09125 0.07667 
1403638168.705096960 -1.41202 0.57265 0.12670 -0.00245 0.02079 0.07712 -0.01971 0.09117 0.07593 
1403638168.945096960 -1.44102 0.40609 -0.00166 -0.00245 0.02080 0.07711 -0.02026 0.09126 0.07490 
1403638169.110096896 -1.43868 0.28957 -0.08673 -0.00245 0.02080 0.07712 -0.01987 0.09327 0.07608 
1403638169.320097024 -1.43797 0.26107 -0.19340 -0.00243 0.02081 0.07712 -0.01984 0.09401 0.07648 
1403638169.445096960 -1.45036 0.33879 -0.20757 -0.00244 0.02081 0.07711 -0.02004 0.09383 0.07613 
1403638169.560097024 -1.44074 0.46270 -0.13119 -0.00244 0.02082 0.07712 -0.02038 0.09351 0.07544 
1403638169.760097024 -1.35147 0.65041 0.00423 -0.00242 0.02083 0.07713 -0.01947 0.09715 0.07767 
1403638169.995097088 -1.19180 0.69085 0.19728 -0.00239 0.02082 0.07713 -0.01844 0.09818 0.08050 
1403638170.150096896 -1.05576 0.66524 0.12225 -0.00238 0.02083 0.07713 -0.01874 0.09765 0.07984 
1403638170.360097024 -0.92330 0.65202 -0.02986 -0.00241 0.02090 0.07711 -0.02273 0.09687 0.06946 
1403638170.605096960 -0.80304 0.74146 0.05202 -0.00241 0.02091 0.07712 -0.02279 0.09756 0.06920 
1403638170.800097024 -0.62667 0.84804 0.17101 -0.00242 0.02091 0.07713 -0.02285 0.09842 0.06886 
1403638170.960097024 -0.47132 0.91395 0.09256 -0.00237 0.02092 0.07715 -0.01713 0.10554 0.08290 
1403638171.115097088 -0.35372 0.96293 0.02597 -0.00237 0.02092 0.07715 -0.01709 0.10533 0.08282 
1403638171.320097024 -0.17177 1.03464 -0.01705 -0.00237 0.02092 0.07713 -0.01718 0.10441 0.08263 
1403638171.560097024 0.04907 1.13508 -0.05853 -0.00238 0.02092 0.07712 -0.01779 0.10335 0.08090 
1403638171.670096896 0.17006 1.19302 -0.07918 -0.00239 0.02092 0.07712 -0.01811 0.10168 0.08012 
1403638171.770096896 0.30335 1.23273 -0.09267 -0.00239 0.02091 0.07713 -0.01763 0.10286 0.08113 
1403638171.885096960 0.45265 1.28572 -0.03238 -0.00237 0.02092 0.07712 -0.01587 0.10640 0.08526 
1403638172.50096896 0.68404 1.37939 0.06947 -0.00238 0.02092 0.07711 -0.01660 0.10334 0.08341 
1403638172.205096960 0.87249 1.40783 -0.00582 -0.00238 0.02092 0.07711 -0.01666 0.10329 0.08320 
1403638172.360097024 1.04940 1.41734 -0.17727 -0.00237 0.02093 0.07711 -0.01667 0.10351 0.08328 
1403638172.550096896 1.19496 1.45312 -0.35817 -0.00237 0.02092 0.07711 -0.01705 0.10542 0.08223 
1403638172.745096960 1.42618 1.49851 -0.48498 -0.00237 0.02093 0.07709 -0.01720 0.10528 0.08213 
1403638172.875097088 1.58231 1.55393 -0.53175 -0.00238 0.02093 0.07709 -0.01738 0.10371 0.08180 
1403638173.30096896 1.76675 1.62524 -0.61984 -0.00238 0.02092 0.07708 -0.01751 0.10233 0.08162 
1403638173.200097024 1.92334 1.73045 -0.72853 -0.00240 0.02092 0.07709 -0.02036 0.10499 0.07418 
1403638173.400097024 2.04934 1.82288 -0.83695 -0.00241 0.02092 0.07710 -0.02056 0.10372 0.07401 
1403638173.560097024 2.06016 1.83345 -0.97263 -0.00242 0.02090 0.07710 -0.02030 0.10355 0.07485 
1403638173.745096960 2.08677 1.78713 -1.03562 -0.00244 0.02091 0.07711 -0.02140 0.10173 0.07222 
1403638173.905096960 2.13828 1.72017 -0.96653 -0.00244 0.02089 0.07712 -0.02120 0.10096 0.07298 
1403638174.25096960 2.20721 1.65482 -0.89724 -0.00245 0.02087 0.07713 -0.02009 0.10101 0.07595 
1403638174.250096896 2.26965 1.58344 -0.90280 -0.00248 0.02086 0.07714 -0.02078 0.09795 0.07444 
1403638174.455097088 2.17826 1.54492 -0.93425 -0.00248 0.02086 0.07714 -0.02143 0.09876 0.07276 
1403638174.660097024 2.05782 1.55610 -0.81851 -0.00247 0.02089 0.07713 -0.02199 0.09979 0.07130 
1403638174.800097024 1.95922 1.52636 -0.71527 -0.00247 0.02089 0.07713 -0.02157 0.10116 0.07223 
1403638175.97024 1.78156 1.46808 -0.59715 -0.00248 0.02089 0.07713 -0.02111 0.10083 0.07353 
1403638175.250096896 1.54914 1.42445 -0.43254 -0.00248 0.02087 0.07713 -0.01967 0.10060 0.07726 
1403638175.460097024 1.33094 1.39702 -0.29001 -0.00248 0.02087 0.07713 -0.02127 0.09775 0.07324 
1403638175.640097024 1.09594 1.34721 -0.14315 -0.00249 0.02087 0.07712 -0.02136 0.09901 0.07318 
1403638175.860097024 0.77105 1.33387 -0.24852 -0.00249 0.02085 0.07711 -0.02067 0.09907 0.07516 
1403638176.100097024 0.35083 1.29569 -0.29938 -0.00249 0.02085 0.07711 -0.02159 0.09920 0.07319 
1403638176.295097088 0.17893 1.15369 -0.18155 -0.00248 0.02086 0.07709 -0.02270 0.10040 0.07095 
1403638176.415097088 0.13227 1.06172 -0.12801 -0.00249 0.02087 0.07708 -0.02172 0.10133 0.07372 
1403638176.645096960 0.03194 0.85960 0.00740 -0.00248 0.02088 0.07710 -0.02245 0.10440 0.07177 
1403638176.860097024 -0.04581 0.68676 0.15401 -0.00247 0.02089 0.07708 -0.02335 0.10389 0.07008 
1403638177.25096960 -0.09905 0.60722 0.09061 -0.00247 0.02090 0.07709 -0.02376 0.10359 0.06901 
1403638177.195097088 -0.14801 0.51270 -0.03358 -0.00248 0.02089 0.07708 -0.02179 0.10254 0.07409 
1403638177.410096896 -0.22499 0.38449 -0.15717 -0.00248 0.02091 0.07708 -0.02224 0.10173 0.07305 
1403638177.660097024 -0.30882 0.27875 -0.25084 -0.00248 0.02093 0.07708 -0.02288 0.10081 0.07147 
1403638177.860097024 -0.32181 0.32421 -0.27842 -0.00249 0.02096 0.07707 -0.02331 0.10029 0.07026 
1403638178.5096960 -0.24860 0.35891 -0.17676 -0.00249 0.02096 0.07706 -0.02332 0.10068 0.07015 
1403638178.190096896 -0.12489 0.40281 -0.05208 -0.00250 0.02096 0.07706 -0.02322 0.10046 0.07046 
1403638178.320097024 -0.04375 0.40814 0.07678 -0.00249 0.02097 0.07707 -0.02358 0.10077 0.06928 
1403638178.500097024 0.10673 0.39310 0.00013 -0.00251 0.02097 0.07706 -0.02205 0.10248 0.07322 
1403638178.620097024 0.17559 0.39327 -0.05695 -0.00249 0.02096 0.07706 -0.02198 0.10237 0.07354 
1403638178.805096960 0.25837 0.43352 -0.12213 -0.00250 0.02098 0.07706 -0.02231 0.10211 0.07278 
1403638179.5096960 0.29769 0.48168 -0.19279 -0.00254 0.02099 0.07706 -0.02240 0.10135 0.07284 
1403638179.175097088 0.29207 0.55497 -0.24407 -0.00252 0.02100 0.07704 -0.02246 0.10156 0.07290 
1403638179.445096960 0.20864 0.68045 -0.28810 -0.00255 0.02100 0.07705 -0.02262 0.10260 0.07244 
1403638179.610096896 0.21330 0.71718 -0.31761 -0.00257 0.02101 0.07705 -0.02277 0.10228 0.07219 
1403638179.735097088 0.25110 0.71909 -0.23431 -0.00256 0.02102 0.07705 -0.02278 0.10218 0.07216 
1403638180.97024 0.26395 0.72913 -0.10821 -0.00257 0.02102 0.07705 -0.02286 0.10257 0.07190 
1403638180.155097088 0.25570 0.77285 -0.05120 -0.00258 0.02103 0.07705 -0.02302 0.10312 0.07161 
1403638180.355097088 0.26650 0.86803 -0.14196 -0.00261 0.02105 0.07703 -0.02306 0.10890 0.07130 
1403638180.510096896 0.25350 0.91403 -0.20711 -0.00259 0.02105 0.07703 -0.02290 0.10958 0.07183 
1403638180.755097088 0.20477 0.98288 -0.10972 -0.00258 0.02105 0.07704 -0.02275 0.11023 0.07219 
1403638181.10096896 0.15114 1.11221 -0.06210 -0.00261 0.02105 0.07703 -0.02272 0.11077 0.07230 
1403638181.210096896 0.14262 1.19361 -0.17058 -0.00261 0.02105 0.07703 -0.02272 0.11050 0.07243 
1403638181.445096960 0.24295 1.21223 -0.28856 -0.00261 0.02105 0.07703 -0.02258 0.11092 0.07283 
1403638181.655097088 0.42063 1.16561 -0.26910 -0.00261 0.02106 0.07703 -0.02254 0.11124 0.07326 
1403638181.900097024 0.56740 1.04591 -0.05412 -0.00260 0.02107 0.07703 -0.02275 0.10959 0.07311 
1403638182.155097088 0.58630 1.04312 0.08886 -0.00255 0.02108 0.07700 -0.02364 0.11052 0.07125 
1403638182.310096896 0.59915 1.08256 0.03036 -0.00255 0.02109 0.07700 -0.02391 0.11035 0.07083 
1403638182.500097024 0.64699 1.13157 0.10976 -0.00252 0.02107 0.07700 -0.02371 0.11258 0.07152 
1403638182.710096896 0.63964 1.23399 0.25875 -0.00253 0.02108 0.07698 -0.02318 0.11454 0.07336 
1403638182.845096960 0.61481 1.30422 0.21652 -0.00253 0.02108 0.07698 -0.02330 0.11474 0.07321 
1403638183.50096896 0.59844 1.34822 0.11493 -0.00253 0.02107 0.07697 -0.02282 0.11616 0.07482 
1403638183.250096896 0.58044 1.33508 0.00696 -0.00251 0.02106 0.07697 -0.02342 0.11563 0.07364 
1403638183.410096896 0.51726 1.32134 -0.05101 -0.00248 0.02106 0.07697 -0.02241 0.11781 0.07658 
1403638183.605096960 0.45089 1.40057 -0.08687 -0.00251 0.02108 0.07699 -0.02358 0.11477 0.07414 
1403638183.855097088 0.35432 1.42369 0.07151 -0.00251 0.02108 0.07698 -0.02347 0.11525 0.07460 
1403638184.100097024 0.25907 1.34736 0.20405 -0.00252 0.02108 0.07697 -0.02322 0.11519 0.07544 
1403638184.265096960 0.19946 1.34307 0.11436 -0.00254 0.02108 0.07698 -0.02311 0.11496 0.07580 
1403638184.450096896 0.13028 1.38427 0.04402 -0.00252 0.02110 0.07698 -0.02340 0.11566 0.07521 
1403638184.575097088 0.07678 1.38768 0.03710 -0.00251 0.02110 0.07699 -0.02379 0.11561 0.07437 
1403638184.750096896 0.01012 1.37157 0.04266 -0.00254 0.02111 0.07700 -0.02348 0.11489 0.07545 
1403638184.960097024 -0.05806 1.35457 0.07117 -0.00253 0.02111 0.07701 -0.02391 0.11474 0.07484 
1403638185.160097024 -0.12961 1.33799 0.10554 -0.00250 0.02112 0.07701 -0.02371 0.11554 0.07541 
1403638185.345096960 -0.19753 1.33598 0.10713 -0.00250 0.02112 0.07700 -0.02391 0.11418 0.07515 
1403638185.465096960 -0.27559 1.31607 0.11928 -0.00251 0.02113 0.07701 -0.02411 0.11323 0.07487 
1403638185.600097024 -0.35833 1.27453 0.12339 -0.00249 0.02113 0.07699 -0.02406 0.11232 0.07522 
1403638185.705096960 -0.42414 1.23140 0.13005 -0.00250 0.02112 0.07699 -0.02375 0.11352 0.07596 
1403638185.840097024 -0.46628 1.16203 0.09177 -0.00251 0.02112 0.07699 -0.02375 0.11285 0.07598 
1403638185.975097088 -0.43158 1.13907 0.03964 -0.00252 0.02112 0.07699 -0.02395 0.11281 0.07543 
1403638186.55097088 -0.39626 1.14001 0.00187 -0.00252 0.02113 0.07699 -0.02379 0.11228 0.07595 
1403638186.160097024 -0.36149 1.14088 -0.04128 -0.00252 0.02113 0.07699 -0.02390 0.11182 0.07583 
1403638186.305096960 -0.35029 1.13611 0.03595 -0.00251 0.02113 0.07698 -0.02385 0.11202 0.07587 
1403638186.405096960 -0.35508 1.12759 0.10468 -0.00251 0.02113 0.07698 -0.02385 0.11202 0.07587 
1403638186.540097024 -0.35035 1.10012 0.13366 -0.00253 0.02113 0.07698 -0.02352 0.11070 0.07705 
1403638186.645096960 -0.37055 1.10920 0.06562 -0.00254 0.02114 0.07698 -0.02351 0.11037 0.07722 
1403638186.725096960 -0.39992 1.12300 0.02846 -0.00257 0.02114 0.07699 -0.02392 0.11230 0.07628 
1403638186.835097088 -0.45617 1.11405 -0.02263 -0.00256 0.02113 0.07699 -0.02390 0.11250 0.07635 
1403638186.960097024 -0.55112 1.10149 -0.04537 -0.00256 0.02113 0.07699 -0.02372 0.11262 0.07696 
1403638187.165096960 -0.68047 1.06932 0.11109 -0.00255 0.02113 0.07699 -0.02386 0.11230 0.07684 
1403638187.255097088 -0.68829 1.04809 0.19226 -0.00255 0.02113 0.07699 -0.02386 0.11230 0.07684 
1403638187.410096896 -0.67734 0.95832 0.25785 -0.00257 0.02111 0.07701 -0.02386 0.11375 0.07601 
1403638187.575097088 -0.62069 0.85408 0.25775 -0.00252 0.02112 0.07698 -0.02394 0.11207 0.07621 
1403638187.700097024 -0.59661 0.79615 0.21489 -0.00251 0.02111 0.07698 -0.02375 0.11147 0.07679 
1403638187.925096960 -0.61476 0.70250 0.12039 -0.00251 0.02111 0.07698 -0.02361 0.11140 0.07728 
1403638188.100097024 -0.63932 0.58887 0.04865 -0.00252 0.02112 0.07698 -0.02419 0.11121 0.07592 
1403638188.220097024 -0.68699 0.49034 -0.00452 -0.00253 0.02113 0.07699 -0.02425 0.11093 0.07617 
1403638188.355097088 -0.68991 0.35162 -0.05598 -0.00253 0.02113 0.07699 -0.02425 0.11093 0.07617 
1403638188.600097024 -0.56935 0.00998 -0.08126 -0.00253 0.02112 0.07701 -0.02490 0.11164 0.07492 
1403638188.810096896 -0.40894 -0.30210 0.08489 -0.00252 0.02111 0.07700 -0.02506 0.11150 0.07466 
1403638189.100097024 -0.30845 -0.52658 0.33353 -0.00251 0.02111 0.07700 -0.02570 0.11069 0.07320 
1403638189.310096896 -0.21421 -0.66400 0.21209 -0.00250 0.02110 0.07700 -0.02518 0.11002 0.07439 
1403638189.485096960 -0.14564 -0.70540 0.21361 -0.00251 0.02111 0.07700 -0.02438 0.10930 0.07634 
1403638189.650096896 -0.13474 -0.67504 0.31750 -0.00251 0.02110 0.07698 -0.02378 0.10983 0.07739 
1403638189.810096896 -0.14185 -0.63328 0.21089 -0.00251 0.02108 0.07697 -0.02323 0.11368 0.07834 
1403638189.960097024 -0.19720 -0.53344 0.14748 -0.00251 0.02109 0.07698 -0.02348 0.11268 0.07762 
1403638190.40097024 -0.21905 -0.49084 0.10750 -0.00252 0.02109 0.07697 -0.02292 0.11243 0.07885 
1403638190.175097088 -0.24717 -0.46853 0.02793 -0.00251 0.02108 0.07698 -0.02310 0.11359 0.07826 
1403638190.365096960 -0.27997 -0.50485 -0.06081 -0.00251 0.02108 0.07699 -0.02326 0.11559 0.07759 
1403638190.470096896 -0.28533 -0.58318 -0.12980 -0.00251 0.02108 0.07699 -0.02315 0.11576 0.07776 
1403638190.550096896 -0.29799 -0.65063 -0.16566 -0.00251 0.02108 0.07699 -0.02315 0.11576 0.07776 
1403638190.655097088 -0.29999 -0.72028 -0.17421 -0.00251 0.02109 0.07698 -0.02306 0.11460 0.07788 
1403638190.755097088 -0.29124 -0.80594 -0.12038 -0.00251 0.02108 0.07698 -0.02315 0.11522 0.07770 
1403638190.865096960 -0.30453 -0.85211 -0.06281 -0.00249 0.02109 0.07700 -0.02347 0.11334 0.07686 
1403638190.945096960 -0.27277 -0.88421 -0.00945 -0.00250 0.02109 0.07699 -0.02337 0.11311 0.07712 
1403638191.95097088 -0.21952 -0.93359 0.09785 -0.00250 0.02109 0.07700 -0.02377 0.11268 0.07623 
1403638191.255097088 -0.19226 -0.95332 0.17300 -0.00249 0.02109 0.07700 -0.02447 0.11332 0.07450 
1403638191.470096896 -0.21035 -0.96299 0.13844 -0.00249 0.02108 0.07701 -0.02425 0.11540 0.07510 
1403638191.605096960 -0.23459 -0.94291 0.05360 -0.00249 0.02108 0.07701 -0.02425 0.11540 0.07510 
1403638191.760097024 -0.30495 -0.88035 -0.02887 -0.00248 0.02111 0.07701 -0.02531 0.11045 0.07278 
1403638191.865096960 -0.35688 -0.88532 -0.07446 -0.00248 0.02112 0.07700 -0.02571 0.11033 0.07195 
1403638191.995097088 -0.42341 -0.87143 -0.04666 -0.00248 0.02113 0.07701 -0.02513 0.10825 0.07357 
1403638192.120097024 -0.50074 -0.87462 0.07312 -0.00248 0.02113 0.07701 -0.02513 0.10825 0.07357 
1403638192.250096896 -0.56669 -0.87211 0.22285 -0.00248 0.02114 0.07702 -0.02540 0.10810 0.07302 
1403638192.450096896 -0.59665 -0.86481 0.36941 -0.00248 0.02115 0.07701 -0.02530 0.10676 0.07371 
1403638192.700097024 -0.53381 -0.92684 0.38879 -0.00249 0.02112 0.07700 -0.02455 0.10872 0.07543 
1403638192.910096896 -0.41276 -1.01458 0.29453 -0.00249 0.02112 0.07699 -0.02478 0.10964 0.07480 
1403638193.160097024 -0.10123 -1.09203 0.32579 -0.00250 0.02114 0.07699 -0.02463 0.10816 0.07512 
1403638193.330096896 0.12702 -1.15788 0.50000 -0.00250 0.02113 0.07698 -0.02406 0.10845 0.07664 
1403638193.445096960 0.21041 -1.14938 0.54589 -0.00249 0.02114 0.07697 -0.02400 0.10665 0.07673 
1403638193.660097024 0.35030 -1.24023 0.39118 -0.00251 0.02113 0.07697 -0.02341 0.10915 0.07809 
1403638193.870096896 0.43378 -1.28009 0.26116 -0.00250 0.02112 0.07697 -0.02388 0.10913 0.07676 
1403638194.50096896 0.43563 -1.25583 0.18782 -0.00251 0.02112 0.07697 -0.02357 0.10922 0.07751 
1403638194.250096896 0.46744 -1.26253 0.05761 -0.00249 0.02112 0.07696 -0.02303 0.10938 0.07864 
1403638194.505096960 0.53519 -1.26972 0.13045 -0.00250 0.02112 0.07697 -0.02367 0.11037 0.07677 
1403638194.710096896 0.53152 -1.22133 0.16770 -0.00252 0.02112 0.07698 -0.02414 0.10869 0.07563 
1403638194.920097024 0.47756 -1.12597 0.05746 -0.00254 0.02112 0.07698 -0.02332 0.10928 0.07773 
1403638195.105096960 0.40660 -1.05479 -0.05493 -0.00252 0.02112 0.07697 -0.02334 0.10861 0.07773 
1403638195.360097024 0.22691 -0.89574 -0.15200 -0.00252 0.02112 0.07698 -0.02344 0.10945 0.07747 
1403638195.650096896 0.07184 -0.74066 -0.22977 -0.00251 0.02113 0.07698 -0.02376 0.10858 0.07653 
1403638195.850096896 0.00295 -0.65463 -0.10877 -0.00246 0.02114 0.07695 -0.02353 0.10916 0.07704 
1403638196.105096960 -0.16455 -0.47201 0.10587 -0.00247 0.02114 0.07695 -0.02405 0.10706 0.07593 
1403638196.355097088 -0.21870 -0.41642 0.14418 -0.00249 0.02114 0.07695 -0.02347 0.10691 0.07747 
1403638196.615097088 -0.23851 -0.35452 -0.05717 -0.00253 0.02113 0.07696 -0.02341 0.10531 0.07778 
1403638196.900097024 -0.36432 -0.20390 -0.13010 -0.00256 0.02113 0.07697 -0.02357 0.10467 0.07743 
1403638197.165096960 -0.40003 -0.13095 0.02528 -0.00257 0.02113 0.07697 -0.02303 0.10900 0.07899 
1403638197.445096960 -0.44404 -0.14217 0.23175 -0.00259 0.02113 0.07698 -0.02326 0.10791 0.07864 
1403638197.705096960 -0.44021 -0.23858 0.33925 -0.00257 0.02113 0.07696 -0.02338 0.10829 0.07838 
1403638197.840097024 -0.43516 -0.26866 0.25719 -0.00258 0.02113 0.07696 -0.02355 0.10811 0.07790 
1403638198.60097024 -0.37538 -0.32376 -0.05775 -0.00259 0.02112 0.07697 -0.02360 0.10833 0.07773 
1403638198.350096896 -0.26433 -0.42565 -0.40493 -0.00255 0.02114 0.07696 -0.02357 0.10889 0.07830 
1403638198.560097024 -0.26453 -0.47691 -0.45905 -0.00251 0.02116 0.07695 -0.02413 0.10928 0.07736 
1403638198.805096960 -0.33000 -0.72374 -0.33738 -0.00250 0.02116 0.07696 -0.02411 0.10896 0.07775 
1403638199.20097024 -0.39339 -1.02691 -0.16050 -0.00248 0.02116 0.07694 -0.02389 0.10972 0.07843 
1403638199.295097088 -0.51463 -1.33516 0.14155 -0.00250 0.02117 0.07695 -0.02409 0.10864 0.07788 
1403638199.500097024 -0.52691 -1.57369 0.26095 -0.00250 0.02116 0.07696 -0.02434 0.10799 0.07714 
1403638199.755097088 -0.61958 -1.84326 0.34785 -0.00249 0.02116 0.07695 -0.02444 0.10683 0.07711 
1403638199.955097088 -0.63505 -1.91628 0.25456 -0.00251 0.02116 0.07695 -0.02450 0.10565 0.07729 
1403638200.95097088 -0.63080 -1.93676 0.18723 -0.00250 0.02115 0.07695 -0.02462 0.10541 0.07707 
1403638200.265096960 -0.63101 -2.00278 0.26740 -0.00249 0.02114 0.07694 -0.02504 0.10538 0.07607 
1403638200.395097088 -0.62107 -2.07926 0.35929 -0.00249 0.02114 0.07694 -0.02505 0.10472 0.07628 
1403638200.525096960 -0.61041 -2.15096 0.44699 -0.00249 0.02115 0.07694 -0.02506 0.10425 0.07629 
1403638200.700097024 -0.58415 -2.28012 0.54106 -0.00249 0.02113 0.07693 -0.02517 0.10328 0.07624 
1403638200.915097088 -0.55559 -2.43867 0.44707 -0.00249 0.02112 0.07692 -0.02537 0.10300 0.07577 
1403638201.120097024 -0.52881 -2.53622 0.27996 -0.00248 0.02110 0.07691 -0.02466 0.10369 0.07745 
1403638201.355097088 -0.46175 -2.53515 0.13553 -0.00249 0.02109 0.07690 -0.02415 0.10407 0.07853 
1403638201.570096896 -0.42219 -2.54316 -0.02112 -0.00250 0.02109 0.07690 -0.02471 0.10526 0.07693 
1403638201.750096896 -0.36694 -2.57133 -0.17804 -0.00249 0.02108 0.07691 -0.02446 0.10724 0.07745 
1403638201.950096896 -0.28233 -2.60673 -0.23769 -0.00248 0.02109 0.07689 -0.02385 0.10679 0.07890 
1403638202.115097088 -0.19950 -2.60801 -0.15230 -0.00249 0.02110 0.07690 -0.02441 0.10490 0.07731 
1403638202.360097024 -0.14505 -2.52547 0.01092 -0.00250 0.02110 0.07690 -0.02452 0.10907 0.07691 
1403638202.470096896 -0.15819 -2.46984 -0.06484 -0.00249 0.02110 0.07689 -0.02480 0.10744 0.07632 
1403638202.705096960 -0.20696 -2.33332 -0.20557 -0.00250 0.02112 0.07690 -0.02498 0.10829 0.07567 
1403638202.910096896 -0.21444 -2.21634 -0.26435 -0.00252 0.02113 0.07691 -0.02516 0.10575 0.07503 
1403638203.60097024 -0.18694 -2.14258 -0.18469 -0.00253 0.02113 0.07692 -0.02525 0.10601 0.07461 
1403638203.220097024 -0.16419 -2.06176 -0.05251 -0.00252 0.02114 0.07692 -0.02403 0.10715 0.07762 
1403638203.405096960 -0.12178 -1.97437 -0.06552 -0.00253 0.02115 0.07692 -0.02461 0.10653 0.07585 
1403638203.650096896 -0.07657 -1.86746 -0.07450 -0.00254 0.02116 0.07692 -0.02470 0.10715 0.07538 
1403638203.900097024 -0.00553 -1.74339 0.06738 -0.00255 0.02117 0.07693 -0.02373 0.10927 0.07752 
1403638204.80097024 0.03850 -1.69493 0.19537 -0.00253 0.02117 0.07693 -0.02356 0.10847 0.07789 
1403638204.300097024 0.02128 -1.56027 0.31481 -0.00253 0.02119 0.07692 -0.02417 0.10851 0.07629 
1403638204.470096896 -0.01556 -1.38752 0.29973 -0.00252 0.02119 0.07692 -0.02355 0.10851 0.07775 
1403638204.685096960 -0.02444 -1.22510 0.15706 -0.00250 0.02117 0.07691 -0.02276 0.10887 0.07955 
1403638204.800097024 -0.03116 -1.11945 0.08007 -0.00250 0.02117 0.07690 -0.02262 0.10780 0.07982 
1403638204.930096896 -0.03703 -1.07906 -0.01691 -0.00250 0.02116 0.07689 -0.02300 0.10863 0.07870 
1403638205.100097024 -0.05354 -1.08831 -0.09271 -0.00250 0.02116 0.07689 -0.02240 0.10747 0.08015 
1403638205.180097024 -0.05510 -1.09650 -0.04762 -0.00250 0.02116 0.07689 -0.02229 0.10718 0.08032 
1403638205.340097024 -0.05717 -1.11724 0.06835 -0.00250 0.02115 0.07690 -0.02207 0.10655 0.08083 
1403638205.450096896 -0.05045 -1.11284 0.16130 -0.00250 0.02115 0.07690 -0.02189 0.10728 0.08124 
1403638205.615097088 0.03568 -1.11473 0.26362 -0.00251 0.02115 0.07691 -0.02299 0.10917 0.07829 
1403638205.820097024 0.20432 -1.22838 0.36772 -0.00252 0.02115 0.07692 -0.02319 0.10936 0.07770 
1403638206.25096960 0.40306 -1.35322 0.45876 -0.00252 0.02114 0.07692 -0.02249 0.11007 0.07942 
1403638206.220097024 0.55746 -1.42428 0.48061 -0.00251 0.02113 0.07693 -0.02322 0.11066 0.07753 
1403638206.400097024 0.66592 -1.40655 0.36295 -0.00251 0.02113 0.07693 -0.02290 0.11099 0.07837 
1403638206.570096896 0.77151 -1.31095 0.24701 -0.00252 0.02111 0.07693 -0.02309 0.11203 0.07817 
1403638206.715097088 0.83265 -1.25055 0.14403 -0.00252 0.02111 0.07694 -0.02325 0.11201 0.07775 
1403638206.905096960 0.90511 -1.14093 0.03678 -0.00253 0.02111 0.07693 -0.02330 0.11440 0.07789 
1403638207.105096960 0.97001 -1.01376 -0.08993 -0.00253 0.02111 0.07693 -0.02321 0.11489 0.07823 
1403638207.275097088 1.05603 -0.90524 -0.22849 -0.00253 0.02110 0.07693 -0.02370 0.11630 0.07685 
1403638207.460097024 1.17428 -0.75163 -0.21920 -0.00254 0.02109 0.07693 -0.02345 0.11802 0.07749 
1403638207.670096896 1.25582 -0.52595 -0.10095 -0.00253 0.02110 0.07693 -0.02356 0.11739 0.07743 
1403638207.905096960 1.19998 -0.39178 0.10049 -0.00254 0.02110 0.07693 -0.02357 0.11740 0.07738 
1403638208.160097024 1.14779 -0.29329 0.04662 -0.00254 0.02109 0.07695 -0.02326 0.12254 0.07788 
1403638208.400097024 1.11222 -0.17775 -0.13746 -0.00254 0.02108 0.07694 -0.02383 0.12321 0.07643 
1403638208.605096960 1.08533 -0.12612 -0.03648 -0.00255 0.02108 0.07694 -0.02429 0.12365 0.07523 
1403638208.755097088 1.03304 -0.09177 0.06640 -0.00255 0.02109 0.07695 -0.02466 0.12376 0.07432 
1403638208.885096960 0.98510 -0.05287 0.06362 -0.00255 0.02109 0.07694 -0.02458 0.12303 0.07456 
1403638209.60097024 0.95624 0.00636 -0.06443 -0.00256 0.02108 0.07695 -0.02413 0.12443 0.07557 
1403638209.170096896 0.92659 0.04953 -0.13644 -0.00256 0.02108 0.07695 -0.02445 0.12349 0.07482 
1403638209.400097024 0.87282 0.09811 -0.28494 -0.00256 0.02108 0.07695 -0.02409 0.12404 0.07574 
1403638209.610096896 0.79688 0.13742 -0.55728 -0.00256 0.02108 0.07695 -0.02438 0.12369 0.07508 
1403638209.770096896 0.76335 0.19255 -0.83920 -0.00256 0.02107 0.07695 -0.02439 0.12496 0.07499 
1403638209.950096896 0.75137 0.25302 -1.01543 -0.00256 0.02105 0.07694 -0.02384 0.12589 0.07636 
1403638210.75097088 0.75704 0.29467 -0.98674 -0.00256 0.02106 0.07695 -0.02350 0.12681 0.07729 
1403638210.220097024 0.77960 0.41193 -0.90268 -0.00256 0.02105 0.07695 -0.02308 0.12752 0.07848 
1403638210.445096960 0.81521 0.60019 -0.88531 -0.00254 0.02105 0.07694 -0.02297 0.12767 0.07875 
1403638210.700097024 0.83401 0.77262 -0.97227 -0.00254 0.02105 0.07694 -0.02444 0.12704 0.07493 
1403638210.905096960 0.84329 0.92556 -0.84312 -0.00254 0.02105 0.07694 -0.02460 0.12688 0.07464 
1403638211.60097024 0.84287 1.02140 -0.72300 -0.00254 0.02105 0.07694 -0.02455 0.12704 0.07473 
1403638211.300097024 0.75701 1.04844 -0.52827 -0.00258 0.02105 0.07694 -0.02483 0.12727 0.07418 
1403638211.415097088 0.72234 1.10316 -0.55833 -0.00256 0.02105 0.07693 -0.02447 0.12705 0.07534 
1403638211.650096896 0.66714 1.20178 -0.68925 -0.00256 0.02105 0.07693 -0.02488 0.12764 0.07430 
1403638211.780097024 0.61645 1.25176 -0.71620 -0.00255 0.02104 0.07693 -0.02453 0.12730 0.07526 
1403638211.955097088 0.51878 1.31833 -0.61308 -0.00253 0.02104 0.07691 -0.02492 0.12681 0.07428 
1403638212.60097024 0.45297 1.36385 -0.52677 -0.00254 0.02104 0.07691 -0.02505 0.12775 0.07396 
1403638212.350096896 0.37847 1.48770 -0.28434 -0.00254 0.02103 0.07691 -0.02492 0.12774 0.07433 
1403638212.555097088 0.35996 1.56453 -0.11448 -0.00253 0.02103 0.07691 -0.02507 0.12772 0.07402 
1403638212.765096960 0.37320 1.62575 0.06059 -0.00253 0.02103 0.07691 -0.02479 0.12836 0.07451 
1403638212.910096896 0.38663 1.66713 0.09585 -0.00253 0.02104 0.07692 -0.02460 0.12857 0.07489 
1403638213.160097024 0.36398 1.72571 0.14245 -0.00253 0.02104 0.07692 -0.02403 0.12780 0.07616 
1403638213.405096960 0.27692 1.79367 -0.01910 -0.00254 0.02105 0.07692 -0.02454 0.12839 0.07499 
1403638213.700097024 0.11335 1.98532 -0.00406 -0.00254 0.02105 0.07691 -0.02496 0.12977 0.07409 
1403638213.850096896 0.07683 1.99254 0.08692 -0.00256 0.02106 0.07691 -0.02524 0.13119 0.07340 
1403638213.970096896 0.09691 1.98883 0.13295 -0.00256 0.02106 0.07691 -0.02518 0.13042 0.07352 
1403638214.150096896 0.07250 1.94128 0.21622 -0.00256 0.02106 0.07691 -0.02561 0.13146 0.07235 
1403638214.405096960 -0.05738 1.90308 0.10379 -0.00256 0.02105 0.07691 -0.02505 0.13037 0.07387 
1403638214.660097024 -0.16130 1.86957 -0.03873 -0.00256 0.02106 0.07691 -0.02532 0.12871 0.07315 
1403638214.795097088 -0.14607 1.83608 -0.10271 -0.00256 0.02105 0.07691 -0.02563 0.12983 0.07224 
1403638214.960097024 -0.10741 1.78694 -0.20604 -0.00256 0.02106 0.07690 -0.02568 0.13055 0.07207 
1403638215.210096896 -0.05392 1.69703 -0.30894 -0.00256 0.02105 0.07691 -0.02554 0.13186 0.07256 
1403638215.360097024 -0.04487 1.64923 -0.32113 -0.00255 0.02105 0.07690 -0.02578 0.13073 0.07201 
1403638215.505096960 -0.04879 1.56255 -0.19823 -0.00254 0.02106 0.07689 -0.02589 0.13082 0.07177 
1403638215.630096896 -0.03139 1.49013 -0.10726 -0.00253 0.02106 0.07689 -0.02624 0.12977 0.07106 
1403638215.820097024 -0.00229 1.39242 -0.11282 -0.00253 0.02106 0.07689 -0.02619 0.13115 0.07118 
1403638215.960097024 0.03398 1.34880 -0.17911 -0.00254 0.02106 0.07689 -0.02591 0.13144 0.07195 
1403638216.125096960 0.06469 1.29001 -0.18338 -0.00253 0.02106 0.07689 -0.02590 0.13093 0.07202 
1403638216.315097088 0.09698 1.20739 -0.06483 -0.00255 0.02106 0.07689 -0.02573 0.13123 0.07247 
1403638216.510096896 0.15246 1.10289 -0.00864 -0.00253 0.02106 0.07689 -0.02568 0.13135 0.07253 
1403638216.750096896 0.18275 1.00436 -0.17038 -0.00252 0.02106 0.07688 -0.02581 0.13022 0.07235 
1403638216.995097088 0.23329 0.88952 -0.25895 -0.00253 0.02107 0.07688 -0.02643 0.13210 0.07076 
1403638217.120097024 0.27009 0.84074 -0.29281 -0.00254 0.02107 0.07688 -0.02655 0.13101 0.07049 
1403638217.350096896 0.28490 0.76408 -0.19025 -0.00253 0.02106 0.07687 -0.02640 0.12965 0.07087 
1403638217.475097088 0.30017 0.70975 -0.05910 -0.00254 0.02106 0.07687 -0.02634 0.13047 0.07111 
1403638217.645096960 0.30868 0.63531 0.06797 -0.00254 0.02106 0.07687 -0.02622 0.13061 0.07141 
1403638217.860097024 0.28542 0.46228 0.19912 -0.00254 0.02106 0.07687 -0.02656 0.13029 0.07034 
1403638218.60097024 0.24121 0.32293 0.08312 -0.00253 0.02106 0.07686 -0.02665 0.12984 0.07000 
1403638218.250096896 0.22420 0.17330 -0.01207 -0.00253 0.02107 0.07686 -0.02679 0.12949 0.06961 
1403638218.400097024 0.25384 0.05486 0.02680 -0.00254 0.02107 0.07686 -0.02678 0.12913 0.06959 
1403638218.550096896 0.27895 -0.03796 0.14704 -0.00254 0.02107 0.07687 -0.02682 0.12858 0.06951 
1403638218.795097088 0.31347 -0.11819 0.10770 -0.00253 0.02108 0.07686 -0.02699 0.12888 0.06898 
1403638218.950096896 0.27913 -0.15958 0.01454 -0.00254 0.02108 0.07687 -0.02702 0.12838 0.06878 
1403638219.110096896 0.25910 -0.14189 -0.03784 -0.00253 0.02108 0.07686 -0.02661 0.13221 0.06969 
1403638219.255097088 0.27832 -0.11677 -0.06332 -0.00253 0.02108 0.07685 -0.02663 0.13246 0.06958 
1403638219.410096896 0.29209 -0.13986 -0.04326 -0.00254 0.02109 0.07686 -0.02672 0.13218 0.06940 
1403638219.610096896 0.37169 -0.18640 0.01864 -0.00255 0.02109 0.07686 -0.02685 0.13265 0.06892 
1403638219.850096896 0.46310 -0.19249 -0.07226 -0.00255 0.02109 0.07686 -0.02686 0.13222 0.06880 
1403638219.975097088 0.50370 -0.14433 -0.13582 -0.00254 0.02109 0.07686 -0.02683 0.13212 0.06903 
1403638220.150096896 0.52676 -0.03324 -0.11789 -0.00254 0.02109 0.07685 -0.02684 0.13223 0.06909 
1403638220.265096960 0.53435 0.01329 -0.03675 -0.00253 0.02109 0.07685 -0.02677 0.13228 0.06933 
1403638220.460097024 0.55944 -0.02573 0.10928 -0.00251 0.02108 0.07684 -0.02653 0.13197 0.06999 
1403638220.605096960 0.54821 -0.05496 0.11899 -0.00250 0.02108 0.07684 -0.02655 0.13194 0.07003 
1403638220.750096896 0.53132 -0.08513 0.02297 -0.00251 0.02108 0.07684 -0.02653 0.13191 0.07010 
1403638220.920097024 0.51704 -0.10312 -0.10121 -0.00251 0.02108 0.07683 -0.02650 0.13208 0.07010 
1403638221.70096896 0.50445 -0.13318 -0.17272 -0.00252 0.02108 0.07684 -0.02647 0.13189 0.07019 
1403638221.210096896 0.48671 -0.15021 -0.09504 -0.00253 0.02107 0.07684 -0.02647 0.13202 0.07009 
1403638221.405096960 0.46488 -0.15650 -0.00287 -0.00255 0.02107 0.07685 -0.02637 0.13171 0.07042 
1403638221.560097024 0.45101 -0.14558 -0.08956 -0.00255 0.02107 0.07684 -0.02639 0.13218 0.07036 
1403638221.750096896 0.41297 -0.11334 -0.11138 -0.00255 0.02107 0.07684 -0.02644 0.13236 0.07031 
1403638221.910096896 0.40033 -0.08220 0.02048 -0.00254 0.02107 0.07684 -0.02646 0.13250 0.07046 
1403638222.65096960 0.39526 -0.08353 0.10387 -0.00254 0.02107 0.07683 -0.02663 0.13270 0.07014 
1403638222.210096896 0.38515 -0.09677 0.04005 -0.00255 0.02107 0.07684 -0.02660 0.13262 0.07021 
1403638222.405096960 0.31937 -0.09488 -0.05736 -0.00254 0.02107 0.07684 -0.02657 0.13236 0.07040 
1403638222.610096896 0.22883 -0.07151 -0.10316 -0.00255 0.02107 0.07684 -0.02660 0.13230 0.07040 
1403638222.805096960 0.20657 -0.07684 -0.16428 -0.00252 0.02107 0.07683 -0.02660 0.13256 0.07028 
1403638223.97024 0.21714 -0.08981 -0.15681 -0.00252 0.02107 0.07683 -0.02652 0.13241 0.07057 
1403638223.200097024 0.28105 -0.12576 -0.07105 -0.00252 0.02107 0.07683 -0.02645 0.13223 0.07069 
1403638223.455097088 0.22222 -0.07619 -0.08116 -0.00253 0.02107 0.07684 -0.02649 0.13190 0.07066 
1403638223.710096896 0.21485 0.04653 -0.12293 -0.00253 0.02107 0.07683 -0.02659 0.13220 0.07043 
1403638223.870096896 0.20818 0.03994 -0.14563 -0.00252 0.02108 0.07683 -0.02688 0.13213 0.06979 
1403638223.950096896 0.18993 0.02801 -0.15273 -0.00252 0.02108 0.07683 -0.02679 0.13225 0.07003 
1403638224.90096896 0.17593 -0.00050 -0.19987 -0.00254 0.02108 0.07683 -0.02681 0.13242 0.07005 
1403638224.205096960 0.11584 -0.02139 -0.18818 -0.00252 0.02108 0.07683 -0.02684 0.13233 0.06998 
1403638224.395097088 0.02650 -0.04755 -0.15758 -0.00254 0.02108 0.07683 -0.02670 0.13249 0.07023 
1403638224.610096896 0.02356 -0.05179 -0.15680 -0.00249 0.02108 0.07682 -0.02697 0.13198 0.06974 
1403638224.750096896 0.03361 -0.06649 -0.13676 -0.00249 0.02108 0.07682 -0.02694 0.13210 0.07011 
1403638224.925096960 -0.05130 -0.06658 -0.01564 -0.00251 0.02109 0.07683 -0.02714 0.13150 0.06978 
1403638225.95097088 -0.04390 -0.01837 0.01246 -0.00251 0.02109 0.07682 -0.02712 0.13135 0.06963 
1403638225.215097088 -0.01625 -0.00753 0.02505 -0.00252 0.02109 0.07683 -0.02718 0.13128 0.06968 
1403638225.420097024 -0.06636 0.00626 0.01246 -0.00250 0.02110 0.07682 -0.02696 0.13100 0.07055 
1403638225.595097088 -0.04599 -0.00574 -0.08706 -0.00250 0.02109 0.07682 -0.02706 0.13101 0.07038 
1403638225.755097088 0.03771 -0.04054 -0.26606 -0.00251 0.02109 0.07682 -0.02703 0.13082 0.07048 
1403638225.975097088 0.04312 -0.08044 -0.37445 -0.00251 0.02109 0.07683 -0.02702 0.13075 0.07039 
1403638226.160097024 -0.09419 -0.05047 -0.00927 -0.00250 0.02108 0.07682 -0.02697 0.13104 0.07021 
1403638226.370096896 -0.00161 0.00634 0.04778 -0.00250 0.02107 0.07682 -0.02698 0.13115 0.07011 
1403638226.655097088 0.02484 0.02164 0.08681 -0.00251 0.02108 0.07682 -0.02681 0.13135 0.07033 
1403638226.960097024 0.03376 -0.01366 0.02144 -0.00249 0.02107 0.07682 -0.02509 0.13540 0.07258 
1403638227.200097024 0.03819 -0.01391 0.01686 -0.00249 0.02107 0.07682 -0.02534 0.13545 0.07182 
1403638227.450096896 0.03578 -0.01583 0.02237 -0.00249 0.02108 0.07683 -0.02589 0.13523 0.07026 
1403638227.605096960 0.03930 -0.01866 0.02108 -0.00249 0.02108 0.07683 -0.02629 0.13504 0.06909 
1403638227.765096960 0.04005 -0.02589 0.01844 -0.00249 0.02108 0.07682 -0.02663 0.13490 0.06811 
1403638227.995097088 0.04088 -0.02935 0.01906 -0.00248 0.02108 0.07682 -0.02695 0.13476 0.06717 
1403638228.190096896 0.03760 -0.02896 0.01790 -0.00247 0.02108 0.07682 -0.02765 0.13405 0.06516 
1403638228.365096960 0.04172 -0.02255 0.01149 -0.00247 0.02108 0.07682 -0.02791 0.13322 0.06427 
1403638228.525096960 0.03580 -0.01885 0.00893 -0.00247 0.02108 0.07682 -0.02855 0.13256 0.06242 
1403638228.720097024 0.03857 -0.02373 0.01038 -0.00247 0.02108 0.07682 -0.02872 0.13262 0.06194 
