1548147257.862590720 -0.00268 0.00079 0.00090 -0.00034 0.00161 -0.00007 0.00000 -0.00000 -0.00000 
1548147258.151610624 -0.18375 0.06505 -0.01714 -0.00079 0.00114 -0.00016 0.00003 -0.00030 0.00009 
1548147258.405730816 0.00445 -0.00183 0.00293 -0.00071 0.00110 -0.00013 0.01065 0.00057 0.00120 
1548147258.674780672 -0.00337 -0.00096 0.00117 -0.00059 0.00110 -0.00014 0.01456 0.00018 0.00161 
1548147258.948850688 -0.01639 0.01013 -0.00208 -0.00064 0.00112 -0.00030 0.01914 -0.00027 0.00221 
1548147259.207930880 -0.02006 -0.00387 0.00282 -0.00060 0.00115 -0.00025 0.01544 0.00002 0.00180 
1548147259.462050560 -0.00065 0.00164 0.00244 -0.00060 0.00115 -0.00027 0.01598 0.00010 0.00190 
1548147259.751030784 0.00235 -0.00108 0.00058 -0.00061 0.00111 -0.00023 0.01877 -0.00004 0.00225 
1548147260.5160448 0.00546 0.00115 0.00331 -0.00058 0.00109 -0.00025 0.01628 -0.00006 0.00196 
1548147260.279210496 -0.00328 0.00022 -0.00140 -0.00057 0.00108 -0.00022 0.02014 -0.00007 0.00243 
1548147260.548270592 0.00736 0.00172 -0.00316 -0.00058 0.00108 -0.00023 0.02176 -0.00008 0.00263 
1548147260.757530624 -0.00626 0.00021 0.00157 -0.00058 0.00110 -0.00023 0.01892 -0.00007 0.00229 
1548147261.51500544 0.01805 0.00792 0.00221 -0.00058 0.00111 -0.00022 0.01870 -0.00007 0.00227 
1548147261.305610752 0.00360 -0.00021 -0.00437 -0.00057 0.00111 -0.00025 0.02211 -0.00009 0.00270 
1548147261.559730432 0.00085 -0.00162 -0.00420 -0.00057 0.00110 -0.00024 0.02160 -0.00008 0.00263 
1548147261.848730624 0.00060 -0.00119 0.00003 -0.00057 0.00110 -0.00024 0.01932 -0.00007 0.00235 
1548147262.102840576 -0.00092 -0.00009 0.00022 -0.00057 0.00110 -0.00024 0.01926 -0.00007 0.00234 
1548147262.356960512 0.00498 0.00100 0.00070 -0.00057 0.00110 -0.00024 0.01935 -0.00007 0.00235 
1548147262.645960448 0.00062 -0.00007 0.00017 -0.00057 0.00110 -0.00023 0.01934 -0.00007 0.00235 
1548147262.905060608 -0.00619 -0.00201 0.00138 -0.00058 0.00110 -0.00026 0.01878 -0.00006 0.00228 
1548147263.179110400 0.00145 0.00095 0.00180 -0.00058 0.00110 -0.00024 0.01899 -0.00007 0.00231 
1548147263.423260672 -0.02101 0.00510 0.00462 -0.00057 0.00110 -0.00023 0.01793 -0.00006 0.00218 
1548147263.697310720 -0.01360 -0.00904 -0.00411 -0.00057 0.00110 -0.00024 0.02108 -0.00007 0.00256 
1548147263.951430656 -0.00795 0.00291 -0.00027 -0.00059 0.00113 -0.00023 0.02005 -0.00007 0.00244 
1548147264.220500480 -0.04018 0.00488 0.00858 -0.00072 0.00119 -0.00026 0.02071 -0.00006 0.00250 
1548147264.494550528 -0.36513 -0.01357 0.03811 -0.00054 0.00117 -0.00019 0.02227 -0.00016 0.00270 
1548147264.753650688 -0.21759 0.00420 0.05393 -0.00041 0.00056 -0.00020 0.01477 0.00110 0.00121 
1548147265.12750592 -0.30171 0.00565 0.00798 -0.00065 0.00083 -0.00023 0.01923 -0.00224 0.00222 
1548147265.296770560 -0.51533 0.00166 0.05817 -0.00056 0.00093 -0.00026 0.01364 0.00085 0.00056 
1548147265.550890496 -0.24286 -0.01273 0.03103 -0.00039 0.00065 -0.00030 0.01658 0.00291 0.00528 
1548147265.805000448 -0.43271 0.00101 0.06739 -0.00019 0.00031 -0.00024 0.01400 0.00561 -0.03557 
1548147266.94000640 -0.35212 0.00662 0.09838 -0.00005 -0.00002 -0.00027 0.01666 0.00729 -0.09279 
1548147266.348120576 -0.40203 0.03120 0.10744 -0.00015 0.00006 -0.00027 0.02042 0.00974 -0.14171 
1548147266.632130560 -0.44070 0.00144 0.10296 -0.00050 0.00033 -0.00027 0.02454 0.01024 -0.15008 
1548147266.896220416 -0.22419 0.02797 0.06970 -0.00071 0.00087 -0.00027 0.00983 0.00092 0.01422 
1548147267.150340608 -0.23181 0.01554 0.07451 -0.00062 0.00083 -0.00029 0.01568 0.00448 -0.04918 
1548147267.404470528 -0.40143 -0.00125 0.04941 -0.00058 0.00126 -0.00029 0.02297 0.00891 -0.08287 
1548147267.693480448 -0.35634 0.00620 0.05900 -0.00054 0.00141 -0.00028 0.02955 0.01133 -0.12680 
1548147267.947600384 -0.32629 0.00411 0.03022 -0.00055 0.00153 -0.00027 0.03649 0.01276 -0.17981 
1548147268.201710336 -0.39549 0.00523 -0.02596 -0.00060 0.00177 -0.00026 0.04983 0.01666 -0.28285 
1548147268.495690496 -0.45845 -0.01608 0.00846 -0.00067 0.00144 -0.00028 0.05734 0.01402 -0.38337 
1548147268.749810432 -0.33458 0.00382 0.01406 -0.00058 0.00132 -0.00038 0.05069 0.00810 -0.33503 
1548147269.18890496 -0.21169 0.00788 0.00863 -0.00063 0.00150 -0.00033 0.04885 0.00730 -0.30752 
1548147269.292920320 -0.02336 0.01610 0.03986 -0.00059 0.00161 -0.00035 0.05030 0.01145 -0.31558 
1548147269.547050496 0.11592 0.02712 0.00913 -0.00073 0.00162 -0.00035 0.05237 0.01320 -0.33653 
1548147269.801180416 0.00033 0.02055 0.00957 -0.00076 0.00159 -0.00033 0.05345 0.01408 -0.34872 
1548147270.90200320 0.00417 0.01922 0.00329 -0.00074 0.00161 -0.00032 0.05512 0.01461 -0.36586 
1548147270.349310464 0.00346 0.02266 -0.00149 -0.00074 0.00161 -0.00032 0.05546 0.01532 -0.36937 
1548147270.603430400 -0.00201 0.02165 -0.00480 -0.00072 0.00160 -0.00032 0.05549 0.01556 -0.37025 
1548147270.892430336 -0.01198 0.02184 -0.00865 -0.00072 0.00158 -0.00031 0.05556 0.01565 -0.37118 
1548147271.146560512 -0.01907 0.02222 -0.01147 -0.00072 0.00156 -0.00031 0.05541 0.01570 -0.37071 
1548147271.400680192 -0.01347 0.01255 -0.01478 -0.00068 0.00144 -0.00031 0.05506 0.01652 -0.37031 
1548147271.689680384 0.20805 0.04222 -0.00866 -0.00068 0.00142 -0.00031 0.05504 0.01662 -0.37055 
1548147271.943800576 0.31524 0.02582 -0.02351 -0.00076 0.00144 -0.00031 0.05795 0.01858 -0.39970 
1548147272.202910464 0.48006 0.03613 -0.04641 -0.00079 0.00134 -0.00034 0.06202 0.02242 -0.44557 
1548147272.491920384 0.38864 0.02300 -0.07674 -0.00100 0.00149 -0.00025 0.06746 0.02368 -0.49827 
1548147272.746040320 0.34320 0.00140 -0.05344 -0.00069 0.00151 -0.00025 0.06232 0.02441 -0.44008 
1548147273.160512 0.31658 0.00157 -0.03384 -0.00095 0.00146 -0.00023 0.05527 0.01986 -0.37653 
1548147273.289160192 0.36994 0.02358 -0.05555 -0.00092 0.00136 -0.00023 0.05977 0.02072 -0.41927 
1548147273.543290368 0.36633 0.00365 -0.04450 -0.00065 0.00119 -0.00024 0.06041 0.02265 -0.43467 
1548147273.802390272 0.31796 -0.00782 -0.03422 -0.00054 0.00120 -0.00025 0.05629 0.01744 -0.39901 
1548147274.91390464 0.38967 0.00338 -0.05268 -0.00054 0.00109 -0.00026 0.06005 0.01769 -0.43588 
1548147274.345500160 0.48073 0.04442 -0.06985 -0.00056 0.00122 -0.00023 0.06241 0.02178 -0.44782 
1548147274.599620352 0.48004 0.00768 -0.11661 -0.00053 0.00131 -0.00025 0.05962 0.02272 -0.42303 
1548147274.888620288 0.41721 -0.01150 -0.09800 -0.00053 0.00141 -0.00024 0.06108 0.02328 -0.42480 
1548147275.142730240 0.35785 0.00007 -0.09338 -0.00048 0.00123 -0.00023 0.06228 0.02513 -0.44798 
1548147275.411780352 0.44906 0.01354 -0.10216 -0.00044 0.00120 -0.00025 0.06248 0.02420 -0.45179 
1548147275.685830400 0.40109 -0.00180 -0.07847 -0.00045 0.00146 -0.00027 0.05959 0.02172 -0.40823 
1548147275.944930304 0.33333 -0.00247 -0.07943 -0.00046 0.00129 -0.00025 0.06168 0.02508 -0.44955 
1548147276.213990144 0.42761 0.00463 -0.07748 -0.00049 0.00118 -0.00022 0.06175 0.02481 -0.45400 
1548147276.443220480 0.39239 0.01634 -0.05986 -0.00047 0.00125 -0.00023 0.06073 0.01977 -0.43146 
1548147276.757150208 -0.11489 -0.03187 -0.03098 -0.00051 0.00123 -0.00020 0.06225 0.02361 -0.44110 
1548147277.36200192 0.10312 -0.00945 -0.01448 -0.00053 0.00116 -0.00022 0.06388 0.02720 -0.47196 
1548147277.290320128 0.01592 -0.00645 0.00111 -0.00057 0.00121 -0.00023 0.06301 0.02901 -0.46679 
1548147277.489630208 -0.03801 -0.01399 0.00694 -0.00055 0.00121 -0.00023 0.06302 0.02863 -0.46610 
1548147277.664030208 0.01061 -0.00961 0.01539 -0.00054 0.00119 -0.00024 0.06331 0.02889 -0.47184 
1548147277.798570240 -0.00864 -0.00675 0.01716 -0.00054 0.00119 -0.00024 0.06332 0.02892 -0.47175 
1548147278.142380288 -0.00718 -0.00344 0.02337 -0.00054 0.00119 -0.00024 0.06342 0.02918 -0.47124 
1548147278.386530048 -0.01138 -0.00129 0.02745 -0.00056 0.00121 -0.00024 0.06343 0.02894 -0.46966 
1548147278.590830336 -0.01268 -0.00001 0.02980 -0.00058 0.00122 -0.00024 0.06342 0.02880 -0.46768 
1548147278.844950272 -0.00678 0.00265 0.02707 -0.00058 0.00122 -0.00023 0.06282 0.02684 -0.45461 
1548147279.89120256 -0.01043 0.00174 0.03110 -0.00059 0.00123 -0.00023 0.06289 0.02690 -0.45417 
1548147279.338250240 -0.01292 0.00308 0.03269 -0.00057 0.00123 -0.00024 0.06270 0.02680 -0.44933 
1548147279.542540032 -0.01753 0.00096 0.03550 -0.00059 0.00123 -0.00024 0.06271 0.02685 -0.44825 
1548147279.711950336 -0.01172 0.00357 0.03645 -0.00058 0.00123 -0.00023 0.06258 0.02597 -0.44499 
1548147279.901300224 -0.01014 0.00795 0.03747 -0.00060 0.00123 -0.00024 0.06240 0.02556 -0.44095 
1548147280.95630080 -0.01593 0.00344 0.03578 -0.00058 0.00123 -0.00023 0.06208 0.02470 -0.43404 
1548147280.294940160 -0.01491 0.00802 0.04038 -0.00059 0.00123 -0.00023 0.06225 0.02449 -0.43572 
1548147280.588920064 -0.01334 0.00695 0.03786 -0.00058 0.00124 -0.00022 0.06178 0.02364 -0.42691 
1548147280.733440256 -0.01820 0.01015 0.03883 -0.00058 0.00124 -0.00023 0.06166 0.02413 -0.42360 
1548147280.982560256 -0.23087 -0.00617 0.06150 -0.00056 0.00124 -0.00022 0.06164 0.02361 -0.42099 
1548147281.137030144 -0.37292 -0.00636 0.08719 -0.00056 0.00126 -0.00023 0.06169 0.02359 -0.42135 
1548147281.331360000 -0.37665 -0.01515 0.09371 -0.00056 0.00122 -0.00022 0.06148 0.02402 -0.41730 
1548147281.530650112 -0.42736 -0.03372 0.11245 -0.00054 0.00120 -0.00022 0.06247 0.02624 -0.43267 
1548147281.690090240 -0.42962 -0.00123 0.08495 -0.00059 0.00118 -0.00023 0.06172 0.02756 -0.41953 
1548147281.894380032 -0.46985 -0.02092 0.09046 -0.00059 0.00117 -0.00023 0.06074 0.02594 -0.40329 
1548147282.13950208 -0.41628 -0.00304 0.05658 -0.00061 0.00121 -0.00024 0.06008 0.02498 -0.39252 
1548147282.193330176 -0.46705 -0.01460 0.12277 -0.00062 0.00117 -0.00024 0.06187 0.02693 -0.42095 
1548147282.402610176 -0.49343 0.00466 0.11640 -0.00063 0.00116 -0.00024 0.06267 0.02800 -0.43379 
1548147282.522190080 -0.47530 0.01657 0.10389 -0.00059 0.00111 -0.00025 0.06281 0.02879 -0.43570 
1548147282.681640192 -0.44951 0.00389 0.10263 -0.00055 0.00108 -0.00024 0.06166 0.02605 -0.41869 
1548147282.880960000 -0.38940 0.00967 0.10608 -0.00055 0.00105 -0.00024 0.06168 0.02410 -0.41784 
1548147283.55350016 -0.38629 0.01322 0.13497 -0.00051 0.00107 -0.00019 0.06206 0.02455 -0.42427 
1548147283.299510016 -0.45662 -0.02139 0.07322 -0.00053 0.00106 -0.00019 0.06193 0.02466 -0.42333 
1548147283.533700096 -0.44900 0.02070 0.09240 -0.00056 0.00108 -0.00021 0.06214 0.02573 -0.42613 
1548147283.742980096 -0.36736 0.00381 0.08786 -0.00056 0.00106 -0.00022 0.06184 0.02450 -0.42498 
1548147283.937299968 -0.33131 0.01038 0.07297 -0.00057 0.00109 -0.00022 0.06231 0.02486 -0.42589 
1548147284.231280128 -0.40685 0.00644 0.05275 -0.00054 0.00113 -0.00022 0.06319 0.02560 -0.42738 
1548147284.385750016 -0.44728 0.00160 0.05949 -0.00057 0.00113 -0.00023 0.06330 0.02586 -0.42784 
1548147284.590050048 -0.39318 0.01259 0.05964 -0.00055 0.00112 -0.00023 0.06323 0.02577 -0.42728 
1548147284.819250176 -0.40725 0.02035 0.04390 -0.00062 0.00112 -0.00023 0.06333 0.02640 -0.42716 
1548147285.88310016 -0.47215 0.02247 0.06330 -0.00060 0.00113 -0.00024 0.06364 0.02610 -0.42731 
1548147285.397239808 -0.41102 0.01779 0.03590 -0.00056 0.00112 -0.00025 0.06305 0.02646 -0.42832 
1548147285.541750016 -0.36563 0.03092 0.04478 -0.00056 0.00111 -0.00027 0.06249 0.02613 -0.42804 
1548147285.785910016 -0.27944 0.02736 0.04436 -0.00057 0.00116 -0.00026 0.06091 0.02619 -0.41309 
1548147286.35040256 -0.20725 0.01858 0.04055 -0.00053 0.00113 -0.00022 0.06061 0.02667 -0.41111 
1548147286.239330048 0.17398 0.00067 0.03367 -0.00054 0.00115 -0.00023 0.06095 0.02726 -0.41207 
1548147286.438630144 0.03092 0.03522 0.03027 -0.00051 0.00115 -0.00025 0.06120 0.02662 -0.41337 
1548147286.692750080 -0.02517 0.02143 0.01564 -0.00055 0.00117 -0.00020 0.06173 0.02787 -0.41445 
1548147286.847209984 0.01985 0.01853 0.01127 -0.00054 0.00118 -0.00019 0.06177 0.02795 -0.41431 
1548147287.96349952 -0.00185 0.01601 0.00525 -0.00059 0.00120 -0.00019 0.06184 0.02796 -0.41421 
1548147287.240859904 0.01381 0.01449 -0.00004 -0.00060 0.00120 -0.00019 0.06188 0.02820 -0.41416 
1548147287.435190016 0.00274 0.01321 -0.00376 -0.00059 0.00119 -0.00018 0.06188 0.02838 -0.41410 
1548147287.639460096 0.00562 0.01240 -0.00843 -0.00058 0.00119 -0.00018 0.06185 0.02808 -0.41386 
1548147287.793920000 0.00374 0.01032 -0.01074 -0.00058 0.00119 -0.00018 0.06180 0.02799 -0.41364 
1548147288.3200000 0.00263 0.00891 -0.01297 -0.00057 0.00118 -0.00018 0.06170 0.02779 -0.41340 
1548147288.197520128 0.00328 0.00851 -0.01685 -0.00057 0.00118 -0.00018 0.06165 0.02780 -0.41326 
1548147288.401809920 0.00684 0.00892 -0.01903 -0.00056 0.00117 -0.00018 0.06155 0.02787 -0.41296 
1548147288.680819968 0.08890 0.01164 -0.01889 -0.00056 0.00116 -0.00019 0.06140 0.02790 -0.41255 
1548147288.840270080 0.26265 0.01170 -0.02000 -0.00053 0.00114 -0.00019 0.06135 0.02828 -0.41281 
1548147288.999709952 0.34241 0.03702 -0.02430 -0.00052 0.00116 -0.00020 0.06157 0.02912 -0.41374 
1548147289.238880000 0.49459 0.01952 -0.02274 -0.00055 0.00114 -0.00018 0.06157 0.02895 -0.41402 
1548147289.478050048 0.52743 0.04196 -0.03920 -0.00058 0.00117 -0.00018 0.06220 0.02838 -0.41576 
1548147289.781989888 0.35778 -0.02380 -0.06607 -0.00052 0.00134 -0.00015 0.06261 0.02857 -0.41550 
1548147290.31129856 0.35044 0.01287 -0.06523 -0.00049 0.00133 -0.00016 0.06241 0.02828 -0.41551 
1548147290.185590016 0.39331 0.02054 -0.05938 -0.00048 0.00126 -0.00016 0.06153 0.02876 -0.41334 
1548147290.350009856 0.40628 0.01396 -0.04453 -0.00051 0.00123 -0.00016 0.06119 0.02821 -0.41329 
1548147290.529389824 0.35334 0.00492 -0.05216 -0.00056 0.00122 -0.00017 0.06183 0.02842 -0.41465 
1548147290.733669888 0.34392 -0.01107 -0.05301 -0.00057 0.00122 -0.00016 0.06185 0.02819 -0.41470 
1548147290.937959936 0.38085 -0.00296 -0.05176 -0.00057 0.00117 -0.00016 0.06150 0.02840 -0.41466 
1548147291.87440128 0.40555 0.00186 -0.04197 -0.00058 0.00111 -0.00017 0.06129 0.02764 -0.41476 
1548147291.336559872 0.49066 0.00636 -0.07344 -0.00059 0.00112 -0.00015 0.06148 0.02684 -0.41544 
1548147291.640509952 0.45629 0.00973 -0.11722 -0.00060 0.00120 -0.00017 0.06211 0.02597 -0.41526 
1548147291.874699776 0.56080 0.01568 -0.09647 -0.00056 0.00116 -0.00016 0.06189 0.02568 -0.41575 
1548147292.24169984 0.49990 -0.00928 -0.07907 -0.00054 0.00119 -0.00015 0.06199 0.02605 -0.41556 
1548147292.273309952 0.36836 -0.01131 -0.10034 -0.00051 0.00122 -0.00014 0.06239 0.02538 -0.41409 
1548147292.422809856 0.42460 0.00512 -0.10980 -0.00049 0.00120 -0.00015 0.06233 0.02538 -0.41496 
1548147292.726759936 0.31869 -0.01211 -0.11730 -0.00050 0.00126 -0.00016 0.06194 0.02546 -0.41586 
1548147292.896169984 0.26409 -0.03214 -0.09501 -0.00057 0.00130 -0.00015 0.06177 0.02518 -0.41466 
1548147293.30699776 0.33702 -0.03600 -0.07481 -0.00052 0.00118 -0.00013 0.06175 0.02475 -0.41596 
1548147293.195129856 0.37002 -0.01179 -0.07192 -0.00052 0.00114 -0.00015 0.06101 0.02430 -0.40978 
1548147293.434309632 0.48197 -0.00125 -0.05392 -0.00052 0.00110 -0.00014 0.06061 0.02426 -0.41049 
1548147293.643579648 0.42209 0.02882 -0.00948 -0.00046 0.00110 -0.00013 0.06088 0.02469 -0.40967 
1548147293.832919808 -0.17629 -0.02080 0.03423 -0.00046 0.00111 -0.00012 0.06123 0.02431 -0.40953 
1548147293.977409792 0.01293 -0.01429 -0.00483 -0.00051 0.00111 -0.00014 0.06024 0.02362 -0.39579 
1548147294.276379904 -0.02351 -0.01288 0.00004 -0.00051 0.00111 -0.00015 0.05998 0.02199 -0.39546 
1548147294.475689984 0.05018 -0.00755 0.00324 -0.00050 0.00113 -0.00016 0.06008 0.02243 -0.39565 
1548147294.635139584 -0.02283 -0.01299 0.00612 -0.00053 0.00113 -0.00016 0.06010 0.02198 -0.39568 
1548147294.839419904 0.00122 -0.01099 0.01034 -0.00053 0.00113 -0.00016 0.06009 0.02185 -0.39548 
1548147295.173259776 0.00705 -0.00420 0.01285 -0.00051 0.00114 -0.00017 0.06016 0.02124 -0.39492 
1548147295.332699648 0.00416 -0.00374 0.01399 -0.00052 0.00114 -0.00017 0.06018 0.02099 -0.39480 
1548147295.571859712 0.00480 -0.00062 0.01338 -0.00054 0.00114 -0.00017 0.06027 0.02049 -0.39412 
1548147295.776149760 0.00347 0.00145 0.01372 -0.00056 0.00115 -0.00017 0.06033 0.02043 -0.39371 
1548147295.975449856 0.00223 0.00043 0.01486 -0.00057 0.00115 -0.00017 0.06038 0.02052 -0.39372 
1548147296.129919744 0.00164 0.00202 0.01535 -0.00055 0.00115 -0.00017 0.06041 0.02083 -0.39350 
1548147296.279409664 0.00000 0.00158 0.01609 -0.00056 0.00116 -0.00017 0.06044 0.02042 -0.39340 
1548147296.483689728 0.00151 0.00018 0.01649 -0.00055 0.00115 -0.00016 0.06049 0.02016 -0.39291 
1548147296.687999744 -0.00073 0.00047 0.01673 -0.00055 0.00115 -0.00016 0.06057 0.02065 -0.39276 
1548147296.837489920 -0.00223 0.00059 0.01861 -0.00055 0.00115 -0.00016 0.06058 0.02067 -0.39270 
1548147296.981979904 -0.00406 -0.00001 0.02032 -0.00055 0.00116 -0.00016 0.06059 0.02070 -0.39263 
1548147297.136469760 -0.00689 -0.00006 0.01973 -0.00058 0.00116 -0.00016 0.06068 0.02080 -0.39253 
1548147297.380619776 -0.00391 0.00051 0.02012 -0.00057 0.00116 -0.00016 0.06074 0.02058 -0.39182 
1548147297.530099712 -0.00472 0.00078 0.02022 -0.00056 0.00116 -0.00016 0.06076 0.02063 -0.39134 
1548147297.784239872 -0.00538 -0.00073 0.02150 -0.00057 0.00116 -0.00016 0.06085 0.02106 -0.39143 
1548147298.78199552 -0.00395 -0.00003 0.02102 -0.00056 0.00116 -0.00016 0.06093 0.02113 -0.39093 
1548147298.267539712 -0.00718 0.00065 0.02210 -0.00056 0.00116 -0.00016 0.06096 0.02095 -0.39080 
1548147298.521649664 -0.00632 0.00025 0.02100 -0.00058 0.00115 -0.00016 0.06110 0.02105 -0.39080 
1548147298.686069760 -0.00710 -0.00138 0.02363 -0.00058 0.00116 -0.00016 0.06110 0.02102 -0.39089 
1548147298.885379840 -0.01185 -0.00303 0.02405 -0.00055 0.00115 -0.00015 0.06117 0.02126 -0.39078 
1548147299.74709760 -0.00875 -0.00212 0.02414 -0.00055 0.00116 -0.00015 0.06120 0.02140 -0.39027 
1548147299.244109568 -0.00653 -0.00013 0.02394 -0.00056 0.00115 -0.00015 0.06125 0.02129 -0.39004 
1548147299.438429696 -0.00925 0.00191 0.02446 -0.00056 0.00116 -0.00016 0.06131 0.02128 -0.38982 
1548147299.567969792 -0.01093 -0.00159 0.02530 -0.00056 0.00116 -0.00015 0.06134 0.02140 -0.38980 
1548147299.722429696 -0.00782 0.00013 0.02438 -0.00056 0.00115 -0.00016 0.06138 0.02138 -0.38926 
1548147299.876889600 -0.01224 -0.00338 0.02242 -0.00058 0.00116 -0.00015 0.06147 0.02099 -0.38891 
1548147300.71209728 -0.01285 -0.00412 0.02526 -0.00058 0.00116 -0.00015 0.06148 0.02115 -0.38904 
1548147300.370159616 -0.00832 -0.00440 0.02681 -0.00058 0.00116 -0.00016 0.06153 0.02143 -0.38866 
1548147300.524609536 -0.00840 -0.00266 0.02634 -0.00055 0.00115 -0.00015 0.06160 0.02168 -0.38864 
1548147300.783699712 -0.01194 -0.00378 0.02613 -0.00058 0.00115 -0.00015 0.06167 0.02150 -0.38850 
1548147300.987989760 -0.01026 -0.00240 0.02725 -0.00057 0.00115 -0.00015 0.06170 0.02124 -0.38822 
1548147301.87639552 -0.00936 -0.00150 0.02736 -0.00057 0.00115 -0.00015 0.06172 0.02116 -0.38813 
1548147301.276979712 -0.01655 -0.00438 0.02810 -0.00059 0.00116 -0.00015 0.06175 0.02134 -0.38794 
1548147301.471279616 -0.01470 -0.00532 0.02662 -0.00059 0.00116 -0.00015 0.06181 0.02163 -0.38740 
1548147301.675559424 -0.01178 -0.00327 0.02839 -0.00058 0.00115 -0.00015 0.06183 0.02152 -0.38743 
1548147301.869879808 -0.01200 -0.00205 0.02815 -0.00058 0.00115 -0.00015 0.06188 0.02125 -0.38706 
1548147301.999429632 -0.01128 -0.00279 0.02618 -0.00058 0.00115 -0.00015 0.06196 0.02150 -0.38706 
1548147302.178809600 -0.00734 -0.00264 0.02682 -0.00057 0.00115 -0.00015 0.06197 0.02158 -0.38664 
1548147302.293399552 -0.01561 -0.00388 0.02710 -0.00057 0.00115 -0.00015 0.06202 0.02150 -0.38684 
1548147302.408009472 -0.00980 -0.00231 0.02763 -0.00057 0.00115 -0.00015 0.06202 0.02170 -0.38645 
1548147302.677079552 -0.01107 -0.00564 0.02556 -0.00057 0.00115 -0.00015 0.06214 0.02163 -0.38639 
1548147302.916249600 -0.00974 -0.00232 0.02863 -0.00058 0.00115 -0.00015 0.06213 0.02172 -0.38621 
1548147303.90649600 -0.00573 -0.00163 0.02578 -0.00057 0.00115 -0.00015 0.06217 0.02179 -0.38540 
1548147303.270019584 -0.00943 -0.00500 0.02989 -0.00056 0.00114 -0.00015 0.06219 0.02177 -0.38581 
1548147303.419499520 -0.01248 -0.00149 0.02825 -0.00057 0.00114 -0.00015 0.06226 0.02183 -0.38569 
1548147303.613819648 -0.01193 -0.00206 0.02667 -0.00058 0.00114 -0.00015 0.06229 0.02183 -0.38513 
1548147303.828069632 -0.00988 -0.00457 0.02738 -0.00057 0.00114 -0.00015 0.06232 0.02175 -0.38505 
1548147303.967579648 -0.01007 -0.00624 0.02582 -0.00057 0.00114 -0.00015 0.06237 0.02194 -0.38476 
1548147304.176849664 -0.01281 0.00038 0.02731 -0.00057 0.00114 -0.00015 0.06239 0.02181 -0.38472 
1548147304.470829568 -0.01327 -0.00509 0.02641 -0.00057 0.00114 -0.00015 0.06247 0.02170 -0.38457 
1548147304.764809728 -0.01239 -0.00233 0.02724 -0.00057 0.00114 -0.00015 0.06250 0.02171 -0.38418 
1548147304.989019648 -0.01063 -0.00598 0.02522 -0.00055 0.00114 -0.00014 0.06256 0.02164 -0.38369 
1548147305.168399616 -0.00933 -0.00666 0.02843 -0.00056 0.00114 -0.00014 0.06256 0.02170 -0.38368 
1548147305.372679424 0.04302 -0.00867 0.03835 -0.00057 0.00114 -0.00015 0.06260 0.02192 -0.38354 
1548147305.616829696 -0.01391 -0.01924 0.02138 -0.00057 0.00113 -0.00015 0.06261 0.02199 -0.38404 
1548147305.865959424 0.02856 0.01115 0.03643 -0.00056 0.00111 -0.00015 0.06250 0.02256 -0.38447 
1548147306.115069696 -0.07072 -0.01900 0.00236 -0.00054 0.00114 -0.00014 0.06282 0.02249 -0.38120 
1548147306.279509504 0.04306 -0.00652 0.02011 -0.00057 0.00112 -0.00015 0.06275 0.02245 -0.38293 
1548147306.463859456 -0.00753 -0.00904 0.01324 -0.00056 0.00113 -0.00015 0.06287 0.02211 -0.38197 
1548147306.772759552 -0.00376 -0.01077 0.02230 -0.00055 0.00113 -0.00014 0.06281 0.02236 -0.38234 
1548147306.982029312 -0.01660 -0.00094 0.02469 -0.00055 0.00113 -0.00014 0.06283 0.02246 -0.38237 
1548147307.261049600 -0.31054 0.01233 0.06031 -0.00055 0.00114 -0.00015 0.06294 0.02259 -0.38142 
1548147307.395579648 -0.37516 -0.02141 0.08521 -0.00057 0.00113 -0.00014 0.06271 0.02267 -0.38330 
1548147307.530099456 -0.41493 0.01461 0.11042 -0.00056 0.00111 -0.00015 0.06263 0.02281 -0.38406 
1548147307.714459392 -0.45316 -0.00343 0.09826 -0.00057 0.00111 -0.00014 0.06269 0.02284 -0.38374 
1548147307.923729408 -0.45167 -0.00503 0.07913 -0.00059 0.00111 -0.00015 0.06285 0.02244 -0.38358 
1548147308.83169536 -0.36576 -0.02975 0.09519 -0.00058 0.00112 -0.00015 0.06307 0.02225 -0.38219 
1548147308.272509696 -0.45844 -0.01978 0.09310 -0.00056 0.00113 -0.00015 0.06290 0.02267 -0.38391 
1548147308.421979392 -0.55833 -0.01517 0.08770 -0.00057 0.00115 -0.00016 0.06322 0.02273 -0.38333 
1548147308.581429504 -0.49459 -0.00144 0.09950 -0.00055 0.00110 -0.00015 0.06261 0.02242 -0.38521 
1548147308.810629376 -0.45188 -0.00072 0.10087 -0.00054 0.00107 -0.00015 0.06251 0.02254 -0.38464 
1548147309.9929472 -0.41454 -0.00359 0.10358 -0.00055 0.00108 -0.00016 0.06273 0.02318 -0.38563 
1548147309.204249344 -0.40193 -0.00290 0.12182 -0.00054 0.00108 -0.00016 0.06269 0.02318 -0.38617 
1548147309.363689472 -0.50538 -0.01004 0.09794 -0.00054 0.00108 -0.00017 0.06275 0.02328 -0.38593 
1548147309.562999552 -0.45070 -0.00838 0.09531 -0.00058 0.00108 -0.00016 0.06278 0.02343 -0.38573 
1548147309.762299648 -0.46030 0.00433 0.06404 -0.00058 0.00109 -0.00017 0.06295 0.02351 -0.38487 
1548147309.911779328 -0.36448 0.01100 0.07100 -0.00062 0.00107 -0.00018 0.06270 0.02282 -0.38519 
1548147310.121039360 -0.33227 0.00595 0.04610 -0.00059 0.00108 -0.00017 0.06059 0.02293 -0.35983 
1548147310.275499264 -0.38679 -0.01050 0.02472 -0.00056 0.00109 -0.00016 0.06071 0.02277 -0.35859 
1548147310.464839424 -0.45619 -0.00904 0.01540 -0.00060 0.00111 -0.00017 0.06096 0.02320 -0.35822 
1548147310.629269248 -0.44106 0.00322 0.01918 -0.00055 0.00111 -0.00016 0.06088 0.02317 -0.35731 
1548147310.808649216 -0.40578 0.01018 0.02105 -0.00057 0.00110 -0.00017 0.06074 0.02320 -0.35757 
1548147310.988029440 -0.41964 0.01555 0.01953 -0.00054 0.00110 -0.00016 0.06060 0.02321 -0.35775 
1548147311.182349568 -0.63291 0.03135 -0.04037 -0.00053 0.00112 -0.00016 0.06079 0.02361 -0.35855 
1548147311.371679232 -0.49288 0.00964 0.01352 -0.00052 0.00112 -0.00016 0.06076 0.02335 -0.35886 
1548147311.521149440 -0.54184 -0.01307 0.01513 -0.00053 0.00111 -0.00017 0.06071 0.02379 -0.36154 
1548147311.715469312 -0.45879 0.00487 0.00867 -0.00052 0.00108 -0.00017 0.06036 0.02332 -0.36012 
1548147311.979539456 -0.34127 0.00872 0.03381 -0.00055 0.00108 -0.00017 0.06015 0.02352 -0.36005 
1548147312.133989376 -0.10140 0.05576 0.03264 -0.00054 0.00109 -0.00019 0.06027 0.02321 -0.36027 
1548147312.278479360 0.17172 0.06285 0.03208 -0.00057 0.00112 -0.00020 0.06039 0.02230 -0.36094 
1548147312.457839360 0.05571 0.04903 0.00274 -0.00056 0.00111 -0.00019 0.06050 0.02294 -0.36062 
1548147312.662129408 -0.03425 0.01514 0.00430 -0.00055 0.00109 -0.00016 0.06050 0.02430 -0.36102 
1548147312.856439296 -0.03475 0.01419 0.00527 -0.00057 0.00110 -0.00016 0.06036 0.02423 -0.36035 
1548147313.15879424 -0.01190 0.01503 0.00254 -0.00057 0.00110 -0.00016 0.06035 0.02406 -0.36028 
1548147313.265009408 0.01651 0.01734 -0.00308 -0.00056 0.00110 -0.00016 0.06035 0.02397 -0.36028 
1548147313.489229568 0.01333 0.01815 -0.00694 -0.00056 0.00110 -0.00016 0.06036 0.02385 -0.36029 
1548147313.658629376 0.01520 0.01962 -0.01016 -0.00056 0.00110 -0.00017 0.06035 0.02377 -0.36027 
1548147313.813089280 0.01603 0.02031 -0.01264 -0.00056 0.00110 -0.00017 0.06033 0.02374 -0.36018 
1548147314.12379392 0.01567 0.02103 -0.01619 -0.00055 0.00110 -0.00017 0.06032 0.02369 -0.36014 
1548147314.171829248 0.01479 0.02232 -0.01717 -0.00056 0.00110 -0.00017 0.06025 0.02367 -0.35980 
1548147314.311339264 0.02004 0.02106 -0.01866 -0.00056 0.00110 -0.00017 0.06019 0.02384 -0.35956 
1548147314.455829504 0.02102 0.01979 -0.02138 -0.00055 0.00109 -0.00017 0.06020 0.02393 -0.35963 
1548147314.665099264 0.02288 0.01989 -0.02366 -0.00056 0.00109 -0.00018 0.06016 0.02398 -0.35973 
1548147314.819559424 0.02302 0.01985 -0.02593 -0.00056 0.00109 -0.00018 0.06017 0.02404 -0.35979 
1548147315.8899328 0.02063 0.02393 -0.02736 -0.00056 0.00109 -0.00018 0.06009 0.02395 -0.35951 
1548147315.208199168 0.02386 0.02211 -0.02942 -0.00056 0.00109 -0.00018 0.06008 0.02409 -0.35956 
1548147315.367639296 0.02122 0.01980 -0.03160 -0.00056 0.00110 -0.00018 0.06006 0.02409 -0.35954 
1548147315.576909312 0.17713 0.02252 -0.02648 -0.00058 0.00109 -0.00018 0.06002 0.02392 -0.35974 
1548147315.756289280 0.35106 0.02301 -0.02343 -0.00056 0.00109 -0.00017 0.06006 0.02384 -0.36014 
1548147316.5419264 0.45718 0.03609 -0.02297 -0.00059 0.00111 -0.00017 0.06023 0.02394 -0.36093 
1548147316.259519232 0.51819 0.03206 -0.05597 -0.00055 0.00113 -0.00016 0.06071 0.02444 -0.36336 
1548147316.408989184 0.43736 0.02953 -0.06318 -0.00052 0.00115 -0.00015 0.06104 0.02419 -0.36474 
1548147316.603309056 0.35401 -0.02727 -0.07159 -0.00054 0.00116 -0.00014 0.06092 0.02467 -0.36342 
1548147316.787669248 0.42140 0.01763 -0.06439 -0.00051 0.00112 -0.00015 0.06018 0.02423 -0.35996 
1548147317.61709056 0.46559 0.03020 -0.05909 -0.00051 0.00111 -0.00015 0.05947 0.02413 -0.35631 
1548147317.231119104 0.46588 0.02437 -0.04870 -0.00048 0.00110 -0.00014 0.05958 0.02410 -0.35777 
1548147317.505169152 0.35007 0.00188 -0.06829 -0.00054 0.00113 -0.00014 0.06013 0.02406 -0.35977 
1548147317.719439360 0.39767 0.00048 -0.05579 -0.00055 0.00110 -0.00014 0.05986 0.02460 -0.35906 
1548147317.953609216 0.45115 0.01161 -0.04333 -0.00060 0.00107 -0.00015 0.05947 0.02404 -0.35827 
1548147318.207729152 0.56530 0.01366 -0.11514 -0.00056 0.00108 -0.00014 0.05992 0.02321 -0.36077 
1548147318.501709312 0.49108 -0.01184 -0.12205 -0.00058 0.00112 -0.00014 0.06065 0.02424 -0.36273 
1548147318.805629184 0.54989 -0.01220 -0.09320 -0.00060 0.00112 -0.00014 0.06004 0.02353 -0.36122 
1548147318.980029184 0.45724 -0.01017 -0.10781 -0.00056 0.00113 -0.00013 0.06052 0.02426 -0.36193 
1548147319.164379136 0.44092 -0.00912 -0.11212 -0.00053 0.00112 -0.00014 0.06040 0.02417 -0.36145 
1548147319.358699008 0.47802 -0.00314 -0.11274 -0.00052 0.00113 -0.00013 0.06006 0.02383 -0.36026 
1548147319.557999104 0.41981 -0.00572 -0.13981 -0.00053 0.00113 -0.00013 0.06014 0.02373 -0.36017 
1548147319.802149120 0.37053 -0.03016 -0.08643 -0.00055 0.00113 -0.00013 0.05999 0.02301 -0.35917 
1548147319.976529152 0.39319 0.00811 -0.11816 -0.00056 0.00111 -0.00013 0.05997 0.02241 -0.35973 
1548147320.175829248 0.53188 0.00375 -0.08265 -0.00056 0.00107 -0.00012 0.05912 0.02229 -0.35699 
1548147320.459828992 0.39025 -0.03306 -0.05445 -0.00055 0.00107 -0.00013 0.06023 0.02240 -0.36119 
1548147320.703959296 -0.04126 -0.06524 -0.05213 -0.00055 0.00110 -0.00013 0.06004 0.02216 -0.36031 
1548147320.918199040 0.14719 -0.00616 -0.01097 -0.00054 0.00108 -0.00013 0.05904 0.02201 -0.35735 
1548147321.207169024 -0.02583 -0.01454 -0.01979 -0.00054 0.00110 -0.00013 0.05970 0.02188 -0.35889 
1548147321.421419264 0.01166 -0.00151 -0.00767 -0.00056 0.00109 -0.00013 0.05938 0.02162 -0.35836 
1548147321.615729152 0.02922 -0.00499 -0.00486 -0.00056 0.00110 -0.00013 0.05942 0.02153 -0.35847 
1548147321.805069312 0.01675 -0.00703 -0.00317 -0.00056 0.00110 -0.00013 0.05944 0.02148 -0.35851 
1548147321.999379200 0.01447 -0.00854 -0.00163 -0.00056 0.00110 -0.00013 0.05944 0.02139 -0.35856 
1548147322.228579072 0.01308 -0.00708 0.00088 -0.00055 0.00111 -0.00012 0.05947 0.02123 -0.35870 
1548147322.363109120 0.01105 -0.00738 0.00186 -0.00055 0.00111 -0.00013 0.05948 0.02119 -0.35874 
1548147322.557419008 0.01080 -0.00816 0.00319 -0.00055 0.00111 -0.00012 0.05949 0.02119 -0.35879 
1548147322.726819072 0.01059 -0.00839 0.00486 -0.00055 0.00111 -0.00012 0.05950 0.02117 -0.35884 
1548147322.906199040 0.00788 -0.00677 0.00560 -0.00055 0.00111 -0.00012 0.05955 0.02117 -0.35899 
1548147323.100509184 0.00520 -0.00766 0.00547 -0.00055 0.00111 -0.00012 0.05959 0.02114 -0.35908 
1548147323.220089088 0.00576 -0.00409 0.00619 -0.00055 0.00111 -0.00012 0.05961 0.02114 -0.35912 
1548147323.409419008 -0.06942 -0.01513 0.01518 -0.00055 0.00111 -0.00012 0.05964 0.02113 -0.35917 
1548147323.698398976 -0.40677 -0.03878 0.04959 -0.00056 0.00111 -0.00013 0.05965 0.02179 -0.35903 
1548147323.952509184 -0.38272 -0.01966 0.07208 -0.00056 0.00110 -0.00013 0.05961 0.02179 -0.35905 
1548147324.211599104 -0.37641 -0.00129 0.06168 -0.00056 0.00108 -0.00013 0.05934 0.02196 -0.35757 
1548147324.455759104 -0.34955 -0.03105 0.07008 -0.00056 0.00110 -0.00013 0.05989 0.02217 -0.35897 
1548147324.749719040 -0.42685 -0.00307 0.09407 -0.00055 0.00110 -0.00012 0.05917 0.02154 -0.35784 
1548147324.949028864 -0.44621 -0.00826 0.08425 -0.00054 0.00110 -0.00013 0.05910 0.02230 -0.35795 
1548147325.203129088 -0.47205 -0.00585 0.08143 -0.00052 0.00110 -0.00013 0.05932 0.02287 -0.35935 
1548147325.546919168 -0.39367 -0.00184 0.11219 -0.00053 0.00109 -0.00013 0.05704 0.02256 -0.34010 
1548147325.801018880 -0.41686 -0.00454 0.05001 -0.00054 0.00111 -0.00013 0.05699 0.02246 -0.34199 
1548147326.114898944 -0.45861 -0.01295 0.08813 -0.00057 0.00113 -0.00013 0.05701 0.02237 -0.34202 
1548147326.194608896 -0.42471 0.02131 0.10080 -0.00057 0.00112 -0.00013 0.05693 0.02185 -0.34191 
1548147326.354049024 -0.33976 0.00014 0.08902 -0.00053 0.00111 -0.00012 0.05709 0.02171 -0.34318 
1548147326.573268992 -0.31490 -0.00083 0.07623 -0.00054 0.00110 -0.00013 0.05725 0.02246 -0.34275 
1548147326.752638976 -0.41008 -0.00216 0.05692 -0.00054 0.00111 -0.00013 0.05732 0.02180 -0.34165 
1548147327.6728960 -0.42409 -0.01056 0.06554 -0.00053 0.00111 -0.00013 0.05703 0.02246 -0.33791 
1548147327.245868800 -0.41147 0.00596 0.05058 -0.00052 0.00111 -0.00013 0.05691 0.02232 -0.33735 
1548147327.450149120 -0.47375 0.01245 0.03499 -0.00050 0.00111 -0.00012 0.05698 0.02288 -0.33744 
1548147327.649438976 -0.45004 -0.02399 0.03532 -0.00051 0.00113 -0.00013 0.05710 0.02249 -0.33759 
1548147327.873648896 -0.52242 -0.00353 0.05793 -0.00051 0.00110 -0.00014 0.05604 0.02246 -0.33149 
1548147328.102839040 -0.42201 0.01810 0.03987 -0.00050 0.00109 -0.00014 0.05635 0.01987 -0.33454 
1548147328.257298944 -0.38300 0.00268 0.03843 -0.00053 0.00109 -0.00014 0.05643 0.02117 -0.33542 
1548147328.416739072 -0.28860 0.03005 0.06556 -0.00053 0.00108 -0.00014 0.05662 0.02177 -0.33664 
1548147328.571179008 0.22285 0.02497 -0.00503 -0.00053 0.00109 -0.00015 0.05695 0.02323 -0.33860 
1548147328.755528960 0.09710 0.03143 0.03011 -0.00054 0.00110 -0.00015 0.05710 0.02427 -0.33892 
1548147328.944869120 0.02028 -0.00396 0.01076 -0.00055 0.00110 -0.00013 0.05720 0.02643 -0.33957 
1548147329.243828992 -0.01639 0.02172 0.01892 -0.00053 0.00109 -0.00015 0.05680 0.02450 -0.33681 
1548147329.463058944 0.00654 0.02575 0.01336 -0.00055 0.00110 -0.00015 0.05682 0.02396 -0.33676 
1548147329.747038720 0.01607 0.02793 0.00752 -0.00055 0.00110 -0.00015 0.05686 0.02382 -0.33703 
1548147330.6108928 0.01097 0.01319 0.00010 -0.00055 0.00110 -0.00014 0.05655 0.02377 -0.33296 
1548147330.190459136 0.01091 0.01337 -0.00301 -0.00056 0.00110 -0.00014 0.05657 0.02406 -0.33304 
1548147330.359858944 0.00467 0.00816 -0.00715 -0.00056 0.00110 -0.00014 0.05660 0.02462 -0.33307 
1548147330.569138944 0.00407 0.00804 -0.00929 -0.00056 0.00110 -0.00014 0.05660 0.02443 -0.33314 
1548147330.753488896 0.00067 0.00615 -0.01010 -0.00056 0.00111 -0.00014 0.05653 0.02471 -0.33272 
1548147330.907939072 0.00142 0.00744 -0.01140 -0.00056 0.00111 -0.00014 0.05651 0.02459 -0.33262 
1548147331.97278720 0.00223 0.00827 -0.01411 -0.00056 0.00111 -0.00014 0.05649 0.02459 -0.33256 
1548147331.341419008 0.14243 0.01683 -0.01321 -0.00056 0.00110 -0.00013 0.05642 0.02440 -0.33223 
1548147331.515808768 0.31768 0.02413 -0.00598 -0.00057 0.00110 -0.00013 0.05638 0.02438 -0.33203 
1548147331.715108864 0.41389 0.02194 0.00024 -0.00056 0.00111 -0.00013 0.05642 0.02404 -0.33219 
1548147331.994128896 0.54585 0.03910 -0.03254 -0.00055 0.00112 -0.00013 0.05664 0.02360 -0.33344 
1548147332.148588800 0.49071 0.03133 -0.03659 -0.00054 0.00112 -0.00012 0.05684 0.02388 -0.33443 
1548147332.392708864 0.40454 -0.01393 -0.06238 -0.00053 0.00116 -0.00011 0.05711 0.02459 -0.33526 
1548147332.597008896 0.35911 0.00120 -0.06244 -0.00053 0.00115 -0.00012 0.05705 0.02477 -0.33509 
1548147332.751458816 0.40471 0.00688 -0.06415 -0.00051 0.00115 -0.00012 0.05670 0.02488 -0.33344 
1548147332.950748928 0.42253 0.01119 -0.04644 -0.00049 0.00112 -0.00011 0.05661 0.02411 -0.33340 
1548147333.249698816 0.37548 -0.00283 -0.05100 -0.00049 0.00111 -0.00011 0.05688 0.02484 -0.33485 
1548147333.498808832 0.36166 -0.00822 -0.05456 -0.00050 0.00111 -0.00011 0.05672 0.02420 -0.33459 
1548147333.718028800 0.42541 -0.00205 -0.05495 -0.00052 0.00110 -0.00011 0.05659 0.02355 -0.33418 
1548147333.857538816 0.44351 -0.00850 -0.06034 -0.00052 0.00109 -0.00011 0.05668 0.02397 -0.33440 
1548147334.101668864 0.42391 -0.03988 -0.06843 -0.00053 0.00112 -0.00011 0.05687 0.02363 -0.33404 
1548147334.300958976 0.53216 -0.02455 -0.11747 -0.00057 0.00113 -0.00010 0.05683 0.02475 -0.33396 
1548147334.490288640 0.55265 0.00541 -0.09162 -0.00054 0.00110 -0.00012 0.05672 0.02315 -0.33445 
1548147334.689568768 0.46491 0.00607 -0.09250 -0.00055 0.00112 -0.00011 0.05693 0.02353 -0.33429 
1548147334.844028672 0.41885 -0.00214 -0.10664 -0.00053 0.00111 -0.00011 0.05702 0.02449 -0.33462 
1548147335.98128896 0.47138 0.01312 -0.12036 -0.00051 0.00111 -0.00011 0.05702 0.02403 -0.33504 
1548147335.367188736 0.46857 -0.00332 -0.11331 -0.00056 0.00115 -0.00011 0.05685 0.02412 -0.33369 
1548147335.551528704 0.38985 -0.01835 -0.06979 -0.00056 0.00113 -0.00011 0.05671 0.02392 -0.33435 
1548147335.770758912 0.42701 -0.00083 -0.10925 -0.00055 0.00111 -0.00011 0.05673 0.02272 -0.33442 
1548147336.44788736 0.50526 -0.01545 -0.07636 -0.00052 0.00109 -0.00011 0.05659 0.02315 -0.33507 
1548147336.204228608 0.34981 -0.03358 0.00566 -0.00054 0.00110 -0.00011 0.05727 0.02262 -0.34408 
1548147336.393558784 0.05440 -0.06641 -0.05650 -0.00053 0.00110 -0.00010 0.05740 0.02271 -0.34380 
1548147336.607808768 -0.09437 -0.04929 -0.01995 -0.00054 0.00109 -0.00011 0.05732 0.02282 -0.34343 
1548147336.797138688 0.06014 -0.02274 -0.00664 -0.00050 0.00110 -0.00010 0.05738 0.02194 -0.34585 
1548147337.140938752 0.00629 -0.02059 -0.00341 -0.00050 0.00109 -0.00011 0.05737 0.02092 -0.34587 
1548147337.290418688 0.01606 -0.01200 0.00145 -0.00050 0.00110 -0.00011 0.05736 0.02072 -0.34595 
1548147337.489718784 0.01073 -0.01062 0.00400 -0.00049 0.00110 -0.00011 0.05735 0.02071 -0.34598 
1548147337.738848768 0.01193 -0.00660 0.00657 -0.00049 0.00110 -0.00011 0.05735 0.02055 -0.34601 
1548147337.898288640 0.01178 -0.00429 0.00836 -0.00048 0.00110 -0.00011 0.05735 0.02047 -0.34602 
1548147338.187268608 0.01241 -0.00197 0.01146 -0.00048 0.00110 -0.00011 0.05735 0.02039 -0.34602 
1548147338.366638592 0.00844 0.00162 0.01276 -0.00046 0.00110 -0.00011 0.05736 0.02030 -0.34595 
1548147338.501168640 0.00848 0.00332 0.01394 -0.00046 0.00110 -0.00011 0.05736 0.02044 -0.34589 
1548147338.750288640 0.00933 0.00518 0.01480 -0.00046 0.00110 -0.00011 0.05738 0.02054 -0.34574 
1548147339.4388608 0.00977 0.00582 0.01642 -0.00046 0.00110 -0.00011 0.05738 0.02043 -0.34569 
1548147339.208658688 0.00952 0.00533 0.01628 -0.00046 0.00110 -0.00011 0.05739 0.02066 -0.34542 
1548147339.363128576 0.00972 0.00622 0.01762 -0.00045 0.00110 -0.00011 0.05739 0.02053 -0.34539 
1548147339.547478784 0.00866 0.00768 0.01797 -0.00046 0.00110 -0.00011 0.05740 0.02064 -0.34521 
1548147339.691968768 0.00906 0.00752 0.01829 -0.00046 0.00110 -0.00011 0.05740 0.02066 -0.34515 
1548147339.990918656 0.00723 0.00633 0.01825 -0.00046 0.00110 -0.00011 0.05742 0.02068 -0.34498 
1548147340.235068672 0.00796 0.00658 0.01908 -0.00047 0.00110 -0.00011 0.05743 0.02068 -0.34485 
1548147340.538998528 0.00668 0.00942 0.01974 -0.00046 0.00110 -0.00011 0.05744 0.02075 -0.34464 
1548147340.798098688 0.04515 0.01189 0.01719 -0.00046 0.00111 -0.00010 0.05747 0.01960 -0.34457 
1548147340.952568576 -0.05689 0.00931 0.02662 -0.00049 0.00111 -0.00010 0.05747 0.01916 -0.34478 
1548147341.191738624 -0.15778 0.02659 0.02945 -0.00044 0.00112 -0.00011 0.05749 0.01906 -0.34466 
1548147341.405988608 -0.12233 0.01866 0.03144 -0.00033 0.00111 -0.00010 0.05747 0.01927 -0.34436 
1548147341.645148416 0.14976 0.04256 0.01922 -0.00029 0.00110 -0.00008 0.05743 0.02034 -0.34513 
1548147341.934138624 0.15548 0.03890 0.02613 -0.00030 0.00111 -0.00008 0.05750 0.02014 -0.34336 
1548147342.188258560 -0.05559 -0.00773 0.01308 -0.00034 0.00112 -0.00008 0.05755 0.02093 -0.34258 
1548147342.487208704 -0.02111 -0.03841 0.01860 -0.00039 0.00112 -0.00008 0.05756 0.02111 -0.34284 
1548147342.741318656 -0.00243 -0.01045 0.02402 -0.00038 0.00112 -0.00008 0.05755 0.01962 -0.34297 
1548147342.985478656 -0.00972 -0.00299 0.02860 -0.00038 0.00112 -0.00008 0.05756 0.01944 -0.34335 
1548147343.154888704 -0.00921 -0.00032 0.02847 -0.00039 0.00112 -0.00008 0.05754 0.01985 -0.34293 
1548147343.433918464 -0.00850 -0.00245 0.02754 -0.00039 0.00112 -0.00008 0.05757 0.02004 -0.34268 
1548147343.643198464 -0.01001 0.00296 0.02703 -0.00040 0.00113 -0.00008 0.05756 0.01974 -0.34223 
1548147343.787678464 -0.00837 -0.00312 0.02655 -0.00040 0.00112 -0.00008 0.05757 0.02005 -0.34206 
1548147343.947128576 -0.00779 -0.00117 0.02775 -0.00040 0.00112 -0.00008 0.05757 0.01992 -0.34198 
1548147344.131478528 -0.01013 -0.00300 0.02752 -0.00040 0.00113 -0.00008 0.05759 0.02002 -0.34185 
1548147344.390568448 -0.01020 0.00522 0.02912 -0.00039 0.00113 -0.00008 0.05758 0.02012 -0.34164 
1548147344.639698432 -0.01696 -0.00399 0.02963 -0.00039 0.00113 -0.00008 0.05761 0.02020 -0.34169 
1548147344.804128768 -0.01799 0.00346 0.03114 -0.00039 0.00113 -0.00008 0.05761 0.02017 -0.34159 
1548147344.993448448 -0.01391 -0.00548 0.03104 -0.00039 0.00113 -0.00008 0.05762 0.02009 -0.34142 
1548147345.237598464 -0.01828 -0.00096 0.03181 -0.00040 0.00113 -0.00008 0.05762 0.02002 -0.34120 
1548147345.486728448 -0.01224 -0.00265 0.02920 -0.00040 0.00113 -0.00008 0.05764 0.02016 -0.34081 
1548147345.740848640 -0.01268 -0.00583 0.03017 -0.00039 0.00113 -0.00008 0.05764 0.02033 -0.34080 
1548147345.930188544 -0.01978 -0.00632 0.03076 -0.00039 0.00113 -0.00008 0.05764 0.02031 -0.34071 
1548147346.89628416 -0.01223 -0.00557 0.02942 -0.00040 0.00113 -0.00008 0.05766 0.02027 -0.34055 
1548147346.343738624 -0.01179 -0.00103 0.02937 -0.00041 0.00113 -0.00008 0.05766 0.02022 -0.34028 
1548147346.587878400 -0.01545 -0.00168 0.02861 -0.00041 0.00113 -0.00008 0.05767 0.02021 -0.34001 
1548147346.742348544 -0.01364 -0.00212 0.02918 -0.00040 0.00113 -0.00008 0.05767 0.02025 -0.33995 
1548147346.991478528 -0.00991 -0.00199 0.02968 -0.00039 0.00113 -0.00008 0.05770 0.02036 -0.33999 
1548147347.145948416 -0.00821 0.00342 0.02866 -0.00040 0.00113 -0.00008 0.05769 0.02020 -0.33964 
1548147347.300408320 -0.01289 -0.00108 0.02954 -0.00040 0.00113 -0.00008 0.05770 0.02036 -0.33962 
1548147347.494738688 -0.01667 -0.00505 0.02978 -0.00040 0.00113 -0.00008 0.05771 0.02039 -0.33949 
1548147347.703998464 -0.00874 -0.00293 0.02930 -0.00040 0.00112 -0.00008 0.05771 0.02041 -0.33913 
1548147347.808638464 -0.01425 -0.00318 0.02864 -0.00040 0.00113 -0.00008 0.05772 0.02057 -0.33903 
1548147347.923248640 -0.01423 -0.00453 0.03060 -0.00040 0.00112 -0.00008 0.05771 0.02049 -0.33908 
1548147348.137508352 -0.01382 -0.00443 0.02882 -0.00041 0.00113 -0.00008 0.05774 0.02040 -0.33883 
1548147348.301928448 -0.00879 -0.00374 0.02944 -0.00041 0.00113 -0.00008 0.05773 0.02049 -0.33863 
1548147348.551058432 -0.01145 -0.00564 0.02833 -0.00041 0.00112 -0.00008 0.05775 0.02034 -0.33843 
1548147348.800198656 -0.01449 -0.00260 0.03075 -0.00041 0.00113 -0.00008 0.05775 0.02044 -0.33846 
1548147349.29388544 -0.01133 -0.00201 0.03103 -0.00041 0.00112 -0.00008 0.05776 0.02056 -0.33832 
1548147349.278518528 -0.01105 -0.00797 0.03169 -0.00041 0.00112 -0.00007 0.05776 0.02075 -0.33812 
1548147349.482818304 -0.01322 -0.00575 0.03135 -0.00040 0.00113 -0.00007 0.05778 0.02080 -0.33803 
1548147349.726958592 -0.01611 -0.00580 0.03200 -0.00040 0.00113 -0.00007 0.05779 0.02069 -0.33789 
1548147349.981068288 -0.02266 -0.00489 0.03253 -0.00040 0.00113 -0.00007 0.05780 0.02051 -0.33779 
1548147350.235158528 -0.01407 -0.00156 0.03216 -0.00040 0.00113 -0.00007 0.05782 0.02071 -0.33759 
1548147350.489288448 -0.01906 -0.00100 0.03074 -0.00041 0.00113 -0.00007 0.05782 0.02056 -0.33718 
1548147350.698548224 -0.00860 0.00015 0.03043 -0.00040 0.00112 -0.00007 0.05785 0.02051 -0.33713 
1548147350.927748352 -0.01234 0.00166 0.03125 -0.00041 0.00112 -0.00007 0.05785 0.02065 -0.33702 
1548147351.97168384 -0.01326 -0.00459 0.03002 -0.00041 0.00112 -0.00007 0.05785 0.02079 -0.33674 
1548147351.296468224 -0.00795 -0.00498 0.03153 -0.00041 0.00112 -0.00007 0.05785 0.02068 -0.33666 
1548147351.545598208 -0.01172 -0.00352 0.02986 -0.00041 0.00112 -0.00007 0.05786 0.02080 -0.33633 
1548147351.734928384 -0.01212 -0.00557 0.03187 -0.00041 0.00112 -0.00007 0.05786 0.02070 -0.33638 
1548147352.28888576 -0.00949 -0.00552 0.03283 -0.00042 0.00112 -0.00007 0.05786 0.02056 -0.33617 
1548147352.287978496 -0.01047 -0.00309 0.03084 -0.00041 0.00112 -0.00007 0.05788 0.02084 -0.33594 
1548147352.487308288 -0.01919 -0.00530 0.03385 -0.00040 0.00112 -0.00007 0.05788 0.02082 -0.33611 
1548147352.726458368 -0.01105 -0.00676 0.03185 -0.00041 0.00112 -0.00007 0.05790 0.02071 -0.33582 
1548147352.985568256 -0.02317 -0.00291 0.03176 -0.00041 0.00112 -0.00007 0.05790 0.02097 -0.33562 
1548147353.274558208 -0.00894 -0.00102 0.03179 -0.00041 0.00112 -0.00007 0.05792 0.02094 -0.33542 
1548147353.503748352 -0.00947 -0.00264 0.02950 -0.00041 0.00112 -0.00007 0.05794 0.02100 -0.33514 
1548147353.678138368 -0.01031 -0.00130 0.03324 -0.00041 0.00112 -0.00007 0.05792 0.02105 -0.33519 
1548147353.847548160 -0.00921 -0.00260 0.02852 -0.00041 0.00112 -0.00007 0.05793 0.02099 -0.33463 
1548147354.31908352 -0.00558 -0.00730 0.02917 -0.00041 0.00112 -0.00007 0.05794 0.02090 -0.33464 
1548147354.276058112 -0.00785 -0.00157 0.03040 -0.00042 0.00112 -0.00007 0.05794 0.02115 -0.33463 
1548147354.495298304 -0.00840 -0.00216 0.03048 -0.00042 0.00112 -0.00007 0.05794 0.02093 -0.33450 
1548147354.784298240 -0.01011 -0.00377 0.03310 -0.00041 0.00112 -0.00007 0.05796 0.02103 -0.33457 
1548147354.988588288 -0.01142 -0.00639 0.03169 -0.00041 0.00112 -0.00007 0.05797 0.02110 -0.33440 
1548147355.227758080 -0.01110 -0.00404 0.03327 -0.00042 0.00112 -0.00007 0.05796 0.02100 -0.33430 
1548147355.476888064 -0.00808 -0.00147 0.03184 -0.00042 0.00112 -0.00006 0.05798 0.02106 -0.33407 
1548147355.726038272 -0.01553 -0.00347 0.02993 -0.00042 0.00112 -0.00006 0.05801 0.02127 -0.33392 
1548147355.980158208 -0.01147 -0.00595 0.03447 -0.00042 0.00112 -0.00006 0.05799 0.02097 -0.33403 
1548147356.224328192 -0.01441 -0.00466 0.03441 -0.00042 0.00112 -0.00006 0.05800 0.02103 -0.33382 
1548147356.533268224 -0.01236 -0.00367 0.03134 -0.00042 0.00112 -0.00006 0.05802 0.02122 -0.33345 
1548147356.727588096 -0.01315 -0.00609 0.03263 -0.00042 0.00112 -0.00006 0.05802 0.02097 -0.33335 
1548147356.976718080 -0.01497 -0.00150 0.03476 -0.00042 0.00112 -0.00006 0.05803 0.02088 -0.33342 
1548147357.235808256 -0.03687 -0.01797 0.03152 -0.00042 0.00112 -0.00006 0.05806 0.02124 -0.33300 
1548147357.489928192 -0.15529 -0.02136 0.04739 -0.00041 0.00112 -0.00006 0.05806 0.02080 -0.33283 
1548147357.773938176 -0.40837 -0.02828 0.06699 -0.00039 0.00112 -0.00006 0.05810 0.02139 -0.33246 
1548147358.23068160 -0.40509 -0.02216 0.09472 -0.00041 0.00111 -0.00006 0.05797 0.02116 -0.33374 
1548147358.227368192 -0.45699 -0.01404 0.08594 -0.00040 0.00111 -0.00006 0.05805 0.02135 -0.33400 
1548147358.471508224 -0.44916 -0.02645 0.07270 -0.00038 0.00112 -0.00006 0.05808 0.02100 -0.33236 
1548147358.730618112 -0.48201 -0.01506 0.09007 -0.00039 0.00112 -0.00006 0.05806 0.02017 -0.33262 
1548147358.905008128 -0.50841 0.00267 0.08944 -0.00037 0.00112 -0.00006 0.05801 0.02062 -0.33337 
1548147359.69438208 -0.54342 -0.00911 0.09972 -0.00037 0.00110 -0.00006 0.05793 0.02094 -0.33532 
1548147359.238848256 -0.49250 -0.01249 0.10192 -0.00036 0.00110 -0.00006 0.05798 0.02146 -0.33500 
1548147359.482988032 -0.39951 -0.00074 0.13919 -0.00036 0.00109 -0.00006 0.05660 0.02041 -0.32459 
1548147359.737108224 -0.43615 0.03089 0.11106 -0.00036 0.00109 -0.00006 0.05669 0.02019 -0.32540 
1548147359.941418240 -0.48538 -0.01031 0.11294 -0.00038 0.00110 -0.00006 0.05670 0.02117 -0.32534 
1548147360.135748096 -0.46871 -0.01744 0.08499 -0.00042 0.00111 -0.00006 0.05645 0.02081 -0.32170 
1548147360.330078208 -0.36922 -0.02128 0.08462 -0.00040 0.00110 -0.00006 0.05629 0.02062 -0.32076 
1548147360.479568128 -0.31715 -0.02352 0.06288 -0.00038 0.00111 -0.00006 0.05657 0.02083 -0.32228 
1548147360.723728128 -0.37854 -0.02136 0.03793 -0.00039 0.00112 -0.00006 0.05705 0.02046 -0.32412 
1548147360.918068224 -0.45566 -0.01742 0.04410 -0.00037 0.00113 -0.00006 0.05714 0.02066 -0.32438 
1548147361.172198144 -0.40870 0.00167 0.03870 -0.00036 0.00113 -0.00007 0.05706 0.02092 -0.32375 
1548147361.371508224 -0.41479 -0.01715 0.03460 -0.00037 0.00113 -0.00007 0.05695 0.02093 -0.32325 
1548147361.580798208 -0.45046 -0.05068 0.03586 -0.00036 0.00113 -0.00006 0.05729 0.02077 -0.32514 
1548147361.919638272 -0.36823 -0.01604 0.02052 -0.00036 0.00113 -0.00007 0.05675 0.02067 -0.32167 
1548147362.74108160 -0.32797 0.00830 0.01423 -0.00037 0.00113 -0.00007 0.05694 0.02041 -0.32326 
1548147362.273438208 -0.26942 0.00568 0.02019 -0.00038 0.00112 -0.00007 0.05684 0.01981 -0.32320 
1548147362.517598208 -0.23480 -0.01031 0.01714 -0.00038 0.00112 -0.00007 0.05698 0.01998 -0.32425 
1548147362.647158272 -0.19618 0.00302 0.02048 -0.00038 0.00112 -0.00007 0.05702 0.01971 -0.32453 
1548147362.871397888 0.02874 0.02123 0.01293 -0.00043 0.00112 -0.00008 0.05698 0.01837 -0.32398 
1548147363.125538048 0.02769 0.01327 0.01133 -0.00045 0.00112 -0.00007 0.05704 0.01923 -0.32421 
1548147363.319868160 -0.01707 0.00977 0.00278 -0.00044 0.00112 -0.00007 0.05719 0.01897 -0.32513 
1548147363.574008064 0.00622 0.01152 -0.00276 -0.00045 0.00112 -0.00007 0.05725 0.01914 -0.32553 
1548147363.838087936 0.00647 0.00738 -0.00753 -0.00045 0.00112 -0.00007 0.05726 0.01916 -0.32562 
1548147363.982598144 -0.00173 0.00629 -0.00973 -0.00044 0.00112 -0.00007 0.05725 0.01915 -0.32560 
1548147364.276578048 0.00337 0.00426 -0.01296 -0.00045 0.00112 -0.00007 0.05721 0.01876 -0.32536 
1548147364.421088000 0.04757 0.01611 -0.01240 -0.00045 0.00112 -0.00007 0.05716 0.01891 -0.32499 
1548147364.570547968 0.19753 0.01605 -0.00685 -0.00045 0.00112 -0.00007 0.05711 0.01918 -0.32465 
1548147364.749917952 0.28075 0.04188 -0.00235 -0.00046 0.00112 -0.00007 0.05717 0.01919 -0.32506 
1548147364.894427904 0.32519 0.01791 -0.01288 -0.00046 0.00112 -0.00007 0.05725 0.01919 -0.32559 
1548147365.123638016 0.34658 0.00189 -0.01976 -0.00049 0.00113 -0.00006 0.05734 0.01963 -0.32603 
1548147365.322937856 0.25955 0.01614 -0.02917 -0.00050 0.00114 -0.00006 0.05749 0.01988 -0.32687 
1548147365.616928000 0.36228 0.00554 -0.03109 -0.00048 0.00115 -0.00006 0.05745 0.02000 -0.32677 
1548147365.771388160 0.34384 -0.02010 -0.02757 -0.00049 0.00114 -0.00006 0.05737 0.01912 -0.32625 
1548147365.975687936 0.24776 0.00926 -0.04503 -0.00047 0.00115 -0.00006 0.05753 0.02055 -0.32730 
1548147366.209868032 0.40003 -0.00490 -0.04895 -0.00047 0.00113 -0.00006 0.05721 0.02098 -0.32575 
1548147366.379288064 0.42749 0.01104 -0.05132 -0.00047 0.00113 -0.00006 0.05736 0.02055 -0.32667 
1548147366.613467904 0.34283 0.00995 -0.05203 -0.00048 0.00114 -0.00006 0.05749 0.02072 -0.32713 
1548147366.872567808 0.27921 -0.00463 -0.04966 -0.00050 0.00112 -0.00006 0.05744 0.01944 -0.32705 
1548147366.987168000 0.31013 -0.01084 -0.04531 -0.00050 0.00112 -0.00006 0.05728 0.01881 -0.32636 
1548147367.176507904 0.39935 -0.00493 -0.03507 -0.00051 0.00111 -0.00006 0.05718 0.01794 -0.32606 
1548147367.390768128 0.50396 0.03845 -0.07711 -0.00051 0.00110 -0.00006 0.05729 0.01832 -0.32655 
1548147367.570148096 0.44843 -0.02175 -0.08008 -0.00052 0.00111 -0.00006 0.05752 0.01715 -0.32760 
1548147367.764467968 0.48695 -0.05513 -0.11047 -0.00056 0.00112 -0.00006 0.05774 0.01897 -0.32816 
1548147367.918917888 0.52777 0.03918 -0.07219 -0.00055 0.00110 -0.00007 0.05744 0.01645 -0.32729 
1548147368.133178112 0.39922 0.00590 -0.08485 -0.00054 0.00113 -0.00006 0.05777 0.01665 -0.32831 
1548147368.367377920 0.34494 -0.01552 -0.09929 -0.00052 0.00114 -0.00006 0.05763 0.01726 -0.32749 
1548147368.571657984 0.39809 -0.00548 -0.08800 -0.00052 0.00113 -0.00006 0.05744 0.01593 -0.32681 
1548147368.815817728 0.40175 0.02639 -0.07569 -0.00051 0.00113 -0.00006 0.05760 0.01654 -0.32739 
1548147368.895527936 0.30176 -0.00424 -0.07938 -0.00050 0.00114 -0.00007 0.05760 0.01516 -0.32734 
1548147369.54967808 0.30416 -0.01952 -0.08392 -0.00051 0.00112 -0.00007 0.05771 0.01740 -0.32939 
1548147369.269238016 0.41657 -0.01605 -0.08376 -0.00053 0.00112 -0.00007 0.05754 0.01689 -0.32933 
1548147369.453607680 0.45305 0.00285 -0.05940 -0.00050 0.00111 -0.00007 0.05764 0.01495 -0.33166 
1548147369.712708096 -0.22945 -0.00362 -0.04882 -0.00050 0.00111 -0.00007 0.05774 0.01363 -0.33221 
1548147369.986778112 -0.01865 -0.03212 -0.02978 -0.00052 0.00111 -0.00007 0.05791 0.01651 -0.33299 
1548147370.215977984 0.10855 -0.00713 -0.00109 -0.00050 0.00110 -0.00007 0.05785 0.01445 -0.33348 
1548147370.380407808 -0.04048 -0.01393 -0.00562 -0.00051 0.00110 -0.00007 0.05781 0.01489 -0.33309 
1548147370.614607872 -0.02849 -0.00825 -0.00571 -0.00049 0.00110 -0.00007 0.05796 0.01409 -0.33465 
1548147370.699308032 -0.00217 -0.00880 -0.00173 -0.00049 0.00110 -0.00007 0.05796 0.01400 -0.33472 
1548147370.848777728 -0.00716 -0.00526 -0.00154 -0.00049 0.00110 -0.00007 0.05797 0.01379 -0.33483 
1548147370.968377856 0.00713 -0.00146 0.00070 -0.00049 0.00110 -0.00007 0.05797 0.01377 -0.33487 
1548147371.162697728 0.00629 0.00033 0.00202 -0.00049 0.00110 -0.00007 0.05797 0.01377 -0.33490 
1548147371.362007808 0.00807 0.00312 0.00384 -0.00049 0.00110 -0.00007 0.05798 0.01377 -0.33494 
1548147371.601187840 0.01049 0.00527 0.00624 -0.00049 0.00110 -0.00007 0.05799 0.01376 -0.33503 
1548147371.870257920 0.01102 0.00899 0.00823 -0.00049 0.00110 -0.00007 0.05802 0.01389 -0.33526 
1548147372.109427968 0.00949 0.01038 0.00820 -0.00050 0.00110 -0.00007 0.05805 0.01419 -0.33531 
1548147372.463187968 -0.00088 0.00995 0.01037 -0.00051 0.00110 -0.00007 0.05805 0.01430 -0.33516 
1548147372.722297856 0.07477 0.00703 0.00198 -0.00051 0.00111 -0.00007 0.05801 0.01385 -0.33460 
1548147372.961457664 -0.09778 0.01451 0.00753 -0.00049 0.00111 -0.00007 0.05800 0.01354 -0.33462 
1548147373.215577856 0.02461 0.01711 0.00330 -0.00048 0.00112 -0.00007 0.05803 0.01310 -0.33441 
1548147373.370047744 -0.02250 0.01479 0.00774 -0.00048 0.00111 -0.00007 0.05802 0.01359 -0.33459 
1548147373.569347840 0.01079 0.01338 0.00672 -0.00050 0.00111 -0.00007 0.05802 0.01422 -0.33459 
1548147373.758697728 0.00574 0.01633 0.00879 -0.00050 0.00111 -0.00007 0.05802 0.01417 -0.33458 
1548147374.57667840 0.00627 0.01261 0.00848 -0.00052 0.00111 -0.00007 0.05800 0.01413 -0.33410 
1548147374.261937920 0.00211 0.00741 0.00702 -0.00052 0.00111 -0.00007 0.05804 0.01397 -0.33416 
1548147374.471217920 0.00118 0.00682 0.00800 -0.00052 0.00111 -0.00007 0.05805 0.01397 -0.33411 
1548147374.670517760 0.00333 0.00827 0.00894 -0.00052 0.00112 -0.00007 0.05805 0.01383 -0.33410 
1548147374.909697792 0.00139 0.00818 0.01034 -0.00052 0.00112 -0.00007 0.05806 0.01384 -0.33409 
1548147375.113977600 0.00293 0.00715 0.01021 -0.00053 0.00112 -0.00007 0.05806 0.01447 -0.33394 
1548147375.363097600 -0.00008 0.00534 0.00752 -0.00053 0.00112 -0.00007 0.05808 0.01415 -0.33373 
1548147375.657077760 -0.00154 0.00600 0.01187 -0.00053 0.00112 -0.00007 0.05807 0.01426 -0.33378 
1548147375.861367808 -0.00436 0.00716 0.01316 -0.00053 0.00112 -0.00007 0.05807 0.01453 -0.33366 
1548147376.20817664 -0.00614 0.00800 0.01287 -0.00053 0.00112 -0.00007 0.05808 0.01429 -0.33367 
1548147376.264967680 -0.00712 0.00538 0.01503 -0.00054 0.00112 -0.00007 0.05808 0.01414 -0.33364 
1548147376.514097664 -0.00558 0.00565 0.01548 -0.00054 0.00112 -0.00007 0.05810 0.01426 -0.33361 
1548147376.668557568 -0.00665 0.00798 0.01607 -0.00054 0.00112 -0.00007 0.05810 0.01410 -0.33360 
1548147376.962527744 -0.01060 0.00919 0.01605 -0.00054 0.00112 -0.00007 0.05811 0.01391 -0.33347 
1548147377.181767680 -0.01034 0.00812 0.01566 -0.00054 0.00112 -0.00007 0.05811 0.01402 -0.33334 
1548147377.415957760 -0.00692 0.00821 0.01371 -0.00054 0.00112 -0.00007 0.05811 0.01428 -0.33305 
1548147377.620247552 -0.00634 0.00699 0.01523 -0.00054 0.00112 -0.00007 0.05811 0.01437 -0.33297 
1548147377.964047616 -0.00818 0.00631 0.01547 -0.00054 0.00112 -0.00007 0.05811 0.01435 -0.33282 
1548147378.282947840 -0.00909 0.00490 0.01702 -0.00054 0.00112 -0.00007 0.05812 0.01431 -0.33270 
1548147378.507157760 -0.00880 0.00567 0.01678 -0.00054 0.00112 -0.00007 0.05813 0.01453 -0.33258 
1548147378.761267712 -0.00960 0.00480 0.01559 -0.00054 0.00112 -0.00007 0.05811 0.01420 -0.33215 
1548147378.975517696 -0.00746 0.00541 0.01660 -0.00054 0.00112 -0.00007 0.05810 0.01442 -0.33201 
1548147379.159877888 -0.00963 0.00299 0.01687 -0.00054 0.00112 -0.00007 0.05810 0.01477 -0.33187 
1548147379.364177664 -0.01199 0.00563 0.01564 -0.00054 0.00112 -0.00007 0.05810 0.01466 -0.33172 
1548147379.553517568 -0.01193 0.00529 0.01678 -0.00054 0.00112 -0.00007 0.05811 0.01466 -0.33170 
1548147379.767767552 -0.01184 0.00421 0.01575 -0.00054 0.00112 -0.00007 0.05811 0.01472 -0.33158 
1548147379.897317632 -0.01231 0.00353 0.01616 -0.00054 0.00112 -0.00007 0.05811 0.01469 -0.33157 
1548147380.111577856 -0.01346 0.00512 0.01747 -0.00054 0.00112 -0.00007 0.05812 0.01467 -0.33156 
1548147380.405567744 -0.00991 0.00557 0.01526 -0.00054 0.00112 -0.00007 0.05812 0.01491 -0.33132 
1548147380.624817664 -0.01058 0.00326 0.01943 -0.00054 0.00112 -0.00007 0.05810 0.01493 -0.33130 
1548147380.804187648 -0.00756 0.00485 0.01722 -0.00054 0.00112 -0.00007 0.05811 0.01478 -0.33112 
1548147381.28397568 -0.01166 0.00455 0.01408 -0.00054 0.00112 -0.00007 0.05812 0.01475 -0.33072 
1548147381.262597632 -0.01036 0.00285 0.01775 -0.00054 0.00112 -0.00007 0.05812 0.01460 -0.33082 
1548147381.456907520 -0.00664 0.00154 0.01795 -0.00054 0.00112 -0.00006 0.05813 0.01485 -0.33080 
1548147381.730967552 -0.00836 0.00342 0.01773 -0.00054 0.00112 -0.00006 0.05814 0.01400 -0.33074 
1548147381.915327488 -0.01021 0.00180 0.01969 -0.00054 0.00112 -0.00007 0.05811 0.01512 -0.33046 
1548147382.209297664 -0.00944 0.00497 0.01788 -0.00054 0.00112 -0.00007 0.05813 0.01473 -0.33024 
1548147382.463427584 -0.01778 0.00631 0.01770 -0.00054 0.00112 -0.00007 0.05814 0.01454 -0.33018 
1548147382.652777728 -0.01121 0.00471 0.01845 -0.00054 0.00112 -0.00007 0.05813 0.01475 -0.33004 
1548147382.857077504 -0.00992 0.00604 0.02204 -0.00054 0.00112 -0.00007 0.05812 0.01506 -0.33008 
1548147383.56407808 -0.01091 0.00569 0.01966 -0.00054 0.00112 -0.00007 0.05813 0.01487 -0.32988 
1548147383.300567552 -0.01465 0.00344 0.01769 -0.00054 0.00112 -0.00006 0.05814 0.01475 -0.32957 
1548147383.514827520 -0.01686 0.00543 0.01883 -0.00054 0.00112 -0.00007 0.05814 0.01443 -0.32957 
1548147383.709167360 -0.01154 0.00258 0.01883 -0.00054 0.00112 -0.00007 0.05814 0.01471 -0.32943 
1548147383.953337344 -0.01351 0.00382 0.02018 -0.00054 0.00112 -0.00007 0.05813 0.01488 -0.32935 
1548147384.157647616 -0.01288 0.00376 0.02123 -0.00054 0.00112 -0.00007 0.05814 0.01493 -0.32931 
1548147384.401807616 -0.01518 0.00484 0.02138 -0.00054 0.00112 -0.00006 0.05815 0.01472 -0.32925 
1548147384.531377664 -0.01404 0.00318 0.02083 -0.00054 0.00112 -0.00006 0.05815 0.01474 -0.32916 
1548147384.705787392 -0.01569 0.00199 0.01931 -0.00054 0.00112 -0.00006 0.05816 0.01470 -0.32901 
1548147384.925037568 -0.01167 0.00375 0.01854 -0.00054 0.00112 -0.00007 0.05818 0.01481 -0.32895 
1548147385.154257408 -0.01083 0.00599 0.01977 -0.00054 0.00112 -0.00006 0.05817 0.01488 -0.32882 
1548147385.363537664 -0.01296 0.00322 0.01800 -0.00054 0.00112 -0.00006 0.05818 0.01484 -0.32866 
1548147385.557867520 -0.01428 0.00111 0.01986 -0.00054 0.00112 -0.00006 0.05818 0.01480 -0.32867 
1548147385.752197632 -0.00776 0.00229 0.02047 -0.00054 0.00112 -0.00006 0.05819 0.01479 -0.32870 
1548147385.921627648 -0.01012 0.00071 0.02072 -0.00054 0.00112 -0.00006 0.05818 0.01483 -0.32848 
1548147386.66127616 -0.00308 0.00154 0.02029 -0.00053 0.00112 -0.00006 0.05819 0.01392 -0.32844 
1548147386.315277568 -0.00991 0.00073 0.01926 -0.00053 0.00112 -0.00006 0.05820 0.01437 -0.32820 
1548147386.554457344 -0.00239 0.00046 0.01989 -0.00054 0.00112 -0.00006 0.05821 0.01435 -0.32824 
1548147386.773707264 -0.01081 0.00173 0.02031 -0.00054 0.00112 -0.00006 0.05820 0.01469 -0.32808 
1548147387.47767296 -0.01517 0.00343 0.02148 -0.00054 0.00112 -0.00006 0.05819 0.01452 -0.32803 
1548147387.217197312 -0.00593 0.00388 0.01838 -0.00054 0.00112 -0.00006 0.05822 0.01403 -0.32792 
1548147387.451397376 -0.01058 0.00214 0.01983 -0.00053 0.00112 -0.00006 0.05821 0.01418 -0.32783 
1548147387.655687680 -0.01129 0.00357 0.02100 -0.00053 0.00112 -0.00006 0.05821 0.01432 -0.32777 
1548147387.805177344 -0.01530 0.00543 0.02171 -0.00053 0.00112 -0.00006 0.05820 0.01439 -0.32768 
1548147388.9487360 -0.01660 0.00766 0.02151 -0.00053 0.00112 -0.00006 0.05820 0.01448 -0.32749 
1548147388.258627328 -0.01594 0.00562 0.02186 -0.00053 0.00112 -0.00006 0.05821 0.01430 -0.32748 
1548147388.552637440 -0.01710 0.00558 0.02261 -0.00053 0.00112 -0.00006 0.05821 0.01476 -0.32731 
1548147388.796797440 -0.01274 0.00158 0.02249 -0.00053 0.00112 -0.00006 0.05821 0.01433 -0.32720 
1548147389.50937344 -0.01633 0.00284 0.02174 -0.00054 0.00112 -0.00006 0.05822 0.01444 -0.32706 
1548147389.285127424 -0.01200 0.00069 0.02271 -0.00053 0.00112 -0.00006 0.05822 0.01484 -0.32702 
1548147389.369837568 -0.01330 0.00087 0.02218 -0.00053 0.00112 -0.00006 0.05822 0.01475 -0.32690 
1548147389.504377344 -0.01247 0.00107 0.02201 -0.00053 0.00112 -0.00006 0.05822 0.01473 -0.32684 
1548147389.718647552 -0.00971 0.00077 0.02097 -0.00053 0.00112 -0.00006 0.05824 0.01490 -0.32685 
1548147389.853187328 -0.01054 0.00170 0.02105 -0.00053 0.00112 -0.00006 0.05824 0.01498 -0.32678 
1548147390.7647488 -0.01387 0.00236 0.02164 -0.00054 0.00112 -0.00006 0.05824 0.01516 -0.32676 
1548147390.301637376 -0.05737 -0.00433 0.02693 -0.00052 0.00112 -0.00006 0.05824 0.01466 -0.32661 
1548147390.500967424 -0.31803 -0.00055 0.05731 -0.00051 0.00112 -0.00006 0.05821 0.01477 -0.32646 
1548147390.705267456 -0.37188 0.00727 0.08726 -0.00048 0.00111 -0.00006 0.05813 0.01446 -0.32718 
1548147390.899607296 -0.37274 0.00557 0.09123 -0.00049 0.00111 -0.00006 0.05815 0.01472 -0.32706 
1548147391.54077440 -0.39293 0.00325 0.08411 -0.00049 0.00111 -0.00006 0.05815 0.01507 -0.32728 
1548147391.198577408 -0.40947 -0.01354 0.07299 -0.00049 0.00111 -0.00006 0.05819 0.01565 -0.32686 
1548147391.407857408 -0.33527 -0.02576 0.08327 -0.00049 0.00111 -0.00006 0.05818 0.01532 -0.32507 
1548147391.647047168 -0.45807 -0.00167 0.08845 -0.00050 0.00112 -0.00006 0.05812 0.01522 -0.32629 
1548147391.866297344 -0.48066 0.00217 0.09682 -0.00050 0.00111 -0.00006 0.05803 0.01559 -0.32672 
1548147392.85557504 -0.47687 -0.01554 0.10201 -0.00052 0.00110 -0.00006 0.05802 0.01536 -0.32726 
1548147392.195177216 -0.43829 0.00048 0.09751 -0.00051 0.00110 -0.00006 0.05797 0.01547 -0.32678 
1548147392.354637312 -0.35837 0.02576 0.11195 -0.00052 0.00109 -0.00006 0.05797 0.01513 -0.32712 
1548147392.683527168 -0.43604 0.00960 0.08155 -0.00053 0.00110 -0.00006 0.05803 0.01530 -0.32685 
1548147392.892807168 -0.45481 0.00163 0.07338 -0.00055 0.00110 -0.00006 0.05799 0.01447 -0.32599 
1548147393.97117440 -0.39763 -0.00280 0.05888 -0.00055 0.00110 -0.00006 0.05769 0.01626 -0.32332 
1548147393.216707328 -0.34463 -0.01427 0.07066 -0.00051 0.00109 -0.00005 0.05752 0.01720 -0.32290 
1548147393.520687360 -0.34484 0.00535 0.04051 -0.00049 0.00110 -0.00005 0.05765 0.01626 -0.32221 
1548147393.849577216 -0.42655 -0.01453 0.03056 -0.00049 0.00111 -0.00005 0.05766 0.01665 -0.32149 
1548147394.193407232 -0.37712 0.00347 0.03902 -0.00049 0.00110 -0.00006 0.05756 0.01655 -0.32126 
1548147394.447547136 -0.48791 -0.01106 -0.01612 -0.00049 0.00111 -0.00006 0.05760 0.01698 -0.32136 
1548147394.661817344 -0.47704 0.02084 -0.00484 -0.00049 0.00111 -0.00005 0.05763 0.01689 -0.32132 
1548147394.896037376 -0.40646 -0.00314 0.01719 -0.00050 0.00111 -0.00006 0.05708 0.01635 -0.31772 
1548147395.105327360 -0.32012 -0.00844 0.02667 -0.00052 0.00110 -0.00007 0.05718 0.01663 -0.31950 
1548147395.319617280 -0.26408 0.00365 0.02130 -0.00055 0.00110 -0.00007 0.05742 0.01644 -0.32139 
1548147395.553827328 -0.05311 0.01642 0.06804 -0.00056 0.00111 -0.00007 0.05749 0.01661 -0.32188 
1548147395.748187392 0.09704 0.03541 0.01820 -0.00056 0.00111 -0.00007 0.05756 0.01639 -0.32222 
1548147395.952497152 -0.02612 0.00992 0.02008 -0.00056 0.00112 -0.00007 0.05759 0.01722 -0.32195 
1548147396.191697408 0.01642 0.02948 0.01817 -0.00056 0.00111 -0.00007 0.05749 0.01679 -0.32129 
1548147396.460787200 0.00556 0.01386 0.01031 -0.00056 0.00111 -0.00007 0.05760 0.01737 -0.32206 
1548147396.645177088 0.01105 0.01342 0.00947 -0.00056 0.00112 -0.00007 0.05749 0.01708 -0.32130 
1548147396.844507136 0.02088 0.02063 0.00517 -0.00056 0.00112 -0.00007 0.05757 0.01721 -0.32186 
1548147397.53807360 0.13884 0.03301 0.00724 -0.00057 0.00111 -0.00007 0.05757 0.01722 -0.32187 
1548147397.253127168 0.33319 0.04063 0.01701 -0.00057 0.00111 -0.00007 0.05756 0.01716 -0.32180 
1548147397.497297408 0.40940 0.01807 -0.00326 -0.00054 0.00113 -0.00006 0.05805 0.02000 -0.32499 
1548147397.651777280 0.49928 0.03547 -0.01877 -0.00052 0.00113 -0.00006 0.05842 0.01944 -0.32738 
1548147397.940797184 0.40497 0.00118 -0.05215 -0.00053 0.00114 -0.00005 0.05877 0.02003 -0.32969 
1548147398.199907328 0.32869 0.00215 -0.06134 -0.00052 0.00115 -0.00005 0.05905 0.02072 -0.33112 
1548147398.449057024 0.37316 0.00768 -0.08497 -0.00050 0.00115 -0.00005 0.05906 0.02111 -0.33125 
1548147398.643387136 0.41869 0.00792 -0.06529 -0.00050 0.00113 -0.00005 0.05881 0.02090 -0.32996 
1548147398.897517312 0.34418 0.00932 -0.07004 -0.00048 0.00114 -0.00005 0.05878 0.02101 -0.32953 
1548147399.81887232 0.34220 0.00084 -0.06202 -0.00045 0.00113 -0.00004 0.05870 0.02054 -0.32915 
1548147399.296167168 0.36572 -0.00124 -0.05361 -0.00046 0.00112 -0.00004 0.05856 0.01994 -0.32860 
1548147399.540317184 0.43217 -0.00774 -0.06301 -0.00047 0.00111 -0.00004 0.05854 0.02006 -0.32862 
1548147399.794447104 0.52379 0.04703 -0.06734 -0.00047 0.00110 -0.00004 0.05865 0.01941 -0.32929 
1548147399.988777216 0.49025 0.01258 -0.10756 -0.00047 0.00111 -0.00004 0.05867 0.01880 -0.32929 
1548147400.237917184 0.52747 -0.00591 -0.10253 -0.00049 0.00112 -0.00004 0.05862 0.01794 -0.32884 
1548147400.492037120 0.38226 -0.00501 -0.09056 -0.00050 0.00113 -0.00004 0.05858 0.01893 -0.32795 
1548147400.646507008 0.36552 -0.01072 -0.09838 -0.00049 0.00113 -0.00005 0.05868 0.01851 -0.32877 
1548147400.890657280 0.42695 -0.00383 -0.11364 -0.00049 0.00113 -0.00005 0.05932 0.02471 -0.33473 
1548147401.109917184 0.33624 -0.00750 -0.12271 -0.00046 0.00113 -0.00005 0.05934 0.02437 -0.33464 
1548147401.284316928 0.31255 -0.02991 -0.09798 -0.00047 0.00113 -0.00005 0.05932 0.02405 -0.33403 
1548147401.493596928 0.31355 -0.02359 -0.09010 -0.00045 0.00112 -0.00005 0.05955 0.02871 -0.33773 
1548147401.677967104 0.34558 -0.00778 -0.09398 -0.00045 0.00112 -0.00005 0.05948 0.02779 -0.33777 
1548147401.897217024 0.39067 -0.00583 -0.08608 -0.00045 0.00111 -0.00005 0.05945 0.02844 -0.33845 
1548147402.186227200 0.33959 -0.04618 -0.01212 -0.00044 0.00110 -0.00005 0.05946 0.02826 -0.33858 
1548147402.385547264 -0.14199 -0.02825 -0.00312 -0.00042 0.00111 -0.00004 0.05965 0.03412 -0.34014 
1548147402.649636864 0.10476 -0.02111 -0.03170 -0.00042 0.00110 -0.00004 0.05969 0.03441 -0.34167 
1548147402.993457152 0.03859 -0.01073 -0.01441 -0.00043 0.00111 -0.00005 0.05971 0.03405 -0.34224 
1548147403.252577024 0.01439 -0.00551 -0.00473 -0.00042 0.00111 -0.00005 0.05970 0.03116 -0.34265 
1548147403.446917120 0.00621 -0.00581 -0.00157 -0.00043 0.00111 -0.00005 0.05970 0.03111 -0.34267 
1548147403.691077120 0.01429 -0.00567 0.00022 -0.00043 0.00111 -0.00005 0.05970 0.03106 -0.34272 
1548147403.855517184 0.01494 -0.00371 0.00184 -0.00043 0.00111 -0.00005 0.05971 0.03103 -0.34275 
1548147404.34897152 0.01746 -0.00139 0.00437 -0.00043 0.00111 -0.00005 0.05971 0.03102 -0.34278 
1548147404.289037056 0.01861 -0.00057 0.00676 -0.00043 0.00111 -0.00005 0.05971 0.03098 -0.34285 
1548147404.478377216 0.01668 0.00095 0.00900 -0.00044 0.00111 -0.00005 0.05972 0.03099 -0.34296 
1548147404.647787008 0.01644 0.00193 0.01049 -0.00044 0.00111 -0.00005 0.05972 0.03099 -0.34298 
1548147404.792287232 0.00502 0.00291 0.01270 -0.00046 0.00112 -0.00005 0.05971 0.03049 -0.34300 
1548147404.986617088 0.00634 0.00398 0.01425 -0.00045 0.00112 -0.00005 0.05973 0.03070 -0.34313 
1548147405.141086976 0.00622 0.00507 0.01466 -0.00045 0.00112 -0.00005 0.05973 0.03092 -0.34314 
1548147405.290586880 0.00550 0.00562 0.01538 -0.00045 0.00112 -0.00005 0.05973 0.03099 -0.34304 
1548147405.440077056 0.00344 0.00546 0.01619 -0.00045 0.00112 -0.00005 0.05972 0.03107 -0.34298 
1548147405.574616832 0.00298 0.00649 0.01634 -0.00045 0.00112 -0.00005 0.05972 0.03119 -0.34292 
1548147405.699186944 0.00186 0.00567 0.01640 -0.00046 0.00112 -0.00005 0.05972 0.03123 -0.34279 
1548147405.843666944 0.00179 0.00605 0.01632 -0.00046 0.00112 -0.00005 0.05972 0.03125 -0.34272 
1548147406.97806848 -0.00002 0.00619 0.01747 -0.00046 0.00112 -0.00005 0.05971 0.03122 -0.34263 
1548147406.177527040 -0.00021 0.00628 0.01764 -0.00046 0.00112 -0.00005 0.05971 0.03126 -0.34259 
1548147406.436636928 -0.00195 0.00693 0.01794 -0.00046 0.00112 -0.00005 0.05970 0.03153 -0.34241 
1548147406.650897152 -0.00325 0.00568 0.01911 -0.00046 0.00112 -0.00005 0.05970 0.03156 -0.34228 
1548147406.845217024 -0.00479 0.00620 0.02026 -0.00046 0.00112 -0.00005 0.05970 0.03160 -0.34224 
1548147407.104316928 -0.00774 0.00502 0.02083 -0.00047 0.00112 -0.00005 0.05970 0.03189 -0.34211 
1548147407.353456896 -0.01040 0.00430 0.02150 -0.00047 0.00112 -0.00005 0.05969 0.03196 -0.34190 
1548147407.532836864 -0.01137 0.00350 0.02184 -0.00047 0.00112 -0.00005 0.05968 0.03200 -0.34172 
1548147407.692286976 -0.00832 0.00368 0.02085 -0.00047 0.00112 -0.00005 0.05968 0.03152 -0.34148 
1548147407.911536896 -0.00798 0.00595 0.02032 -0.00046 0.00112 -0.00005 0.05969 0.03184 -0.34140 
1548147408.145716992 -0.00547 0.00531 0.02206 -0.00046 0.00112 -0.00005 0.05973 0.03153 -0.34176 
1548147408.394866944 -0.00787 0.00406 0.02355 -0.00047 0.00112 -0.00005 0.05971 0.03161 -0.34155 
1548147408.688856832 -0.01169 0.00443 0.02453 -0.00047 0.00112 -0.00005 0.05972 0.03188 -0.34144 
1548147408.982846976 -0.01223 0.00313 0.02473 -0.00047 0.00112 -0.00005 0.05971 0.03206 -0.34124 
1548147409.281806848 -0.01427 0.00215 0.02315 -0.00047 0.00112 -0.00004 0.05971 0.03199 -0.34099 
1548147409.501057024 -0.00999 0.00152 0.02281 -0.00047 0.00112 -0.00004 0.05971 0.03231 -0.34087 
1548147409.700377088 -0.01017 0.00246 0.02305 -0.00047 0.00112 -0.00004 0.05972 0.03229 -0.34081 
1548147409.904676864 -0.01100 0.00179 0.02275 -0.00047 0.00112 -0.00004 0.05972 0.03235 -0.34075 
1548147410.64126976 -0.00945 0.00165 0.02368 -0.00047 0.00112 -0.00004 0.05971 0.03225 -0.34070 
1548147410.303306752 -0.01028 0.00342 0.02411 -0.00047 0.00112 -0.00004 0.05971 0.03215 -0.34057 
1548147410.452786944 -0.00984 0.00447 0.02362 -0.00047 0.00112 -0.00004 0.05971 0.03236 -0.34044 
1548147410.587346688 -0.01047 0.00415 0.02398 -0.00047 0.00112 -0.00004 0.05971 0.03243 -0.34036 
1548147410.801596928 -0.01283 0.00404 0.02499 -0.00047 0.00112 -0.00004 0.05970 0.03231 -0.34024 
1548147410.990946816 -0.01389 0.00269 0.02394 -0.00047 0.00112 -0.00004 0.05970 0.03243 -0.34009 
1548147411.130477056 -0.01467 0.00280 0.02458 -0.00047 0.00112 -0.00004 0.05971 0.03250 -0.34007 
1548147411.339766784 -0.01557 0.00260 0.02509 -0.00047 0.00112 -0.00004 0.05971 0.03259 -0.34004 
1548147411.588896768 -0.01532 0.00184 0.02490 -0.00047 0.00112 -0.00004 0.05971 0.03268 -0.33987 
1548147411.828076800 -0.01629 0.00190 0.02603 -0.00047 0.00112 -0.00004 0.05972 0.03286 -0.33988 
1548147412.37356800 -0.01432 0.00030 0.02545 -0.00048 0.00112 -0.00004 0.05973 0.03252 -0.33985 
1548147412.231686912 -0.01360 0.00240 0.02517 -0.00047 0.00112 -0.00004 0.05974 0.03256 -0.33979 
1548147412.490776832 -0.01504 0.00083 0.02511 -0.00047 0.00112 -0.00004 0.05973 0.03251 -0.33952 
1548147412.729956864 -0.01505 0.00240 0.02509 -0.00047 0.00112 -0.00004 0.05974 0.03209 -0.33947 
1548147412.889396992 -0.01072 0.00396 0.02501 -0.00047 0.00112 -0.00004 0.05976 0.03266 -0.33956 
1548147413.83726848 -0.01397 0.00207 0.02707 -0.00047 0.00112 -0.00004 0.05976 0.03261 -0.33955 
1548147413.248146688 -0.00931 -0.00030 0.02781 -0.00046 0.00112 -0.00004 0.05976 0.03251 -0.33955 
1548147413.477346816 -0.01420 0.00012 0.02682 -0.00046 0.00112 -0.00004 0.05974 0.03245 -0.33920 
1548147413.771336704 -0.01148 0.00116 0.02578 -0.00046 0.00112 -0.00004 0.05974 0.03288 -0.33892 
1548147413.930786816 -0.00725 -0.00112 0.02631 -0.00046 0.00112 -0.00004 0.05977 0.03261 -0.33915 
1548147414.229746944 -0.00970 -0.00240 0.01626 -0.00047 0.00112 -0.00004 0.05977 0.03431 -0.33828 
1548147414.444016640 -0.00718 -0.00267 0.01028 -0.00048 0.00112 -0.00004 0.05982 0.03466 -0.33819 
1548147414.658266880 -0.00917 -0.00314 0.01107 -0.00048 0.00112 -0.00004 0.05983 0.03467 -0.33820 
