1403638518.332829440 0.00375 0.01303 -0.00905 -0.00391 0.00281 0.00761 -0.00121 0.00012 0.00034 
1403638518.587829504 0.00068 -0.00003 -0.00057 -0.00208 0.01952 0.07635 -0.02440 -0.00018 0.01042 
1403638518.857829376 -0.00377 -0.00010 0.00021 -0.00184 0.01971 0.07743 -0.02308 -0.00008 0.00972 
1403638519.132829440 -0.00187 0.00211 0.00122 -0.00191 0.01988 0.07768 -0.02265 -0.00001 0.00952 
1403638519.387829504 -0.00302 0.00078 -0.00125 -0.00192 0.02009 0.07782 -0.01984 0.00003 0.00833 
1403638519.662829568 0.00069 -0.00157 0.00082 -0.00197 0.02014 0.07784 -0.02322 0.00007 0.00976 
1403638519.932829440 -0.00693 -0.00164 -0.00308 -0.00191 0.02012 0.07788 -0.02089 0.00006 0.00877 
1403638520.187829504 0.00104 0.00091 0.00002 -0.00197 0.02009 0.07791 -0.02323 0.00008 0.00976 
1403638520.432829440 0.00030 -0.00106 0.00133 -0.00194 0.02017 0.07793 -0.02368 0.00007 0.00994 
1403638520.687829504 0.00311 0.00049 -0.00042 -0.00197 0.02021 0.07796 -0.02351 0.00009 0.00988 
1403638520.962829568 0.00008 0.00286 0.00051 -0.00202 0.02015 0.07795 -0.02379 0.00010 0.01000 
1403638521.232829440 -0.00040 -0.00185 0.00076 -0.00197 0.02025 0.07797 -0.02407 0.00010 0.01011 
1403638521.487829504 -0.00253 -0.00269 0.00035 -0.00193 0.02026 0.07795 -0.02256 0.00009 0.00947 
1403638521.742829568 0.00020 0.00266 0.00210 -0.00205 0.02021 0.07790 -0.02308 0.00010 0.00970 
1403638522.32829440 -0.00397 -0.00431 0.01362 -0.00199 0.02014 0.07796 -0.02312 0.00010 0.00971 
1403638522.287829504 -0.02893 -0.00693 0.29622 -0.00211 0.01993 0.07789 -0.02189 0.00013 0.00922 
1403638522.552829440 -0.03829 -0.00568 0.47202 -0.00195 0.02030 0.07782 -0.03630 0.00004 0.01467 
1403638522.832829440 -0.06273 -0.01104 0.50915 -0.00194 0.02030 0.07777 -0.03171 0.00155 0.01239 
1403638523.87829504 -0.01266 0.04931 0.24486 -0.00189 0.02025 0.07780 -0.03251 -0.00127 0.01050 
1403638523.342829568 0.01134 0.06303 -0.34516 -0.00182 0.02035 0.07759 -0.03249 -0.00461 0.01226 
1403638523.442829568 0.02274 0.08850 -0.45192 -0.00192 0.02044 0.07758 -0.03481 -0.00529 0.01162 
1403638523.582829568 0.06535 0.09011 -0.51405 -0.00187 0.02025 0.07767 -0.03214 -0.00297 0.01276 
1403638523.882829568 0.07988 0.06142 -0.39491 -0.00173 0.02063 0.07758 -0.03319 0.00184 0.01042 
1403638524.32829440 0.03778 0.00685 -0.13841 -0.00178 0.02076 0.07746 -0.03376 0.00388 0.00923 
1403638524.147829504 0.00197 -0.00415 0.18256 -0.00183 0.02078 0.07735 -0.03363 0.00307 0.00991 
1403638524.237829376 -0.03241 -0.00062 0.41295 -0.00179 0.02074 0.07743 -0.03345 0.00444 0.01125 
1403638524.392829440 -0.07471 -0.00646 0.58277 -0.00179 0.02072 0.07737 -0.03447 0.00449 0.01224 
1403638524.682829568 -0.09575 -0.03926 0.46492 -0.00185 0.02074 0.07726 -0.03500 0.00298 0.01250 
1403638524.982829568 -0.01451 -0.02302 -0.02390 -0.00179 0.02055 0.07725 -0.03877 0.00990 0.00386 
1403638525.242829568 0.00711 -0.00563 -0.49605 -0.00171 0.02049 0.07721 -0.04072 0.01024 0.00123 
1403638525.402829568 0.04324 -0.02495 -0.55337 -0.00172 0.02049 0.07727 -0.04040 0.01124 0.00281 
1403638525.532829440 0.04659 -0.00632 -0.48735 -0.00178 0.02057 0.07715 -0.04139 0.00942 0.00169 
1403638525.737829376 0.01536 -0.00721 -0.30978 -0.00170 0.02053 0.07710 -0.04125 0.00790 0.00287 
1403638525.887829504 0.01767 0.03485 -0.16273 -0.00173 0.02062 0.07702 -0.04219 0.00535 0.00183 
1403638526.47829504 0.02914 0.21339 -0.00209 -0.00180 0.02066 0.07704 -0.04216 0.00502 0.00400 
1403638526.147829504 0.03203 0.30936 0.08408 -0.00188 0.02072 0.07708 -0.04257 0.00444 0.00305 
1403638526.257829376 0.05499 0.37833 0.13958 -0.00189 0.02064 0.07710 -0.04210 0.00361 0.00470 
1403638526.367829504 0.08135 0.42970 0.13972 -0.00199 0.02065 0.07716 -0.04280 0.00439 0.00395 
1403638526.482829568 0.10045 0.48320 0.10536 -0.00203 0.02064 0.07719 -0.04296 0.00499 0.00454 
1403638526.637829376 0.13157 0.60051 0.06410 -0.00206 0.02058 0.07713 -0.04234 0.00479 0.00482 
1403638526.937829376 0.16918 0.60285 0.01783 -0.00202 0.02063 0.07714 -0.04407 0.00397 -0.00063 
1403638527.87829504 0.13267 0.53102 0.04094 -0.00204 0.02064 0.07708 -0.04443 0.00374 -0.00169 
1403638527.242829568 0.06046 0.38510 0.06694 -0.00199 0.02070 0.07693 -0.04647 -0.00143 -0.00610 
1403638527.447829504 -0.04389 0.00378 0.03526 -0.00195 0.02077 0.07682 -0.04819 0.00328 -0.01107 
1403638527.682829568 -0.12962 -0.42193 -0.01458 -0.00195 0.02070 0.07686 -0.04629 0.00629 -0.00794 
1403638527.802829568 -0.17015 -0.52667 0.00432 -0.00193 0.02079 0.07686 -0.04817 0.00538 -0.01445 
1403638528.87829504 -0.14652 -0.58260 0.00637 -0.00185 0.02086 0.07688 -0.04925 0.00695 -0.01588 
1403638528.187829504 -0.18438 -0.52614 -0.02677 -0.00190 0.02087 0.07690 -0.04948 0.00667 -0.01716 
1403638528.387829504 -0.30685 -0.28481 -0.04615 -0.00199 0.02092 0.07695 -0.05018 0.00478 -0.01836 
1403638528.637829376 -0.33873 -0.10575 0.00411 -0.00204 0.02101 0.07702 -0.05124 0.00482 -0.02078 
1403638528.887829504 -0.03128 -0.02759 0.10831 -0.00201 0.02102 0.07702 -0.05129 0.00628 -0.02329 
1403638529.132829440 0.30188 -0.14415 0.10575 -0.00201 0.02101 0.07704 -0.04842 0.03062 -0.01721 
1403638529.282829568 0.37306 -0.20289 -0.04560 -0.00197 0.02099 0.07699 -0.04843 0.03208 -0.01855 
1403638529.402829568 0.34513 -0.18498 -0.17187 -0.00192 0.02096 0.07692 -0.04801 0.03258 -0.01848 
1403638529.532829440 0.24950 -0.13772 -0.23307 -0.00185 0.02096 0.07690 -0.04835 0.03293 -0.01905 
1403638529.667829504 0.14569 -0.11458 -0.22567 -0.00187 0.02098 0.07694 -0.04818 0.03306 -0.01845 
1403638529.882829568 0.01846 -0.06987 -0.15859 -0.00186 0.02101 0.07697 -0.04781 0.03203 -0.01799 
1403638530.97829376 -0.12376 0.00253 -0.09724 -0.00192 0.02098 0.07698 -0.04305 0.05087 -0.00896 
1403638530.202829568 -0.15552 0.02042 -0.09294 -0.00193 0.02098 0.07699 -0.04290 0.05140 -0.00865 
1403638530.402829568 -0.13563 0.04385 -0.07508 -0.00194 0.02097 0.07699 -0.04279 0.05139 -0.00853 
1403638530.512829440 -0.10014 0.04745 -0.05398 -0.00195 0.02096 0.07699 -0.04274 0.05140 -0.00846 
1403638530.652829440 -0.05935 0.03436 -0.05205 -0.00198 0.02094 0.07701 -0.04226 0.05260 -0.00757 
1403638530.837829376 -0.05121 0.00982 -0.04497 -0.00201 0.02092 0.07703 -0.04186 0.05292 -0.00684 
1403638531.47829504 -0.03919 0.00079 -0.01964 -0.00203 0.02092 0.07703 -0.04163 0.05298 -0.00636 
1403638531.242829568 -0.04498 -0.00832 -0.04187 -0.00203 0.02091 0.07704 -0.04153 0.05321 -0.00617 
1403638531.392829440 -0.04321 0.01409 -0.00936 -0.00203 0.02091 0.07704 -0.04148 0.05341 -0.00607 
1403638531.532829440 -0.04456 0.01366 -0.00737 -0.00204 0.02091 0.07704 -0.04137 0.05345 -0.00582 
1403638531.692829440 -0.05057 0.01623 -0.00310 -0.00204 0.02090 0.07704 -0.04101 0.05340 -0.00489 
1403638531.932829440 -0.05840 0.02432 -0.00529 -0.00204 0.02089 0.07705 -0.04058 0.05406 -0.00382 
1403638532.132829440 -0.02730 0.01026 -0.00557 -0.00207 0.02078 0.07710 -0.03516 0.05581 0.01030 
1403638532.352829440 -0.02544 0.00684 -0.00399 -0.00207 0.02075 0.07712 -0.03418 0.05619 0.01293 
1403638532.582829568 -0.02330 0.00437 -0.00302 -0.00208 0.02072 0.07713 -0.03326 0.05622 0.01543 
1403638532.782829568 -0.02492 0.00209 -0.00290 -0.00208 0.02071 0.07714 -0.03289 0.05614 0.01643 
1403638533.7829504 -0.02582 0.00390 -0.00329 -0.00208 0.02070 0.07714 -0.03267 0.05612 0.01705 
1403638533.237829376 -0.02480 0.00381 -0.00088 -0.00207 0.02069 0.07714 -0.03219 0.05612 0.01840 
1403638533.432829440 -0.02570 0.00215 0.00000 -0.00208 0.02068 0.07714 -0.03202 0.05609 0.01891 
1403638533.597829376 -0.02310 0.00473 0.00020 -0.00208 0.02067 0.07715 -0.03183 0.05582 0.01942 
1403638533.787829504 -0.02315 0.00443 -0.00002 -0.00209 0.02066 0.07716 -0.03173 0.05563 0.01961 
1403638533.947829504 -0.02490 -0.00020 -0.00293 -0.00209 0.02066 0.07716 -0.03170 0.05560 0.01968 
1403638534.132829440 -0.02398 0.00236 -0.00029 -0.00209 0.02066 0.07716 -0.03167 0.05560 0.01981 
1403638534.332829440 -0.01385 0.00558 -0.00297 -0.00208 0.02065 0.07717 -0.03163 0.05548 0.01997 
1403638534.487829504 -0.01446 -0.00613 -0.00234 -0.00209 0.02064 0.07718 -0.03156 0.05541 0.02016 
1403638534.637829376 -0.01379 0.00460 -0.00264 -0.00209 0.02064 0.07718 -0.03153 0.05532 0.02024 
1403638534.887829504 -0.01532 0.00416 -0.00752 -0.00209 0.02064 0.07718 -0.03155 0.05528 0.02023 
1403638535.87829504 -0.01242 0.00317 -0.00589 -0.00208 0.02063 0.07718 -0.03163 0.05519 0.02014 
1403638535.267829504 -0.01057 0.00586 -0.00567 -0.00208 0.02063 0.07719 -0.03166 0.05516 0.02013 
1403638535.437829376 -0.01327 0.00636 -0.00459 -0.00208 0.02063 0.07719 -0.03170 0.05506 0.02011 
1403638535.587829504 -0.01534 0.00724 -0.00457 -0.00208 0.02063 0.07719 -0.03173 0.05500 0.02009 
1403638535.837829376 -0.01418 0.00807 -0.00408 -0.00207 0.02062 0.07720 -0.03179 0.05490 0.02001 
1403638536.82829568 -0.01477 0.01362 -0.00461 -0.00207 0.02062 0.07720 -0.03184 0.05480 0.01996 
1403638536.292829440 -0.01790 0.01495 -0.00047 -0.00207 0.02062 0.07721 -0.03193 0.05469 0.01984 
1403638536.497829376 -0.00645 0.00399 0.00163 -0.00206 0.02057 0.07727 -0.03259 0.05361 0.01853 
1403638536.617829376 -0.00681 0.00433 0.00126 -0.00206 0.02057 0.07727 -0.03262 0.05358 0.01847 
1403638536.842829568 -0.00708 0.00401 0.00050 -0.00206 0.02057 0.07727 -0.03266 0.05361 0.01837 
1403638537.82829568 -0.00612 0.01182 -0.00286 -0.00205 0.02057 0.07728 -0.03272 0.05365 0.01823 
1403638537.287829504 -0.01106 0.01148 -0.00332 -0.00205 0.02057 0.07728 -0.03277 0.05365 0.01815 
1403638537.437829376 -0.01215 0.01052 -0.00316 -0.00206 0.02056 0.07729 -0.03288 0.05378 0.01796 
1403638537.537829376 -0.00709 0.01569 -0.00449 -0.00206 0.02056 0.07729 -0.03292 0.05381 0.01792 
1403638537.737829376 -0.00184 0.00909 -0.00021 -0.00206 0.02056 0.07730 -0.03299 0.05381 0.01783 
1403638537.867829504 -0.01426 0.01251 -0.00429 -0.00206 0.02055 0.07730 -0.03304 0.05382 0.01779 
1403638538.82829568 -0.00179 0.01284 -0.00170 -0.00205 0.02055 0.07730 -0.03309 0.05385 0.01775 
1403638538.337829376 -0.01101 0.01676 -0.00109 -0.00205 0.02054 0.07731 -0.03315 0.05394 0.01772 
1403638538.582829568 0.00429 0.01729 0.00115 -0.00205 0.02053 0.07731 -0.03316 0.05400 0.01793 
1403638538.787829504 -0.00461 0.01222 -0.01857 -0.00205 0.02052 0.07731 -0.03304 0.05403 0.01828 
1403638538.942829568 -0.02333 0.01380 0.04178 -0.00206 0.02051 0.07731 -0.03272 0.05415 0.01910 
1403638539.117829376 -0.05102 0.01360 0.09586 -0.00206 0.02051 0.07730 -0.03267 0.05425 0.01929 
1403638539.237829376 -0.05609 0.01444 0.19359 -0.00206 0.02051 0.07730 -0.03264 0.05426 0.01936 
1403638539.542829568 -0.05603 0.01824 0.36000 -0.00206 0.02052 0.07730 -0.03255 0.05488 0.01932 
1403638539.722829568 -0.10274 0.01249 0.18081 -0.00203 0.02059 0.07730 -0.03250 0.05344 0.01802 
1403638539.827829504 -0.12369 0.00724 0.10724 -0.00201 0.02061 0.07734 -0.03217 0.06191 0.01889 
1403638540.22829568 -0.19485 0.02413 0.09143 -0.00204 0.02063 0.07734 -0.03226 0.06386 0.01825 
1403638540.192829440 -0.30983 0.03176 0.09774 -0.00203 0.02062 0.07733 -0.03190 0.06336 0.01910 
1403638540.422829568 -0.42540 0.02146 0.09682 -0.00203 0.02062 0.07734 -0.03055 0.06966 0.02214 
1403638540.587829504 -0.46644 -0.01030 0.07565 -0.00203 0.02061 0.07733 -0.02930 0.06837 0.02454 
1403638540.787829504 -0.52386 -0.05732 0.07140 -0.00202 0.02065 0.07730 -0.03025 0.06774 0.02195 
1403638540.932829440 -0.54397 -0.11952 0.03479 -0.00203 0.02065 0.07730 -0.03047 0.06667 0.02125 
1403638541.132829440 -0.56384 -0.19156 -0.03279 -0.00202 0.02066 0.07730 -0.03080 0.06602 0.02021 
1403638541.337829376 -0.56543 -0.26251 0.02145 -0.00205 0.02065 0.07727 -0.02931 0.06964 0.02400 
1403638541.532829440 -0.56431 -0.36161 0.13230 -0.00202 0.02064 0.07730 -0.02814 0.07051 0.02693 
1403638541.692829440 -0.58014 -0.47373 0.25501 -0.00203 0.02064 0.07731 -0.02744 0.07079 0.02888 
1403638541.837829376 -0.56697 -0.54189 0.32098 -0.00202 0.02066 0.07732 -0.02858 0.07260 0.02624 
1403638541.982829568 -0.54548 -0.57216 0.24438 -0.00201 0.02064 0.07730 -0.02748 0.07192 0.02893 
1403638542.107829504 -0.51457 -0.57211 0.16669 -0.00205 0.02061 0.07729 -0.02669 0.07064 0.03090 
1403638542.282829568 -0.50193 -0.59593 0.07420 -0.00207 0.02059 0.07730 -0.02615 0.07806 0.03228 
1403638542.447829504 -0.49956 -0.61625 0.03996 -0.00203 0.02058 0.07732 -0.02615 0.07993 0.03258 
1403638542.632829440 -0.40924 -0.67745 0.04784 -0.00205 0.02059 0.07732 -0.02636 0.08009 0.03243 
1403638542.982829568 -0.17389 -0.77477 0.27471 -0.00209 0.02060 0.07735 -0.02887 0.08311 0.02731 
1403638543.137829376 -0.18388 -0.80777 0.21966 -0.00211 0.02061 0.07735 -0.02892 0.08310 0.02717 
1403638543.337829376 -0.17389 -0.82644 0.10004 -0.00208 0.02058 0.07736 -0.02923 0.08381 0.02682 
1403638543.537829376 -0.17946 -0.85655 0.02577 -0.00207 0.02056 0.07733 -0.02950 0.08408 0.02670 
1403638543.757829376 -0.14918 -0.89206 0.04109 -0.00213 0.02058 0.07732 -0.03064 0.08555 0.02448 
1403638543.887829504 -0.15123 -0.94965 0.15379 -0.00212 0.02058 0.07731 -0.03091 0.08611 0.02400 
1403638544.67829504 -0.14040 -0.97775 0.22987 -0.00210 0.02059 0.07732 -0.03121 0.08703 0.02382 
1403638544.287829504 -0.17732 -0.98787 0.10407 -0.00209 0.02059 0.07731 -0.03137 0.08722 0.02370 
1403638544.442829568 -0.20245 -0.98150 0.05048 -0.00211 0.02058 0.07732 -0.03091 0.08537 0.02549 
1403638544.607829504 -0.21407 -1.00362 0.08933 -0.00212 0.02059 0.07730 -0.03076 0.08471 0.02648 
1403638544.792829440 -0.20216 -0.97058 0.14381 -0.00212 0.02058 0.07728 -0.03255 0.08294 0.02296 
1403638544.897829376 -0.20376 -0.97080 0.09312 -0.00213 0.02057 0.07729 -0.03278 0.08348 0.02268 
1403638545.32829440 -0.21464 -0.96206 0.01969 -0.00214 0.02058 0.07728 -0.03249 0.08266 0.02372 
1403638545.147829504 -0.21647 -0.94781 -0.05453 -0.00214 0.02058 0.07727 -0.03259 0.08270 0.02365 
1403638545.342829568 -0.20464 -0.92772 -0.14605 -0.00215 0.02056 0.07727 -0.03215 0.08153 0.02504 
1403638545.582829568 -0.16696 -0.93284 -0.11912 -0.00214 0.02056 0.07727 -0.03230 0.08172 0.02473 
1403638545.732829440 -0.17671 -0.92554 -0.01799 -0.00218 0.02059 0.07726 -0.03205 0.08033 0.02554 
1403638545.987829504 -0.17621 -0.90926 0.18032 -0.00217 0.02060 0.07722 -0.03200 0.08072 0.02642 
1403638546.142829568 -0.16656 -0.91996 0.12583 -0.00210 0.02062 0.07723 -0.02806 0.08767 0.03632 
1403638546.307829504 -0.16206 -0.94841 0.01652 -0.00210 0.02064 0.07721 -0.02800 0.08693 0.03662 
1403638546.492829440 -0.15889 -0.97694 -0.06591 -0.00212 0.02065 0.07720 -0.02792 0.08657 0.03683 
1403638546.787829504 -0.14155 -1.03665 0.18370 -0.00211 0.02062 0.07717 -0.02797 0.08783 0.03676 
1403638547.42829568 -0.11104 -1.05946 0.11080 -0.00213 0.02063 0.07719 -0.02418 0.09890 0.04510 
1403638547.232829440 -0.05125 -1.08354 0.01773 -0.00214 0.02061 0.07718 -0.02372 0.09736 0.04589 
1403638547.442829568 0.03790 -1.12440 -0.05629 -0.00215 0.02061 0.07720 -0.02349 0.09772 0.04616 
1403638547.582829568 0.05009 -1.14300 -0.12237 -0.00216 0.02062 0.07719 -0.02350 0.09787 0.04609 
1403638547.802829568 0.06204 -1.18766 -0.21375 -0.00216 0.02063 0.07720 -0.02358 0.09742 0.04579 
1403638548.32829440 0.12876 -1.25155 -0.13541 -0.00219 0.02063 0.07720 -0.02355 0.09761 0.04530 
1403638548.167829504 0.16222 -1.26168 -0.02921 -0.00215 0.02063 0.07719 -0.02089 0.10206 0.05217 
1403638548.387829504 0.21503 -1.28718 0.15643 -0.00214 0.02064 0.07718 -0.02108 0.10243 0.05229 
1403638548.607829504 0.21546 -1.31282 0.10341 -0.00212 0.02063 0.07717 -0.02134 0.10322 0.05183 
1403638548.792829440 0.21342 -1.32157 0.10111 -0.00213 0.02061 0.07717 -0.02131 0.10300 0.05224 
1403638549.82829568 0.23331 -1.32770 0.28785 -0.00212 0.02061 0.07717 -0.02166 0.10396 0.05159 
1403638549.342829568 0.23718 -1.37857 0.41314 -0.00210 0.02061 0.07718 -0.02036 0.10191 0.05532 
1403638549.587829504 0.22433 -1.40141 0.30682 -0.00213 0.02062 0.07719 -0.02039 0.10173 0.05543 
1403638549.842829568 0.17863 -1.39846 0.37309 -0.00214 0.02062 0.07717 -0.02008 0.10052 0.05692 
1403638550.52829440 0.15062 -1.48482 0.54727 -0.00213 0.02062 0.07717 -0.02022 0.10069 0.05689 
1403638550.237829376 0.11568 -1.45802 0.69216 -0.00217 0.02059 0.07716 -0.01983 0.10001 0.05771 
1403638550.492829440 0.07110 -1.44652 0.57973 -0.00219 0.02059 0.07715 -0.01851 0.10166 0.05970 
1403638550.757829376 -0.01724 -1.42982 0.45579 -0.00219 0.02060 0.07715 -0.01873 0.10215 0.05905 
1403638550.957829376 -0.08416 -1.35933 0.37640 -0.00216 0.02055 0.07715 -0.01727 0.09182 0.06134 
1403638551.232829440 -0.18069 -1.13454 0.40897 -0.00215 0.02054 0.07715 -0.01710 0.09092 0.06091 
1403638551.457829376 -0.31447 -0.93972 0.36695 -0.00213 0.02054 0.07715 -0.01698 0.09103 0.06088 
1403638551.682829568 -0.47987 -0.86475 0.26783 -0.00215 0.02056 0.07715 -0.01742 0.09167 0.06013 
1403638551.882829568 -0.64071 -0.76746 0.20186 -0.00218 0.02057 0.07714 -0.01769 0.09212 0.05960 
1403638552.142829568 -0.73071 -0.58478 0.35168 -0.00212 0.02054 0.07718 -0.01560 0.08751 0.06414 
1403638552.337829376 -0.80536 -0.51005 0.37630 -0.00213 0.02055 0.07717 -0.01541 0.08719 0.06445 
1403638552.497829376 -0.86381 -0.42893 0.29501 -0.00216 0.02055 0.07719 -0.01576 0.08769 0.06395 
1403638552.732829440 -0.93767 -0.21820 0.15427 -0.00220 0.02054 0.07719 -0.01644 0.08809 0.06229 
1403638552.857829376 -0.96915 -0.11368 0.09477 -0.00219 0.02054 0.07720 -0.01644 0.08790 0.06252 
1403638553.2829568 -0.99732 -0.01745 0.01866 -0.00218 0.02055 0.07718 -0.01656 0.08825 0.06224 
1403638553.202829568 -1.00328 0.08247 -0.01144 -0.00216 0.02056 0.07716 -0.01723 0.08831 0.06086 
1403638553.372829440 -0.98658 0.24667 0.06584 -0.00216 0.02058 0.07717 -0.01747 0.08857 0.06042 
1403638553.532829440 -0.92932 0.42507 0.15892 -0.00215 0.02058 0.07716 -0.01713 0.08848 0.06101 
1403638553.687829504 -0.83410 0.63675 0.22800 -0.00214 0.02059 0.07715 -0.01722 0.08860 0.06068 
1403638553.887829504 -0.73667 0.80475 0.33443 -0.00217 0.02062 0.07714 -0.01756 0.08919 0.06044 
1403638554.77829376 -0.67699 0.89972 0.25196 -0.00220 0.02063 0.07714 -0.01852 0.08950 0.05854 
1403638554.282829568 -0.65266 0.92120 0.13185 -0.00220 0.02074 0.07708 -0.02154 0.09879 0.05169 
1403638554.582829568 -0.59586 0.85237 0.03898 -0.00220 0.02079 0.07708 -0.02186 0.09975 0.05134 
1403638554.782829568 -0.58358 0.84315 0.12977 -0.00218 0.02077 0.07707 -0.02198 0.09902 0.05101 
1403638554.917829376 -0.60980 0.83615 0.15790 -0.00219 0.02079 0.07705 -0.02348 0.10580 0.04730 
1403638555.32829440 -0.62433 0.84921 0.08461 -0.00219 0.02080 0.07706 -0.02343 0.10676 0.04742 
1403638555.242829568 -0.66563 0.86197 -0.01994 -0.00225 0.02080 0.07708 -0.02412 0.10669 0.04731 
1403638555.452829440 -0.69359 0.85867 -0.08683 -0.00225 0.02079 0.07709 -0.02427 0.10636 0.04750 
1403638555.642829568 -0.69451 0.84375 -0.01681 -0.00228 0.02082 0.07708 -0.02771 0.10870 0.03923 
1403638555.887829504 -0.69542 0.88622 0.16700 -0.00227 0.02081 0.07707 -0.02756 0.10780 0.04011 
1403638556.42829568 -0.69981 0.84704 0.23443 -0.00223 0.02079 0.07707 -0.02747 0.10824 0.04033 
1403638556.282829568 -0.71698 0.78827 0.09016 -0.00225 0.02083 0.07707 -0.02780 0.10964 0.03963 
1403638556.537829376 -0.76827 0.65942 0.07445 -0.00221 0.02084 0.07706 -0.02885 0.11212 0.03761 
1403638556.737829376 -0.83009 0.60557 0.18047 -0.00222 0.02085 0.07707 -0.02912 0.11277 0.03717 
1403638556.887829504 -0.91405 0.57835 0.28531 -0.00222 0.02084 0.07707 -0.02924 0.11333 0.03709 
1403638557.132829440 -1.01454 0.56771 0.16050 -0.00222 0.02086 0.07708 -0.02921 0.11240 0.03769 
1403638557.392829440 -1.10094 0.54623 0.08033 -0.00221 0.02090 0.07707 -0.02943 0.11544 0.03714 
1403638557.682829568 -1.10082 0.51119 0.22440 -0.00217 0.02090 0.07706 -0.02951 0.11589 0.03679 
1403638557.892829440 -1.05703 0.47070 0.11768 -0.00217 0.02089 0.07707 -0.02886 0.11668 0.03837 
1403638558.42829568 -1.03735 0.44648 0.01436 -0.00218 0.02088 0.07706 -0.02883 0.11627 0.03867 
1403638558.252829440 -1.04526 0.34808 0.06076 -0.00217 0.02088 0.07705 -0.02895 0.11654 0.03861 
1403638558.482829568 -1.07596 0.17840 0.27654 -0.00220 0.02088 0.07706 -0.02865 0.11501 0.03964 
1403638558.642829568 -1.10598 0.03243 0.38624 -0.00220 0.02088 0.07705 -0.02944 0.11767 0.03757 
1403638558.987829504 -1.23556 -0.11560 0.18973 -0.00221 0.02087 0.07706 -0.02929 0.11622 0.03762 
1403638559.197829376 -1.26615 -0.15318 0.05853 -0.00222 0.02086 0.07705 -0.02919 0.11545 0.03796 
1403638559.437829376 -1.22494 -0.18188 -0.08470 -0.00224 0.02087 0.07705 -0.02957 0.11666 0.03697 
1403638559.692829440 -1.14025 -0.24327 -0.15243 -0.00223 0.02088 0.07704 -0.02983 0.11693 0.03665 
1403638559.987829504 -1.04940 -0.28461 -0.10946 -0.00221 0.02088 0.07704 -0.02948 0.11791 0.03753 
1403638560.192829440 -1.03310 -0.28148 -0.25015 -0.00220 0.02087 0.07704 -0.02936 0.11699 0.03792 
1403638560.342829568 -1.00890 -0.26469 -0.27404 -0.00220 0.02087 0.07704 -0.02930 0.11672 0.03814 
1403638560.582829568 -0.93061 -0.19616 -0.37375 -0.00220 0.02087 0.07701 -0.02964 0.11701 0.03733 
1403638560.837829376 -0.82699 -0.01412 -0.26912 -0.00220 0.02086 0.07701 -0.02901 0.11682 0.03881 
1403638560.942829568 -0.81390 0.06808 -0.18488 -0.00222 0.02086 0.07702 -0.02897 0.11646 0.03892 
1403638561.237829376 -0.68545 0.30028 0.02322 -0.00222 0.02089 0.07700 -0.03002 0.11842 0.03641 
1403638561.492829440 -0.57731 0.46141 -0.04402 -0.00223 0.02090 0.07699 -0.03061 0.11746 0.03547 
1403638561.737829376 -0.50264 0.48848 -0.17979 -0.00223 0.02090 0.07700 -0.03092 0.11779 0.03475 
1403638561.987829504 -0.45653 0.50668 -0.27551 -0.00223 0.02093 0.07698 -0.03135 0.12471 0.03365 
1403638562.197829376 -0.38446 0.51481 -0.14840 -0.00225 0.02092 0.07699 -0.03118 0.12435 0.03439 
1403638562.327829504 -0.33580 0.51685 -0.05855 -0.00225 0.02091 0.07698 -0.03105 0.12374 0.03469 
1403638562.452829440 -0.31077 0.52404 -0.00730 -0.00225 0.02092 0.07698 -0.03133 0.12362 0.03402 
1403638562.682829568 -0.28339 0.56416 0.10182 -0.00224 0.02091 0.07697 -0.03125 0.12376 0.03418 
1403638562.882829568 -0.21497 0.63547 0.03474 -0.00221 0.02092 0.07696 -0.03095 0.12460 0.03524 
1403638563.87829504 -0.13311 0.70068 -0.08671 -0.00220 0.02091 0.07698 -0.03056 0.12569 0.03622 
1403638563.337829376 -0.01148 0.80405 -0.17149 -0.00218 0.02090 0.07700 -0.02901 0.12369 0.04043 
1403638563.577829376 0.20864 0.89539 -0.20649 -0.00219 0.02088 0.07702 -0.02877 0.12383 0.04106 
1403638563.737829376 0.32382 0.96103 -0.09911 -0.00219 0.02088 0.07702 -0.02861 0.12332 0.04145 
1403638563.987829504 0.48398 1.06453 0.04185 -0.00218 0.02090 0.07702 -0.02711 0.11893 0.04564 
1403638564.137829376 0.56651 1.14522 -0.04292 -0.00216 0.02091 0.07701 -0.02697 0.11852 0.04599 
1403638564.292829440 0.66113 1.21898 -0.03678 -0.00219 0.02091 0.07702 -0.02689 0.11875 0.04638 
1403638564.442829568 0.76877 1.28052 0.07410 -0.00219 0.02090 0.07702 -0.02676 0.11867 0.04673 
1403638564.642829568 0.90998 1.33286 0.06758 -0.00219 0.02092 0.07703 -0.02698 0.12011 0.04635 
1403638564.887829504 1.03788 1.43592 -0.15401 -0.00218 0.02091 0.07703 -0.02558 0.12309 0.05001 
1403638565.52829440 1.11260 1.51611 -0.43441 -0.00220 0.02091 0.07704 -0.02564 0.12330 0.05046 
1403638565.237829376 1.17681 1.62290 -0.62234 -0.00219 0.02090 0.07703 -0.02555 0.12289 0.05074 
1403638565.432829440 1.24986 1.72198 -0.63197 -0.00218 0.02090 0.07702 -0.02553 0.12262 0.05084 
1403638565.647829504 1.33362 1.80320 -0.45800 -0.00220 0.02091 0.07702 -0.02647 0.12462 0.04857 
1403638565.792829440 1.41006 1.80235 -0.34323 -0.00222 0.02089 0.07702 -0.02748 0.12404 0.04587 
1403638565.982829568 1.47563 1.73345 -0.31613 -0.00223 0.02089 0.07704 -0.02903 0.12391 0.04210 
1403638566.237829376 1.52197 1.63161 -0.50720 -0.00222 0.02089 0.07704 -0.02926 0.12481 0.04123 
1403638566.392829440 1.53038 1.58313 -0.62051 -0.00220 0.02089 0.07702 -0.02835 0.12377 0.04324 
1403638566.602829568 1.50755 1.50736 -0.75400 -0.00220 0.02091 0.07702 -0.02838 0.12563 0.04288 
1403638566.782829568 1.40526 1.45194 -0.84126 -0.00220 0.02093 0.07702 -0.02796 0.12774 0.04372 
1403638567.2829568 1.21339 1.38598 -0.87496 -0.00221 0.02094 0.07704 -0.02823 0.13096 0.04284 
1403638567.237829376 1.08969 1.29747 -0.93819 -0.00220 0.02093 0.07705 -0.02639 0.13017 0.04759 
1403638567.392829440 1.10038 1.24790 -0.97752 -0.00221 0.02093 0.07705 -0.02698 0.12877 0.04596 
1403638567.642829568 1.08483 1.14854 -0.78373 -0.00222 0.02095 0.07706 -0.02709 0.12876 0.04585 
1403638567.932829440 0.94695 1.00278 -0.56648 -0.00221 0.02095 0.07705 -0.02816 0.12893 0.04316 
1403638568.52829440 0.86686 0.93570 -0.46268 -0.00220 0.02095 0.07705 -0.02760 0.13045 0.04491 
1403638568.177829376 0.83624 0.88549 -0.36387 -0.00219 0.02095 0.07704 -0.02743 0.12941 0.04547 
1403638568.337829376 0.77980 0.80620 -0.32947 -0.00221 0.02094 0.07704 -0.02747 0.12875 0.04596 
1403638568.502829568 0.70728 0.73089 -0.40214 -0.00222 0.02095 0.07704 -0.02798 0.12864 0.04485 
1403638568.657829376 0.61144 0.65936 -0.42516 -0.00222 0.02095 0.07702 -0.02867 0.12999 0.04328 
1403638568.887829504 0.49218 0.52793 -0.26884 -0.00223 0.02095 0.07702 -0.02851 0.12958 0.04409 
1403638568.997829376 0.42417 0.47980 -0.16194 -0.00224 0.02095 0.07702 -0.02870 0.12933 0.04378 
1403638569.202829568 0.33949 0.38186 -0.05454 -0.00224 0.02095 0.07701 -0.02838 0.12888 0.04482 
1403638569.392829440 0.24825 0.29054 -0.14485 -0.00222 0.02094 0.07700 -0.02839 0.12951 0.04470 
1403638569.557829376 0.17590 0.21131 -0.19322 -0.00222 0.02095 0.07699 -0.02838 0.12891 0.04477 
1403638569.737829376 0.12263 0.11264 -0.08223 -0.00220 0.02095 0.07698 -0.02812 0.12854 0.04543 
1403638569.912829440 0.08422 0.02467 0.01349 -0.00223 0.02096 0.07700 -0.02847 0.12859 0.04460 
1403638570.52829440 0.05086 -0.04425 -0.04308 -0.00222 0.02096 0.07699 -0.02871 0.12864 0.04417 
1403638570.287829504 0.00101 -0.12053 -0.16924 -0.00219 0.02098 0.07699 -0.02901 0.12863 0.04388 
1403638570.542829568 -0.02345 -0.03913 -0.31952 -0.00222 0.02098 0.07698 -0.02920 0.12838 0.04352 
1403638570.742829568 -0.00643 0.14102 -0.37510 -0.00221 0.02099 0.07700 -0.02938 0.12844 0.04327 
1403638570.892829440 0.09339 0.29907 -0.40750 -0.00220 0.02098 0.07698 -0.02946 0.12838 0.04312 
1403638571.192829440 0.37418 0.55047 -0.37309 -0.00213 0.02097 0.07696 -0.02900 0.12935 0.04461 
1403638571.342829568 0.44082 0.63011 -0.22652 -0.00215 0.02097 0.07697 -0.02897 0.12935 0.04470 
1403638571.552829440 0.54826 0.68794 -0.11443 -0.00215 0.02097 0.07697 -0.02887 0.12940 0.04525 
1403638571.837829376 0.65387 0.76946 -0.25745 -0.00216 0.02096 0.07696 -0.02904 0.12944 0.04519 
1403638572.132829440 0.76733 0.89745 -0.05592 -0.00215 0.02097 0.07695 -0.02920 0.12950 0.04494 
1403638572.432829440 0.83509 0.97590 -0.09045 -0.00217 0.02096 0.07695 -0.02917 0.12964 0.04551 
1403638572.732829440 0.76918 1.10842 0.01685 -0.00215 0.02097 0.07693 -0.03016 0.13424 0.04334 
1403638572.982829568 0.65163 1.18874 0.14822 -0.00216 0.02098 0.07693 -0.03030 0.13512 0.04334 
1403638573.142829568 0.56160 1.22636 0.06482 -0.00215 0.02098 0.07693 -0.03034 0.13552 0.04335 
1403638573.242829568 0.51443 1.25847 0.05714 -0.00216 0.02098 0.07693 -0.02999 0.13842 0.04415 
1403638573.457829376 0.41294 1.31735 0.11954 -0.00215 0.02097 0.07693 -0.02987 0.13817 0.04446 
1403638573.632829440 0.29577 1.37708 0.26510 -0.00215 0.02097 0.07694 -0.02986 0.13813 0.04439 
1403638573.787829504 0.19888 1.41141 0.30408 -0.00214 0.02097 0.07694 -0.02987 0.13808 0.04423 
1403638573.957829376 0.11735 1.40364 0.20563 -0.00213 0.02097 0.07695 -0.02977 0.13813 0.04440 
1403638574.192829440 0.15642 1.31917 0.08408 -0.00214 0.02095 0.07695 -0.02881 0.13610 0.04781 
1403638574.482829568 0.32608 1.19328 -0.00989 -0.00212 0.02096 0.07695 -0.02889 0.13582 0.04755 
1403638574.737829376 0.40874 1.13063 0.18723 -0.00211 0.02096 0.07695 -0.02884 0.13615 0.04763 
1403638574.947829504 0.39880 1.09612 0.15981 -0.00207 0.02096 0.07693 -0.02833 0.13560 0.04913 
1403638575.107829504 0.39863 1.09235 0.05545 -0.00207 0.02096 0.07693 -0.02827 0.13569 0.04904 
1403638575.337829376 0.46968 1.10556 -0.05044 -0.00207 0.02096 0.07693 -0.02777 0.13594 0.05023 
1403638575.587829504 0.52286 1.16595 -0.06022 -0.00208 0.02097 0.07692 -0.02775 0.13677 0.05016 
1403638575.832829440 0.50481 1.27972 0.15179 -0.00206 0.02097 0.07691 -0.02837 0.13646 0.04846 
1403638576.82829568 0.42145 1.38711 0.36334 -0.00207 0.02097 0.07691 -0.02829 0.13680 0.04860 
1403638576.337829376 0.33359 1.48222 0.28281 -0.00207 0.02096 0.07691 -0.02816 0.13869 0.04866 
1403638576.637829376 0.15099 1.58922 0.13875 -0.00209 0.02098 0.07692 -0.02887 0.13709 0.04675 
1403638576.857829376 -0.02859 1.61194 0.03184 -0.00208 0.02096 0.07692 -0.02837 0.14039 0.04768 
1403638577.32829440 -0.13387 1.59053 -0.00846 -0.00207 0.02096 0.07692 -0.02852 0.13985 0.04729 
1403638577.287829504 -0.21307 1.57533 0.17951 -0.00209 0.02096 0.07691 -0.02825 0.14052 0.04792 
1403638577.527829504 -0.33122 1.54232 0.24433 -0.00209 0.02095 0.07692 -0.02861 0.13985 0.04689 
1403638577.782829568 -0.42556 1.48936 0.07132 -0.00207 0.02095 0.07692 -0.02783 0.14044 0.04868 
1403638577.957829376 -0.50669 1.46217 0.03563 -0.00205 0.02094 0.07691 -0.02718 0.14088 0.05015 
1403638578.142829568 -0.57937 1.45600 0.15867 -0.00205 0.02093 0.07692 -0.02790 0.13979 0.04824 
1403638578.362829568 -0.57091 1.43971 0.17215 -0.00202 0.02092 0.07690 -0.02702 0.14027 0.05024 
1403638578.487829504 -0.53669 1.41300 0.08635 -0.00202 0.02091 0.07690 -0.02664 0.13978 0.05121 
1403638578.782829568 -0.51525 1.37156 -0.01321 -0.00205 0.02091 0.07693 -0.02806 0.14091 0.04756 
1403638579.37829376 -0.55482 1.33485 0.06072 -0.00204 0.02090 0.07691 -0.02720 0.13982 0.04959 
1403638579.257829376 -0.59584 1.26865 0.20738 -0.00207 0.02089 0.07691 -0.02680 0.13841 0.05053 
1403638579.347829504 -0.61939 1.25891 0.20660 -0.00206 0.02089 0.07692 -0.02751 0.14082 0.04852 
1403638579.442829568 -0.61058 1.23952 0.15411 -0.00206 0.02089 0.07692 -0.02751 0.14082 0.04852 
1403638579.637829376 -0.59078 1.19660 0.06862 -0.00208 0.02089 0.07692 -0.02731 0.14113 0.04896 
1403638579.782829568 -0.58121 1.09482 -0.02281 -0.00206 0.02088 0.07692 -0.02653 0.14080 0.05099 
1403638580.32829440 -0.62058 0.96402 -0.11974 -0.00208 0.02088 0.07694 -0.02773 0.14097 0.04782 
1403638580.237829376 -0.60773 0.78913 -0.20314 -0.00211 0.02089 0.07694 -0.02813 0.14100 0.04709 
1403638580.417829376 -0.52389 0.67079 -0.29532 -0.00213 0.02089 0.07696 -0.02802 0.14166 0.04727 
1403638580.542829568 -0.45959 0.59705 -0.31363 -0.00210 0.02088 0.07693 -0.02737 0.14075 0.04894 
1403638580.622829568 -0.41949 0.53492 -0.32685 -0.00210 0.02087 0.07694 -0.02740 0.14058 0.04879 
1403638580.832829440 -0.33169 0.49078 -0.17164 -0.00209 0.02087 0.07694 -0.02748 0.14086 0.04863 
1403638581.87829504 -0.33537 0.49711 0.07020 -0.00210 0.02087 0.07696 -0.02800 0.13994 0.04759 
1403638581.347829504 -0.31203 0.47431 0.11876 -0.00211 0.02088 0.07695 -0.02781 0.13921 0.04853 
1403638581.597829376 -0.32447 0.40074 0.19612 -0.00212 0.02087 0.07695 -0.02798 0.14017 0.04836 
1403638581.692829440 -0.32703 0.38003 0.14966 -0.00212 0.02087 0.07695 -0.02840 0.14034 0.04747 
1403638581.887829504 -0.30244 0.29579 0.04144 -0.00214 0.02087 0.07696 -0.02822 0.13913 0.04805 
1403638582.7829504 -0.25047 0.21452 0.00408 -0.00215 0.02086 0.07695 -0.02807 0.13784 0.04881 
1403638582.162829568 -0.22250 0.13141 0.14271 -0.00214 0.02086 0.07696 -0.02870 0.14004 0.04724 
1403638582.292829440 -0.21550 0.11363 0.31445 -0.00217 0.02086 0.07696 -0.02924 0.13725 0.04620 
1403638582.482829568 -0.21832 0.04321 0.48288 -0.00217 0.02086 0.07696 -0.02924 0.13725 0.04620 
1403638582.642829568 -0.17166 -0.05072 0.62844 -0.00214 0.02086 0.07693 -0.02818 0.13686 0.04905 
1403638582.877829376 -0.16739 -0.12521 0.69310 -0.00215 0.02086 0.07692 -0.02810 0.13604 0.04928 
1403638583.32829440 -0.17175 -0.16684 0.55913 -0.00214 0.02086 0.07693 -0.02792 0.13635 0.04926 
1403638583.187829504 -0.19609 -0.17368 0.44380 -0.00215 0.02085 0.07692 -0.02717 0.14132 0.05089 
1403638583.432829440 -0.22708 -0.21438 0.35861 -0.00217 0.02085 0.07693 -0.02682 0.14190 0.05156 
1403638583.587829504 -0.25024 -0.23380 0.47163 -0.00218 0.02085 0.07693 -0.02722 0.14209 0.05047 
1403638583.852829440 -0.29441 -0.29166 0.41918 -0.00218 0.02086 0.07694 -0.02735 0.14329 0.04953 
1403638583.952829440 -0.30699 -0.33788 0.34332 -0.00216 0.02085 0.07694 -0.02689 0.14419 0.05065 
1403638584.32829440 -0.30836 -0.35657 0.31081 -0.00216 0.02085 0.07694 -0.02689 0.14419 0.05065 
1403638584.282829568 -0.28973 -0.49054 0.17569 -0.00215 0.02086 0.07693 -0.02613 0.14334 0.05229 
1403638584.377829376 -0.25105 -0.55415 0.11169 -0.00215 0.02086 0.07694 -0.02650 0.14383 0.05131 
1403638584.492829440 -0.20062 -0.63829 0.09379 -0.00214 0.02087 0.07693 -0.02674 0.14131 0.05057 
1403638584.682829568 -0.13358 -0.74055 0.21559 -0.00213 0.02089 0.07691 -0.02625 0.14027 0.05107 
1403638584.942829568 -0.07938 -0.83280 0.24396 -0.00213 0.02090 0.07690 -0.02508 0.13991 0.05320 
1403638585.97829376 -0.08278 -0.85680 0.12907 -0.00212 0.02089 0.07690 -0.02370 0.14018 0.05629 
1403638585.187829504 -0.07932 -0.85925 0.08613 -0.00213 0.02089 0.07690 -0.02365 0.13927 0.05638 
1403638585.267829504 -0.08185 -0.87371 0.04648 -0.00213 0.02089 0.07690 -0.02324 0.14009 0.05728 
1403638585.452829440 -0.06572 -0.89873 0.00429 -0.00213 0.02089 0.07690 -0.02234 0.13956 0.05938 
1403638585.597829376 -0.05706 -0.87850 0.09333 -0.00218 0.02089 0.07691 -0.02405 0.14149 0.05441 
1403638585.782829568 -0.08745 -0.86771 0.25282 -0.00218 0.02089 0.07691 -0.02397 0.14103 0.05446 
1403638586.32829440 -0.17276 -0.78141 0.37742 -0.00218 0.02089 0.07689 -0.02341 0.14222 0.05580 
1403638586.237829376 -0.17530 -0.76755 0.25338 -0.00217 0.02088 0.07688 -0.02270 0.14274 0.05765 
1403638586.482829568 -0.16546 -0.78784 0.13959 -0.00218 0.02088 0.07688 -0.02342 0.14325 0.05567 
1403638586.702829568 -0.15601 -0.88209 0.00067 -0.00217 0.02087 0.07688 -0.02305 0.14454 0.05661 
1403638586.852829440 -0.11302 -0.93937 -0.08216 -0.00218 0.02086 0.07689 -0.02323 0.14520 0.05616 
1403638587.42829568 -0.10055 -0.96158 -0.16112 -0.00219 0.02087 0.07690 -0.02373 0.14433 0.05443 
1403638587.282829568 -0.10247 -0.96518 0.02884 -0.00219 0.02088 0.07690 -0.02304 0.14391 0.05608 
1403638587.507829504 -0.11371 -0.94661 0.04400 -0.00217 0.02090 0.07690 -0.02369 0.14102 0.05371 
1403638587.757829376 -0.11520 -0.88829 -0.08095 -0.00218 0.02091 0.07687 -0.02185 0.14360 0.05839 
1403638587.927829504 -0.11090 -0.88035 -0.15965 -0.00218 0.02092 0.07687 -0.02139 0.14388 0.05937 
1403638588.187829504 -0.10444 -0.85793 -0.24070 -0.00217 0.02092 0.07687 -0.02145 0.14277 0.05910 
1403638588.442829568 -0.13964 -0.87773 -0.06457 -0.00217 0.02092 0.07685 -0.02138 0.14257 0.05911 
1403638588.742829568 -0.08681 -0.94759 0.10560 -0.00217 0.02091 0.07685 -0.02055 0.14386 0.06091 
1403638589.7829504 -0.06591 -0.97083 -0.06284 -0.00216 0.02092 0.07686 -0.02140 0.14493 0.05884 
1403638589.147829504 -0.04932 -0.95495 -0.13576 -0.00217 0.02092 0.07686 -0.02145 0.14435 0.05871 
1403638589.347829504 -0.03088 -0.97212 -0.16568 -0.00216 0.02092 0.07686 -0.02133 0.14409 0.05902 
1403638589.547829504 -0.00387 -0.97296 -0.07251 -0.00217 0.02092 0.07687 -0.02167 0.14287 0.05828 
1403638589.887829504 0.01970 -0.95594 0.02631 -0.00218 0.02092 0.07687 -0.02164 0.14225 0.05857 
1403638590.87829504 0.02263 -0.94455 -0.07934 -0.00218 0.02092 0.07686 -0.02177 0.14332 0.05826 
1403638590.292829440 0.02117 -0.92816 -0.15532 -0.00216 0.02092 0.07686 -0.02190 0.14297 0.05794 
1403638590.587829504 0.03558 -0.91677 -0.14017 -0.00218 0.02091 0.07686 -0.02124 0.14387 0.05975 
1403638590.892829440 0.00447 -0.82389 0.11324 -0.00219 0.02091 0.07686 -0.02149 0.14279 0.05927 
1403638591.42829568 0.03417 -0.83685 0.16374 -0.00219 0.02089 0.07686 -0.02055 0.14424 0.06137 
1403638591.282829568 -0.01666 -0.77310 0.01046 -0.00218 0.02088 0.07687 -0.02027 0.14499 0.06189 
1403638591.582829568 -0.17063 -0.58818 -0.15247 -0.00215 0.02088 0.07686 -0.02012 0.14504 0.06225 
1403638591.982829568 -0.38399 -0.30117 -0.03352 -0.00215 0.02087 0.07686 -0.02151 0.14342 0.05863 
1403638592.237829376 -0.48833 -0.14466 0.22516 -0.00216 0.02088 0.07686 -0.02171 0.14235 0.05850 
1403638592.487829504 -0.44379 -0.06780 0.40903 -0.00216 0.02088 0.07686 -0.02126 0.14396 0.05964 
1403638592.837829376 -0.40577 0.10025 0.40564 -0.00216 0.02088 0.07685 -0.02153 0.14349 0.05881 
1403638593.142829568 -0.48848 0.24622 0.32896 -0.00217 0.02087 0.07685 -0.02133 0.14396 0.05952 
1403638593.437829376 -0.53325 0.27586 0.39731 -0.00217 0.02085 0.07687 -0.02125 0.14309 0.06005 
1403638593.647829504 -0.53945 0.20702 0.25618 -0.00217 0.02084 0.07688 -0.02109 0.14290 0.06061 
1403638593.882829568 -0.50649 0.08916 0.26422 -0.00216 0.02084 0.07688 -0.02109 0.14315 0.06079 
1403638594.137829376 -0.34682 -0.01427 0.32561 -0.00215 0.02084 0.07688 -0.02170 0.14409 0.05943 
1403638594.437829376 -0.27041 -0.07466 0.32636 -0.00216 0.02085 0.07688 -0.02177 0.14383 0.05974 
1403638594.682829568 -0.17433 -0.17251 0.41988 -0.00215 0.02084 0.07688 -0.02174 0.14383 0.06011 
1403638594.852829440 -0.14033 -0.18477 0.31669 -0.00213 0.02085 0.07687 -0.02225 0.14371 0.05902 
1403638595.87829504 -0.06256 -0.21120 0.15693 -0.00214 0.02084 0.07688 -0.02237 0.14405 0.05926 
1403638595.237829376 -0.04290 -0.21427 0.05780 -0.00214 0.02084 0.07688 -0.02256 0.14400 0.05906 
1403638595.532829440 0.00919 -0.22313 -0.07011 -0.00213 0.02084 0.07689 -0.02261 0.14395 0.05916 
1403638595.782829568 0.05645 -0.25406 0.04678 -0.00214 0.02084 0.07690 -0.02275 0.14412 0.05908 
1403638596.37829376 0.04270 -0.28391 -0.23693 -0.00215 0.02084 0.07690 -0.02298 0.14420 0.05888 
1403638596.292829440 0.01671 -0.45875 -0.12263 -0.00215 0.02084 0.07690 -0.02328 0.14428 0.05850 
1403638596.442829568 -0.04286 -0.63597 0.01646 -0.00212 0.02085 0.07689 -0.02345 0.14424 0.05837 
1403638596.732829440 -0.20317 -1.06294 0.26235 -0.00210 0.02084 0.07688 -0.02354 0.14412 0.05843 
1403638596.987829504 -0.34798 -1.46817 0.31750 -0.00207 0.02084 0.07686 -0.02490 0.14258 0.05525 
1403638597.187829504 -0.45084 -1.77551 0.20077 -0.00208 0.02084 0.07687 -0.02505 0.14198 0.05518 
1403638597.437829376 -0.52130 -2.15420 0.05608 -0.00206 0.02084 0.07687 -0.02508 0.14138 0.05537 
1403638597.687829504 -0.49340 -2.37445 -0.05721 -0.00206 0.02084 0.07687 -0.02591 0.13866 0.05356 
1403638597.942829568 -0.43090 -2.60769 -0.13602 -0.00206 0.02084 0.07687 -0.02593 0.13738 0.05361 
1403638598.197829376 -0.40577 -2.87017 0.00853 -0.00207 0.02085 0.07688 -0.02626 0.13678 0.05295 
1403638598.482829568 -0.33503 -2.87647 -0.10005 -0.00207 0.02086 0.07688 -0.02630 0.13530 0.05296 
1403638598.737829376 -0.28414 -2.83357 -0.19291 -0.00207 0.02086 0.07688 -0.02642 0.13529 0.05258 
1403638598.992829440 -0.24967 -2.77720 -0.05840 -0.00208 0.02088 0.07688 -0.02603 0.13668 0.05336 
1403638599.287829504 -0.19678 -2.76550 0.14474 -0.00208 0.02089 0.07689 -0.02580 0.13775 0.05390 
1403638599.512829440 -0.14957 -2.70684 0.23255 -0.00208 0.02089 0.07688 -0.02548 0.13605 0.05474 
1403638599.752829440 -0.14652 -2.63269 0.04514 -0.00207 0.02089 0.07687 -0.02539 0.13549 0.05454 
1403638599.987829504 -0.21890 -2.57628 -0.07983 -0.00208 0.02089 0.07687 -0.02507 0.13928 0.05503 
1403638600.242829568 -0.27492 -2.41689 -0.17960 -0.00210 0.02090 0.07688 -0.02608 0.14012 0.05222 
1403638600.542829568 -0.39969 -2.01431 -0.02989 -0.00209 0.02091 0.07688 -0.02505 0.13870 0.05473 
1403638600.762829568 -0.50301 -1.70636 0.11476 -0.00209 0.02091 0.07688 -0.02527 0.14019 0.05396 
1403638600.892829440 -0.56661 -1.50888 0.14480 -0.00210 0.02091 0.07687 -0.02506 0.13813 0.05427 
1403638601.32829440 -0.67181 -1.41367 0.06031 -0.00210 0.02092 0.07687 -0.02495 0.13985 0.05445 
1403638601.187829504 -0.78272 -1.35265 -0.00227 -0.00209 0.02092 0.07687 -0.02482 0.13910 0.05490 
1403638601.487829504 -0.92916 -1.36903 0.05538 -0.00210 0.02093 0.07686 -0.02558 0.13782 0.05319 
1403638601.627829504 -0.93190 -1.36228 0.12857 -0.00209 0.02093 0.07686 -0.02478 0.13849 0.05532 
1403638601.892829440 -0.86983 -1.40707 0.28192 -0.00208 0.02093 0.07687 -0.02483 0.13807 0.05542 
1403638602.97829376 -0.82536 -1.40660 0.18769 -0.00208 0.02093 0.07687 -0.02473 0.13804 0.05601 
1403638602.242829568 -0.76754 -1.43761 0.09097 -0.00208 0.02093 0.07687 -0.02488 0.13650 0.05563 
1403638602.432829440 -0.63742 -1.47983 0.22985 -0.00208 0.02092 0.07687 -0.02488 0.13853 0.05575 
1403638602.632829440 -0.36185 -1.26592 0.35219 -0.00209 0.02092 0.07687 -0.02502 0.13803 0.05553 
1403638602.787829504 -0.08949 -1.03554 0.43738 -0.00209 0.02092 0.07688 -0.02433 0.14030 0.05735 
1403638602.937829376 0.16449 -0.81869 0.46130 -0.00209 0.02091 0.07688 -0.02507 0.13994 0.05543 
1403638603.182829568 0.38364 -0.45427 0.30293 -0.00207 0.02090 0.07688 -0.02519 0.14075 0.05512 
1403638603.392829440 0.47774 -0.22353 0.10952 -0.00209 0.02090 0.07688 -0.02592 0.14162 0.05327 
1403638603.682829568 0.47334 -0.11243 -0.03198 -0.00207 0.02091 0.07688 -0.02628 0.14428 0.05254 
1403638603.832829440 0.51855 -0.06917 -0.13097 -0.00208 0.02091 0.07690 -0.02732 0.14223 0.05002 
1403638604.32829440 0.69422 -0.01659 -0.22611 -0.00208 0.02091 0.07690 -0.02744 0.14274 0.04999 
1403638604.117829376 0.78192 -0.02332 -0.19046 -0.00208 0.02091 0.07690 -0.02746 0.14331 0.05000 
1403638604.232829440 0.91864 -0.00940 -0.08593 -0.00207 0.02091 0.07690 -0.02746 0.14322 0.05005 
1403638604.342829568 1.02985 0.02190 -0.01804 -0.00206 0.02091 0.07690 -0.02760 0.14362 0.04981 
1403638604.477829376 1.10300 0.05273 0.07412 -0.00206 0.02091 0.07690 -0.02751 0.14352 0.05001 
1403638604.687829504 1.15239 0.08070 -0.00179 -0.00206 0.02091 0.07690 -0.02739 0.14206 0.05026 
1403638604.932829440 1.14008 0.16143 0.02028 -0.00205 0.02089 0.07687 -0.02606 0.13984 0.05381 
1403638605.12829440 1.12243 0.16671 0.07783 -0.00205 0.02089 0.07687 -0.02609 0.13949 0.05372 
1403638605.132829440 1.07484 0.16120 0.19541 -0.00205 0.02089 0.07687 -0.02609 0.13949 0.05372 
1403638605.247829504 0.99372 0.10910 0.19244 -0.00205 0.02089 0.07687 -0.02591 0.13975 0.05420 
1403638605.457829376 0.90811 0.03040 0.11834 -0.00205 0.02089 0.07686 -0.02589 0.14480 0.05423 
1403638605.632829440 0.96786 -0.04234 0.02929 -0.00204 0.02089 0.07686 -0.02567 0.14525 0.05473 
1403638605.857829376 1.12812 -0.15597 0.17567 -0.00206 0.02089 0.07687 -0.02533 0.14608 0.05537 
1403638605.957829376 1.17471 -0.23516 0.23683 -0.00206 0.02089 0.07687 -0.02533 0.14607 0.05539 
1403638606.232829440 1.37189 -0.39432 0.05444 -0.00206 0.02089 0.07688 -0.02561 0.14675 0.05453 
1403638606.437829376 1.47841 -0.51602 -0.10312 -0.00210 0.02089 0.07689 -0.02553 0.14722 0.05464 
1403638606.732829440 1.38161 -0.69681 -0.24517 -0.00211 0.02090 0.07689 -0.02582 0.14654 0.05381 
1403638606.987829504 1.18735 -0.90535 -0.16241 -0.00207 0.02091 0.07686 -0.02533 0.14686 0.05510 
1403638607.242829568 0.97559 -1.01740 -0.00649 -0.00206 0.02091 0.07686 -0.02567 0.14534 0.05406 
1403638607.427829504 0.87882 -1.01668 -0.16463 -0.00207 0.02091 0.07686 -0.02603 0.14462 0.05290 
1403638607.652829440 0.80475 -0.94472 -0.28955 -0.00205 0.02091 0.07686 -0.02523 0.14671 0.05474 
1403638607.852829440 0.72913 -0.89441 -0.36313 -0.00206 0.02091 0.07686 -0.02519 0.14682 0.05487 
1403638607.982829568 0.66110 -0.87025 -0.42104 -0.00205 0.02091 0.07686 -0.02521 0.14702 0.05480 
1403638608.192829440 0.56007 -0.81145 -0.51007 -0.00205 0.02091 0.07686 -0.02572 0.14599 0.05342 
1403638608.437829376 0.53035 -0.69707 -0.64900 -0.00204 0.02092 0.07685 -0.02573 0.14488 0.05327 
1403638608.692829440 0.54220 -0.55688 -0.62639 -0.00204 0.02092 0.07686 -0.02558 0.14592 0.05351 
1403638608.942829568 0.55503 -0.38634 -0.46672 -0.00204 0.02092 0.07686 -0.02527 0.14503 0.05444 
1403638609.127829504 0.50868 -0.32579 -0.34582 -0.00203 0.02093 0.07686 -0.02542 0.14511 0.05399 
1403638609.302829568 0.44642 -0.24933 -0.41322 -0.00206 0.02093 0.07687 -0.02556 0.14536 0.05342 
1403638609.507829504 0.37608 -0.16262 -0.55983 -0.00206 0.02094 0.07687 -0.02607 0.14559 0.05199 
1403638609.642829568 0.33830 -0.14202 -0.63546 -0.00207 0.02094 0.07687 -0.02634 0.14559 0.05128 
1403638609.932829440 0.26675 -0.07322 -0.48149 -0.00207 0.02095 0.07687 -0.02644 0.14500 0.05120 
1403638610.137829376 0.21376 -0.02287 -0.34752 -0.00205 0.02096 0.07686 -0.02676 0.14515 0.05032 
1403638610.322829568 0.20294 0.05768 -0.46046 -0.00204 0.02095 0.07686 -0.02540 0.14484 0.05380 
1403638610.432829440 0.18662 0.11665 -0.50896 -0.00205 0.02095 0.07687 -0.02539 0.14441 0.05385 
1403638610.697829376 0.22038 0.32244 -0.53999 -0.00205 0.02095 0.07687 -0.02534 0.14457 0.05384 
1403638610.937829376 0.19301 0.45184 -0.36887 -0.00206 0.02094 0.07687 -0.02523 0.14435 0.05403 
1403638611.232829440 0.17728 0.60847 -0.44296 -0.00206 0.02094 0.07688 -0.02520 0.14443 0.05397 
1403638611.457829376 0.19866 0.73696 -0.30407 -0.00206 0.02094 0.07688 -0.02507 0.14480 0.05417 
1403638611.542829568 0.24347 0.76277 -0.24974 -0.00206 0.02094 0.07688 -0.02494 0.14485 0.05444 
1403638611.727829504 0.33822 0.76449 -0.23327 -0.00207 0.02094 0.07689 -0.02496 0.14469 0.05442 
1403638611.927829504 0.35340 0.77279 -0.33287 -0.00206 0.02094 0.07689 -0.02505 0.14395 0.05408 
1403638612.42829568 0.32423 0.76577 -0.28564 -0.00205 0.02094 0.07689 -0.02473 0.14371 0.05481 
1403638612.282829568 0.25947 0.76443 -0.09565 -0.00205 0.02093 0.07689 -0.02453 0.14352 0.05536 
1403638612.582829568 0.22337 0.80928 -0.23323 -0.00204 0.02093 0.07689 -0.02435 0.14365 0.05557 
1403638612.662829568 0.22899 0.80097 -0.28153 -0.00205 0.02092 0.07689 -0.02416 0.14338 0.05592 
1403638612.987829504 0.31925 0.79336 -0.26064 -0.00203 0.02092 0.07689 -0.02397 0.14348 0.05622 
1403638613.287829504 0.37029 0.80063 -0.01371 -0.00203 0.02092 0.07689 -0.02411 0.14328 0.05597 
1403638613.547829504 0.38012 0.78106 -0.08955 -0.00203 0.02092 0.07689 -0.02425 0.14339 0.05554 
1403638613.802829568 0.40499 0.84655 -0.26772 -0.00205 0.02091 0.07690 -0.02354 0.14204 0.05732 
1403638614.47829504 0.43620 0.96787 -0.39953 -0.00204 0.02090 0.07690 -0.02362 0.14287 0.05692 
1403638614.292829440 0.46596 1.01280 -0.31892 -0.00204 0.02091 0.07690 -0.02398 0.14291 0.05599 
1403638614.542829568 0.49289 1.04878 -0.11348 -0.00202 0.02090 0.07689 -0.02380 0.14323 0.05650 
1403638614.832829440 0.42670 1.12230 0.11385 -0.00206 0.02089 0.07690 -0.02450 0.14272 0.05496 
1403638615.92829440 0.26378 1.20966 0.24525 -0.00208 0.02089 0.07690 -0.02490 0.14248 0.05440 
1403638615.387829504 0.18069 1.24730 0.26527 -0.00209 0.02089 0.07689 -0.02596 0.14317 0.05190 
1403638615.557829376 0.16550 1.20053 0.17426 -0.00207 0.02090 0.07687 -0.02653 0.14382 0.05078 
1403638615.792829440 0.19628 1.17607 0.26680 -0.00205 0.02089 0.07687 -0.02632 0.14332 0.05158 
1403638616.57829376 0.22695 1.19357 0.18558 -0.00205 0.02089 0.07686 -0.02637 0.14266 0.05140 
1403638616.232829440 0.23919 1.20317 -0.09359 -0.00205 0.02089 0.07686 -0.02657 0.14336 0.05067 
1403638616.417829376 0.25341 1.21378 -0.32352 -0.00204 0.02089 0.07685 -0.02649 0.14307 0.05081 
1403638616.682829568 0.26644 1.20396 -0.40152 -0.00203 0.02088 0.07686 -0.02581 0.14407 0.05289 
1403638616.937829376 0.12584 1.27627 -0.32210 -0.00203 0.02088 0.07686 -0.02592 0.14248 0.05257 
1403638617.197829376 -0.01468 1.30844 -0.10555 -0.00202 0.02088 0.07686 -0.02522 0.14206 0.05436 
1403638617.482829568 -0.14165 1.26712 0.08702 -0.00202 0.02088 0.07686 -0.02446 0.14167 0.05635 
1403638617.737829376 -0.31770 1.20487 0.29472 -0.00202 0.02088 0.07687 -0.02503 0.14015 0.05495 
1403638617.937829376 -0.43425 1.14626 0.39563 -0.00202 0.02088 0.07686 -0.02533 0.13999 0.05424 
1403638618.132829440 -0.51574 1.09936 0.27835 -0.00202 0.02088 0.07686 -0.02530 0.14071 0.05439 
1403638618.392829440 -0.60587 1.04138 0.15145 -0.00201 0.02089 0.07686 -0.02546 0.14049 0.05401 
1403638618.682829568 -0.70784 0.96618 0.12234 -0.00202 0.02089 0.07686 -0.02518 0.14172 0.05489 
1403638618.837829376 -0.77722 0.91578 0.21385 -0.00200 0.02089 0.07686 -0.02547 0.14214 0.05423 
1403638619.92829440 -0.81894 0.84875 0.08497 -0.00201 0.02089 0.07687 -0.02562 0.14343 0.05398 
1403638619.292829440 -0.81467 0.78749 -0.07976 -0.00201 0.02089 0.07688 -0.02495 0.14292 0.05597 
1403638619.482829568 -0.81317 0.70490 -0.16354 -0.00202 0.02088 0.07688 -0.02490 0.14355 0.05626 
1403638619.737829376 -0.78089 0.66995 -0.23204 -0.00202 0.02088 0.07688 -0.02489 0.14379 0.05647 
1403638619.957829376 -0.68525 0.72183 -0.27320 -0.00202 0.02087 0.07689 -0.02471 0.14263 0.05722 
1403638620.137829376 -0.59513 0.77522 -0.17054 -0.00203 0.02087 0.07689 -0.02470 0.14259 0.05743 
1403638620.437829376 -0.40001 0.80962 0.04660 -0.00202 0.02087 0.07689 -0.02441 0.14169 0.05847 
1403638620.682829568 -0.32171 0.83117 -0.05618 -0.00202 0.02087 0.07689 -0.02437 0.14166 0.05869 
1403638620.937829376 -0.26959 0.85583 -0.14288 -0.00202 0.02087 0.07689 -0.02396 0.14192 0.05989 
1403638621.122829568 -0.24556 0.81551 -0.12697 -0.00200 0.02086 0.07689 -0.02390 0.14228 0.06008 
1403638621.332829440 -0.25746 0.78869 0.01902 -0.00199 0.02086 0.07689 -0.02385 0.14268 0.06020 
1403638621.637829376 -0.18700 0.68574 -0.15083 -0.00199 0.02085 0.07689 -0.02382 0.14284 0.06032 
1403638621.877829376 -0.09280 0.60507 -0.22980 -0.00200 0.02086 0.07690 -0.02462 0.14066 0.05830 
1403638621.992829440 -0.04358 0.55270 -0.26647 -0.00200 0.02086 0.07690 -0.02446 0.14092 0.05867 
1403638622.182829568 0.05286 0.46734 -0.29614 -0.00200 0.02085 0.07690 -0.02442 0.14093 0.05883 
1403638622.332829440 0.12765 0.42127 -0.20482 -0.00200 0.02085 0.07690 -0.02460 0.14074 0.05842 
1403638622.552829440 0.26056 0.33440 -0.05517 -0.00200 0.02085 0.07691 -0.02431 0.14110 0.05919 
1403638622.757829376 0.34806 0.23648 0.17889 -0.00199 0.02085 0.07691 -0.02438 0.14105 0.05911 
1403638622.942829568 0.48804 0.11895 0.18089 -0.00201 0.02085 0.07692 -0.02429 0.14120 0.05951 
1403638623.117829376 0.61748 0.01956 0.06640 -0.00200 0.02085 0.07692 -0.02415 0.14170 0.05986 
1403638623.332829440 0.73360 -0.04342 -0.02491 -0.00199 0.02085 0.07692 -0.02426 0.14168 0.05946 
1403638623.592829440 0.82763 -0.09315 0.00963 -0.00200 0.02085 0.07692 -0.02417 0.14165 0.05969 
1403638623.887829504 0.94848 -0.14813 0.13676 -0.00202 0.02085 0.07693 -0.02401 0.14188 0.06016 
1403638624.47829504 0.95966 -0.17637 0.04560 -0.00202 0.02086 0.07693 -0.02400 0.14197 0.06024 
1403638624.307829504 0.96283 -0.19517 -0.06035 -0.00202 0.02087 0.07694 -0.02381 0.14234 0.06087 
1403638624.467829504 0.97109 -0.18553 -0.12977 -0.00201 0.02087 0.07694 -0.02456 0.14021 0.05906 
1403638624.652829440 1.00808 -0.18773 -0.16066 -0.00200 0.02088 0.07693 -0.02464 0.14022 0.05908 
1403638624.887829504 1.09335 -0.22561 -0.00182 -0.00202 0.02088 0.07694 -0.02465 0.14010 0.05913 
1403638625.157829376 1.07355 -0.22317 -0.02696 -0.00198 0.02090 0.07692 -0.02461 0.14010 0.05933 
1403638625.442829568 1.05499 -0.18022 0.01242 -0.00196 0.02091 0.07692 -0.02453 0.14062 0.05958 
1403638625.742829568 1.04647 -0.13126 0.13296 -0.00201 0.02091 0.07694 -0.02504 0.13967 0.05831 
1403638626.7829504 0.98323 -0.06532 0.01755 -0.00203 0.02091 0.07695 -0.02504 0.13990 0.05842 
1403638626.282829568 0.91969 -0.00145 -0.09546 -0.00203 0.02091 0.07695 -0.02506 0.13982 0.05835 
1403638626.457829376 0.87642 -0.01459 -0.14651 -0.00203 0.02091 0.07695 -0.02509 0.14018 0.05823 
1403638626.682829568 0.80888 -0.03821 -0.12874 -0.00204 0.02091 0.07695 -0.02505 0.13991 0.05830 
1403638626.942829568 0.65978 -0.02597 0.06971 -0.00201 0.02091 0.07695 -0.02498 0.13968 0.05839 
1403638627.182829568 0.55468 -0.01396 -0.02347 -0.00202 0.02091 0.07695 -0.02493 0.13968 0.05842 
1403638627.482829568 0.41196 0.01329 -0.10098 -0.00202 0.02091 0.07694 -0.02491 0.13975 0.05833 
1403638627.687829504 0.33992 0.00412 -0.11763 -0.00202 0.02091 0.07695 -0.02470 0.14003 0.05863 
1403638627.952829440 0.27511 -0.02880 -0.14437 -0.00203 0.02091 0.07695 -0.02464 0.13988 0.05868 
1403638628.182829568 0.19459 -0.06725 -0.10663 -0.00203 0.02092 0.07695 -0.02479 0.14015 0.05805 
1403638628.482829568 0.06199 -0.09415 -0.02178 -0.00202 0.02092 0.07695 -0.02483 0.14057 0.05791 
1403638628.737829376 0.07188 -0.05428 -0.04185 -0.00203 0.02093 0.07695 -0.02471 0.14061 0.05821 
1403638628.942829568 0.08558 -0.01044 -0.12058 -0.00203 0.02093 0.07696 -0.02467 0.14051 0.05816 
1403638629.247829504 0.06909 -0.04627 -0.03165 -0.00204 0.02091 0.07697 -0.02417 0.14086 0.05952 
1403638629.437829376 0.04041 -0.07402 -0.01201 -0.00204 0.02091 0.07697 -0.02430 0.14040 0.05937 
1403638629.592829440 -0.02053 -0.08166 0.00121 -0.00204 0.02091 0.07697 -0.02407 0.14039 0.06000 
1403638629.702829568 -0.05043 -0.05300 0.02466 -0.00203 0.02091 0.07697 -0.02432 0.14049 0.05926 
1403638629.867829504 -0.06396 0.01114 -0.03457 -0.00204 0.02091 0.07697 -0.02406 0.14057 0.06001 
1403638630.47829504 -0.00777 0.04730 -0.20966 -0.00203 0.02091 0.07697 -0.02437 0.14036 0.05928 
1403638630.237829376 0.04244 -0.00512 -0.35843 -0.00204 0.02091 0.07697 -0.02429 0.14073 0.05943 
1403638630.482829568 -0.09539 -0.00969 0.07523 -0.00204 0.02091 0.07697 -0.02450 0.14104 0.05892 
1403638630.702829568 -0.02570 0.04861 -0.18075 -0.00204 0.02091 0.07697 -0.02472 0.14057 0.05835 
1403638630.882829568 0.04767 -0.00738 -0.03104 -0.00204 0.02093 0.07697 -0.02481 0.14063 0.05831 
1403638631.92829440 0.03987 -0.01256 -0.04176 -0.00205 0.02093 0.07697 -0.02462 0.14051 0.05893 
1403638631.282829568 0.02935 -0.01428 -0.02971 -0.00204 0.02093 0.07698 -0.02524 0.14292 0.05737 
1403638631.432829440 0.00969 -0.01084 -0.01185 -0.00206 0.02094 0.07699 -0.02741 0.14396 0.05202 
1403638631.537829376 0.00875 -0.01287 -0.01298 -0.00206 0.02094 0.07699 -0.02757 0.14386 0.05161 
1403638631.687829504 0.00478 -0.00726 -0.00869 -0.00206 0.02094 0.07699 -0.02773 0.14375 0.05122 
