1403715886.799057920 0.01954 0.00250 -0.02812 -0.00032 0.00211 0.00636 0.00003 -0.00036 -0.00000 
1403715887.89058048 -0.00327 0.01579 -0.04124 0.00019 0.00458 0.05532 0.00052 0.00008 -0.00029 
1403715887.344058112 0.01006 -0.00137 -0.00556 -0.00161 0.01818 0.07592 -0.00531 -0.00001 0.00215 
1403715887.599057920 -0.00168 0.00106 -0.00016 -0.00232 0.01953 0.07706 -0.01304 -0.00043 0.00525 
1403715887.889058048 -0.00153 -0.00057 -0.00151 -0.00224 0.01964 0.07717 -0.01194 -0.00043 0.00480 
1403715888.109058048 -0.00010 0.00020 0.00084 -0.00210 0.01944 0.07737 -0.01462 -0.00059 0.00588 
1403715888.389058048 0.00388 -0.00087 -0.00486 -0.00198 0.01980 0.07731 -0.00841 -0.00033 0.00338 
1403715888.644058112 -0.00233 -0.00200 -0.00301 -0.00203 0.01972 0.07734 -0.01034 -0.00043 0.00415 
1403715888.849058048 -0.01053 -0.00099 -0.00925 -0.00203 0.01965 0.07741 -0.00719 -0.00029 0.00288 
1403715889.139057920 -0.00276 0.00015 -0.00451 -0.00193 0.01931 0.07760 -0.01146 -0.00049 0.00459 
1403715889.394057984 -0.00290 -0.00042 0.00011 -0.00200 0.01936 0.07750 -0.01433 -0.00062 0.00575 
1403715889.649058048 -0.00570 -0.00049 0.00053 -0.00194 0.01954 0.07756 -0.01425 -0.00062 0.00572 
1403715889.939057920 -0.00363 -0.00090 -0.00389 -0.00198 0.01932 0.07769 -0.01352 -0.00059 0.00542 
1403715890.194057984 -0.00030 -0.00426 0.00208 -0.00197 0.01940 0.07756 -0.01773 -0.00078 0.00710 
1403715890.439057920 -0.00054 0.00673 -0.00247 -0.00206 0.01942 0.07771 -0.01749 -0.00077 0.00700 
1403715890.694057984 -0.01067 -0.00196 -0.00759 -0.00211 0.01948 0.07771 -0.01644 -0.00072 0.00658 
1403715890.949058048 -0.00966 0.00573 -0.01084 -0.00192 0.01948 0.07768 -0.01661 -0.00073 0.00664 
1403715891.239057920 -0.01032 0.00114 -0.00731 -0.00202 0.01948 0.07766 -0.01944 -0.00085 0.00777 
1403715891.494057984 0.00547 -0.00038 0.00400 -0.00196 0.01943 0.07764 -0.02396 -0.00106 0.00959 
1403715891.749058048 -0.00443 -0.00206 -0.00543 -0.00172 0.01902 0.07756 -0.02122 -0.00093 0.00849 
1403715892.39057920 -0.02009 0.00555 -0.01170 -0.00215 0.01954 0.07788 -0.01966 -0.00086 0.00787 
1403715892.294057984 0.00657 -0.00203 0.00617 -0.00210 0.01921 0.07777 -0.02692 -0.00118 0.01078 
1403715892.549058048 -0.00406 -0.00766 0.00145 -0.00220 0.01968 0.07774 -0.02366 -0.00102 0.00947 
1403715892.839057920 -0.00097 -0.00371 0.00139 -0.00220 0.01937 0.07772 -0.02757 -0.00119 0.01104 
1403715893.94057984 0.00133 0.00126 0.00378 -0.00206 0.01970 0.07775 -0.02618 -0.00112 0.01049 
1403715893.349058048 -0.02241 0.00223 -0.00269 -0.00217 0.01992 0.07779 -0.02581 -0.00097 0.01033 
1403715893.639057920 -0.02820 -0.05931 0.10924 -0.00216 0.01989 0.07779 -0.02606 -0.00098 0.01044 
1403715893.894057984 0.06925 -0.07754 0.17777 -0.00236 0.01982 0.07770 -0.02721 -0.00153 0.01216 
1403715894.149058048 0.06173 -0.12128 0.19366 -0.00194 0.01874 0.07761 -0.02322 -0.00271 0.01659 
1403715894.444058112 0.05918 -0.28139 0.29501 -0.00214 0.01883 0.07758 -0.01546 -0.00736 0.03543 
1403715894.689058048 0.05195 -0.42622 0.14986 -0.00210 0.01926 0.07755 -0.01868 -0.00827 0.03066 
1403715894.944058112 -0.00805 -0.50538 0.24925 -0.00218 0.01998 0.07764 -0.02418 -0.01794 0.01995 
1403715895.139057920 0.00202 -0.52532 0.25090 -0.00219 0.01999 0.07762 -0.02432 -0.01823 0.01959 
1403715895.369058048 0.00079 -0.53712 0.22199 -0.00187 0.02055 0.07766 -0.02643 -0.01966 0.01600 
1403715895.599057920 0.00160 -0.53191 0.21935 -0.00252 0.02102 0.07786 -0.02917 -0.02049 0.01020 
1403715895.849058048 -0.01795 -0.52334 0.19902 -0.00261 0.02123 0.07784 -0.03087 -0.02070 0.00638 
1403715896.144058112 -0.02671 -0.50264 0.19492 -0.00257 0.02103 0.07771 -0.03335 -0.02051 0.00253 
1403715896.444058112 -0.02249 -0.28742 0.17861 -0.00258 0.02094 0.07771 -0.03428 -0.01949 -0.00006 
1403715896.699057920 0.01409 0.10155 0.20038 -0.00272 0.02095 0.07760 -0.03601 -0.02149 -0.00374 
1403715896.894057984 0.05662 0.42448 0.18866 -0.00273 0.02081 0.07754 -0.03668 -0.01901 -0.00387 
1403715897.69058048 0.06405 0.77007 0.18908 -0.00273 0.02064 0.07761 -0.03731 -0.00947 -0.00453 
1403715897.189058048 0.05043 1.04434 0.21135 -0.00267 0.02049 0.07759 -0.03981 0.00037 -0.00892 
1403715897.399057920 0.00041 1.37154 0.21594 -0.00273 0.02054 0.07756 -0.04383 0.01524 -0.01695 
1403715897.749058048 -0.09459 1.48335 0.15646 -0.00251 0.02066 0.07749 -0.04666 0.01626 -0.02180 
1403715897.919057920 -0.12916 1.59736 0.15662 -0.00284 0.02066 0.07764 -0.05403 0.08939 -0.03716 
1403715898.44058112 -0.14683 1.67577 0.16436 -0.00289 0.02076 0.07759 -0.05434 0.10339 -0.03885 
1403715898.249058048 -0.04759 1.72561 0.11698 -0.00310 0.02059 0.07770 -0.05047 0.10018 -0.03016 
1403715898.639057920 0.13581 1.63830 -0.06114 -0.00325 0.02032 0.07771 -0.04747 0.09991 -0.01946 
1403715898.854057984 0.15240 1.55473 -0.31067 -0.00320 0.02025 0.07770 -0.05251 0.12073 -0.03023 
1403715899.39057920 0.10181 1.53530 -0.53686 -0.00327 0.02031 0.07741 -0.05990 0.11937 -0.04910 
1403715899.294057984 0.03761 1.41809 -0.43190 -0.00313 0.02019 0.07742 -0.06191 0.13005 -0.05186 
1403715899.549058048 -0.26808 1.28969 -0.15303 -0.00285 0.02034 0.07727 -0.06666 0.13905 -0.06279 
1403715899.794057984 -0.56004 1.14743 -0.11907 -0.00256 0.02043 0.07723 -0.07054 0.15408 -0.06946 
1403715900.94057984 -0.78522 0.83076 -0.06832 -0.00274 0.02037 0.07723 -0.07041 0.16857 -0.06449 
1403715900.359057920 -0.94560 0.43630 -0.04033 -0.00286 0.02031 0.07726 -0.06931 0.16696 -0.06188 
1403715900.559057920 -1.04112 0.15115 0.01301 -0.00297 0.02024 0.07731 -0.06848 0.16746 -0.05991 
1403715900.799057920 -0.97403 0.02104 0.05433 -0.00310 0.02023 0.07738 -0.06659 0.16937 -0.05398 
1403715901.89058048 -0.58893 -0.12796 0.11305 -0.00296 0.02024 0.07732 -0.06647 0.17666 -0.05437 
1403715901.299057920 -0.17376 -0.28803 0.16236 -0.00282 0.02016 0.07732 -0.06440 0.17945 -0.04849 
1403715901.539057920 0.24062 -0.38398 0.16962 -0.00287 0.02016 0.07733 -0.06454 0.17692 -0.04872 
1403715901.799057920 0.48136 -0.46688 0.13863 -0.00288 0.02012 0.07737 -0.05924 0.18034 -0.03588 
1403715901.979057920 0.57126 -0.50784 0.10548 -0.00281 0.02014 0.07738 -0.05955 0.18153 -0.03755 
1403715902.239057920 0.65311 -0.58015 0.05534 -0.00288 0.02016 0.07737 -0.05342 0.18322 -0.02084 
1403715902.494057984 0.67737 -0.69925 0.05249 -0.00277 0.02022 0.07727 -0.05422 0.18189 -0.02357 
1403715902.694057984 0.63011 -0.74060 0.03032 -0.00268 0.02021 0.07717 -0.04787 0.18704 -0.00565 
1403715902.834057984 0.54249 -0.71791 -0.12247 -0.00262 0.02019 0.07713 -0.04720 0.18587 -0.00403 
1403715902.994057984 0.42396 -0.69064 -0.17048 -0.00261 0.02016 0.07709 -0.04592 0.18571 -0.00015 
1403715903.144058112 0.33000 -0.69266 -0.13322 -0.00268 0.02008 0.07712 -0.04596 0.18607 0.00067 
1403715903.389058048 0.14930 -0.74033 -0.07916 -0.00264 0.02006 0.07708 -0.04557 0.18555 0.00138 
1403715903.604058112 -0.10193 -0.76463 0.21110 -0.00268 0.02007 0.07696 -0.04430 0.18698 0.00288 
1403715903.889058048 -0.35460 -0.78503 0.56807 -0.00276 0.02010 0.07698 -0.04532 0.18458 -0.00006 
1403715904.99057920 -0.41915 -0.71939 0.54590 -0.00250 0.02020 0.07682 -0.04514 0.17607 0.00136 
1403715904.389058048 -0.41404 -0.59407 0.39294 -0.00253 0.02031 0.07678 -0.03795 0.15775 0.02067 
1403715904.564058112 -0.36833 -0.57694 0.17134 -0.00240 0.02036 0.07677 -0.03726 0.14717 0.02291 
1403715904.709058048 -0.24223 -0.58074 -0.01331 -0.00240 0.02037 0.07677 -0.03761 0.14694 0.02199 
1403715904.869058048 -0.11888 -0.57262 -0.21170 -0.00230 0.02040 0.07676 -0.03880 0.14834 0.01919 
1403715905.94057984 0.00441 -0.46110 -0.45728 -0.00242 0.02037 0.07678 -0.03677 0.13315 0.02582 
1403715905.299057920 0.10648 -0.25067 -0.51321 -0.00230 0.02034 0.07674 -0.03745 0.12947 0.02949 
1403715905.589058048 0.31925 -0.04293 -0.47549 -0.00241 0.02036 0.07670 -0.03519 0.12454 0.03139 
1403715905.844058112 0.39148 0.03272 -0.44947 -0.00242 0.02033 0.07668 -0.02870 0.12818 0.04907 
1403715906.109058048 0.39956 -0.06995 -0.37499 -0.00251 0.02031 0.07671 -0.02773 0.13296 0.05234 
1403715906.389058048 0.52590 -0.10513 -0.33218 -0.00273 0.02034 0.07676 -0.02938 0.12471 0.04998 
1403715906.594057984 0.63170 -0.01479 -0.18179 -0.00287 0.02032 0.07679 -0.03013 0.11817 0.05170 
1403715906.889058048 0.60632 0.10290 -0.00814 -0.00252 0.02036 0.07673 -0.02823 0.12468 0.05983 
1403715907.194057984 0.50721 0.16784 -0.07126 -0.00293 0.02034 0.07689 -0.02871 0.12198 0.05984 
1403715907.444058112 0.38207 0.33012 0.21851 -0.00281 0.02032 0.07686 -0.02782 0.12278 0.06250 
1403715907.639057920 0.27521 0.44663 0.23184 -0.00283 0.02034 0.07688 -0.02821 0.12743 0.06169 
1403715907.889058048 0.09722 0.53312 0.16371 -0.00258 0.02031 0.07679 -0.02725 0.12237 0.06476 
1403715908.99057920 -0.03690 0.46677 0.14059 -0.00302 0.02031 0.07692 -0.02570 0.11749 0.07107 
1403715908.389058048 -0.18892 0.31205 0.08629 -0.00290 0.02028 0.07694 -0.02482 0.11867 0.07483 
1403715908.644058112 -0.28644 0.16224 0.09561 -0.00292 0.02032 0.07691 -0.02514 0.12332 0.07549 
1403715908.854057984 -0.32999 -0.01166 0.04490 -0.00330 0.02037 0.07706 -0.02331 0.12754 0.08037 
1403715909.104058112 -0.35685 -0.17133 -0.01757 -0.00336 0.02032 0.07707 -0.02274 0.12661 0.08117 
1403715909.389058048 -0.44078 -0.27267 -0.09731 -0.00303 0.02034 0.07698 -0.02184 0.12891 0.08397 
1403715909.644058112 -0.56741 -0.38350 -0.18569 -0.00312 0.02034 0.07700 -0.02262 0.12828 0.08261 
1403715909.899057920 -0.67606 -0.54977 -0.21805 -0.00302 0.02034 0.07698 -0.02248 0.12851 0.08353 
1403715910.144058112 -0.55736 -0.69127 -0.27422 -0.00311 0.02034 0.07700 -0.02231 0.12886 0.08522 
1403715910.339057920 -0.43443 -0.72932 -0.23661 -0.00309 0.02033 0.07703 -0.02193 0.12970 0.08660 
1403715910.544058112 -0.25959 -0.75188 -0.19670 -0.00293 0.02031 0.07694 -0.02272 0.12943 0.08523 
1403715910.839057920 0.02363 -0.75093 -0.09463 -0.00297 0.02032 0.07695 -0.02211 0.12925 0.08656 
1403715911.94057984 0.31051 -0.67400 -0.06462 -0.00292 0.02029 0.07695 -0.02019 0.12839 0.09018 
1403715911.349058048 0.55093 -0.49624 -0.07577 -0.00290 0.02030 0.07692 -0.01998 0.12899 0.09001 
1403715911.639057920 0.69732 -0.27050 -0.12112 -0.00282 0.02029 0.07693 -0.01880 0.12962 0.09239 
1403715911.849058048 0.76412 -0.20657 0.12176 -0.00283 0.02029 0.07692 -0.01886 0.13187 0.09211 
1403715911.999057920 0.79254 -0.20134 0.29461 -0.00280 0.02029 0.07690 -0.01899 0.13227 0.09167 
1403715912.154057984 0.80788 -0.17921 0.32155 -0.00285 0.02029 0.07688 -0.01981 0.13232 0.08971 
1403715912.344058112 0.80405 -0.14565 0.27965 -0.00285 0.02029 0.07688 -0.01994 0.13223 0.08949 
1403715912.599057920 0.75154 -0.12047 0.26020 -0.00293 0.02032 0.07692 -0.02083 0.13191 0.08785 
1403715912.799057920 0.74350 -0.09501 0.25857 -0.00292 0.02031 0.07693 -0.02101 0.13153 0.08738 
1403715913.44058112 0.69512 -0.05408 -0.05315 -0.00294 0.02031 0.07694 -0.02123 0.13191 0.08670 
1403715913.289058048 0.64450 0.02064 -0.13522 -0.00292 0.02028 0.07697 -0.02062 0.13154 0.08815 
1403715913.489058048 0.60257 0.13738 -0.09866 -0.00298 0.02030 0.07700 -0.02075 0.13264 0.08800 
1403715913.689058048 0.62051 0.41493 -0.09901 -0.00299 0.02031 0.07700 -0.02110 0.13324 0.08752 
1403715913.894057984 0.74932 0.71559 -0.06365 -0.00298 0.02033 0.07699 -0.02143 0.13419 0.08703 
1403715914.194057984 0.90865 0.97166 0.01085 -0.00298 0.02033 0.07702 -0.02146 0.13320 0.08748 
1403715914.354057984 0.95589 1.01190 0.02338 -0.00288 0.02030 0.07701 -0.02106 0.13241 0.08900 
1403715914.459057920 0.97716 0.97942 0.05893 -0.00297 0.02030 0.07698 -0.02161 0.13300 0.08792 
1403715914.619057920 1.01855 0.86144 0.06149 -0.00291 0.02029 0.07697 -0.02153 0.13372 0.08825 
1403715914.799057920 1.02047 0.61507 0.02833 -0.00293 0.02029 0.07695 -0.02178 0.13353 0.08760 
1403715914.949058048 0.90000 0.31265 0.03957 -0.00296 0.02029 0.07696 -0.02192 0.13288 0.08766 
1403715915.194057984 0.58283 -0.27066 0.10207 -0.00284 0.02033 0.07695 -0.02198 0.13580 0.08819 
1403715915.449058048 0.36999 -0.59045 -0.06247 -0.00286 0.02032 0.07696 -0.02193 0.13582 0.08849 
1403715915.644058112 0.36435 -0.65610 -0.30407 -0.00305 0.02026 0.07703 -0.02212 0.13406 0.08783 
1403715915.844058112 0.39592 -0.69823 -0.33547 -0.00319 0.02027 0.07703 -0.02267 0.13259 0.08660 
1403715916.49058048 0.41620 -0.79183 -0.29385 -0.00293 0.02027 0.07694 -0.02219 0.13276 0.08817 
1403715916.219057920 0.37976 -0.84153 -0.29129 -0.00303 0.02027 0.07695 -0.02258 0.13181 0.08752 
1403715916.439057920 0.34502 -0.86036 -0.29814 -0.00321 0.02030 0.07699 -0.02299 0.13186 0.08659 
1403715916.609058048 0.29898 -0.85520 -0.29566 -0.00313 0.02031 0.07696 -0.02308 0.13199 0.08654 
1403715916.839057920 0.19730 -0.88777 -0.24666 -0.00306 0.02044 0.07693 -0.02300 0.13556 0.08775 
1403715916.919057920 0.11475 -0.90060 -0.18867 -0.00308 0.02047 0.07689 -0.02355 0.13575 0.08720 
1403715917.49058048 -0.05313 -0.89614 -0.11373 -0.00312 0.02050 0.07696 -0.02329 0.13726 0.08864 
1403715917.209058048 -0.25172 -0.80634 -0.01594 -0.00315 0.02049 0.07699 -0.02320 0.13732 0.08911 
1403715917.364058112 -0.23552 -0.61725 -0.03798 -0.00318 0.02048 0.07700 -0.02321 0.13727 0.08912 
1403715917.539057920 -0.16219 -0.43502 -0.05692 -0.00320 0.02049 0.07699 -0.02360 0.13743 0.08832 
1403715917.694057984 -0.18265 -0.36638 -0.10281 -0.00329 0.02047 0.07704 -0.02325 0.13684 0.08860 
1403715917.824058112 -0.22393 -0.23327 -0.10762 -0.00315 0.02045 0.07704 -0.02213 0.13685 0.09076 
1403715917.949058048 -0.23880 -0.05981 -0.04962 -0.00304 0.02043 0.07705 -0.02072 0.13671 0.09309 
1403715918.29058048 -0.23798 0.06684 -0.01502 -0.00304 0.02043 0.07705 -0.02072 0.13671 0.09309 
1403715918.154057984 -0.21950 0.24687 -0.03332 -0.00295 0.02040 0.07703 -0.01965 0.13589 0.09448 
1403715918.259057920 -0.16598 0.36447 -0.04101 -0.00288 0.02039 0.07702 -0.01927 0.13584 0.09540 
1403715918.444058112 -0.13084 0.52826 -0.30640 -0.00310 0.02035 0.07702 -0.02069 0.13259 0.09032 
1403715918.689058048 -0.26186 0.66328 -0.37200 -0.00322 0.02037 0.07703 -0.02106 0.13238 0.08879 
1403715918.939057920 -0.33072 0.65399 -0.02110 -0.00305 0.02039 0.07703 -0.02018 0.13335 0.09066 
1403715919.159057920 -0.38311 0.39114 0.19781 -0.00297 0.02040 0.07700 -0.01961 0.13236 0.09073 
1403715919.439057920 -0.22358 0.05387 0.00821 -0.00307 0.02041 0.07708 -0.01907 0.13218 0.09091 
1403715919.644058112 -0.13749 -0.08992 -0.27970 -0.00299 0.02048 0.07707 -0.01884 0.13283 0.09093 
1403715919.854057984 -0.05831 -0.18806 -0.42704 -0.00300 0.02054 0.07708 -0.01914 0.13365 0.09035 
1403715920.139057920 0.09755 -0.35130 -0.14581 -0.00309 0.02052 0.07713 -0.01907 0.13375 0.09056 
1403715920.349058048 0.12458 -0.50757 0.14483 -0.00301 0.02051 0.07709 -0.01913 0.13401 0.09055 
1403715920.514057984 0.09854 -0.56181 0.19655 -0.00279 0.02061 0.07702 -0.01856 0.13581 0.09262 
1403715920.889058048 0.10847 -0.36775 0.41331 -0.00290 0.02060 0.07704 -0.01869 0.13511 0.09252 
1403715921.149058048 0.03526 -0.18699 0.55646 -0.00305 0.02052 0.07704 -0.01924 0.13415 0.09195 
1403715921.339057920 -0.04592 -0.16665 0.52518 -0.00297 0.02051 0.07699 -0.01957 0.13476 0.09150 
1403715921.594057984 -0.05385 -0.22221 0.66324 -0.00288 0.02050 0.07698 -0.01972 0.13514 0.09212 
1403715921.789058048 -0.03182 -0.26841 0.76109 -0.00291 0.02047 0.07699 -0.01999 0.13542 0.09180 
1403715922.49058048 -0.06196 -0.29490 0.58525 -0.00294 0.02044 0.07701 -0.01977 0.13561 0.09200 
1403715922.279057920 -0.08369 -0.26241 0.81893 -0.00301 0.02042 0.07701 -0.02004 0.13554 0.09088 
1403715922.414057984 -0.07781 -0.19177 0.84432 -0.00314 0.02042 0.07706 -0.02000 0.13585 0.09078 
1403715922.554057984 -0.05956 -0.12235 0.80125 -0.00318 0.02041 0.07707 -0.02000 0.13545 0.09076 
1403715922.724058112 -0.06668 -0.01656 0.60185 -0.00320 0.02040 0.07707 -0.02003 0.13545 0.09034 
1403715922.874057984 -0.04604 0.02746 0.36442 -0.00314 0.02043 0.07707 -0.02000 0.13566 0.09043 
1403715923.24058112 -0.00627 0.06129 0.25931 -0.00319 0.02046 0.07709 -0.02036 0.13718 0.08962 
1403715923.294057984 0.10758 0.11844 0.50208 -0.00319 0.02048 0.07714 -0.02063 0.13816 0.08986 
1403715923.444058112 0.12607 0.09838 0.44489 -0.00321 0.02048 0.07716 -0.02059 0.13868 0.08998 
1403715923.709058048 0.00262 0.10702 -0.05712 -0.00321 0.02048 0.07716 -0.02069 0.13629 0.08944 
1403715923.859057920 -0.08667 0.14545 -0.30645 -0.00321 0.02048 0.07717 -0.02069 0.13649 0.08949 
1403715924.54057984 -0.19120 0.24037 -0.52984 -0.00309 0.02048 0.07717 -0.01969 0.13654 0.09132 
1403715924.339057920 -0.22417 0.44985 -0.56301 -0.00307 0.02049 0.07714 -0.01950 0.13591 0.09100 
1403715924.589058048 -0.21971 0.48798 -0.52745 -0.00290 0.02049 0.07710 -0.01956 0.13581 0.09061 
1403715924.784058112 -0.33431 0.46674 -0.51326 -0.00297 0.02050 0.07712 -0.01906 0.13525 0.09146 
1403715925.9058048 -0.48524 0.52320 -0.45088 -0.00298 0.02051 0.07711 -0.01907 0.13518 0.09128 
1403715925.119057920 -0.49963 0.60037 -0.30508 -0.00300 0.02050 0.07715 -0.01884 0.13585 0.09207 
1403715925.344058112 -0.47416 0.76956 -0.05230 -0.00303 0.02048 0.07714 -0.01900 0.13449 0.09143 
1403715925.599057920 -0.48994 0.91941 -0.02579 -0.00300 0.02049 0.07713 -0.01887 0.13492 0.09133 
1403715925.889058048 -0.57507 1.04756 -0.03652 -0.00302 0.02048 0.07714 -0.01881 0.13448 0.09135 
1403715926.144058112 -0.58906 1.16072 -0.17633 -0.00302 0.02048 0.07711 -0.01891 0.13455 0.09082 
1403715926.494057984 -0.30446 1.38381 -0.43628 -0.00301 0.02047 0.07710 -0.01897 0.13411 0.09061 
1403715926.779057920 -0.01647 1.40075 -0.42292 -0.00303 0.02046 0.07709 -0.01922 0.13429 0.09009 
1403715926.999057920 0.07009 1.29073 -0.12356 -0.00308 0.02048 0.07712 -0.01889 0.13382 0.09019 
1403715927.189058048 0.07104 1.16304 -0.08693 -0.00315 0.02053 0.07714 -0.01882 0.13513 0.08967 
1403715927.444058112 0.07457 0.79657 -0.03599 -0.00311 0.02056 0.07710 -0.01911 0.13548 0.08882 
1403715927.699057920 0.32699 0.40126 -0.06863 -0.00317 0.02055 0.07713 -0.01881 0.13590 0.08973 
1403715927.989058048 0.63980 -0.00106 -0.15829 -0.00307 0.02054 0.07711 -0.01813 0.13621 0.09088 
1403715928.129058048 0.71486 -0.19017 -0.34970 -0.00295 0.02052 0.07707 -0.01777 0.13515 0.09166 
1403715928.239057920 0.72329 -0.30713 -0.46551 -0.00293 0.02052 0.07706 -0.01778 0.13513 0.09170 
1403715928.389058048 0.74566 -0.46858 -0.53310 -0.00298 0.02054 0.07707 -0.01822 0.13609 0.09066 
1403715928.544058112 0.77316 -0.66896 -0.59766 -0.00292 0.02054 0.07704 -0.01819 0.13646 0.09066 
1403715928.699057920 0.79672 -0.80841 -0.41692 -0.00290 0.02054 0.07704 -0.01822 0.13631 0.09085 
1403715928.899057920 0.75931 -0.78417 0.03731 -0.00295 0.02052 0.07706 -0.01860 0.13490 0.09070 
1403715929.144058112 0.69114 -0.34131 0.49104 -0.00300 0.02053 0.07704 -0.01976 0.13445 0.08829 
1403715929.439057920 0.41275 0.25791 0.35691 -0.00325 0.02058 0.07705 -0.02175 0.13641 0.08402 
1403715929.654057984 -0.17015 0.25445 0.31715 -0.00300 0.02064 0.07691 -0.02110 0.14066 0.08646 
1403715929.849058048 -0.65568 0.16212 0.18484 -0.00295 0.02063 0.07692 -0.02076 0.13893 0.08775 
1403715930.89058048 -0.72552 0.12032 -0.03665 -0.00289 0.02063 0.07691 -0.02085 0.13829 0.08807 
1403715930.339057920 -0.33616 0.03945 -0.01409 -0.00274 0.02059 0.07685 -0.02124 0.13584 0.08837 
1403715930.524058112 -0.05745 0.02850 -0.18347 -0.00301 0.02057 0.07694 -0.02120 0.13412 0.08888 
1403715930.669058048 0.08529 0.09738 -0.16523 -0.00309 0.02055 0.07697 -0.02176 0.13484 0.08783 
1403715930.859057920 0.22453 0.31100 0.16021 -0.00304 0.02056 0.07697 -0.02182 0.13557 0.08841 
1403715931.44058112 0.23508 0.48895 0.20157 -0.00296 0.02056 0.07693 -0.02184 0.13603 0.08874 
1403715931.244058112 0.13658 0.75574 0.22702 -0.00297 0.02055 0.07694 -0.02165 0.13588 0.08960 
1403715931.539057920 0.00933 1.13899 0.36932 -0.00294 0.02054 0.07693 -0.02171 0.13582 0.08909 
1403715931.709058048 -0.06969 1.25120 0.12456 -0.00297 0.02055 0.07694 -0.02164 0.13582 0.08926 
1403715931.894057984 -0.14773 1.33016 0.08376 -0.00285 0.02055 0.07689 -0.02162 0.13567 0.08903 
1403715932.99057920 -0.18569 1.29090 0.15666 -0.00313 0.02055 0.07696 -0.02200 0.13440 0.08786 
1403715932.244058112 -0.20163 1.13293 0.25095 -0.00329 0.02056 0.07699 -0.02220 0.13497 0.08730 
1403715932.449058048 -0.18362 0.65508 0.25030 -0.00321 0.02058 0.07697 -0.02222 0.13485 0.08723 
1403715932.704058112 -0.03361 -0.26157 0.31641 -0.00326 0.02057 0.07699 -0.02206 0.13483 0.08772 
1403715932.914057984 0.11947 -1.10968 0.24685 -0.00319 0.02055 0.07697 -0.02202 0.13497 0.08761 
1403715933.104058112 0.16922 -1.54209 0.25808 -0.00321 0.02056 0.07699 -0.02223 0.13504 0.08733 
1403715933.279057920 0.14088 -1.54817 0.23384 -0.00321 0.02056 0.07699 -0.02220 0.13506 0.08747 
1403715933.449058048 0.08568 -1.23603 0.22548 -0.00324 0.02055 0.07701 -0.02232 0.13496 0.08717 
1403715933.744058112 -0.01675 0.08719 0.40886 -0.00324 0.02054 0.07702 -0.02186 0.13522 0.08817 
1403715933.829058048 -0.07600 0.54618 0.49154 -0.00325 0.02054 0.07703 -0.02212 0.13490 0.08756 
1403715933.999057920 -0.22445 1.31955 0.72892 -0.00324 0.02053 0.07703 -0.02212 0.13483 0.08751 
1403715934.189058048 -0.26840 1.41348 0.56547 -0.00321 0.02051 0.07704 -0.02158 0.13608 0.08951 
1403715934.404058112 -0.21690 0.97910 0.15239 -0.00318 0.02052 0.07701 -0.02112 0.13535 0.08995 
1403715934.644058112 -0.09246 -0.01187 0.01040 -0.00329 0.02051 0.07703 -0.02224 0.13486 0.08656 
1403715934.939057920 0.20525 -1.52637 0.13380 -0.00336 0.02051 0.07704 -0.02293 0.13384 0.08592 
1403715935.144058112 0.30564 -1.92949 -0.06802 -0.00333 0.02052 0.07704 -0.02274 0.13496 0.08696 
1403715935.394057984 0.29734 -1.77007 -0.33386 -0.00333 0.02052 0.07704 -0.02258 0.13471 0.08708 
1403715935.594057984 0.20638 -1.27212 -0.46993 -0.00335 0.02054 0.07705 -0.02266 0.13493 0.08702 
1403715935.839057920 0.01085 -0.38931 -0.36168 -0.00334 0.02056 0.07705 -0.02261 0.13506 0.08710 
1403715935.989058048 -0.11704 0.27896 -0.20605 -0.00334 0.02061 0.07705 -0.02266 0.13507 0.08682 
1403715936.239057920 -0.25636 0.80700 -0.05953 -0.00345 0.02061 0.07708 -0.02321 0.13482 0.08549 
1403715936.404058112 -0.28078 0.72280 -0.14674 -0.00344 0.02064 0.07706 -0.02434 0.13531 0.08282 
1403715936.589058048 -0.23408 0.38818 -0.16654 -0.00334 0.02066 0.07705 -0.02283 0.13538 0.08769 
1403715936.754057984 -0.14668 0.00942 -0.16002 -0.00334 0.02065 0.07705 -0.02348 0.13557 0.08664 
1403715936.954057984 -0.08353 -0.31052 -0.14656 -0.00334 0.02064 0.07708 -0.02300 0.13582 0.08820 
1403715937.194057984 -0.07017 -0.49609 -0.17504 -0.00325 0.02064 0.07705 -0.02291 0.13604 0.08841 
1403715937.394057984 -0.07284 -0.53462 -0.36660 -0.00314 0.02064 0.07701 -0.02256 0.13560 0.08888 
1403715937.644058112 -0.06098 -0.46393 -0.58589 -0.00314 0.02062 0.07700 -0.02223 0.13524 0.08983 
1403715937.849058048 -0.14994 -0.23388 -0.51965 -0.00318 0.02061 0.07702 -0.02250 0.13509 0.08944 
1403715938.44058112 -0.28188 0.03854 -0.46409 -0.00323 0.02059 0.07703 -0.02254 0.13555 0.08922 
1403715938.289058048 -0.55878 0.42410 -0.05650 -0.00317 0.02055 0.07701 -0.02269 0.13556 0.08901 
1403715938.494057984 -0.73591 0.52977 0.12991 -0.00313 0.02054 0.07701 -0.02255 0.13605 0.08934 
1403715938.739057920 -0.76938 0.51637 0.02242 -0.00337 0.02054 0.07710 -0.02267 0.13594 0.08881 
1403715938.939057920 -0.89837 0.57889 -0.02076 -0.00329 0.02053 0.07709 -0.02268 0.13628 0.08871 
1403715939.189058048 -1.22263 0.79908 0.04982 -0.00319 0.02054 0.07706 -0.02264 0.13653 0.08884 
1403715939.364058112 -1.32545 0.83947 0.05406 -0.00319 0.02055 0.07707 -0.02311 0.13596 0.08739 
1403715939.549058048 -1.16032 0.69191 0.03057 -0.00323 0.02055 0.07708 -0.02317 0.13594 0.08728 
1403715939.804058112 -0.54419 0.20553 0.24219 -0.00318 0.02057 0.07708 -0.02315 0.13561 0.08721 
1403715939.999057920 0.10516 -0.33590 0.39017 -0.00315 0.02057 0.07708 -0.02303 0.13481 0.08696 
1403715940.289058048 0.58121 -0.80385 0.41463 -0.00309 0.02057 0.07708 -0.02287 0.13524 0.08709 
1403715940.544058112 0.33835 -0.67718 0.34886 -0.00314 0.02057 0.07709 -0.02292 0.13510 0.08678 
1403715940.739057920 -0.20684 -0.21191 0.37232 -0.00312 0.02057 0.07708 -0.02275 0.13511 0.08712 
1403715940.944058112 -1.08567 0.51448 0.57943 -0.00306 0.02057 0.07706 -0.02271 0.13460 0.08723 
1403715941.189058048 -1.46001 0.79956 0.64848 -0.00307 0.02055 0.07706 -0.02259 0.13477 0.08748 
1403715941.394057984 -1.15303 0.55173 0.45265 -0.00308 0.02055 0.07706 -0.02272 0.13482 0.08713 
1403715941.564058112 -0.76008 0.30026 0.06122 -0.00310 0.02055 0.07707 -0.02288 0.13466 0.08687 
1403715941.769058048 -0.02214 -0.12591 -0.12722 -0.00309 0.02054 0.07706 -0.02311 0.13446 0.08652 
1403715941.909058048 0.60121 -0.47290 -0.20743 -0.00308 0.02055 0.07705 -0.02308 0.13440 0.08673 
1403715942.89058048 1.26427 -0.87381 -0.39168 -0.00311 0.02055 0.07706 -0.02341 0.13479 0.08585 
1403715942.294057984 1.52424 -1.04841 -0.82826 -0.00311 0.02058 0.07707 -0.02315 0.13507 0.08657 
1403715942.499057920 1.37094 -0.91508 -1.05515 -0.00314 0.02057 0.07708 -0.02295 0.13476 0.08701 
1403715942.749058048 0.77832 -0.41900 -0.95739 -0.00314 0.02059 0.07707 -0.02298 0.13484 0.08693 
1403715942.994057984 -0.04360 0.19246 -0.75154 -0.00310 0.02063 0.07705 -0.02322 0.13498 0.08665 
1403715943.194057984 -0.70726 0.59675 -0.34941 -0.00315 0.02064 0.07706 -0.02376 0.13409 0.08512 
1403715943.489058048 -0.89935 0.59515 -0.09748 -0.00306 0.02067 0.07704 -0.02302 0.13551 0.08654 
1403715943.714057984 -0.46906 0.30674 -0.07527 -0.00311 0.02066 0.07707 -0.02245 0.13645 0.08830 
1403715943.939057920 0.23712 -0.14407 0.21721 -0.00319 0.02065 0.07709 -0.02310 0.13480 0.08661 
1403715944.159057920 0.81734 -0.53387 0.32385 -0.00321 0.02064 0.07711 -0.02280 0.13470 0.08706 
1403715944.304058112 0.87912 -0.52437 0.24839 -0.00314 0.02064 0.07710 -0.02252 0.13513 0.08751 
1403715944.469058048 0.68612 -0.36962 0.09340 -0.00317 0.02063 0.07709 -0.02226 0.13496 0.08800 
1403715944.664058112 0.13098 -0.04861 0.14803 -0.00307 0.02065 0.07705 -0.02255 0.13480 0.08710 
1403715944.849058048 -0.51128 0.24219 0.26817 -0.00306 0.02066 0.07707 -0.02245 0.13525 0.08727 
1403715945.139057920 -0.88167 0.29713 0.28730 -0.00316 0.02068 0.07710 -0.02280 0.13498 0.08718 
1403715945.304058112 -0.62327 0.15651 0.26837 -0.00306 0.02066 0.07708 -0.02265 0.13541 0.08761 
1403715945.489058048 -0.08016 -0.05002 0.30745 -0.00307 0.02066 0.07708 -0.02284 0.13491 0.08737 
1403715945.739057920 0.65846 -0.23552 0.16881 -0.00311 0.02064 0.07710 -0.02317 0.13431 0.08732 
1403715945.944058112 0.70894 -0.27497 0.15943 -0.00310 0.02066 0.07708 -0.02444 0.13411 0.08449 
1403715946.194057984 0.13679 -0.28835 0.18480 -0.00309 0.02070 0.07705 -0.02603 0.13436 0.08095 
1403715946.449058048 -0.78275 -0.31368 0.38006 -0.00300 0.02073 0.07706 -0.02422 0.13271 0.08628 
1403715946.699057920 -0.95076 -0.36553 0.38542 -0.00302 0.02071 0.07708 -0.02356 0.13300 0.08840 
1403715946.899057920 -0.66522 -0.34782 0.26501 -0.00302 0.02070 0.07708 -0.02340 0.13273 0.08895 
1403715947.99057920 -0.19865 -0.29268 0.23336 -0.00307 0.02069 0.07709 -0.02363 0.13323 0.08821 
1403715947.289058048 0.41687 -0.21106 0.03160 -0.00306 0.02069 0.07709 -0.02373 0.13384 0.08795 
1403715947.544058112 1.11783 -0.11249 -0.27691 -0.00311 0.02068 0.07711 -0.02434 0.13333 0.08726 
1403715947.799057920 1.08378 -0.02341 -0.53341 -0.00308 0.02069 0.07709 -0.02443 0.13347 0.08709 
1403715948.44058112 0.53141 -0.01632 -0.60907 -0.00307 0.02069 0.07707 -0.02492 0.13313 0.08554 
1403715948.364058112 -0.70160 -0.17609 -0.30941 -0.00304 0.02070 0.07706 -0.02435 0.13267 0.08720 
1403715948.604058112 -1.03645 -0.18928 -0.28105 -0.00305 0.02073 0.07706 -0.02460 0.13242 0.08675 
1403715948.809058048 -0.82163 -0.13226 -0.31060 -0.00304 0.02072 0.07705 -0.02461 0.13208 0.08717 
1403715949.44058112 -0.31752 -0.10043 -0.23985 -0.00310 0.02072 0.07709 -0.02462 0.13226 0.08742 
1403715949.354057984 0.32134 0.00281 -0.24269 -0.00309 0.02073 0.07710 -0.02435 0.13336 0.08784 
1403715949.549058048 0.24987 -0.01128 -0.18056 -0.00306 0.02072 0.07709 -0.02438 0.13266 0.08763 
1403715949.739057920 -0.09716 -0.15157 -0.13873 -0.00307 0.02072 0.07709 -0.02432 0.13303 0.08792 
1403715949.944058112 -0.63858 -0.40273 -0.00692 -0.00308 0.02073 0.07708 -0.02491 0.13259 0.08724 
1403715950.194057984 -1.00413 -0.81953 0.12983 -0.00299 0.02072 0.07705 -0.02470 0.13301 0.08815 
1403715950.444058112 -0.75874 -0.80522 0.08541 -0.00300 0.02073 0.07705 -0.02464 0.13314 0.08856 
1403715950.654057984 -0.27742 -0.52474 0.10695 -0.00303 0.02073 0.07706 -0.02468 0.13275 0.08864 
1403715950.844058112 0.29518 -0.17865 0.17632 -0.00304 0.02074 0.07707 -0.02470 0.13254 0.08884 
1403715951.89058048 0.97229 0.27433 0.10306 -0.00304 0.02073 0.07707 -0.02463 0.13285 0.08881 
1403715951.244058112 1.09395 0.36579 0.10943 -0.00302 0.02073 0.07706 -0.02430 0.13215 0.08914 
1403715951.439057920 0.91330 0.23616 0.13008 -0.00300 0.02073 0.07703 -0.02429 0.13272 0.08922 
1403715951.589058048 0.61693 -0.01715 0.17901 -0.00302 0.02073 0.07703 -0.02455 0.13245 0.08871 
1403715951.839057920 -0.07500 -0.65386 0.25403 -0.00303 0.02075 0.07704 -0.02486 0.13266 0.08765 
1403715952.94057984 -0.49651 -1.05182 0.36788 -0.00303 0.02076 0.07705 -0.02442 0.13180 0.08893 
1403715952.299057920 -0.46694 -0.83808 0.28930 -0.00302 0.02077 0.07704 -0.02437 0.13199 0.08887 
1403715952.544058112 -0.27845 -0.28283 0.27676 -0.00301 0.02078 0.07703 -0.02422 0.13182 0.08935 
1403715952.739057920 -0.06120 0.33501 0.30858 -0.00301 0.02078 0.07702 -0.02421 0.13174 0.08945 
1403715952.909058048 0.14631 0.94259 0.19184 -0.00303 0.02079 0.07703 -0.02424 0.13173 0.08928 
1403715953.89058048 0.28116 1.34510 -0.05103 -0.00307 0.02080 0.07704 -0.02465 0.13155 0.08796 
1403715953.409058048 0.14173 1.08059 -0.34625 -0.00301 0.02081 0.07702 -0.02407 0.13045 0.08944 
1403715953.599057920 -0.07008 0.48438 -0.25693 -0.00300 0.02082 0.07701 -0.02395 0.13123 0.08959 
1403715953.794057984 -0.30219 -0.32892 -0.08940 -0.00300 0.02082 0.07702 -0.02392 0.13117 0.08981 
1403715953.999057920 -0.36821 -1.12233 0.00999 -0.00303 0.02084 0.07705 -0.02441 0.13078 0.08872 
1403715954.239057920 0.01284 -1.34269 -0.13236 -0.00303 0.02083 0.07705 -0.02405 0.13125 0.08945 
1403715954.449058048 0.31428 -1.04359 -0.13778 -0.00301 0.02082 0.07706 -0.02418 0.13015 0.08950 
1403715954.739057920 0.46464 0.02158 -0.09867 -0.00299 0.02082 0.07705 -0.02417 0.13097 0.08994 
1403715954.899057920 0.50296 0.60817 -0.09893 -0.00303 0.02083 0.07707 -0.02428 0.13069 0.08976 
1403715955.139057920 0.57799 1.08693 -0.07380 -0.00300 0.02083 0.07706 -0.02379 0.13115 0.09085 
1403715955.349058048 0.51731 0.95647 -0.01444 -0.00299 0.02082 0.07705 -0.02394 0.13086 0.09016 
1403715955.604058112 0.35997 0.29239 0.06978 -0.00301 0.02083 0.07705 -0.02423 0.13070 0.08951 
1403715955.849058048 0.15375 -0.65542 0.29882 -0.00305 0.02086 0.07707 -0.02415 0.13071 0.08926 
1403715956.139057920 0.13902 -0.73506 0.27863 -0.00307 0.02086 0.07708 -0.02428 0.12923 0.08944 
1403715956.389058048 0.17441 -0.21744 0.26680 -0.00303 0.02088 0.07707 -0.02400 0.13016 0.09015 
1403715956.594057984 0.03813 0.40467 0.28844 -0.00302 0.02090 0.07707 -0.02416 0.12995 0.09004 
1403715956.839057920 -0.26016 1.13965 0.20477 -0.00301 0.02091 0.07707 -0.02408 0.12966 0.09009 
1403715957.39057920 -0.37035 1.36864 0.05428 -0.00303 0.02093 0.07710 -0.02420 0.12964 0.08966 
1403715957.189058048 -0.33255 1.33139 -0.12247 -0.00301 0.02093 0.07708 -0.02423 0.12928 0.08957 
1403715957.349058048 -0.20189 1.09997 -0.31021 -0.00302 0.02093 0.07709 -0.02409 0.12981 0.09001 
1403715957.594057984 0.18436 0.32098 -0.38273 -0.00301 0.02092 0.07709 -0.02397 0.12931 0.09016 
1403715957.839057920 0.77040 -0.71495 -0.18094 -0.00303 0.02092 0.07709 -0.02402 0.12949 0.08994 
1403715958.99057920 0.96347 -0.90604 -0.15749 -0.00304 0.02091 0.07710 -0.02397 0.12985 0.08988 
1403715958.354057984 0.71290 -0.47467 -0.22090 -0.00309 0.02090 0.07711 -0.02408 0.12979 0.08905 
1403715958.594057984 0.15599 0.21724 -0.24985 -0.00309 0.02090 0.07711 -0.02395 0.12985 0.08889 
1403715958.889058048 -0.59954 0.80961 -0.28492 -0.00308 0.02089 0.07709 -0.02388 0.13059 0.08872 
1403715959.49058048 -0.82716 0.76407 -0.28900 -0.00312 0.02089 0.07712 -0.02369 0.13098 0.08927 
1403715959.149058048 -0.85691 0.63562 -0.26455 -0.00312 0.02088 0.07712 -0.02378 0.13037 0.08886 
1403715959.369058048 -0.65352 0.36593 -0.29177 -0.00311 0.02090 0.07712 -0.02355 0.13052 0.08922 
1403715959.599057920 0.08310 0.05502 -0.09813 -0.00309 0.02089 0.07712 -0.02362 0.13060 0.08885 
1403715959.764058112 0.80275 -0.12534 0.26395 -0.00299 0.02089 0.07709 -0.02384 0.13055 0.08846 
1403715959.999057920 0.99748 -0.15771 0.23131 -0.00305 0.02088 0.07711 -0.02412 0.13132 0.08831 
1403715960.244058112 0.49646 -0.02527 0.15524 -0.00305 0.02088 0.07712 -0.02418 0.13131 0.08843 
1403715960.444058112 -0.21514 0.14571 0.15404 -0.00303 0.02087 0.07712 -0.02401 0.13138 0.08863 
1403715960.644058112 -0.90394 0.32356 0.11049 -0.00301 0.02087 0.07710 -0.02421 0.13154 0.08835 
1403715960.844058112 -1.15334 0.44432 0.12619 -0.00303 0.02087 0.07711 -0.02473 0.13140 0.08764 
1403715961.99057920 -0.67472 0.47595 0.17945 -0.00294 0.02087 0.07707 -0.02455 0.13203 0.08835 
1403715961.394057984 0.57332 0.28483 0.41921 -0.00284 0.02086 0.07702 -0.02435 0.13206 0.08834 
1403715961.689058048 1.10840 0.08111 0.51074 -0.00302 0.02087 0.07710 -0.02447 0.13163 0.08834 
1403715961.944058112 0.78377 0.06929 0.20060 -0.00298 0.02087 0.07708 -0.02460 0.13091 0.08784 
1403715962.194057984 -0.05587 0.09032 -0.05578 -0.00296 0.02088 0.07707 -0.02449 0.13176 0.08797 
1403715962.409058048 -0.92896 -0.00904 -0.23751 -0.00294 0.02088 0.07708 -0.02418 0.13181 0.08840 
1403715962.659057920 -1.46153 -0.32663 -0.48256 -0.00292 0.02087 0.07707 -0.02408 0.13195 0.08853 
1403715962.894057984 -1.38765 -0.72195 -0.70564 -0.00286 0.02088 0.07704 -0.02405 0.13117 0.08857 
1403715963.144058112 -0.94414 -0.73966 -1.05295 -0.00288 0.02087 0.07705 -0.02411 0.13112 0.08849 
1403715963.394057984 -0.06020 -0.26064 -1.09571 -0.00286 0.02088 0.07703 -0.02449 0.13109 0.08783 
1403715963.649058048 0.34637 0.08838 -0.83797 -0.00289 0.02089 0.07705 -0.02392 0.13086 0.08974 
1403715963.899057920 0.11888 -0.00796 -0.52640 -0.00283 0.02088 0.07701 -0.02411 0.13181 0.08933 
1403715964.189058048 -0.01880 -0.01788 -0.00127 -0.00279 0.02088 0.07700 -0.02432 0.13199 0.08916 
1403715964.444058112 0.00543 0.21791 0.25895 -0.00270 0.02088 0.07697 -0.02459 0.13207 0.08899 
1403715964.609058048 0.00387 0.28777 0.26657 -0.00267 0.02088 0.07697 -0.02465 0.13227 0.08920 
1403715964.804058112 0.02972 0.29803 0.49119 -0.00272 0.02089 0.07698 -0.02476 0.13203 0.08941 
1403715965.4058112 0.09130 0.16379 0.39986 -0.00275 0.02088 0.07698 -0.02515 0.13185 0.08869 
1403715965.159057920 0.03476 -0.01412 0.12123 -0.00279 0.02087 0.07700 -0.02528 0.13220 0.08850 
1403715965.394057984 0.00357 -0.15515 0.03853 -0.00286 0.02087 0.07702 -0.02541 0.13237 0.08829 
1403715965.649058048 0.36486 0.39205 0.32676 -0.00269 0.02091 0.07698 -0.02553 0.13246 0.08894 
1403715965.869058048 0.46581 0.62364 0.37519 -0.00264 0.02091 0.07696 -0.02557 0.13228 0.08893 
1403715966.44058112 0.27423 0.44619 0.29960 -0.00267 0.02091 0.07698 -0.02545 0.13235 0.08947 
1403715966.214057984 -0.07980 0.06011 0.29682 -0.00276 0.02089 0.07701 -0.02538 0.13236 0.08957 
1403715966.364058112 -0.36901 -0.28829 0.27212 -0.00274 0.02089 0.07700 -0.02527 0.13222 0.08991 
1403715966.594057984 -0.46684 -0.35147 0.26743 -0.00274 0.02089 0.07699 -0.02527 0.13209 0.08981 
1403715966.849058048 -0.07808 0.18603 0.31133 -0.00272 0.02090 0.07698 -0.02542 0.13282 0.08923 
1403715967.99057920 0.20525 0.64464 0.43224 -0.00280 0.02093 0.07703 -0.02527 0.13277 0.08960 
1403715967.389058048 -0.21260 0.31900 0.36585 -0.00282 0.02093 0.07704 -0.02517 0.13299 0.08986 
1403715967.644058112 -0.77291 -0.24761 0.27243 -0.00282 0.02092 0.07703 -0.02529 0.13268 0.08946 
1403715967.909058048 -0.74627 -0.54227 0.15344 -0.00279 0.02092 0.07703 -0.02521 0.13263 0.08963 
1403715968.89058048 -0.41657 -0.47663 -0.01710 -0.00280 0.02092 0.07703 -0.02508 0.13251 0.08989 
1403715968.349058048 -0.03819 -0.09927 -0.15088 -0.00278 0.02091 0.07701 -0.02508 0.13230 0.08963 
1403715968.599057920 0.02475 -0.08003 -0.45501 -0.00277 0.02090 0.07699 -0.02519 0.13300 0.08913 
1403715968.809058048 -0.12059 -0.42330 -0.47244 -0.00279 0.02090 0.07698 -0.02564 0.13168 0.08798 
1403715968.994057984 -0.35035 -0.85173 -0.52912 -0.00276 0.02090 0.07697 -0.02579 0.13155 0.08764 
1403715969.209058048 -0.45832 -1.10032 -0.54556 -0.00274 0.02091 0.07699 -0.02501 0.13244 0.09001 
1403715969.399057920 -0.25601 -0.75180 -0.42240 -0.00273 0.02090 0.07698 -0.02527 0.13266 0.08937 
1403715969.639057920 0.11069 0.18194 -0.22274 -0.00273 0.02091 0.07698 -0.02515 0.13326 0.08963 
1403715969.894057984 0.04240 1.01230 -0.03459 -0.00272 0.02088 0.07698 -0.02539 0.13171 0.08925 
1403715970.149058048 -0.22289 0.99003 -0.00123 -0.00270 0.02089 0.07698 -0.02515 0.13234 0.08986 
1403715970.399057920 -0.54644 0.36028 0.05970 -0.00276 0.02089 0.07700 -0.02528 0.13251 0.08947 
1403715970.489058048 -0.66989 0.04161 0.06122 -0.00276 0.02089 0.07700 -0.02529 0.13254 0.08942 
1403715970.579057920 -0.75566 -0.23988 0.01910 -0.00273 0.02089 0.07699 -0.02535 0.13251 0.08915 
1403715970.739057920 -0.72051 -0.60995 0.03425 -0.00277 0.02090 0.07700 -0.02528 0.13263 0.08913 
1403715970.964058112 -0.27497 -0.51530 0.15741 -0.00280 0.02091 0.07702 -0.02512 0.13281 0.08956 
1403715971.199057920 0.46860 0.25129 0.41972 -0.00282 0.02091 0.07702 -0.02512 0.13238 0.08949 
1403715971.489058048 0.56458 1.03489 0.50915 -0.00277 0.02092 0.07699 -0.02508 0.13121 0.08939 
1403715971.744058112 0.10402 0.96123 0.42389 -0.00281 0.02092 0.07700 -0.02508 0.13272 0.08953 
1403715971.999057920 -0.16373 0.54662 0.29285 -0.00279 0.02093 0.07699 -0.02528 0.13327 0.08908 
1403715972.289058048 -0.17334 -0.09631 0.34818 -0.00275 0.02092 0.07699 -0.02517 0.13266 0.08956 
1403715972.444058112 -0.12440 -0.56387 0.29356 -0.00276 0.02091 0.07700 -0.02524 0.13240 0.08946 
1403715972.644058112 -0.07060 -1.05056 0.17447 -0.00274 0.02092 0.07699 -0.02541 0.13289 0.08898 
1403715972.799057920 -0.04708 -1.16336 0.02302 -0.00269 0.02091 0.07698 -0.02517 0.13245 0.08964 
1403715972.924058112 -0.00555 -1.10956 -0.02728 -0.00269 0.02091 0.07698 -0.02485 0.13218 0.09032 
1403715973.139057920 0.10781 -1.02083 -0.08257 -0.00272 0.02092 0.07699 -0.02489 0.13217 0.08998 
1403715973.259057920 0.18552 -1.00823 -0.08303 -0.00273 0.02093 0.07698 -0.02507 0.13240 0.08941 
1403715973.449058048 0.31882 -0.95680 -0.07954 -0.00274 0.02093 0.07698 -0.02510 0.13214 0.08928 
1403715973.609058048 0.39602 -0.81513 -0.04160 -0.00274 0.02092 0.07697 -0.02525 0.13151 0.08901 
1403715973.789058048 0.50347 -0.56245 -0.03751 -0.00273 0.02092 0.07697 -0.02518 0.13149 0.08917 
1403715973.939057920 0.62265 -0.30473 -0.02291 -0.00271 0.02093 0.07696 -0.02508 0.13220 0.08938 
1403715974.139057920 0.71532 0.01019 0.03584 -0.00271 0.02092 0.07695 -0.02520 0.13145 0.08913 
1403715974.369058048 0.73856 0.18100 -0.08350 -0.00274 0.02093 0.07696 -0.02511 0.13163 0.08965 
1403715974.569058048 0.74180 0.31691 -0.10957 -0.00271 0.02092 0.07694 -0.02525 0.13089 0.08937 
1403715974.794057984 0.73054 0.39660 -0.15211 -0.00279 0.02093 0.07697 -0.02511 0.13217 0.08967 
1403715975.89058048 0.70371 0.43653 -0.15044 -0.00283 0.02093 0.07698 -0.02507 0.13172 0.08948 
1403715975.289058048 0.63907 0.46114 -0.08948 -0.00281 0.02093 0.07698 -0.02512 0.13174 0.08927 
1403715975.404058112 0.58577 0.45881 -0.02030 -0.00284 0.02093 0.07699 -0.02517 0.13159 0.08901 
1403715975.649058048 0.46371 0.37531 0.06820 -0.00286 0.02093 0.07699 -0.02509 0.13177 0.08896 
1403715975.944058112 0.32211 0.36761 0.10777 -0.00288 0.02093 0.07700 -0.02514 0.13160 0.08869 
1403715976.199057920 0.20778 0.37580 0.11160 -0.00286 0.02093 0.07699 -0.02511 0.13154 0.08884 
1403715976.444058112 0.06236 0.37966 0.07359 -0.00282 0.02093 0.07697 -0.02508 0.13129 0.08907 
1403715976.699057920 -0.16383 0.35208 -0.00042 -0.00282 0.02093 0.07698 -0.02507 0.13155 0.08918 
1403715976.894057984 -0.26844 0.34304 -0.00713 -0.00277 0.02093 0.07696 -0.02514 0.13177 0.08925 
1403715977.44058112 -0.34265 0.32115 -0.01286 -0.00281 0.02093 0.07697 -0.02512 0.13171 0.08941 
1403715977.239057920 -0.46304 0.28356 -0.03121 -0.00285 0.02093 0.07699 -0.02520 0.13165 0.08926 
1403715977.419057920 -0.55118 0.23094 -0.04395 -0.00289 0.02093 0.07699 -0.02520 0.13180 0.08925 
1403715977.644058112 -0.66107 0.17135 -0.04254 -0.00279 0.02093 0.07696 -0.02512 0.13173 0.08950 
1403715977.914057984 -0.71301 0.05549 -0.04549 -0.00293 0.02093 0.07702 -0.02520 0.13173 0.08937 
1403715978.144058112 -0.73985 -0.16200 -0.04752 -0.00292 0.02093 0.07702 -0.02527 0.13206 0.08920 
1403715978.344058112 -0.73058 -0.43516 -0.04247 -0.00286 0.02093 0.07700 -0.02528 0.13225 0.08915 
1403715978.559057920 -0.68816 -0.69336 -0.09009 -0.00275 0.02092 0.07696 -0.02534 0.13195 0.08900 
1403715978.769058048 -0.52731 -0.78163 -0.11066 -0.00286 0.02092 0.07700 -0.02541 0.13198 0.08872 
1403715978.994057984 -0.40596 -0.83916 -0.05237 -0.00281 0.02092 0.07698 -0.02566 0.13208 0.08808 
1403715979.239057920 -0.23688 -0.88030 0.10882 -0.00281 0.02092 0.07698 -0.02582 0.13192 0.08774 
1403715979.489058048 0.06564 -0.78754 0.11061 -0.00281 0.02092 0.07698 -0.02559 0.13150 0.08818 
1403715979.744058112 0.44288 -0.73053 0.14566 -0.00281 0.02092 0.07698 -0.02557 0.13181 0.08822 
1403715979.949058048 0.73544 -0.62183 0.17292 -0.00281 0.02092 0.07698 -0.02566 0.13192 0.08806 
1403715980.239057920 1.08968 -0.29381 0.12374 -0.00282 0.02092 0.07698 -0.02585 0.13269 0.08769 
1403715980.499057920 1.24200 0.06716 0.10636 -0.00280 0.02092 0.07697 -0.02598 0.13250 0.08718 
1403715980.789058048 1.15375 0.45601 0.03564 -0.00280 0.02092 0.07698 -0.02593 0.13218 0.08739 
1403715981.29058048 0.93825 0.66938 0.04631 -0.00280 0.02092 0.07697 -0.02617 0.13275 0.08657 
1403715981.289058048 0.60678 0.81222 0.04515 -0.00279 0.02093 0.07698 -0.02606 0.13321 0.08638 
1403715981.549058048 0.16938 0.85863 0.10841 -0.00279 0.02092 0.07698 -0.02594 0.13301 0.08675 
1403715981.799057920 -0.37135 0.77474 0.02444 -0.00276 0.02092 0.07697 -0.02598 0.13314 0.08649 
1403715982.44058112 -0.65647 0.68277 0.05298 -0.00278 0.02092 0.07698 -0.02601 0.13350 0.08620 
1403715982.289058048 -0.83547 0.61210 0.06876 -0.00280 0.02093 0.07699 -0.02599 0.13400 0.08616 
1403715982.544058112 -1.02819 0.49824 0.02907 -0.00277 0.02092 0.07698 -0.02572 0.13365 0.08664 
1403715982.804058112 -1.17943 0.34633 0.01920 -0.00277 0.02092 0.07698 -0.02581 0.13364 0.08649 
1403715983.89058048 -1.26549 0.12038 -0.00184 -0.00276 0.02092 0.07697 -0.02572 0.13352 0.08666 
1403715983.344058112 -1.27691 -0.07038 -0.01406 -0.00279 0.02093 0.07698 -0.02583 0.13408 0.08645 
1403715983.599057920 -1.18405 -0.30347 0.02797 -0.00280 0.02093 0.07699 -0.02586 0.13414 0.08662 
1403715983.889058048 -0.79160 -0.64518 0.02104 -0.00279 0.02093 0.07698 -0.02590 0.13404 0.08671 
1403715984.144058112 -0.35969 -0.84061 0.02451 -0.00279 0.02093 0.07698 -0.02608 0.13465 0.08654 
1403715984.399057920 0.06354 -0.85883 0.09479 -0.00281 0.02093 0.07698 -0.02630 0.13409 0.08613 
1403715984.644058112 0.39073 -0.82483 0.05664 -0.00282 0.02093 0.07699 -0.02628 0.13412 0.08631 
1403715984.894057984 0.52784 -0.75914 0.04554 -0.00282 0.02093 0.07699 -0.02626 0.13433 0.08623 
1403715985.149058048 0.66765 -0.57223 0.04105 -0.00282 0.02093 0.07700 -0.02607 0.13451 0.08672 
1403715985.439057920 0.84192 -0.50046 0.03761 -0.00283 0.02094 0.07699 -0.02620 0.13502 0.08661 
1403715985.694057984 0.90312 -0.50256 -0.04195 -0.00283 0.02093 0.07699 -0.02642 0.13467 0.08623 
1403715985.949058048 0.68087 -0.50755 -0.28078 -0.00283 0.02094 0.07699 -0.02611 0.13548 0.08701 
1403715986.194057984 0.46914 -0.41080 -0.51860 -0.00283 0.02093 0.07700 -0.02605 0.13584 0.08715 
1403715986.409058048 0.37604 -0.27399 -0.48104 -0.00283 0.02093 0.07700 -0.02592 0.13568 0.08767 
1403715986.644058112 0.34430 -0.22407 -0.59738 -0.00282 0.02093 0.07700 -0.02583 0.13541 0.08800 
1403715986.854057984 0.11294 -0.25154 -0.49020 -0.00282 0.02092 0.07699 -0.02578 0.13518 0.08824 
1403715987.89058048 -0.01900 -0.23408 -0.43170 -0.00282 0.02093 0.07698 -0.02580 0.13573 0.08830 
1403715987.289058048 0.02265 -0.08712 -0.41090 -0.00281 0.02092 0.07697 -0.02627 0.13573 0.08748 
1403715987.544058112 0.13238 0.06209 -0.36076 -0.00278 0.02092 0.07696 -0.02611 0.13509 0.08792 
1403715987.759057920 0.15045 0.07278 -0.31532 -0.00279 0.02092 0.07695 -0.02666 0.13526 0.08666 
1403715987.849058048 0.14007 0.05762 -0.33023 -0.00275 0.02093 0.07695 -0.02629 0.13591 0.08735 
1403715988.34057984 0.04238 0.03661 -0.26614 -0.00280 0.02093 0.07695 -0.02662 0.13540 0.08659 
1403715988.289058048 -0.04398 0.00637 -0.18956 -0.00275 0.02095 0.07694 -0.02644 0.13585 0.08727 
1403715988.549058048 -0.00265 -0.02535 -0.14625 -0.00277 0.02097 0.07694 -0.02663 0.13585 0.08691 
1403715988.894057984 0.05841 0.13520 -0.07030 -0.00286 0.02096 0.07698 -0.02654 0.13565 0.08744 
1403715989.144058112 0.00584 0.17759 -0.01373 -0.00288 0.02097 0.07699 -0.02670 0.13597 0.08732 
1403715989.399057920 -0.05837 0.17674 -0.01099 -0.00282 0.02097 0.07698 -0.02665 0.13614 0.08752 
1403715989.544058112 -0.08183 0.17793 -0.01068 -0.00281 0.02097 0.07697 -0.02666 0.13582 0.08747 
1403715989.839057920 -0.09978 0.16428 -0.08055 -0.00284 0.02097 0.07698 -0.02669 0.13596 0.08745 
1403715990.189058048 -0.02040 0.10311 -0.14487 -0.00284 0.02096 0.07698 -0.02672 0.13603 0.08761 
1403715990.394057984 -0.00016 0.03724 -0.18898 -0.00285 0.02097 0.07698 -0.02682 0.13601 0.08735 
1403715990.689058048 0.00770 -0.09733 -0.31699 -0.00282 0.02097 0.07697 -0.02673 0.13650 0.08767 
1403715990.864058112 -0.03496 -0.16863 -0.28010 -0.00289 0.02096 0.07699 -0.02677 0.13610 0.08741 
1403715991.49058048 -0.07710 -0.24997 -0.15284 -0.00293 0.02095 0.07699 -0.02682 0.13611 0.08706 
1403715991.344058112 0.03181 0.07882 -0.09786 -0.00287 0.02095 0.07698 -0.02661 0.13593 0.08725 
1403715991.589058048 0.03194 0.01711 0.01009 -0.00287 0.02095 0.07698 -0.02661 0.13594 0.08726 
1403715991.744058112 0.03550 0.01685 -0.00156 -0.00287 0.02095 0.07698 -0.02666 0.13599 0.08714 
1403715991.989058048 0.02672 0.00737 0.00045 -0.00290 0.02096 0.07696 -0.02749 0.13670 0.08499 
1403715992.144058112 0.02880 0.00626 0.00512 -0.00290 0.02097 0.07696 -0.02750 0.13671 0.08499 
1403715992.389058048 0.03356 0.01286 0.01099 -0.00290 0.02097 0.07695 -0.02762 0.13680 0.08466 
1403715992.539057920 0.03469 0.01492 0.01173 -0.00290 0.02097 0.07695 -0.02771 0.13687 0.08440 
1403715992.794057984 0.03506 0.01697 0.01471 -0.00290 0.02097 0.07694 -0.02784 0.13698 0.08399 
1403715993.94057984 0.02794 0.01923 0.01696 -0.00291 0.02097 0.07694 -0.02796 0.13711 0.08358 
1403715993.314057984 0.02714 0.02089 0.02026 -0.00292 0.02097 0.07694 -0.02802 0.13714 0.08338 
1403715993.459057920 0.00131 0.00630 0.00952 -0.00296 0.02098 0.07694 -0.02848 0.13790 0.08165 
1403715993.594057984 -0.00079 0.00718 0.01136 -0.00297 0.02098 0.07695 -0.02846 0.13788 0.08168 
1403715993.799057920 -0.00022 0.01899 0.01046 -0.00298 0.02098 0.07696 -0.02837 0.13787 0.08176 
