1403636858.866666496 -0.07588 0.08004 0.07220 -0.00865 -0.00546 0.01252 0.00037 -0.00012 -0.00011 
1403636859.156666624 -0.01728 0.10343 0.10678 -0.01543 -0.00485 0.03038 0.00245 0.00265 0.00684 
1403636859.411666432 -0.01080 0.07283 0.28473 -0.01483 -0.00085 0.03908 -0.00120 0.00257 0.00861 
1403636859.681666560 -0.04822 0.02380 0.45114 -0.00371 0.01886 0.07613 -0.02321 0.00472 0.00752 
1403636859.861666560 -0.00938 -0.00222 0.39517 -0.00360 0.01857 0.07623 -0.01726 0.01290 0.00621 
1403636860.56666624 0.01194 0.03830 0.06919 -0.00363 0.02001 0.07667 -0.02543 0.00958 0.01110 
1403636860.261666560 0.03613 0.01884 -0.52532 -0.00417 0.02021 0.07543 -0.03708 0.01173 0.00893 
1403636860.466666496 0.05541 0.00551 -0.57154 -0.00314 0.02066 0.07719 -0.04189 -0.00157 0.00472 
1403636860.611666432 0.05499 -0.00975 -0.37186 -0.00272 0.02022 0.07699 -0.04095 -0.00031 0.00055 
1403636860.836666624 0.01080 0.01304 0.13197 -0.00318 0.02023 0.07594 -0.04194 0.00528 0.00228 
1403636861.66666496 -0.04121 0.01745 0.59591 -0.00213 0.02063 0.07736 -0.05148 0.00418 0.02571 
1403636861.311666432 -0.02938 0.03086 0.58352 -0.00239 0.02113 0.07745 -0.05320 0.00313 0.02911 
1403636861.506666496 -0.01488 0.02699 0.05822 -0.00254 0.02174 0.07745 -0.04486 0.00424 0.02799 
1403636861.741666560 0.01313 -0.00280 -0.52806 -0.00258 0.02153 0.07769 -0.04956 0.00071 0.02813 
1403636861.961666560 0.03363 -0.05381 -0.58683 -0.00242 0.02184 0.07784 -0.04883 0.00059 0.02786 
1403636862.206666496 0.02542 -0.01706 -0.24384 -0.00215 0.02200 0.07791 -0.04895 -0.00001 0.02777 
1403636862.371666432 -0.00678 0.00502 0.27648 -0.00202 0.02209 0.07764 -0.04719 -0.00001 0.02762 
1403636862.606666496 -0.05654 0.05272 0.66176 -0.00216 0.02187 0.07759 -0.04540 -0.00039 0.02862 
1403636862.911666432 -0.00950 0.00216 0.56582 -0.00237 0.02215 0.07734 -0.04592 0.00010 0.03024 
1403636863.166666496 0.00668 0.00846 -0.30127 -0.00248 0.02216 0.07751 -0.04533 0.00033 0.03173 
1403636863.416666624 0.02562 -0.01502 -0.66718 -0.00249 0.02190 0.07742 -0.04355 0.00121 0.03054 
1403636863.576666624 0.06198 -0.02728 -0.66252 -0.00251 0.02189 0.07743 -0.04410 0.00104 0.02984 
1403636863.676666624 0.05646 -0.01955 -0.54133 -0.00254 0.02199 0.07734 -0.04448 0.00054 0.02986 
1403636863.856666624 0.03203 0.00455 -0.02571 -0.00269 0.02210 0.07718 -0.04500 0.00178 0.02768 
1403636864.106666496 -0.02421 0.02303 0.69939 -0.00268 0.02215 0.07716 -0.04545 0.00417 0.02472 
1403636864.211666432 -0.04635 0.00864 0.72825 -0.00261 0.02214 0.07720 -0.04555 0.00662 0.02258 
1403636864.321666560 -0.03704 -0.01618 0.63804 -0.00265 0.02212 0.07722 -0.04508 0.00784 0.02376 
1403636864.431666432 -0.04374 -0.01161 0.54868 -0.00265 0.02212 0.07722 -0.04508 0.00784 0.02376 
1403636864.576666624 -0.03083 -0.00837 0.21657 -0.00269 0.02212 0.07723 -0.04503 0.00775 0.02479 
1403636864.781666560 0.01454 -0.00303 -0.43171 -0.00277 0.02192 0.07727 -0.04544 0.00801 0.02681 
1403636864.931666432 0.00423 0.00502 -0.60375 -0.00280 0.02202 0.07733 -0.04592 0.00807 0.02460 
1403636865.111666432 0.00333 -0.00679 -0.59215 -0.00270 0.02213 0.07741 -0.04664 0.00746 0.02314 
1403636865.316666624 0.01279 -0.00594 -0.32248 -0.00267 0.02230 0.07739 -0.04759 0.00679 0.02189 
1403636865.516666624 -0.01497 0.00310 0.11639 -0.00268 0.02239 0.07729 -0.04755 0.00614 0.02049 
1403636865.666666496 -0.01304 -0.03735 0.49156 -0.00272 0.02232 0.07722 -0.04750 0.00688 0.01988 
1403636865.911666432 -0.02652 -0.01614 0.68320 -0.00259 0.02217 0.07725 -0.04858 0.00903 0.02149 
1403636866.116666624 0.01372 -0.01089 0.52143 -0.00260 0.02214 0.07727 -0.04855 0.00821 0.02261 
1403636866.466666496 0.00331 0.00079 -0.48334 -0.00265 0.02205 0.07732 -0.04836 0.01054 0.02270 
1403636866.711666432 0.04889 0.04798 -0.46536 -0.00282 0.02217 0.07728 -0.04924 0.01239 0.02187 
1403636867.56666624 0.05985 -0.01448 -0.15836 -0.00281 0.02225 0.07730 -0.04974 0.01279 0.02180 
1403636867.256666624 0.09014 -0.03152 -0.00576 -0.00269 0.02219 0.07722 -0.04998 0.01235 0.02222 
1403636867.481666560 0.05765 -0.01927 0.05888 -0.00280 0.02223 0.07729 -0.05117 0.01753 0.01996 
1403636867.656666624 0.10053 -0.02026 -0.04631 -0.00276 0.02210 0.07728 -0.05167 0.02141 0.01934 
1403636867.761666560 0.11072 -0.00984 -0.06819 -0.00273 0.02203 0.07729 -0.05128 0.02119 0.01983 
1403636867.956666624 0.00224 -0.01357 0.02553 -0.00268 0.02202 0.07720 -0.05160 0.02134 0.01973 
1403636868.161666560 0.02501 -0.02299 0.00755 -0.00277 0.02210 0.07726 -0.05193 0.02586 0.01948 
1403636868.416666624 0.06114 -0.08038 -0.00581 -0.00290 0.02206 0.07729 -0.05170 0.02682 0.02574 
1403636868.706666496 0.07741 -0.05690 0.01576 -0.00281 0.02198 0.07733 -0.05176 0.02721 0.02719 
1403636868.926666496 0.01504 -0.05386 0.00948 -0.00270 0.02209 0.07728 -0.03525 0.03559 0.06261 
1403636869.206666496 -0.00765 -0.01910 -0.01645 -0.00273 0.02211 0.07731 -0.03528 0.03572 0.06234 
1403636869.416666624 -0.00920 0.00801 -0.01099 -0.00277 0.02215 0.07738 -0.03553 0.03567 0.06238 
1403636869.561666560 0.00406 0.09611 -0.01004 -0.00274 0.02217 0.07736 -0.03557 0.03577 0.06227 
1403636869.821666560 -0.01925 0.34878 0.00438 -0.00265 0.02214 0.07736 -0.03578 0.03585 0.06250 
1403636869.956666624 -0.03238 0.44445 0.00232 -0.00266 0.02216 0.07737 -0.03580 0.03574 0.06263 
1403636870.161666560 -0.03018 0.53200 0.00616 -0.00274 0.02218 0.07732 -0.03571 0.03600 0.06381 
1403636870.456666624 -0.01041 0.46038 -0.02650 -0.00277 0.02224 0.07727 -0.02384 0.04444 0.08561 
1403636870.611666432 0.00856 0.35555 -0.03571 -0.00288 0.02227 0.07728 -0.02272 0.05012 0.08704 
1403636870.881666560 0.00182 0.11052 -0.03984 -0.00276 0.02220 0.07726 -0.02390 0.05424 0.08436 
1403636871.71666432 0.00631 -0.00029 -0.05222 -0.00275 0.02218 0.07729 -0.02400 0.05489 0.08340 
1403636871.176666624 0.00401 -0.05874 0.00032 -0.00275 0.02215 0.07728 -0.02342 0.05440 0.08436 
1403636871.376666624 -0.01410 -0.23004 0.03676 -0.00271 0.02215 0.07732 -0.02499 0.05091 0.08230 
1403636871.661666560 -0.02813 -0.50115 0.03515 -0.00268 0.02208 0.07730 -0.02424 0.05197 0.08369 
1403636871.796666624 -0.05658 -0.54712 0.02230 -0.00268 0.02208 0.07729 -0.02446 0.05206 0.08313 
1403636871.901666560 -0.07918 -0.57067 0.00269 -0.00269 0.02208 0.07730 -0.02447 0.05212 0.08293 
1403636872.66666496 -0.09965 -0.57167 -0.02345 -0.00278 0.02204 0.07739 -0.02511 0.05140 0.08192 
1403636872.316666624 -0.04746 -0.43102 -0.05998 -0.00271 0.02201 0.07737 -0.02567 0.04837 0.08049 
1403636872.501666560 -0.02778 -0.17020 -0.00839 -0.00271 0.02199 0.07739 -0.02549 0.04671 0.08077 
1403636872.811666432 0.00327 0.20981 0.00227 -0.00275 0.02196 0.07737 -0.02571 0.04446 0.08016 
1403636873.66666496 0.02443 0.51735 -0.01557 -0.00272 0.02186 0.07736 -0.02533 0.04700 0.08102 
1403636873.356666624 0.03407 0.61239 -0.00683 -0.00267 0.02186 0.07732 -0.02533 0.04729 0.08088 
1403636873.566666496 0.07124 0.51638 -0.04198 -0.00267 0.02183 0.07728 -0.02636 0.05600 0.07871 
1403636873.761666560 0.05873 0.30203 -0.04786 -0.00267 0.02182 0.07727 -0.02672 0.06035 0.07786 
1403636874.6666496 -0.00726 0.01955 -0.02003 -0.00271 0.02176 0.07728 -0.02658 0.06289 0.07804 
1403636874.211666432 -0.02936 -0.15458 0.01332 -0.00273 0.02171 0.07731 -0.02714 0.06189 0.07711 
1403636874.416666624 -0.08806 -0.41979 0.01253 -0.00275 0.02171 0.07730 -0.02703 0.06146 0.07728 
1403636874.666666496 -0.08987 -0.60579 0.00103 -0.00274 0.02166 0.07732 -0.02654 0.06065 0.07816 
1403636874.901666560 -0.08752 -0.52662 -0.04680 -0.00271 0.02160 0.07733 -0.02659 0.06046 0.07798 
1403636875.156666624 -0.07756 -0.25615 -0.01528 -0.00275 0.02159 0.07733 -0.02701 0.05807 0.07768 
1403636875.356666624 0.06278 -0.20447 -0.04105 -0.00274 0.02158 0.07734 -0.02723 0.05605 0.07709 
1403636875.526666496 0.29707 -0.11696 -0.02258 -0.00273 0.02155 0.07733 -0.02711 0.05484 0.07744 
1403636875.681666560 0.41687 0.05327 -0.00622 -0.00273 0.02156 0.07735 -0.02758 0.05459 0.07701 
1403636875.876666624 0.44921 0.20717 -0.01135 -0.00276 0.02157 0.07731 -0.02699 0.05442 0.07786 
1403636876.66666496 0.35383 0.39464 0.05500 -0.00280 0.02157 0.07732 -0.02693 0.05627 0.07813 
1403636876.266666496 0.09212 0.51476 0.01072 -0.00276 0.02156 0.07735 -0.02675 0.06772 0.07771 
1403636876.376666624 -0.06785 0.59190 -0.01127 -0.00274 0.02158 0.07735 -0.02664 0.07468 0.07761 
1403636876.466666496 -0.18718 0.63450 -0.00865 -0.00273 0.02159 0.07734 -0.02722 0.07461 0.07686 
1403636876.656666624 -0.43724 0.50895 0.03179 -0.00273 0.02159 0.07734 -0.02680 0.07963 0.07691 
1403636876.791666432 -0.54750 0.27314 0.03873 -0.00272 0.02158 0.07732 -0.02720 0.07974 0.07610 
1403636876.966666496 -0.60235 -0.11273 0.00148 -0.00271 0.02157 0.07730 -0.02739 0.07861 0.07631 
1403636877.81666560 -0.57629 -0.34255 -0.00319 -0.00269 0.02159 0.07731 -0.02810 0.08029 0.07522 
1403636877.316666624 -0.32751 -0.66708 0.00408 -0.00274 0.02162 0.07732 -0.02781 0.08790 0.07456 
1403636877.516666624 0.00827 -0.68365 -0.02966 -0.00275 0.02164 0.07734 -0.02788 0.08616 0.07506 
1403636877.696666624 0.29469 -0.50919 -0.03749 -0.00278 0.02165 0.07733 -0.02741 0.08473 0.07540 
1403636877.961666560 0.49350 -0.15389 -0.04951 -0.00280 0.02161 0.07729 -0.02656 0.08560 0.07695 
1403636878.111666432 0.48736 0.09038 -0.05886 -0.00279 0.02159 0.07728 -0.02693 0.08936 0.07626 
1403636878.381666560 0.35851 0.46408 -0.03048 -0.00280 0.02157 0.07732 -0.02740 0.09668 0.07510 
1403636878.621666560 0.06679 0.63441 0.07103 -0.00279 0.02154 0.07732 -0.02741 0.09678 0.07503 
1403636878.761666560 -0.09731 0.62070 0.09109 -0.00278 0.02151 0.07731 -0.02739 0.10020 0.07494 
1403636878.916666624 -0.22919 0.53566 0.04967 -0.00279 0.02151 0.07731 -0.02791 0.10034 0.07419 
1403636879.91666432 -0.37726 0.33396 0.06452 -0.00279 0.02152 0.07732 -0.02763 0.09931 0.07441 
1403636879.356666624 -0.43290 -0.07741 0.07098 -0.00279 0.02152 0.07731 -0.02775 0.09998 0.07393 
1403636879.526666496 -0.32426 -0.37141 0.05435 -0.00278 0.02151 0.07732 -0.02783 0.09927 0.07397 
1403636879.766666496 -0.08539 -0.59732 0.04371 -0.00279 0.02156 0.07727 -0.02849 0.09996 0.07277 
1403636879.961666560 0.21336 -0.50135 0.01205 -0.00281 0.02157 0.07728 -0.02765 0.10179 0.07398 
1403636880.116666624 0.38712 -0.20371 0.01939 -0.00280 0.02161 0.07731 -0.02802 0.10192 0.07339 
1403636880.321666560 0.49114 0.10094 0.01763 -0.00277 0.02158 0.07730 -0.02803 0.10467 0.07303 
1403636880.516666624 0.49274 0.00944 0.08664 -0.00276 0.02158 0.07730 -0.02732 0.10408 0.07422 
1403636880.756666624 0.29134 -0.32375 0.05013 -0.00276 0.02153 0.07730 -0.02862 0.11215 0.07195 
1403636881.26666496 -0.12706 -0.35557 0.02244 -0.00277 0.02152 0.07726 -0.02846 0.11113 0.07222 
1403636881.241666560 -0.33777 -0.23004 0.02120 -0.00276 0.02149 0.07726 -0.02822 0.11365 0.07233 
1403636881.461666560 -0.46701 0.12352 0.01355 -0.00272 0.02147 0.07724 -0.02851 0.11313 0.07185 
1403636881.661666560 -0.43517 0.43286 -0.02598 -0.00281 0.02144 0.07728 -0.02849 0.11183 0.07203 
1403636881.831666432 -0.34070 0.55897 -0.07096 -0.00278 0.02145 0.07724 -0.02882 0.11210 0.07171 
1403636882.46666496 -0.05438 0.53242 -0.10867 -0.00280 0.02144 0.07724 -0.02844 0.11102 0.07230 
1403636882.176666624 0.11398 0.39318 -0.15339 -0.00280 0.02142 0.07723 -0.02822 0.11267 0.07265 
1403636882.376666624 0.21861 0.02713 -0.16153 -0.00281 0.02138 0.07725 -0.02854 0.11536 0.07204 
1403636882.656666624 -0.12071 -0.17635 -0.10268 -0.00281 0.02137 0.07724 -0.02883 0.11829 0.07161 
1403636882.911666432 -0.26324 -0.13255 -0.21614 -0.00284 0.02138 0.07728 -0.02857 0.11972 0.07199 
1403636883.76666624 -0.22844 -0.10935 -0.24031 -0.00285 0.02136 0.07729 -0.02796 0.12069 0.07251 
1403636883.261666560 -0.17411 -0.07895 -0.20217 -0.00283 0.02136 0.07725 -0.02873 0.12188 0.07152 
1403636883.461666560 -0.09220 -0.03291 -0.10134 -0.00272 0.02133 0.07721 -0.02874 0.12573 0.07103 
1403636883.711666432 -0.03821 -0.01105 -0.03631 -0.00274 0.02130 0.07721 -0.02851 0.13001 0.07117 
1403636883.926666496 -0.01712 0.00251 -0.02711 -0.00274 0.02130 0.07720 -0.02845 0.12992 0.07119 
1403636884.156666624 0.00639 0.00130 -0.00168 -0.00271 0.02129 0.07719 -0.02857 0.13404 0.07054 
1403636884.411666432 0.00810 0.00251 -0.00131 -0.00273 0.02130 0.07720 -0.02867 0.13407 0.07040 
1403636884.666666496 0.01487 0.00463 -0.00161 -0.00273 0.02131 0.07721 -0.02879 0.13400 0.07024 
1403636884.956666624 0.01584 0.00437 0.00308 -0.00274 0.02131 0.07722 -0.02888 0.13394 0.07013 
1403636885.211666432 0.00987 0.00597 0.00977 -0.00274 0.02131 0.07725 -0.02894 0.13329 0.06995 
1403636885.421666560 0.00656 0.00569 0.01231 -0.00274 0.02132 0.07727 -0.02874 0.13309 0.07005 
1403636885.681666560 -0.00085 0.00167 0.00896 -0.00276 0.02132 0.07731 -0.02793 0.13277 0.07055 
1403636885.956666624 -0.00095 -0.00051 0.01122 -0.00275 0.02131 0.07733 -0.02731 0.13263 0.07102 
1403636886.176666624 0.00019 0.00241 0.00819 -0.00277 0.02130 0.07735 -0.02664 0.13246 0.07152 
1403636886.421666560 -0.00187 0.00283 0.00832 -0.00277 0.02129 0.07737 -0.02609 0.13243 0.07195 
1403636886.706666496 -0.00282 0.00184 0.00611 -0.00278 0.02128 0.07738 -0.02512 0.13241 0.07274 
1403636886.956666624 -0.00263 0.00344 0.01009 -0.00277 0.02127 0.07739 -0.02480 0.13235 0.07296 
1403636887.211666432 -0.00033 0.00149 0.00764 -0.00276 0.02126 0.07740 -0.02393 0.13231 0.07370 
1403636887.411666432 0.00000 0.00008 0.00781 -0.00276 0.02126 0.07740 -0.02359 0.13216 0.07395 
1403636887.666666496 -0.00283 -0.00084 0.00933 -0.00275 0.02125 0.07741 -0.02328 0.13198 0.07418 
1403636887.916666624 -0.00297 0.00310 0.00799 -0.00275 0.02124 0.07742 -0.02255 0.13200 0.07478 
1403636888.206666496 -0.00144 0.00159 0.00888 -0.00276 0.02122 0.07743 -0.02200 0.13195 0.07525 
1403636888.461666560 -0.00099 0.00316 0.00806 -0.00275 0.02122 0.07745 -0.02145 0.13182 0.07571 
1403636888.756666624 -0.00175 0.02516 0.00538 -0.00275 0.02121 0.07746 -0.02110 0.13186 0.07596 
1403636888.961666560 0.00597 0.01760 0.00426 -0.00276 0.02119 0.07747 -0.02083 0.13180 0.07614 
1403636889.156666624 0.00173 0.00441 0.00069 -0.00278 0.02120 0.07749 -0.02081 0.13186 0.07618 
1403636889.321666560 -0.00155 0.00386 0.00447 -0.00279 0.02120 0.07749 -0.02081 0.13185 0.07618 
1403636889.556666624 -0.00255 0.00181 0.00465 -0.00279 0.02120 0.07749 -0.02079 0.13187 0.07619 
1403636889.716666624 -0.00441 0.00247 0.00549 -0.00280 0.02119 0.07750 -0.02071 0.13195 0.07629 
1403636889.911666432 -0.00303 -0.00289 0.00776 -0.00280 0.02119 0.07751 -0.02062 0.13197 0.07637 
1403636890.156666624 0.00489 -0.00083 -0.00635 -0.00280 0.02118 0.07751 -0.02056 0.13189 0.07639 
1403636890.461666560 0.00786 -0.00992 -0.00380 -0.00280 0.02116 0.07753 -0.02036 0.13171 0.07650 
1403636890.611666432 0.00824 0.01461 -0.00093 -0.00279 0.02115 0.07753 -0.02040 0.13159 0.07650 
1403636890.816666624 0.00132 -0.01480 0.01070 -0.00280 0.02114 0.07754 -0.02053 0.13146 0.07638 
1403636891.6666496 -0.00007 -0.01035 -0.00073 -0.00279 0.02114 0.07755 -0.02038 0.13146 0.07653 
1403636891.176666624 -0.00043 -0.00134 0.00135 -0.00278 0.02112 0.07754 -0.02037 0.13140 0.07653 
1403636891.356666624 -0.00192 -0.00278 0.00077 -0.00277 0.02112 0.07754 -0.02037 0.13139 0.07653 
1403636891.506666496 -0.00058 -0.00373 0.00398 -0.00277 0.02111 0.07754 -0.02033 0.13138 0.07661 
1403636891.706666496 -0.00012 -0.00244 0.00315 -0.00275 0.02109 0.07754 -0.02013 0.13143 0.07680 
1403636891.911666432 0.00190 0.00060 0.00550 -0.00275 0.02109 0.07754 -0.02007 0.13145 0.07682 
1403636892.181666560 0.00026 0.00016 0.00320 -0.00275 0.02108 0.07754 -0.01987 0.13144 0.07698 
1403636892.316666624 0.00017 -0.00471 0.00702 -0.00275 0.02108 0.07755 -0.01979 0.13145 0.07703 
1403636892.456666624 0.00206 -0.00564 0.00169 -0.00275 0.02107 0.07755 -0.01975 0.13143 0.07707 
1403636892.711666432 0.00007 0.00200 0.00289 -0.00275 0.02107 0.07756 -0.01961 0.13137 0.07717 
1403636892.911666432 -0.00220 0.00110 0.00716 -0.00275 0.02106 0.07757 -0.01952 0.13141 0.07725 
1403636893.171666432 0.00009 0.00176 0.00232 -0.00275 0.02105 0.07757 -0.01931 0.13142 0.07744 
1403636893.326666496 0.00190 0.00050 0.00229 -0.00275 0.02104 0.07757 -0.01930 0.13142 0.07745 
1403636893.511666432 0.00059 0.00016 0.00395 -0.00275 0.02104 0.07758 -0.01929 0.13144 0.07746 
1403636893.726666496 0.00074 -0.00068 0.00050 -0.00274 0.02104 0.07758 -0.01921 0.13151 0.07751 
1403636893.956666624 0.00176 0.00406 0.00268 -0.00274 0.02103 0.07758 -0.01920 0.13152 0.07752 
1403636894.216666624 -0.00002 0.00151 0.00487 -0.00274 0.02102 0.07758 -0.01916 0.13153 0.07755 
1403636894.411666432 -0.00017 0.00116 0.00220 -0.00274 0.02102 0.07759 -0.01911 0.13156 0.07759 
1403636894.661666560 -0.00039 0.00271 0.00242 -0.00274 0.02101 0.07759 -0.01910 0.13156 0.07760 
1403636894.916666624 -0.00470 -0.00069 0.00020 -0.00273 0.02101 0.07759 -0.01908 0.13158 0.07761 
1403636895.206666496 -0.00695 0.00287 0.00110 -0.00273 0.02100 0.07760 -0.01905 0.13152 0.07764 
1403636895.456666624 0.00021 0.00252 0.00406 -0.00272 0.02098 0.07762 -0.01886 0.13126 0.07784 
1403636895.681666560 -0.00101 -0.00001 0.00375 -0.00272 0.02097 0.07762 -0.01869 0.13136 0.07799 
1403636895.886666496 0.00051 -0.00329 0.00488 -0.00272 0.02097 0.07762 -0.01852 0.13138 0.07814 
1403636896.66666496 0.00784 -0.00209 0.00293 -0.00272 0.02097 0.07762 -0.01843 0.13144 0.07824 
1403636896.226666496 0.00849 -0.00254 0.00090 -0.00272 0.02096 0.07762 -0.01841 0.13145 0.07825 
1403636896.386666496 0.00256 -0.00022 0.00355 -0.00271 0.02096 0.07762 -0.01840 0.13147 0.07825 
1403636896.611666432 -0.00296 -0.00372 -0.00191 -0.00271 0.02096 0.07762 -0.01835 0.13146 0.07829 
1403636896.816666624 -0.01645 -0.00166 0.00754 -0.00271 0.02095 0.07762 -0.01832 0.13146 0.07833 
1403636897.161666560 0.00698 -0.00395 -0.01179 -0.00270 0.02095 0.07762 -0.01824 0.13155 0.07840 
1403636897.456666624 0.10663 0.10562 0.00095 -0.00269 0.02094 0.07762 -0.01841 0.13172 0.07834 
1403636897.666666496 0.14565 0.12785 0.05685 -0.00268 0.02095 0.07761 -0.01777 0.13193 0.07892 
1403636897.911666432 0.07338 0.09561 0.22182 -0.00267 0.02095 0.07761 -0.01678 0.12958 0.08083 
1403636898.126666496 0.00731 0.04419 0.10474 -0.00266 0.02094 0.07761 -0.01591 0.12700 0.08266 
1403636898.271666432 -0.01294 0.03307 0.13875 -0.00265 0.02093 0.07759 -0.01499 0.12465 0.08454 
1403636898.391666432 -0.04650 0.01612 0.18598 -0.00265 0.02095 0.07760 -0.01510 0.12040 0.08502 
1403636898.556666624 -0.08478 -0.00458 0.20265 -0.00263 0.02096 0.07757 -0.01371 0.10646 0.08915 
1403636898.756666624 -0.11731 -0.02220 0.17214 -0.00263 0.02094 0.07756 -0.01360 0.10464 0.08957 
1403636898.971666432 -0.16596 -0.03450 0.11119 -0.00265 0.02095 0.07757 -0.01411 0.10176 0.08926 
1403636899.121666560 -0.21652 0.02582 0.09571 -0.00266 0.02095 0.07757 -0.01444 0.10111 0.08882 
1403636899.256666624 -0.23214 0.07069 0.09649 -0.00266 0.02095 0.07756 -0.01459 0.10078 0.08859 
1403636899.466666496 -0.16812 0.11515 0.06611 -0.00267 0.02096 0.07756 -0.01457 0.09986 0.08947 
1403636899.711666432 -0.15484 0.16991 0.05680 -0.00266 0.02096 0.07758 -0.01481 0.09771 0.08900 
1403636899.831666432 -0.17143 0.21441 0.03549 -0.00266 0.02096 0.07758 -0.01483 0.09796 0.08895 
1403636900.61666560 -0.20647 0.24277 0.00445 -0.00265 0.02098 0.07757 -0.01500 0.09782 0.08866 
1403636900.311666432 -0.13940 0.22924 0.21475 -0.00266 0.02098 0.07757 -0.01433 0.09747 0.08992 
1403636900.456666624 -0.11592 0.21959 0.26414 -0.00266 0.02096 0.07757 -0.01426 0.09730 0.09001 
1403636900.711666432 -0.13723 0.22011 0.11513 -0.00266 0.02093 0.07756 -0.01462 0.09504 0.08933 
1403636900.961666560 -0.22077 0.27835 -0.00536 -0.00268 0.02094 0.07756 -0.01448 0.09444 0.08972 
1403636901.261666560 -0.23250 0.41652 -0.00753 -0.00267 0.02093 0.07755 -0.01477 0.09281 0.08941 
1403636901.606666496 -0.28153 0.48463 0.04447 -0.00268 0.02094 0.07757 -0.01467 0.09393 0.08935 
1403636901.761666560 -0.28316 0.49497 -0.07315 -0.00269 0.02094 0.07756 -0.01515 0.09270 0.08894 
1403636901.931666432 -0.27177 0.48560 -0.15906 -0.00268 0.02093 0.07756 -0.01517 0.09334 0.08882 
1403636902.116666624 -0.29098 0.48618 -0.08957 -0.00270 0.02093 0.07756 -0.01545 0.09234 0.08869 
1403636902.306666496 -0.26965 0.48318 -0.04942 -0.00272 0.02093 0.07757 -0.01572 0.09162 0.08863 
1403636902.516666624 -0.25151 0.50907 -0.27536 -0.00271 0.02092 0.07756 -0.01557 0.09151 0.08910 
1403636902.761666560 -0.25979 0.46628 -0.12138 -0.00271 0.02091 0.07755 -0.01558 0.09154 0.08925 
1403636902.916666624 -0.23462 0.43195 0.00421 -0.00270 0.02091 0.07755 -0.01534 0.09147 0.08932 
1403636903.141666560 -0.23495 0.39182 0.18013 -0.00269 0.02091 0.07754 -0.01525 0.09150 0.08939 
1403636903.316666624 -0.18238 0.39262 0.25561 -0.00269 0.02091 0.07753 -0.01527 0.09185 0.08917 
1403636903.461666560 -0.17868 0.38123 0.16356 -0.00269 0.02091 0.07753 -0.01514 0.09244 0.08943 
1403636903.616666624 -0.15855 0.35458 0.03500 -0.00269 0.02091 0.07753 -0.01539 0.09044 0.08901 
1403636903.871666432 -0.22087 0.35737 0.05432 -0.00269 0.02092 0.07753 -0.01544 0.09031 0.08894 
1403636904.56666624 -0.24952 0.38834 0.19861 -0.00269 0.02092 0.07752 -0.01555 0.08997 0.08882 
1403636904.176666624 -0.26636 0.42383 0.26427 -0.00268 0.02093 0.07752 -0.01545 0.09018 0.08888 
1403636904.331666432 -0.24874 0.46729 0.23305 -0.00267 0.02093 0.07751 -0.01536 0.09023 0.08892 
1403636904.481666560 -0.23930 0.49083 0.14857 -0.00266 0.02094 0.07751 -0.01546 0.09033 0.08884 
1403636904.706666496 -0.23452 0.52313 0.08693 -0.00267 0.02094 0.07751 -0.01566 0.09066 0.08876 
1403636904.861666560 -0.22920 0.52217 0.04534 -0.00267 0.02094 0.07752 -0.01580 0.09012 0.08867 
1403636905.11666432 -0.22461 0.49464 -0.04034 -0.00266 0.02095 0.07752 -0.01598 0.08962 0.08851 
1403636905.186666496 -0.26182 0.47169 0.03436 -0.00267 0.02096 0.07753 -0.01638 0.08823 0.08831 
1403636905.361666560 -0.26629 0.41749 0.12447 -0.00267 0.02097 0.07754 -0.01645 0.08790 0.08834 
1403636905.561666560 -0.29216 0.33769 0.16090 -0.00268 0.02097 0.07754 -0.01659 0.08804 0.08828 
1403636905.691666432 -0.30387 0.30179 0.06239 -0.00269 0.02098 0.07754 -0.01659 0.08821 0.08835 
1403636905.816666624 -0.33388 0.27519 -0.03217 -0.00268 0.02098 0.07753 -0.01682 0.08760 0.08816 
1403636906.56666624 -0.37802 0.23371 -0.14862 -0.00267 0.02099 0.07753 -0.01691 0.08736 0.08807 
1403636906.316666624 -0.44960 0.17348 0.01506 -0.00267 0.02099 0.07753 -0.01699 0.08773 0.08811 
1403636906.561666560 -0.42665 0.19118 0.04454 -0.00267 0.02099 0.07753 -0.01708 0.08763 0.08805 
1403636906.821666560 -0.41167 0.25681 -0.07994 -0.00267 0.02100 0.07753 -0.01744 0.08744 0.08778 
1403636907.11666432 -0.42783 0.23239 -0.01239 -0.00268 0.02100 0.07753 -0.01806 0.08106 0.08748 
1403636907.311666432 -0.46362 0.18255 -0.07445 -0.00267 0.02101 0.07752 -0.01837 0.08077 0.08727 
1403636907.421666560 -0.50590 0.17328 -0.01668 -0.00267 0.02101 0.07752 -0.01839 0.08072 0.08726 
1403636907.606666496 -0.54702 0.20788 0.14248 -0.00267 0.02101 0.07752 -0.01840 0.08054 0.08728 
1403636907.756666624 -0.60362 0.25932 0.24182 -0.00265 0.02101 0.07751 -0.01848 0.08051 0.08719 
1403636908.6666496 -0.72271 0.33144 -0.01475 -0.00267 0.02104 0.07753 -0.01832 0.08025 0.08730 
1403636908.166666496 -0.69297 0.34108 0.03389 -0.00266 0.02101 0.07751 -0.01820 0.07822 0.08752 
1403636908.376666624 -0.64976 0.31657 -0.02677 -0.00266 0.02101 0.07750 -0.01817 0.07828 0.08758 
1403636908.611666432 -0.63012 0.29955 -0.08211 -0.00267 0.02100 0.07750 -0.01830 0.07866 0.08760 
1403636908.811666432 -0.63626 0.30156 0.06542 -0.00267 0.02099 0.07750 -0.01834 0.07854 0.08758 
1403636908.981666560 -0.69931 0.29793 0.21004 -0.00268 0.02100 0.07749 -0.01852 0.07866 0.08751 
1403636909.126666496 -0.72425 0.31542 0.15640 -0.00268 0.02099 0.07748 -0.01864 0.07857 0.08742 
1403636909.276666624 -0.76140 0.33682 0.06800 -0.00268 0.02099 0.07748 -0.01872 0.07713 0.08727 
1403636909.481666560 -0.81902 0.37042 -0.00858 -0.00268 0.02098 0.07747 -0.01904 0.07706 0.08705 
1403636909.631666432 -0.81665 0.37913 -0.11538 -0.00268 0.02099 0.07748 -0.01905 0.07695 0.08712 
1403636909.806666496 -0.80235 0.41384 -0.19875 -0.00268 0.02098 0.07748 -0.01898 0.07717 0.08720 
1403636909.921666560 -0.77165 0.39788 -0.24895 -0.00269 0.02098 0.07748 -0.01905 0.07707 0.08721 
1403636910.166666496 -0.67494 0.24907 -0.23879 -0.00270 0.02099 0.07749 -0.01914 0.07706 0.08721 
1403636910.366666496 -0.66714 0.20673 -0.04510 -0.00270 0.02100 0.07748 -0.01963 0.07320 0.08675 
1403636910.556666624 -0.66424 0.19553 0.02567 -0.00270 0.02100 0.07748 -0.01957 0.07308 0.08684 
1403636910.676666624 -0.65198 0.18296 -0.05498 -0.00271 0.02099 0.07747 -0.01943 0.07330 0.08688 
1403636910.756666624 -0.64390 0.17341 -0.11002 -0.00271 0.02099 0.07747 -0.01941 0.07308 0.08690 
1403636910.916666624 -0.64474 0.14569 -0.17422 -0.00271 0.02100 0.07747 -0.01931 0.07293 0.08706 
1403636911.161666560 -0.58818 0.17788 -0.08198 -0.00272 0.02101 0.07747 -0.01921 0.07310 0.08712 
1403636911.421666560 -0.48413 0.18114 0.10832 -0.00272 0.02100 0.07747 -0.01898 0.07417 0.08747 
1403636911.591666432 -0.46899 0.16134 0.08962 -0.00271 0.02101 0.07747 -0.01918 0.07415 0.08749 
1403636911.771666432 -0.47474 0.15682 -0.00403 -0.00271 0.02103 0.07747 -0.01948 0.07388 0.08713 
1403636911.961666560 -0.49453 0.19073 -0.10944 -0.00271 0.02103 0.07747 -0.01970 0.07370 0.08698 
1403636912.121666560 -0.52977 0.23021 -0.13085 -0.00272 0.02104 0.07748 -0.01999 0.07350 0.08655 
1403636912.406666496 -0.55794 0.25924 0.06837 -0.00273 0.02105 0.07748 -0.01995 0.07359 0.08685 
1403636912.621666560 -0.54602 0.29698 -0.06111 -0.00273 0.02103 0.07749 -0.01971 0.07081 0.08689 
1403636912.726666496 -0.55206 0.32122 -0.11153 -0.00274 0.02103 0.07749 -0.01950 0.07113 0.08713 
1403636912.966666496 -0.54886 0.41162 -0.19867 -0.00273 0.02105 0.07750 -0.01932 0.07133 0.08723 
1403636913.211666432 -0.48565 0.42533 -0.14974 -0.00272 0.02105 0.07750 -0.01919 0.07124 0.08723 
1403636913.426666496 -0.46784 0.41736 0.02942 -0.00272 0.02107 0.07750 -0.01894 0.07149 0.08750 
1403636913.571666432 -0.46143 0.44157 0.00786 -0.00271 0.02107 0.07749 -0.01889 0.07157 0.08755 
1403636913.776666624 -0.44079 0.45069 -0.06744 -0.00271 0.02106 0.07749 -0.01855 0.07253 0.08776 
1403636913.956666624 -0.42072 0.44789 0.06340 -0.00271 0.02105 0.07748 -0.01820 0.07269 0.08794 
1403636914.216666624 -0.39868 0.45061 0.05854 -0.00270 0.02106 0.07750 -0.01780 0.07255 0.08804 
1403636914.511666432 -0.35341 0.44775 0.05469 -0.00270 0.02105 0.07749 -0.01755 0.07254 0.08806 
1403636914.721666560 -0.34863 0.41555 0.19635 -0.00269 0.02105 0.07749 -0.01747 0.07257 0.08817 
1403636914.876666624 -0.31575 0.40377 0.10727 -0.00270 0.02105 0.07748 -0.01728 0.07270 0.08832 
1403636915.56666624 -0.29077 0.38964 -0.01135 -0.00271 0.02104 0.07749 -0.01726 0.07253 0.08823 
1403636915.316666624 -0.31857 0.33297 -0.15395 -0.00270 0.02106 0.07749 -0.01724 0.07267 0.08828 
1403636915.426666496 -0.35587 0.31455 -0.15149 -0.00269 0.02106 0.07749 -0.01674 0.07615 0.08912 
1403636915.661666560 -0.43680 0.31873 0.02389 -0.00269 0.02106 0.07748 -0.01686 0.07611 0.08906 
1403636915.856666624 -0.39201 0.37809 0.17915 -0.00269 0.02106 0.07747 -0.01689 0.07613 0.08907 
1403636915.961666560 -0.36726 0.40946 0.20394 -0.00269 0.02106 0.07747 -0.01690 0.07609 0.08907 
1403636916.176666624 -0.33633 0.41432 0.07989 -0.00269 0.02107 0.07747 -0.01700 0.07598 0.08899 
1403636916.306666496 -0.30127 0.38986 0.14058 -0.00269 0.02106 0.07747 -0.01698 0.07594 0.08900 
1403636916.456666624 -0.28343 0.38014 0.14195 -0.00269 0.02105 0.07747 -0.01685 0.07583 0.08908 
1403636916.666666496 -0.28525 0.34114 0.04270 -0.00269 0.02106 0.07747 -0.01688 0.07584 0.08905 
1403636916.916666624 -0.25504 0.26736 -0.07362 -0.00269 0.02106 0.07747 -0.01680 0.07680 0.08909 
1403636917.166666496 -0.23379 0.19577 -0.20039 -0.00267 0.02107 0.07747 -0.01674 0.07689 0.08920 
1403636917.356666624 -0.19752 0.20785 -0.29825 -0.00267 0.02107 0.07747 -0.01672 0.07681 0.08918 
1403636917.481666560 -0.20259 0.18969 -0.35417 -0.00267 0.02108 0.07747 -0.01667 0.07712 0.08918 
1403636917.561666560 -0.19921 0.17805 -0.31750 -0.00268 0.02107 0.07747 -0.01667 0.07702 0.08918 
1403636917.766666496 -0.16367 0.13149 -0.15347 -0.00270 0.02108 0.07749 -0.01671 0.07729 0.08910 
1403636917.926666496 -0.12985 0.09696 -0.01641 -0.00270 0.02107 0.07748 -0.01669 0.07715 0.08922 
1403636918.121666560 -0.10348 0.04754 -0.09811 -0.00270 0.02108 0.07748 -0.01676 0.07838 0.08905 
1403636918.316666624 -0.08956 -0.01278 -0.00926 -0.00270 0.02108 0.07748 -0.01677 0.07819 0.08903 
1403636918.506666496 -0.13606 -0.06674 0.12796 -0.00271 0.02108 0.07749 -0.01668 0.07857 0.08916 
1403636918.681666560 -0.23663 -0.08662 0.27908 -0.00271 0.02108 0.07747 -0.01657 0.07876 0.08915 
1403636918.811666432 -0.27921 -0.10346 0.35507 -0.00270 0.02108 0.07748 -0.01661 0.07872 0.08911 
1403636918.971666432 -0.25933 -0.03016 0.40281 -0.00271 0.02109 0.07747 -0.01663 0.07879 0.08905 
1403636919.171666432 -0.20865 0.08275 0.45361 -0.00271 0.02110 0.07748 -0.01662 0.07871 0.08903 
1403636919.411666432 -0.08856 0.20078 0.36343 -0.00271 0.02111 0.07748 -0.01655 0.07826 0.08912 
1403636919.656666624 0.00237 0.21705 0.21030 -0.00271 0.02109 0.07747 -0.01636 0.07795 0.08925 
1403636919.861666560 0.05007 0.17788 0.05837 -0.00270 0.02109 0.07747 -0.01627 0.07831 0.08929 
1403636920.131666432 0.15467 0.15483 -0.10466 -0.00271 0.02110 0.07748 -0.01625 0.07864 0.08920 
1403636920.311666432 0.23896 0.18660 -0.16452 -0.00270 0.02111 0.07746 -0.01643 0.07832 0.08898 
1403636920.461666560 0.29499 0.15967 -0.14397 -0.00270 0.02111 0.07747 -0.01640 0.07841 0.08900 
1403636920.666666496 0.34010 0.09986 0.02068 -0.00270 0.02111 0.07746 -0.01622 0.07890 0.08915 
1403636920.866666496 0.33774 0.05580 0.16468 -0.00269 0.02110 0.07746 -0.01630 0.07888 0.08906 
1403636921.156666624 0.26230 0.03689 0.08350 -0.00270 0.02110 0.07746 -0.01633 0.07922 0.08902 
1403636921.291666432 0.25169 0.02453 0.00796 -0.00270 0.02111 0.07745 -0.01628 0.07953 0.08903 
1403636921.446666496 0.26249 -0.00033 -0.07980 -0.00271 0.02112 0.07745 -0.01642 0.07937 0.08893 
1403636921.616666624 0.30582 0.00376 -0.17798 -0.00270 0.02112 0.07746 -0.01643 0.07918 0.08893 
1403636921.766666496 0.28964 0.04783 -0.21360 -0.00270 0.02112 0.07745 -0.01640 0.07930 0.08894 
1403636921.906666496 0.22666 0.10228 -0.20080 -0.00271 0.02113 0.07745 -0.01640 0.07957 0.08892 
1403636922.21666560 0.19814 0.12107 -0.20347 -0.00271 0.02112 0.07745 -0.01630 0.07955 0.08909 
1403636922.206666496 0.20028 0.08509 -0.13863 -0.00270 0.02111 0.07746 -0.01634 0.07934 0.08899 
1403636922.406666496 0.14872 0.06616 -0.06642 -0.00270 0.02112 0.07746 -0.01637 0.07915 0.08899 
1403636922.576666624 0.10619 0.07469 -0.14802 -0.00272 0.02111 0.07745 -0.01629 0.07983 0.08910 
1403636922.676666624 0.05427 0.08281 -0.16181 -0.00275 0.02112 0.07746 -0.01634 0.07968 0.08907 
1403636922.766666496 0.03365 0.06357 -0.18945 -0.00275 0.02112 0.07745 -0.01624 0.07989 0.08910 
1403636922.961666560 0.08504 0.02608 -0.07938 -0.00273 0.02111 0.07743 -0.01625 0.07993 0.08911 
1403636923.211666432 0.19688 0.05073 -0.15399 -0.00272 0.02111 0.07743 -0.01628 0.08560 0.08893 
1403636923.431666432 0.22798 0.05572 -0.25048 -0.00274 0.02111 0.07743 -0.01668 0.08550 0.08858 
1403636923.706666496 0.09264 0.11837 -0.07726 -0.00271 0.02111 0.07741 -0.01678 0.08571 0.08861 
1403636923.896666624 -0.02745 0.15366 -0.00629 -0.00273 0.02110 0.07741 -0.01698 0.08501 0.08855 
1403636924.121666560 -0.17053 0.21246 -0.10668 -0.00273 0.02110 0.07741 -0.01726 0.08474 0.08832 
1403636924.261666560 -0.24447 0.22029 -0.13236 -0.00273 0.02110 0.07742 -0.01725 0.08488 0.08833 
1403636924.506666496 -0.35784 0.29243 0.06622 -0.00274 0.02112 0.07741 -0.01744 0.08472 0.08832 
1403636924.656666624 -0.35535 0.34893 0.05861 -0.00274 0.02111 0.07741 -0.01742 0.08496 0.08836 
1403636924.861666560 -0.26598 0.41184 -0.08242 -0.00273 0.02111 0.07741 -0.01752 0.08454 0.08829 
1403636924.966666496 -0.19121 0.44896 -0.17025 -0.00272 0.02112 0.07741 -0.01757 0.08437 0.08835 
1403636925.121666560 -0.09357 0.47559 -0.27670 -0.00271 0.02113 0.07740 -0.01766 0.08401 0.08832 
1403636925.286666496 -0.07392 0.47069 -0.34461 -0.00270 0.02113 0.07740 -0.01775 0.08411 0.08824 
1403636925.366666496 -0.07885 0.46310 -0.37229 -0.00271 0.02113 0.07741 -0.01776 0.08423 0.08826 
1403636925.481666560 -0.12491 0.46865 -0.32971 -0.00271 0.02112 0.07740 -0.01783 0.08466 0.08821 
1403636925.636666624 -0.23891 0.49400 -0.20178 -0.00272 0.02114 0.07740 -0.01789 0.08420 0.08818 
1403636925.776666624 -0.38191 0.55015 -0.03235 -0.00273 0.02114 0.07741 -0.01799 0.08403 0.08810 
1403636926.16666624 -0.54957 0.57806 0.06596 -0.00270 0.02113 0.07740 -0.01797 0.08439 0.08805 
1403636926.146666496 -0.54763 0.53064 -0.04403 -0.00268 0.02113 0.07740 -0.01826 0.08190 0.08765 
1403636926.456666624 -0.39265 0.45204 -0.23468 -0.00270 0.02115 0.07742 -0.01832 0.08185 0.08764 
1403636926.606666496 -0.29964 0.44636 -0.15324 -0.00269 0.02114 0.07741 -0.01837 0.08199 0.08754 
1403636926.871666432 -0.18845 0.44177 0.05822 -0.00270 0.02116 0.07742 -0.01848 0.08201 0.08746 
1403636927.111666432 -0.12050 0.51258 -0.04448 -0.00268 0.02116 0.07741 -0.01835 0.08217 0.08752 
1403636927.311666432 -0.04623 0.53321 -0.15044 -0.00269 0.02116 0.07741 -0.01835 0.08220 0.08746 
1403636927.471666432 -0.03994 0.52363 -0.22703 -0.00269 0.02115 0.07742 -0.01823 0.08205 0.08760 
1403636927.676666624 -0.12481 0.59765 -0.12874 -0.00268 0.02115 0.07741 -0.01817 0.08312 0.08759 
1403636927.831666432 -0.21290 0.67250 -0.00719 -0.00268 0.02115 0.07741 -0.01810 0.08316 0.08766 
1403636928.106666496 -0.32798 0.77498 -0.07622 -0.00268 0.02115 0.07741 -0.01819 0.08334 0.08747 
1403636928.411666432 -0.34283 0.77795 -0.20462 -0.00268 0.02115 0.07740 -0.01808 0.08344 0.08764 
1403636928.711666432 -0.28972 0.69612 -0.05140 -0.00269 0.02116 0.07740 -0.01806 0.08571 0.08739 
1403636928.926666496 -0.33576 0.69978 0.15362 -0.00268 0.02117 0.07740 -0.01809 0.08584 0.08728 
1403636929.111666432 -0.34223 0.66425 0.28787 -0.00267 0.02117 0.07739 -0.01808 0.08593 0.08730 
1403636929.356666624 -0.24649 0.63903 0.22718 -0.00269 0.02118 0.07740 -0.01810 0.08604 0.08726 
1403636929.436666624 -0.19877 0.63496 0.18399 -0.00269 0.02118 0.07740 -0.01815 0.08595 0.08715 
1403636929.566666496 -0.15004 0.62948 0.11548 -0.00267 0.02118 0.07740 -0.01824 0.09014 0.08676 
1403636929.696666624 -0.11821 0.60119 0.05155 -0.00267 0.02118 0.07739 -0.01822 0.09008 0.08676 
1403636929.841666560 -0.11517 0.55253 -0.02615 -0.00266 0.02119 0.07739 -0.01812 0.09025 0.08685 
1403636930.16666624 -0.11719 0.49779 0.04468 -0.00266 0.02118 0.07738 -0.01798 0.09035 0.08691 
1403636930.161666560 -0.09611 0.47863 0.16367 -0.00267 0.02119 0.07739 -0.01794 0.09040 0.08693 
1403636930.316666624 -0.05163 0.47561 0.25252 -0.00267 0.02119 0.07738 -0.01788 0.09042 0.08691 
1403636930.461666560 -0.00408 0.46362 0.21691 -0.00267 0.02119 0.07738 -0.01781 0.09047 0.08696 
1403636930.556666624 0.00768 0.44606 0.14259 -0.00268 0.02119 0.07738 -0.01782 0.09040 0.08695 
1403636930.711666432 0.03136 0.39478 0.04618 -0.00268 0.02119 0.07739 -0.01787 0.09034 0.08691 
1403636930.866666496 0.07900 0.39384 -0.03560 -0.00268 0.02118 0.07739 -0.01786 0.09042 0.08690 
1403636930.966666496 0.13593 0.39313 -0.08941 -0.00269 0.02118 0.07739 -0.01773 0.09243 0.08701 
1403636931.91666432 0.24304 0.41045 -0.07961 -0.00270 0.02118 0.07739 -0.01765 0.09239 0.08710 
1403636931.366666496 0.37593 0.30768 0.10087 -0.00269 0.02118 0.07739 -0.01760 0.09248 0.08714 
1403636931.521666560 0.41392 0.20104 0.17571 -0.00269 0.02118 0.07739 -0.01761 0.09258 0.08715 
1403636931.761666560 0.35953 0.01942 0.04715 -0.00268 0.02118 0.07739 -0.01767 0.09273 0.08708 
1403636931.956666624 0.33843 -0.05788 -0.07233 -0.00268 0.02118 0.07740 -0.01779 0.09283 0.08695 
1403636932.256666624 0.35601 -0.12105 -0.08594 -0.00269 0.02119 0.07739 -0.01789 0.09263 0.08684 
1403636932.456666624 0.33870 -0.24879 0.05693 -0.00269 0.02119 0.07739 -0.01801 0.09267 0.08670 
1403636932.656666624 0.30817 -0.38393 0.21006 -0.00269 0.02119 0.07740 -0.01802 0.09288 0.08677 
1403636932.801666560 0.29707 -0.45776 0.28300 -0.00269 0.02120 0.07739 -0.01793 0.09301 0.08693 
1403636933.6666496 0.27779 -0.51831 0.11044 -0.00269 0.02119 0.07740 -0.01803 0.09271 0.08675 
1403636933.261666560 0.25594 -0.58224 -0.13899 -0.00268 0.02119 0.07739 -0.01830 0.09335 0.08650 
1403636933.521666560 0.17747 -0.47202 -0.16055 -0.00269 0.02118 0.07739 -0.01831 0.09340 0.08651 
1403636933.636666624 0.17111 -0.45293 -0.09738 -0.00269 0.02118 0.07738 -0.01834 0.09331 0.08644 
1403636933.786666496 0.14498 -0.42070 0.00469 -0.00269 0.02118 0.07738 -0.01840 0.09325 0.08637 
1403636933.941666560 0.15737 -0.42427 0.08236 -0.00269 0.02118 0.07738 -0.01842 0.09311 0.08632 
1403636934.86666496 0.19238 -0.43388 -0.02089 -0.00270 0.02119 0.07738 -0.01849 0.09314 0.08629 
1403636934.176666624 0.21327 -0.44834 -0.15250 -0.00270 0.02118 0.07739 -0.01856 0.09295 0.08623 
1403636934.256666624 0.22021 -0.46749 -0.21864 -0.00269 0.02118 0.07739 -0.01856 0.09286 0.08625 
1403636934.406666496 0.23389 -0.49393 -0.23057 -0.00268 0.02118 0.07738 -0.01857 0.09300 0.08625 
1403636934.511666432 0.26711 -0.50635 -0.14822 -0.00268 0.02118 0.07737 -0.01864 0.09290 0.08616 
1403636934.671666432 0.30592 -0.54027 0.00918 -0.00266 0.02119 0.07736 -0.01866 0.09340 0.08621 
1403636934.831666432 0.32425 -0.54585 0.14481 -0.00267 0.02120 0.07736 -0.01886 0.09090 0.08615 
1403636934.981666560 0.30650 -0.51751 0.26699 -0.00269 0.02120 0.07737 -0.01894 0.09061 0.08606 
1403636935.206666496 0.27579 -0.45435 0.34564 -0.00271 0.02120 0.07737 -0.01898 0.09170 0.08576 
1403636935.466666496 0.30404 -0.45447 0.16717 -0.00271 0.02122 0.07737 -0.01912 0.09193 0.08541 
1403636935.626666496 0.32614 -0.47460 0.03293 -0.00271 0.02122 0.07737 -0.01936 0.09760 0.08451 
1403636935.806666496 0.37389 -0.46664 -0.10065 -0.00271 0.02122 0.07737 -0.01948 0.09799 0.08414 
1403636935.931666432 0.38933 -0.44318 -0.19552 -0.00271 0.02122 0.07737 -0.01956 0.09802 0.08391 
1403636936.206666496 0.42832 -0.25089 -0.21688 -0.00271 0.02123 0.07738 -0.01954 0.09796 0.08404 
1403636936.406666496 0.43763 -0.18477 -0.08170 -0.00271 0.02124 0.07738 -0.01951 0.09802 0.08413 
1403636936.551666432 0.43466 -0.14765 0.00964 -0.00271 0.02124 0.07738 -0.01962 0.09819 0.08389 
1403636936.661666560 0.41758 -0.12847 -0.04204 -0.00270 0.02125 0.07738 -0.01975 0.09821 0.08372 
1403636936.831666432 0.41396 -0.10706 -0.10782 -0.00272 0.02126 0.07739 -0.01993 0.09848 0.08347 
1403636937.66666496 0.37167 -0.10269 0.06227 -0.00271 0.02125 0.07738 -0.01998 0.09877 0.08333 
1403636937.261666560 0.34185 -0.08176 0.08745 -0.00271 0.02125 0.07739 -0.02004 0.09886 0.08323 
1403636937.411666432 0.34254 -0.07396 0.00137 -0.00272 0.02126 0.07739 -0.01998 0.09888 0.08339 
1403636937.511666432 0.33992 -0.06875 -0.05775 -0.00272 0.02126 0.07739 -0.01993 0.09896 0.08347 
1403636937.606666496 0.33336 -0.06565 -0.10142 -0.00272 0.02127 0.07739 -0.02002 0.09893 0.08336 
1403636937.761666560 0.29963 -0.04449 -0.18624 -0.00272 0.02127 0.07739 -0.02001 0.09922 0.08338 
1403636937.971666432 0.21089 -0.04274 -0.25825 -0.00270 0.02127 0.07738 -0.01997 0.09950 0.08338 
1403636938.126666496 0.12925 -0.11288 -0.31728 -0.00271 0.02127 0.07738 -0.02001 0.09934 0.08338 
1403636938.376666624 0.04764 -0.28000 -0.20483 -0.00270 0.02124 0.07738 -0.01986 0.11255 0.08257 
1403636938.616666624 0.21088 -0.36883 -0.03738 -0.00270 0.02124 0.07738 -0.01985 0.11246 0.08256 
1403636938.806666496 0.37010 -0.39980 0.07565 -0.00271 0.02124 0.07739 -0.01988 0.11241 0.08258 
1403636938.961666560 0.43625 -0.42024 0.05273 -0.00270 0.02124 0.07738 -0.01975 0.11235 0.08274 
1403636939.116666624 0.44558 -0.40422 -0.02919 -0.00270 0.02123 0.07737 -0.01982 0.11229 0.08260 
1403636939.356666624 0.45113 -0.38167 -0.12950 -0.00270 0.02123 0.07737 -0.01966 0.11235 0.08289 
1403636939.561666560 0.44035 -0.42363 0.02788 -0.00270 0.02123 0.07737 -0.01987 0.11205 0.08253 
1403636939.711666432 0.43159 -0.48630 0.08655 -0.00270 0.02122 0.07738 -0.02001 0.11204 0.08227 
1403636939.871666432 0.41323 -0.54765 -0.01402 -0.00269 0.02121 0.07737 -0.01989 0.11206 0.08245 
1403636940.61666560 0.44359 -0.61470 -0.13295 -0.00269 0.02122 0.07737 -0.01991 0.11204 0.08247 
1403636940.226666496 0.47033 -0.65646 -0.20586 -0.00272 0.02121 0.07737 -0.01970 0.11238 0.08291 
1403636940.466666496 0.50611 -0.71149 -0.24338 -0.00270 0.02121 0.07736 -0.01979 0.11238 0.08275 
1403636940.631666432 0.53526 -0.72401 -0.12899 -0.00271 0.02120 0.07736 -0.01980 0.11230 0.08276 
1403636940.811666432 0.57027 -0.72313 0.01484 -0.00272 0.02119 0.07736 -0.01992 0.11304 0.08264 
1403636940.911666432 0.57387 -0.69124 0.08860 -0.00272 0.02119 0.07736 -0.01992 0.11269 0.08270 
1403636941.156666624 0.56945 -0.59943 0.20658 -0.00272 0.02120 0.07736 -0.01992 0.11280 0.08267 
1403636941.456666624 0.53697 -0.56573 0.11011 -0.00272 0.02120 0.07735 -0.02012 0.11340 0.08226 
1403636941.711666432 0.50343 -0.57390 -0.01063 -0.00272 0.02120 0.07734 -0.02010 0.11339 0.08226 
1403636941.916666624 0.48587 -0.56888 0.12070 -0.00272 0.02120 0.07734 -0.02002 0.11255 0.08249 
1403636942.106666496 0.49330 -0.55987 0.20076 -0.00272 0.02120 0.07734 -0.02008 0.11293 0.08224 
1403636942.316666624 0.50844 -0.58951 0.07305 -0.00272 0.02120 0.07734 -0.01992 0.11289 0.08236 
1403636942.446666496 0.52580 -0.58716 -0.01888 -0.00271 0.02119 0.07734 -0.01997 0.11326 0.08216 
1403636942.621666560 0.57044 -0.59499 -0.11050 -0.00270 0.02119 0.07734 -0.01971 0.11348 0.08270 
1403636942.776666624 0.62014 -0.56988 -0.13293 -0.00270 0.02119 0.07734 -0.01974 0.11384 0.08258 
1403636942.976666624 0.63002 -0.53901 0.03519 -0.00269 0.02119 0.07734 -0.01970 0.11416 0.08262 
1403636943.106666496 0.63054 -0.53595 0.11852 -0.00269 0.02119 0.07734 -0.01975 0.11352 0.08260 
1403636943.311666432 0.59944 -0.54914 0.02194 -0.00269 0.02120 0.07735 -0.02005 0.11417 0.08188 
1403636943.496666624 0.56227 -0.54945 -0.08193 -0.00269 0.02121 0.07735 -0.01980 0.11352 0.08247 
1403636943.706666496 0.51416 -0.57723 -0.20065 -0.00267 0.02121 0.07735 -0.01989 0.11497 0.08225 
1403636943.876666624 0.45478 -0.59746 -0.30151 -0.00267 0.02121 0.07734 -0.01999 0.11488 0.08203 
1403636944.31666432 0.43663 -0.57173 -0.34297 -0.00267 0.02122 0.07734 -0.01986 0.11326 0.08245 
1403636944.216666624 0.43745 -0.45429 -0.19717 -0.00268 0.02122 0.07734 -0.01978 0.11166 0.08285 
1403636944.421666560 0.45397 -0.28298 -0.02367 -0.00268 0.02123 0.07734 -0.01997 0.11232 0.08243 
1403636944.576666624 0.42347 -0.23340 0.07664 -0.00268 0.02123 0.07734 -0.01995 0.11236 0.08243 
1403636944.806666496 0.27640 -0.21510 0.16672 -0.00266 0.02123 0.07734 -0.02002 0.11338 0.08232 
1403636945.56666624 0.18903 -0.21906 0.08278 -0.00266 0.02123 0.07734 -0.02014 0.11367 0.08218 
1403636945.216666624 0.14919 -0.26484 -0.05077 -0.00267 0.02124 0.07735 -0.02002 0.11163 0.08265 
1403636945.366666496 0.11322 -0.29437 0.02019 -0.00266 0.02123 0.07735 -0.01983 0.11151 0.08303 
1403636945.611666432 0.04603 -0.33535 0.00314 -0.00267 0.02123 0.07735 -0.01977 0.11213 0.08311 
1403636945.766666496 0.01590 -0.30220 -0.10685 -0.00267 0.02123 0.07736 -0.01977 0.11240 0.08306 
1403636946.31666432 -0.04429 -0.14203 -0.18260 -0.00266 0.02123 0.07735 -0.01971 0.11203 0.08314 
1403636946.216666624 -0.07944 -0.11003 -0.30817 -0.00267 0.02123 0.07736 -0.01967 0.11249 0.08316 
1403636946.366666496 -0.11143 -0.10726 -0.40056 -0.00267 0.02122 0.07736 -0.01965 0.11225 0.08323 
1403636946.611666432 -0.17175 -0.15178 -0.43573 -0.00267 0.02122 0.07736 -0.01954 0.11213 0.08341 
1403636946.761666560 -0.19409 -0.17187 -0.33046 -0.00267 0.02122 0.07736 -0.01954 0.11213 0.08341 
1403636947.16666624 -0.03912 -0.20064 -0.35687 -0.00268 0.02121 0.07737 -0.01958 0.11221 0.08329 
1403636947.206666496 0.14517 -0.21966 -0.31093 -0.00268 0.02121 0.07737 -0.01995 0.11451 0.08223 
1403636947.361666560 0.18537 -0.12911 -0.18227 -0.00267 0.02121 0.07736 -0.01995 0.11427 0.08225 
1403636947.496666624 0.19838 0.01855 -0.04761 -0.00267 0.02121 0.07736 -0.02007 0.11465 0.08194 
1403636947.681666560 0.22515 0.14304 0.03574 -0.00267 0.02120 0.07735 -0.02001 0.11488 0.08206 
1403636947.956666624 0.18311 0.25834 -0.11004 -0.00267 0.02120 0.07736 -0.02012 0.11468 0.08202 
1403636948.161666560 0.10538 0.33113 -0.17522 -0.00267 0.02120 0.07736 -0.02017 0.11471 0.08202 
1403636948.311666432 0.05289 0.39204 -0.22915 -0.00267 0.02120 0.07735 -0.02015 0.11459 0.08206 
1403636948.511666432 -0.02805 0.47318 -0.25539 -0.00265 0.02120 0.07734 -0.02015 0.11461 0.08216 
1403636948.686666496 -0.21767 0.52860 -0.20508 -0.00265 0.02120 0.07734 -0.02016 0.11483 0.08211 
1403636948.861666560 -0.39371 0.55015 -0.07218 -0.00264 0.02120 0.07734 -0.02014 0.11461 0.08224 
1403636949.61666560 -0.41053 0.51899 -0.08529 -0.00265 0.02120 0.07735 -0.02010 0.11435 0.08236 
1403636949.276666624 -0.39024 0.45638 -0.17880 -0.00264 0.02121 0.07734 -0.02030 0.11363 0.08207 
1403636949.356666624 -0.38652 0.42695 -0.21960 -0.00264 0.02121 0.07734 -0.02035 0.11367 0.08201 
1403636949.451666432 -0.37864 0.39163 -0.26402 -0.00264 0.02120 0.07734 -0.02033 0.11386 0.08200 
1403636949.666666496 -0.33316 0.31900 -0.16031 -0.00264 0.02119 0.07735 -0.02045 0.11377 0.08185 
1403636949.906666496 -0.27027 0.27414 -0.03000 -0.00266 0.02119 0.07735 -0.02052 0.11367 0.08176 
1403636950.116666624 -0.21490 0.35494 0.02120 -0.00266 0.02119 0.07735 -0.02058 0.11374 0.08162 
1403636950.316666624 -0.18079 0.42027 -0.07434 -0.00264 0.02118 0.07734 -0.02045 0.11334 0.08207 
1403636950.481666560 -0.17494 0.45288 -0.13471 -0.00265 0.02118 0.07734 -0.02054 0.11319 0.08200 
1403636950.631666432 -0.23792 0.44486 -0.11284 -0.00264 0.02117 0.07734 -0.02064 0.11332 0.08194 
1403636950.911666432 -0.33419 0.39767 0.08285 -0.00265 0.02118 0.07734 -0.02073 0.11295 0.08197 
1403636951.76666624 -0.34253 0.34759 0.20036 -0.00266 0.02118 0.07735 -0.02070 0.11287 0.08203 
1403636951.276666624 -0.29978 0.32928 0.07421 -0.00267 0.02118 0.07735 -0.02059 0.11265 0.08213 
1403636951.531666432 -0.25113 0.40992 -0.04385 -0.00267 0.02120 0.07734 -0.02031 0.11243 0.08242 
1403636951.806666496 -0.24363 0.56066 0.05408 -0.00266 0.02120 0.07733 -0.02023 0.11309 0.08241 
1403636952.26666496 -0.29391 0.57861 0.06303 -0.00267 0.02120 0.07734 -0.02020 0.11306 0.08235 
1403636952.211666432 -0.33846 0.57630 -0.06233 -0.00267 0.02121 0.07733 -0.02007 0.11321 0.08242 
1403636952.461666560 -0.33219 0.50370 -0.20029 -0.00267 0.02120 0.07733 -0.02000 0.11338 0.08248 
1403636952.666666496 -0.33219 0.42265 -0.15683 -0.00266 0.02121 0.07732 -0.02006 0.11394 0.08221 
1403636952.881666560 -0.35303 0.36001 -0.11463 -0.00266 0.02121 0.07732 -0.01994 0.11355 0.08246 
1403636953.81666560 -0.34071 0.38208 -0.23565 -0.00265 0.02121 0.07732 -0.02005 0.11380 0.08200 
1403636953.276666624 -0.26629 0.43307 -0.27452 -0.00265 0.02122 0.07732 -0.02041 0.11435 0.08118 
1403636953.426666496 -0.21800 0.45560 -0.16715 -0.00265 0.02123 0.07732 -0.02072 0.11530 0.08042 
1403636953.716666624 -0.22429 0.46674 0.01981 -0.00265 0.02123 0.07733 -0.02085 0.11578 0.08004 
1403636953.931666432 -0.31307 0.55088 0.19125 -0.00265 0.02124 0.07732 -0.02008 0.11446 0.08191 
1403636954.111666432 -0.36491 0.58142 0.13035 -0.00265 0.02125 0.07733 -0.02042 0.11551 0.08110 
1403636954.271666432 -0.38775 0.63208 0.08824 -0.00265 0.02125 0.07732 -0.02040 0.11506 0.08098 
1403636954.511666432 -0.43626 0.69443 0.20705 -0.00265 0.02125 0.07732 -0.01962 0.11331 0.08273 
1403636954.696666624 -0.44374 0.75876 -0.00427 -0.00265 0.02125 0.07732 -0.01949 0.11324 0.08286 
1403636954.956666624 -0.48589 0.75994 -0.21767 -0.00265 0.02124 0.07732 -0.01951 0.11477 0.08265 
1403636955.111666432 -0.50694 0.72223 -0.20434 -0.00265 0.02124 0.07731 -0.01948 0.11525 0.08248 
1403636955.276666624 -0.53497 0.71500 -0.08458 -0.00266 0.02124 0.07732 -0.01923 0.11387 0.08309 
1403636955.516666624 -0.57724 0.69797 -0.09058 -0.00266 0.02123 0.07732 -0.01923 0.11520 0.08293 
1403636955.711666432 -0.62389 0.66606 -0.14603 -0.00265 0.02123 0.07731 -0.01925 0.11561 0.08289 
1403636955.916666624 -0.66812 0.65495 -0.00647 -0.00265 0.02123 0.07731 -0.01917 0.11506 0.08319 
1403636956.176666624 -0.59115 0.58840 0.11230 -0.00266 0.02123 0.07731 -0.01953 0.11496 0.08255 
1403636956.316666624 -0.50619 0.53618 0.02054 -0.00266 0.02122 0.07730 -0.01960 0.11399 0.08257 
1403636956.511666432 -0.50112 0.50766 -0.07510 -0.00266 0.02122 0.07730 -0.01963 0.11439 0.08252 
1403636956.691666432 -0.52960 0.43747 -0.17824 -0.00266 0.02122 0.07729 -0.01950 0.11348 0.08295 
1403636956.821666560 -0.48843 0.35920 -0.10843 -0.00266 0.02122 0.07729 -0.01970 0.11357 0.08251 
1403636957.6666496 -0.38807 0.29505 0.04632 -0.00266 0.02122 0.07730 -0.01977 0.11359 0.08245 
1403636957.216666624 -0.34990 0.24113 0.18354 -0.00266 0.02123 0.07729 -0.01979 0.11427 0.08241 
1403636957.511666432 -0.33243 0.20989 -0.01372 -0.00268 0.02124 0.07730 -0.01983 0.11430 0.08237 
1403636957.761666560 -0.33685 0.18871 -0.17397 -0.00266 0.02123 0.07729 -0.01992 0.11446 0.08220 
1403636957.906666496 -0.31256 0.17362 -0.21585 -0.00267 0.02124 0.07729 -0.01977 0.11331 0.08264 
1403636958.106666496 -0.25058 0.18447 -0.05942 -0.00267 0.02124 0.07729 -0.01975 0.11339 0.08264 
1403636958.256666624 -0.19337 0.18045 0.09906 -0.00268 0.02124 0.07730 -0.01981 0.11342 0.08249 
1403636958.406666496 -0.14318 0.19537 0.21928 -0.00267 0.02124 0.07730 -0.01981 0.11340 0.08251 
1403636958.626666496 -0.10829 0.20641 0.12807 -0.00267 0.02124 0.07730 -0.01971 0.11270 0.08262 
1403636958.806666496 -0.11151 0.21983 0.05836 -0.00267 0.02124 0.07730 -0.01981 0.11304 0.08225 
1403636959.16666624 -0.14022 0.23715 -0.07198 -0.00267 0.02124 0.07732 -0.01989 0.11397 0.08188 
1403636959.141666560 -0.16169 0.24232 -0.14387 -0.00267 0.02124 0.07733 -0.01990 0.11392 0.08184 
1403636959.306666496 -0.19359 0.25212 -0.22394 -0.00267 0.02124 0.07732 -0.01997 0.11475 0.08160 
1403636959.561666560 -0.27236 0.19695 -0.29587 -0.00266 0.02123 0.07732 -0.02002 0.11463 0.08149 
1403636959.766666496 -0.30683 0.20365 -0.13617 -0.00267 0.02124 0.07732 -0.01998 0.11570 0.08137 
1403636959.931666432 -0.27598 0.14860 -0.03061 -0.00265 0.02124 0.07731 -0.01990 0.11628 0.08153 
1403636960.111666432 -0.28892 0.15475 0.05806 -0.00266 0.02123 0.07732 -0.01976 0.11717 0.08182 
1403636960.306666496 -0.32969 0.15204 -0.04729 -0.00265 0.02123 0.07732 -0.01978 0.11686 0.08184 
1403636960.466666496 -0.39673 0.11421 -0.09331 -0.00267 0.02123 0.07732 -0.01981 0.11693 0.08197 
1403636960.626666496 -0.44636 0.03195 -0.15577 -0.00267 0.02122 0.07732 -0.01978 0.11740 0.08214 
1403636960.761666560 -0.46723 -0.03591 -0.21188 -0.00267 0.02122 0.07732 -0.01971 0.11744 0.08237 
1403636960.956666624 -0.47622 -0.08718 -0.20679 -0.00266 0.02122 0.07731 -0.01970 0.11779 0.08246 
1403636961.66666496 -0.46228 -0.11292 -0.14183 -0.00267 0.02121 0.07732 -0.01970 0.11778 0.08246 
1403636961.271666432 -0.43164 -0.12414 0.00322 -0.00268 0.02121 0.07732 -0.01972 0.11775 0.08251 
1403636961.476666624 -0.36444 -0.14617 0.16726 -0.00267 0.02121 0.07732 -0.01976 0.11724 0.08252 
1403636961.631666432 -0.34702 -0.16703 0.27666 -0.00268 0.02120 0.07732 -0.01974 0.11717 0.08258 
1403636961.836666624 -0.30902 -0.18462 0.28645 -0.00267 0.02119 0.07732 -0.02019 0.13086 0.08080 
1403636961.986666496 -0.30334 -0.21081 0.19852 -0.00266 0.02118 0.07732 -0.02026 0.13065 0.08069 
1403636962.161666560 -0.27463 -0.22243 0.19081 -0.00265 0.02118 0.07732 -0.02025 0.13064 0.08077 
1403636962.326666496 -0.24922 -0.25773 0.27323 -0.00265 0.02118 0.07732 -0.02031 0.13075 0.08068 
1403636962.516666624 -0.24358 -0.28491 0.39418 -0.00263 0.02118 0.07731 -0.02052 0.13067 0.08026 
1403636962.716666624 -0.19734 -0.33735 0.31854 -0.00263 0.02118 0.07731 -0.02051 0.13080 0.08032 
1403636962.961666560 -0.15218 -0.45090 0.15657 -0.00264 0.02118 0.07731 -0.02061 0.13044 0.08025 
1403636963.211666432 -0.06304 -0.50862 0.01061 -0.00263 0.02118 0.07731 -0.02087 0.13012 0.07980 
1403636963.366666496 -0.01474 -0.51494 -0.03641 -0.00263 0.02118 0.07732 -0.02089 0.13003 0.07982 
1403636963.566666496 0.06879 -0.49413 -0.00583 -0.00263 0.02118 0.07732 -0.02098 0.12990 0.07967 
1403636963.676666624 0.06144 -0.49962 0.07709 -0.00263 0.02118 0.07732 -0.02096 0.13021 0.07967 
1403636963.861666560 0.11248 -0.51110 0.21629 -0.00263 0.02118 0.07732 -0.02101 0.13014 0.07964 
1403636964.6666496 0.14503 -0.52850 0.29963 -0.00263 0.02119 0.07732 -0.02114 0.12978 0.07951 
1403636964.256666624 0.21614 -0.55538 0.25022 -0.00264 0.02119 0.07732 -0.02113 0.12979 0.07956 
1403636964.466666496 0.24325 -0.59949 0.12947 -0.00263 0.02119 0.07733 -0.02125 0.12905 0.07947 
1403636964.716666624 0.30165 -0.68659 0.01139 -0.00263 0.02119 0.07732 -0.02118 0.12889 0.07960 
1403636965.6666496 0.41857 -0.85315 0.08634 -0.00264 0.02119 0.07732 -0.02129 0.12576 0.07956 
1403636965.181666560 0.48669 -0.89095 0.21478 -0.00264 0.02119 0.07732 -0.02132 0.12599 0.07953 
1403636965.351666432 0.47710 -0.92709 0.28841 -0.00264 0.02120 0.07732 -0.02138 0.12548 0.07949 
1403636965.611666432 0.23090 -1.00575 0.58659 -0.00264 0.02121 0.07733 -0.02135 0.12294 0.07961 
1403636965.906666496 0.18284 -0.91116 0.39483 -0.00264 0.02121 0.07733 -0.02127 0.12324 0.07973 
1403636966.161666560 0.24126 -0.90398 0.22792 -0.00264 0.02120 0.07733 -0.02121 0.12436 0.07975 
1403636966.456666624 0.34207 -0.90252 0.03865 -0.00263 0.02120 0.07733 -0.02118 0.12553 0.07974 
1403636966.706666496 0.38792 -0.73639 -0.07146 -0.00264 0.02120 0.07733 -0.02099 0.12451 0.08002 
1403636966.856666624 0.41779 -0.67851 0.02880 -0.00264 0.02120 0.07733 -0.02092 0.12317 0.08015 
1403636967.46666496 0.47411 -0.57376 0.05889 -0.00265 0.02120 0.07731 -0.02042 0.12355 0.08100 
1403636967.156666624 0.49701 -0.54936 -0.01128 -0.00265 0.02120 0.07731 -0.02042 0.12355 0.08100 
1403636967.411666432 0.57448 -0.53003 -0.02971 -0.00264 0.02119 0.07731 -0.02026 0.12572 0.08104 
1403636967.591666432 0.65003 -0.50667 0.10240 -0.00264 0.02120 0.07731 -0.02027 0.12494 0.08104 
1403636967.766666496 0.70281 -0.51710 -0.11849 -0.00264 0.02119 0.07731 -0.02013 0.12529 0.08129 
1403636968.56666624 0.79679 -0.51997 -0.36882 -0.00264 0.02120 0.07731 -0.02008 0.12555 0.08129 
1403636968.411666432 0.92839 -0.45893 -0.15238 -0.00265 0.02121 0.07731 -0.02043 0.12580 0.08032 
1403636968.576666624 0.97379 -0.44315 -0.02608 -0.00264 0.02121 0.07730 -0.02035 0.12635 0.08040 
1403636968.706666496 1.00426 -0.44625 0.00362 -0.00264 0.02122 0.07730 -0.02012 0.12677 0.08084 
1403636968.956666624 1.01965 -0.50051 0.05907 -0.00264 0.02123 0.07730 -0.01999 0.12702 0.08099 
1403636969.91666432 1.05634 -0.51178 0.14554 -0.00264 0.02123 0.07730 -0.02012 0.12731 0.08061 
1403636969.306666496 1.08594 -0.48507 0.24531 -0.00266 0.02123 0.07731 -0.01978 0.12714 0.08128 
1403636969.511666432 0.99123 -0.49589 0.25469 -0.00266 0.02122 0.07731 -0.01967 0.12663 0.08151 
1403636969.711666432 0.90271 -0.50221 0.13343 -0.00266 0.02122 0.07730 -0.01969 0.12611 0.08154 
1403636969.871666432 0.83914 -0.51618 0.06029 -0.00267 0.02122 0.07730 -0.01953 0.12639 0.08190 
1403636970.56666624 0.77449 -0.53853 -0.01765 -0.00266 0.02121 0.07730 -0.01957 0.12731 0.08183 
1403636970.271666432 0.76457 -0.52391 -0.06132 -0.00266 0.02121 0.07730 -0.01979 0.12625 0.08133 
1403636970.506666496 0.75718 -0.52493 -0.05615 -0.00267 0.02121 0.07730 -0.01954 0.12670 0.08166 
1403636970.761666560 0.61446 -0.57216 0.11932 -0.00265 0.02121 0.07730 -0.01971 0.12648 0.08136 
1403636971.11666432 0.40303 -0.61900 0.03046 -0.00265 0.02121 0.07730 -0.01966 0.12584 0.08150 
1403636971.271666432 0.23576 -0.54893 -0.11909 -0.00264 0.02121 0.07729 -0.01930 0.12610 0.08224 
1403636971.411666432 0.18019 -0.43066 -0.18558 -0.00265 0.02121 0.07730 -0.01916 0.12490 0.08265 
1403636971.661666560 0.11392 -0.25600 -0.28822 -0.00265 0.02120 0.07729 -0.01984 0.12594 0.08100 
1403636971.871666432 0.11936 -0.18646 -0.31074 -0.00265 0.02120 0.07729 -0.02001 0.12547 0.08078 
1403636972.116666624 0.18032 -0.09628 -0.17826 -0.00266 0.02120 0.07729 -0.01982 0.12646 0.08147 
1403636972.416666624 0.12482 -0.03482 0.05287 -0.00265 0.02120 0.07729 -0.01972 0.12746 0.08177 
1403636972.616666624 0.08498 0.00622 0.18386 -0.00265 0.02120 0.07729 -0.02037 0.12705 0.08070 
1403636972.856666624 0.09228 0.00689 0.04680 -0.00265 0.02120 0.07729 -0.02019 0.12706 0.08144 
1403636973.6666496 0.09433 0.03000 -0.04759 -0.00265 0.02120 0.07728 -0.02006 0.12717 0.08195 
1403636973.256666624 0.08738 0.03275 -0.15740 -0.00264 0.02120 0.07728 -0.01993 0.12724 0.08259 
1403636973.556666624 0.05530 -0.00036 -0.25912 -0.00264 0.02120 0.07727 -0.01990 0.12777 0.08275 
1403636973.811666432 0.06433 -0.02453 -0.16106 -0.00263 0.02120 0.07727 -0.02008 0.12731 0.08246 
1403636974.11666432 0.10827 -0.02343 -0.05149 -0.00264 0.02120 0.07726 -0.02017 0.12704 0.08226 
1403636974.126666496 0.08818 0.00762 -0.04807 -0.00264 0.02119 0.07726 -0.02101 0.12865 0.08007 
1403636974.266666496 0.04606 0.03710 -0.11898 -0.00265 0.02120 0.07726 -0.02107 0.12838 0.07994 
1403636974.381666560 0.04314 0.04109 -0.18496 -0.00266 0.02120 0.07727 -0.02113 0.12841 0.07978 
1403636974.511666432 0.04933 0.03530 -0.24674 -0.00266 0.02120 0.07727 -0.02117 0.12834 0.07975 
1403636974.611666432 0.03788 0.01886 -0.27363 -0.00264 0.02120 0.07726 -0.02112 0.12829 0.07991 
1403636974.811666432 0.08142 -0.00713 -0.14887 -0.00262 0.02120 0.07725 -0.02112 0.12861 0.07999 
1403636975.26666496 0.06312 0.04142 0.01536 -0.00261 0.02120 0.07724 -0.02116 0.12839 0.07992 
1403636975.166666496 0.02542 0.08671 0.03151 -0.00260 0.02120 0.07724 -0.02112 0.12897 0.08002 
1403636975.326666496 0.00130 0.09190 -0.05130 -0.00261 0.02120 0.07724 -0.02130 0.12903 0.07969 
1403636975.456666624 0.01900 0.07025 -0.14783 -0.00262 0.02120 0.07724 -0.02130 0.12920 0.07968 
1403636975.671666432 -0.02249 0.05397 -0.01995 -0.00262 0.02121 0.07723 -0.02132 0.13216 0.07961 
1403636975.856666624 -0.08422 0.07211 0.09753 -0.00262 0.02121 0.07724 -0.02139 0.13234 0.07949 
1403636975.971666432 -0.12277 0.08872 0.06733 -0.00261 0.02122 0.07723 -0.02151 0.13251 0.07930 
1403636976.211666432 -0.10374 0.12224 -0.05548 -0.00261 0.02122 0.07723 -0.02140 0.13278 0.07949 
1403636976.421666560 -0.00164 0.22004 -0.15890 -0.00260 0.02122 0.07723 -0.02144 0.13275 0.07938 
1403636976.601666560 0.06058 0.25277 -0.24059 -0.00259 0.02122 0.07723 -0.02145 0.13242 0.07943 
1403636976.856666624 0.06733 0.23430 -0.36104 -0.00260 0.02122 0.07724 -0.02132 0.13448 0.07959 
1403636977.156666624 0.04350 0.32152 -0.07142 -0.00260 0.02121 0.07724 -0.02117 0.13386 0.07993 
1403636977.386666496 0.04575 0.37722 -0.05205 -0.00260 0.02121 0.07724 -0.02113 0.13284 0.08009 
1403636977.566666496 0.06334 0.37309 -0.16279 -0.00260 0.02121 0.07724 -0.02093 0.13164 0.08050 
1403636977.756666624 0.09402 0.38345 -0.26060 -0.00260 0.02121 0.07724 -0.02093 0.13148 0.08058 
1403636977.961666560 0.14329 0.39183 -0.20442 -0.00260 0.02121 0.07724 -0.02089 0.13105 0.08062 
1403636978.211666432 0.18622 0.40231 -0.00728 -0.00260 0.02121 0.07724 -0.02101 0.12938 0.08035 
1403636978.416666624 0.17984 0.39829 0.14709 -0.00261 0.02121 0.07723 -0.02101 0.12953 0.08012 
1403636978.596666624 0.12903 0.41000 0.08367 -0.00260 0.02121 0.07723 -0.02093 0.12929 0.08023 
1403636978.861666560 -0.00394 0.52154 -0.03350 -0.00261 0.02121 0.07723 -0.02082 0.12929 0.08025 
1403636979.76666624 -0.07788 0.55321 -0.16197 -0.00260 0.02121 0.07723 -0.02078 0.12956 0.08015 
1403636979.361666560 -0.13673 0.49860 -0.19087 -0.00261 0.02121 0.07723 -0.02071 0.12943 0.08023 
1403636979.486666496 -0.16829 0.49143 -0.10459 -0.00260 0.02121 0.07723 -0.02066 0.13003 0.08019 
1403636979.611666432 -0.22010 0.52652 -0.03090 -0.00260 0.02122 0.07723 -0.02067 0.13013 0.08013 
1403636979.766666496 -0.29378 0.56410 0.05251 -0.00260 0.02121 0.07722 -0.02067 0.13032 0.08008 
1403636980.6666496 -0.38677 0.59342 0.01673 -0.00259 0.02122 0.07722 -0.02068 0.13051 0.08013 
1403636980.156666624 -0.41170 0.57574 -0.07556 -0.00260 0.02122 0.07721 -0.02075 0.13057 0.08009 
1403636980.421666560 -0.45341 0.55454 -0.19136 -0.00260 0.02123 0.07722 -0.02084 0.13077 0.08012 
1403636980.591666432 -0.44008 0.51589 -0.23725 -0.00260 0.02123 0.07722 -0.02090 0.13115 0.08009 
1403636980.671666432 -0.43198 0.51674 -0.18628 -0.00259 0.02123 0.07721 -0.02091 0.13118 0.08012 
1403636980.816666624 -0.41100 0.51202 -0.08932 -0.00260 0.02123 0.07722 -0.02093 0.13114 0.08007 
1403636981.106666496 -0.46989 0.49910 -0.06321 -0.00260 0.02123 0.07722 -0.02097 0.13133 0.08003 
1403636981.326666496 -0.44283 0.45325 -0.15388 -0.00260 0.02122 0.07722 -0.02085 0.13133 0.08031 
1403636981.561666560 -0.34026 0.46082 -0.17224 -0.00260 0.02121 0.07722 -0.02083 0.13124 0.08048 
1403636981.811666432 -0.36657 0.44243 0.01326 -0.00259 0.02121 0.07721 -0.02082 0.13132 0.08057 
1403636981.971666432 -0.43489 0.45176 0.09232 -0.00258 0.02120 0.07720 -0.02077 0.13088 0.08069 
1403636982.61666560 -0.47628 0.47156 0.04790 -0.00258 0.02120 0.07721 -0.02104 0.12958 0.08013 
1403636982.276666624 -0.57791 0.55947 -0.01851 -0.00259 0.02120 0.07721 -0.02088 0.12960 0.08066 
1403636982.466666496 -0.60151 0.66281 0.00894 -0.00259 0.02120 0.07721 -0.02087 0.12944 0.08069 
1403636982.656666624 -0.58623 0.73903 0.09309 -0.00259 0.02120 0.07721 -0.02098 0.12912 0.08045 
1403636982.816666624 -0.53656 0.76099 0.05870 -0.00261 0.02119 0.07721 -0.02108 0.12920 0.08011 
1403636983.61666560 -0.54936 0.78887 -0.09825 -0.00260 0.02119 0.07721 -0.02105 0.12954 0.08022 
1403636983.281666560 -0.54323 0.77872 -0.19419 -0.00260 0.02118 0.07721 -0.02114 0.12898 0.08044 
1403636983.506666496 -0.53381 0.72542 -0.20240 -0.00261 0.02118 0.07721 -0.02124 0.12905 0.08021 
1403636983.661666560 -0.54040 0.68186 -0.09704 -0.00261 0.02118 0.07721 -0.02132 0.12922 0.08011 
1403636983.906666496 -0.60686 0.65563 0.09006 -0.00261 0.02118 0.07722 -0.02149 0.12961 0.07985 
1403636984.76666624 -0.66388 0.66141 0.14900 -0.00261 0.02118 0.07722 -0.02137 0.12915 0.08032 
1403636984.176666624 -0.69003 0.67503 0.10171 -0.00261 0.02118 0.07721 -0.02143 0.12914 0.08024 
1403636984.326666496 -0.73068 0.66986 -0.01701 -0.00261 0.02118 0.07721 -0.02157 0.12915 0.08000 
1403636984.506666496 -0.76675 0.64360 -0.13523 -0.00261 0.02119 0.07721 -0.02161 0.12906 0.08000 
1403636984.706666496 -0.79185 0.58780 -0.05290 -0.00261 0.02119 0.07721 -0.02190 0.12896 0.07944 
1403636984.906666496 -0.77429 0.53969 0.01947 -0.00261 0.02120 0.07721 -0.02219 0.12869 0.07880 
1403636985.81666560 -0.74956 0.51087 0.05327 -0.00261 0.02120 0.07721 -0.02236 0.12881 0.07850 
1403636985.231666432 -0.75348 0.49213 -0.11991 -0.00260 0.02121 0.07720 -0.02180 0.12857 0.08003 
1403636985.506666496 -0.80771 0.44385 -0.08459 -0.00260 0.02121 0.07720 -0.02213 0.12891 0.07947 
1403636985.721666560 -0.86619 0.40491 0.07664 -0.00260 0.02123 0.07720 -0.02258 0.12865 0.07876 
1403636986.6666496 -0.85434 0.23112 -0.00132 -0.00260 0.02123 0.07720 -0.02258 0.12846 0.07880 
1403636986.206666496 -0.78872 0.04166 -0.14888 -0.00259 0.02123 0.07720 -0.02242 0.12817 0.07920 
1403636986.381666560 -0.79344 -0.04581 -0.18161 -0.00259 0.02123 0.07721 -0.02217 0.12791 0.07983 
1403636986.556666624 -0.80224 -0.10540 -0.10428 -0.00259 0.02123 0.07721 -0.02219 0.12820 0.07976 
1403636986.731666432 -0.77097 -0.10813 0.06136 -0.00260 0.02123 0.07721 -0.02207 0.12837 0.08001 
1403636987.6666496 -0.68476 -0.07284 0.28804 -0.00260 0.02123 0.07721 -0.02210 0.12828 0.07995 
1403636987.106666496 -0.66475 -0.08259 0.29102 -0.00260 0.02123 0.07721 -0.02218 0.12775 0.07983 
1403636987.186666496 -0.63575 -0.09116 0.25722 -0.00260 0.02123 0.07721 -0.02203 0.12769 0.08025 
1403636987.311666432 -0.60254 -0.11246 0.15385 -0.00260 0.02122 0.07721 -0.02196 0.12743 0.08053 
1403636987.516666624 -0.56516 -0.16193 0.06428 -0.00262 0.02122 0.07721 -0.02191 0.12691 0.08086 
1403636987.656666624 -0.51591 -0.22105 0.00736 -0.00262 0.02122 0.07721 -0.02194 0.12687 0.08083 
1403636987.786666496 -0.47433 -0.28583 0.05002 -0.00261 0.02122 0.07721 -0.02198 0.12693 0.08075 
1403636987.966666496 -0.39557 -0.35672 0.15072 -0.00260 0.02122 0.07721 -0.02191 0.12676 0.08102 
1403636988.166666496 -0.31081 -0.35889 0.07135 -0.00260 0.02122 0.07720 -0.02193 0.12664 0.08109 
1403636988.366666496 -0.18355 -0.31289 0.08673 -0.00260 0.02121 0.07720 -0.02232 0.12683 0.08041 
1403636988.611666432 0.06965 -0.34358 0.23213 -0.00260 0.02121 0.07720 -0.02228 0.12648 0.08056 
1403636988.861666560 0.29256 -0.37609 0.11874 -0.00260 0.02121 0.07720 -0.02238 0.12622 0.08038 
1403636989.66666496 0.50921 -0.40146 0.02968 -0.00260 0.02122 0.07720 -0.02232 0.12598 0.08053 
1403636989.256666624 0.71600 -0.44115 0.03270 -0.00260 0.02122 0.07720 -0.02233 0.12616 0.08050 
1403636989.361666560 0.79130 -0.44314 0.12140 -0.00260 0.02122 0.07720 -0.02238 0.12650 0.08036 
1403636989.566666496 0.84244 -0.43888 0.25612 -0.00260 0.02121 0.07720 -0.02281 0.12740 0.07924 
1403636989.726666496 0.84458 -0.44756 0.18216 -0.00260 0.02121 0.07720 -0.02265 0.12809 0.07953 
1403636989.881666560 0.82035 -0.46028 0.09228 -0.00260 0.02121 0.07720 -0.02255 0.12790 0.07971 
1403636990.56666624 0.82687 -0.49254 0.07874 -0.00260 0.02120 0.07720 -0.02257 0.12814 0.07965 
1403636990.211666432 0.83667 -0.52598 0.17794 -0.00261 0.02121 0.07721 -0.02252 0.12797 0.07976 
1403636990.456666624 0.85485 -0.60432 0.22286 -0.00260 0.02120 0.07720 -0.02265 0.12776 0.07943 
1403636990.761666560 0.81727 -0.61791 0.02676 -0.00260 0.02120 0.07720 -0.02262 0.12778 0.07947 
1403636990.931666432 0.77884 -0.62515 -0.07497 -0.00260 0.02120 0.07720 -0.02261 0.12750 0.07944 
1403636991.131666432 0.73587 -0.60829 -0.14148 -0.00260 0.02120 0.07720 -0.02267 0.12695 0.07930 
1403636991.366666496 0.71401 -0.64570 0.01643 -0.00260 0.02120 0.07720 -0.02267 0.12694 0.07925 
1403636991.656666624 0.62998 -0.61143 0.28959 -0.00262 0.02121 0.07720 -0.02254 0.12737 0.07949 
1403636991.861666560 0.61854 -0.52999 0.32660 -0.00262 0.02121 0.07720 -0.02265 0.12782 0.07901 
1403636992.21666560 0.63782 -0.47193 0.21200 -0.00263 0.02121 0.07720 -0.02247 0.12749 0.07914 
1403636992.161666560 0.64003 -0.44388 0.13918 -0.00263 0.02121 0.07720 -0.02241 0.12768 0.07915 
1403636992.416666624 0.62996 -0.45662 0.03153 -0.00262 0.02122 0.07719 -0.02222 0.12824 0.07924 
1403636992.581666560 0.58751 -0.44868 0.14220 -0.00262 0.02122 0.07720 -0.02211 0.12851 0.07919 
1403636992.866666496 0.49151 -0.42472 0.12231 -0.00262 0.02122 0.07719 -0.02220 0.12912 0.07880 
1403636993.6666496 0.43875 -0.42814 0.04366 -0.00261 0.02122 0.07719 -0.02163 0.12792 0.08016 
1403636993.166666496 0.38109 -0.45421 0.02607 -0.00261 0.02121 0.07719 -0.02155 0.12788 0.08007 
1403636993.361666560 0.35231 -0.46118 0.17478 -0.00261 0.02121 0.07719 -0.02161 0.12804 0.07982 
1403636993.606666496 0.38219 -0.49358 0.27730 -0.00261 0.02121 0.07719 -0.02158 0.12754 0.07993 
1403636993.956666624 0.39926 -0.47461 0.09441 -0.00262 0.02121 0.07720 -0.02143 0.12788 0.08034 
1403636994.206666496 0.42108 -0.53274 -0.01671 -0.00261 0.02121 0.07720 -0.02141 0.12785 0.08042 
1403636994.466666496 0.53102 -0.65576 -0.07535 -0.00261 0.02120 0.07720 -0.02141 0.12794 0.08046 
1403636994.656666624 0.59424 -0.72516 0.03537 -0.00262 0.02120 0.07720 -0.02132 0.12764 0.08071 
1403636994.811666432 0.63831 -0.73785 0.12664 -0.00262 0.02121 0.07720 -0.02122 0.12744 0.08099 
1403636994.961666560 0.66450 -0.68981 0.06468 -0.00261 0.02120 0.07720 -0.02123 0.12762 0.08090 
1403636995.161666560 0.70589 -0.66172 0.03147 -0.00261 0.02120 0.07720 -0.02119 0.12777 0.08095 
1403636995.356666624 0.76579 -0.69739 0.18408 -0.00261 0.02120 0.07720 -0.02142 0.12828 0.08047 
1403636995.561666560 0.80024 -0.72590 0.31199 -0.00262 0.02120 0.07720 -0.02138 0.12786 0.08065 
1403636995.781666560 0.81546 -0.73224 0.20786 -0.00262 0.02121 0.07720 -0.02134 0.12760 0.08071 
1403636995.861666560 0.82233 -0.71023 0.15775 -0.00262 0.02121 0.07719 -0.02136 0.12755 0.08067 
1403636996.71666432 0.83199 -0.62308 0.04800 -0.00262 0.02121 0.07719 -0.02140 0.12791 0.08055 
1403636996.151666432 0.82920 -0.59869 0.06191 -0.00262 0.02121 0.07719 -0.02140 0.12800 0.08054 
1403636996.361666560 0.78132 -0.56060 0.22718 -0.00261 0.02121 0.07719 -0.02150 0.12815 0.08030 
1403636996.606666496 0.72546 -0.55237 0.35319 -0.00261 0.02121 0.07719 -0.02153 0.12796 0.08025 
1403636996.816666624 0.69763 -0.54759 0.04965 -0.00261 0.02121 0.07719 -0.02157 0.12786 0.08015 
1403636996.976666624 0.65462 -0.52159 -0.04673 -0.00261 0.02121 0.07718 -0.02147 0.12721 0.08051 
1403636997.131666432 0.62966 -0.47994 -0.12384 -0.00261 0.02121 0.07718 -0.02159 0.12690 0.08028 
1403636997.316666624 0.57847 -0.42569 -0.14343 -0.00260 0.02122 0.07718 -0.02166 0.12694 0.08024 
1403636997.471666432 0.51559 -0.38322 -0.01228 -0.00259 0.02122 0.07718 -0.02168 0.12700 0.08023 
1403636997.581666560 0.46052 -0.35506 0.07868 -0.00259 0.02122 0.07718 -0.02167 0.12684 0.08032 
1403636997.811666432 0.34192 -0.32829 0.25681 -0.00258 0.02122 0.07718 -0.02160 0.12719 0.08042 
1403636998.16666624 0.26152 -0.30103 0.37795 -0.00258 0.02122 0.07718 -0.02171 0.12669 0.08025 
1403636998.306666496 0.16477 -0.25594 0.28147 -0.00258 0.02122 0.07718 -0.02151 0.12617 0.08092 
1403636998.561666560 0.09840 -0.21883 0.28033 -0.00258 0.02122 0.07718 -0.02159 0.12603 0.08088 
1403636998.716666624 0.08677 -0.19607 0.37588 -0.00258 0.02122 0.07718 -0.02159 0.12592 0.08084 
1403636998.961666560 0.14021 -0.23830 0.28247 -0.00258 0.02122 0.07718 -0.02170 0.12587 0.08073 
1403636999.231666432 0.16167 -0.32421 0.12969 -0.00258 0.02123 0.07718 -0.02201 0.12668 0.08018 
1403636999.561666560 0.13638 -0.37675 -0.00562 -0.00258 0.02124 0.07718 -0.02224 0.12597 0.07990 
1403636999.766666496 0.18418 -0.39741 -0.07247 -0.00258 0.02124 0.07718 -0.02229 0.12574 0.07976 
1403637000.6666496 0.26507 -0.43801 -0.06628 -0.00258 0.02124 0.07718 -0.02219 0.12587 0.08007 
1403637000.256666624 0.30786 -0.50189 0.07652 -0.00259 0.02124 0.07718 -0.02217 0.12583 0.08035 
1403637000.511666432 0.32479 -0.52307 -0.02332 -0.00257 0.02124 0.07718 -0.02237 0.12570 0.07992 
1403637000.701666560 0.34227 -0.56147 0.07434 -0.00257 0.02124 0.07718 -0.02240 0.12576 0.07994 
1403637000.961666560 0.34591 -0.59595 0.09957 -0.00257 0.02124 0.07718 -0.02255 0.12504 0.07993 
1403637001.211666432 0.39966 -0.61623 0.03065 -0.00257 0.02124 0.07718 -0.02260 0.12487 0.07983 
1403637001.411666432 0.44221 -0.62208 0.19412 -0.00258 0.02123 0.07718 -0.02260 0.12476 0.07988 
1403637001.581666560 0.44804 -0.59876 0.19895 -0.00258 0.02123 0.07717 -0.02264 0.12459 0.07977 
1403637001.756666624 0.45781 -0.59293 0.10658 -0.00257 0.02123 0.07717 -0.02252 0.12481 0.07986 
1403637001.956666624 0.46122 -0.58402 -0.00651 -0.00256 0.02123 0.07717 -0.02248 0.12490 0.07994 
1403637002.106666496 0.44638 -0.57816 -0.05769 -0.00256 0.02123 0.07717 -0.02239 0.12516 0.08010 
1403637002.271666432 0.43899 -0.55953 -0.10832 -0.00255 0.02123 0.07716 -0.02240 0.12494 0.07998 
1403637002.406666496 0.43457 -0.55504 -0.03243 -0.00255 0.02123 0.07716 -0.02244 0.12544 0.07983 
1403637002.561666560 0.39292 -0.55000 0.10332 -0.00256 0.02123 0.07716 -0.02239 0.12533 0.07987 
1403637002.761666560 0.40233 -0.56945 0.15693 -0.00255 0.02122 0.07716 -0.02234 0.12521 0.07995 
1403637002.956666624 0.39423 -0.58477 0.02254 -0.00256 0.02122 0.07716 -0.02233 0.12510 0.07992 
1403637003.126666496 0.37749 -0.57173 -0.06883 -0.00255 0.02123 0.07715 -0.02227 0.12502 0.07997 
1403637003.411666432 0.35311 -0.56188 -0.00944 -0.00255 0.02122 0.07715 -0.02222 0.12479 0.08001 
1403637003.626666496 0.36608 -0.55069 0.14914 -0.00255 0.02123 0.07715 -0.02212 0.12591 0.08008 
1403637003.731666432 0.37254 -0.53693 0.13136 -0.00256 0.02123 0.07715 -0.02208 0.12588 0.08017 
1403637003.911666432 0.38263 -0.52174 0.02342 -0.00256 0.02123 0.07716 -0.02201 0.12591 0.08024 
1403637004.161666560 0.35945 -0.50298 -0.11071 -0.00257 0.02123 0.07716 -0.02203 0.12567 0.08003 
1403637004.416666624 0.26979 -0.47134 0.08265 -0.00256 0.02122 0.07716 -0.02192 0.12635 0.08010 
1403637004.756666624 0.30703 -0.42606 0.20387 -0.00256 0.02123 0.07716 -0.02195 0.12599 0.08012 
1403637005.6666496 0.31856 -0.31477 -0.13355 -0.00256 0.02123 0.07716 -0.02200 0.12621 0.07999 
1403637005.261666560 0.28616 -0.24468 -0.21943 -0.00256 0.02123 0.07716 -0.02180 0.12617 0.08045 
1403637005.556666624 0.23116 -0.24123 -0.16556 -0.00255 0.02123 0.07716 -0.02167 0.12590 0.08068 
1403637005.706666496 0.21516 -0.24434 -0.00714 -0.00255 0.02123 0.07716 -0.02185 0.12597 0.08023 
1403637005.956666624 0.17201 -0.18762 0.07867 -0.00255 0.02123 0.07716 -0.02177 0.12506 0.08045 
1403637006.166666496 0.15776 -0.18049 0.02099 -0.00255 0.02123 0.07716 -0.02232 0.12596 0.07922 
1403637006.511666432 0.08147 -0.12209 -0.03169 -0.00256 0.02124 0.07717 -0.02205 0.12642 0.08023 
1403637006.761666560 0.02204 -0.04548 -0.07452 -0.00255 0.02124 0.07717 -0.02219 0.12592 0.07996 
1403637007.6666496 0.00846 -0.02438 -0.08741 -0.00255 0.02124 0.07716 -0.02220 0.12598 0.08005 
1403637007.266666496 0.01187 0.00704 -0.07765 -0.00254 0.02124 0.07715 -0.02196 0.12446 0.08064 
1403637007.481666560 0.06654 -0.03832 -0.11242 -0.00253 0.02124 0.07715 -0.02176 0.12407 0.08108 
1403637007.666666496 0.08986 -0.07889 -0.13817 -0.00253 0.02124 0.07715 -0.02140 0.12396 0.08193 
1403637007.861666560 0.02831 -0.10261 -0.08420 -0.00253 0.02124 0.07715 -0.02127 0.12388 0.08232 
1403637008.56666624 0.04188 -0.08495 -0.07451 -0.00252 0.02124 0.07714 -0.02188 0.12853 0.08052 
1403637008.216666624 0.05078 -0.08237 -0.05851 -0.00252 0.02123 0.07713 -0.02136 0.12923 0.08165 
1403637008.456666624 -0.06130 -0.09359 0.05997 -0.00252 0.02123 0.07713 -0.02187 0.13151 0.08026 
1403637008.661666560 -0.06547 -0.09048 0.01343 -0.00252 0.02123 0.07713 -0.02185 0.13151 0.08027 
1403637008.791666432 -0.04746 -0.08519 -0.02497 -0.00251 0.02123 0.07713 -0.02177 0.13230 0.08034 
1403637008.961666560 -0.06046 0.03207 -0.08041 -0.00251 0.02123 0.07713 -0.02185 0.13214 0.08020 
1403637009.206666496 -0.07141 0.15983 -0.16375 -0.00252 0.02123 0.07712 -0.02157 0.13054 0.08037 
1403637009.371666432 -0.08728 0.09287 0.02974 -0.00251 0.02124 0.07713 -0.02159 0.13162 0.08018 
1403637009.566666496 -0.02522 0.06872 -0.16204 -0.00251 0.02123 0.07713 -0.02152 0.13185 0.08022 
1403637009.811666432 -0.02035 -0.04797 0.00733 -0.00251 0.02122 0.07712 -0.02131 0.13062 0.08082 
1403637010.11666432 -0.00775 -0.03426 -0.00773 -0.00252 0.02122 0.07713 -0.02132 0.13051 0.08090 
1403637010.171666432 0.00564 -0.02044 -0.00400 -0.00252 0.02123 0.07712 -0.02126 0.13018 0.08107 
1403637010.316666624 0.02399 -0.00474 0.00391 -0.00251 0.02123 0.07712 -0.02117 0.12748 0.08145 
1403637010.606666496 0.04676 -0.00007 0.00136 -0.00251 0.02123 0.07711 -0.02120 0.12706 0.08143 
